2625 10
user405 -0.19259448 0.15845369 -0.30574742 0.89322615 0.07913781 -0.17421542 0.5890132 0.20104338 -0.3179386 0.24587052
user655 0.101538576 -0.09841004 -0.44823915 0.5739918 0.00792076 -0.48666996 0.30881488 0.5292646 -0.46086204 0.12644127
user450 -0.13984716 0.104211874 -0.04701408 0.5223312 0.37572855 -0.20682648 0.21694703 0.45962217 -0.2797107 -0.0432252
user416 -0.10376149 0.19424069 -0.08076079 0.5103172 0.33050635 -0.28458694 0.23895085 0.39132598 -0.33101866 -0.29145247
user417 -0.23878144 0.20587888 -0.27977526 0.6265178 0.19641 -0.26455688 0.15964615 0.34287527 -0.08907834 -0.30801427
user796 -0.15738393 0.16867709 -0.061060283 0.50884134 0.27132583 -0.31428012 0.21871601 0.4971104 -0.0895046 -0.18196979
user269 -0.17140946 0.009820042 -0.19880643 0.4190475 0.34534886 -0.3986875 0.17277957 0.46948004 -0.2174 0.045997754
user642 -0.109204404 0.3480629 -0.005715737 0.6781155 0.37495232 0.1468197 0.39985752 0.37696028 -0.20615146 -0.378827
user151 -0.14878932 -0.08106616 -0.076518364 0.43262127 0.5010973 -0.26621097 0.08293718 0.52733856 -0.25382903 0.15889159
movie50 -0.044972245 0.35125503 -0.20983958 0.281674 0.42522025 -0.15149818 -0.36309466 0.6344426 -0.1281163 -0.14715852
user457 -0.15597297 0.0636265 -0.16232035 0.48406577 0.3371007 -0.29515848 0.091063805 0.47740787 -0.102751136 -0.23198909
user805 -0.22354704 0.10241598 -0.31422138 0.61722714 0.20742838 -0.18350877 0.010039884 0.4677275 -0.10458215 -0.2661197
user389 -0.12908266 0.046753906 -0.02429908 0.4220326 0.51265293 -0.08822891 0.18976717 0.5472604 -0.26912776 0.13390587
user716 -0.18325524 -0.048507176 0.036318403 0.44201526 0.5708426 -0.12403811 0.016614016 0.59922034 -0.08165365 0.1477564
movie286 -0.23093429 0.3814587 0.060847018 0.30428812 0.37565932 -0.35730585 -0.33979613 0.6323644 -0.5440591 -0.033414766
user18 -0.15050144 -0.12045767 -0.13895328 0.37033668 0.47054404 -0.18796967 0.11218684 0.5885673 -0.38545948 0.13808638
user437 -0.2443863 -0.044217564 -0.3089936 0.50038874 0.30052486 -0.21704689 0.12841679 0.46191406 -0.32782355 0.009177832
movie288 -0.29389268 0.47622657 0.10382304 0.42069927 0.25390637 -0.4832892 -0.33005252 0.5746464 -0.25789303 -0.16077389
movie258 -0.27073887 0.44293818 -0.01896547 0.34250578 0.2528279 -0.2813375 -0.3446494 0.69659007 -0.26351625 -0.1895579
movie294 -0.17454895 0.4783648 0.18203223 0.38287735 0.37460336 -0.39541376 -0.29257655 0.5759897 -0.26774898 -0.16115744
user782 0.39053273 0.013059824 -0.23329225 1.0875711 -0.037960336 0.2030391 -0.26042184 0.8867137 -0.24391717 0.06190676
movie100 -0.076003425 0.28831866 -0.21100174 0.2537786 0.42896104 -0.42212355 -0.3489595 0.52176136 -0.28893015 -0.12577643
user280 -0.20359519 0.25104854 -0.025351813 0.5067576 0.24203697 -0.32555702 0.2754403 0.46671885 -0.10147959 -0.32609376
movie181 -0.06603015 0.3911385 -0.17020312 0.39809617 0.3988471 -0.18735212 -0.35638237 0.55393964 -0.1292089 -0.15631735
user13 -0.3559713 0.19820084 -0.13689603 0.7236497 0.22988935 -0.19662663 0.094423786 0.348942 -0.23510651 0.026259262
user62 -0.110202655 -0.0010434567 -0.32395902 0.48448148 0.26297218 -0.32197005 0.0022085593 0.50677127 -0.17723995 -0.2182749
user504 -0.22754738 0.22122136 0.033409007 0.5944522 0.39219677 -0.2761935 0.24454659 0.32842168 -0.13794261 -0.15656602
user314 0.08565302 0.34419054 0.18063085 0.62032557 0.47294778 -0.30355573 0.46519682 0.2081846 -0.31124339 -0.44940963
movie300 -0.2259447 0.48227435 0.23418221 0.34891135 0.27716538 -0.38168898 -0.34765422 0.7717958 -0.34972897 -0.15353853
user373 -0.2338595 0.066301 -0.20976019 0.41136244 0.29321778 -0.026148688 0.26639432 0.6467061 -0.17173125 -0.12289327
user181 0.6586161 -0.06670322 -0.100792736 1.0696784 0.41549638 -0.30128917 0.00051809184 0.2097425 -0.5278943 -0.11010242
user707 -0.080505565 -0.1617845 -0.3187967 0.37983873 0.44413024 -0.21960513 0.1382054 0.4627787 -0.73168874 0.15667026
movie1 0.056902274 0.4446937 -0.08235312 0.3509544 0.51696604 -0.18164295 -0.40231586 0.5145657 -0.22177872 -0.3038037
user49 -0.3270476 0.17355062 -0.53728795 0.59785885 0.19244699 -0.17919494 0.029809691 0.2599876 -0.33131847 -0.3604942
user354 -0.22051463 -0.15499306 -0.33685362 0.3263513 0.3897305 -0.15478359 0.0077784713 0.60127956 -0.58387095 0.084915124
user798 -0.2119764 0.3716089 0.006907954 0.6385483 0.38887748 0.26266676 0.27695155 0.44450608 -0.2679007 -0.36329812
user256 0.22935754 0.17804402 -0.037361074 0.5623464 0.17851204 -0.70493895 0.28247163 0.4288026 -0.017386485 -0.41706944
user854 0.019836191 -0.07899765 -0.22295949 0.4537271 0.3633394 -0.43521675 -0.21419922 0.5598758 -0.27535963 -0.13487068
user535 -0.056436937 -0.21424001 -0.19991976 0.38795108 0.3660073 -0.38057926 0.05530332 0.66616476 -0.22887121 0.27334505
movie121 0.12887585 0.41633537 -0.1260187 0.4086037 0.40944332 -0.3312385 -0.28185698 0.4853152 -0.09783192 -0.25961086
user588 -0.19301678 0.19510171 -0.07283619 0.41805017 0.23259154 -0.1565311 0.2664952 0.62097746 -0.2153167 -0.31865934
user807 -0.19180903 0.14118287 -0.22542576 0.6041148 0.24509957 0.2615138 0.045724746 0.7360133 0.069064066 -0.15548478
user618 -0.20740451 0.075919025 -0.09716289 0.41678935 0.3414445 -0.27982667 0.15084617 0.530887 -0.14006236 -0.21303724
user345 0.0066215564 0.03809079 -0.107418284 0.33664072 0.35108885 -0.47711736 0.11482499 0.522071 -0.44183543 -0.3093165
user43 -0.13733566 0.120047145 -0.09932925 0.32168186 0.36092216 -0.1827819 0.107634746 0.63653284 -0.22948512 -0.36340246
movie127 -0.02885241 0.25990826 -0.15126954 0.32744735 0.4535604 -0.30227298 -0.38777313 0.59347266 -0.18553482 -0.023652773
user711 -0.2033123 0.07038053 -0.20279047 0.32752782 0.30715087 -0.25997376 0.22333579 0.5249236 -0.36659986 -0.3035939
movie174 -0.11876112 0.35975125 -0.09659017 0.32617465 0.3593409 -0.22993678 -0.0998093 0.63944477 -0.04929592 0.066099055
user198 -0.16556498 -0.0031668195 -0.21639922 0.4596481 0.24525954 -0.40617514 -0.028705375 0.580252 -0.14413199 -0.19901411
user342 -0.045542583 -0.064539194 -0.30607286 0.38618687 0.44553706 -0.45122522 -0.05883379 0.3943895 -0.3504577 -0.14434068
movie237 0.11392349 0.37334433 -0.08758709 0.2621816 0.5768704 -0.3862338 -0.29875535 0.43383914 -0.32212102 -0.28245148
user297 -0.3660626 0.052239873 -0.22632124 0.46483177 0.30204344 -0.25559017 -0.20515925 0.53527915 -0.20367609 -0.28643936
movie98 -0.18384607 0.3682519 -0.24615256 0.35012874 0.36547124 -0.3332693 -0.18516815 0.4759227 -0.066692784 0.079097055
user5 -0.38279027 0.30424112 -0.29091263 0.76873434 0.28864598 0.13376471 0.03414332 0.30449927 -0.043903105 -0.25666434
movie7 -0.10170596 0.3546001 -0.26258147 0.4063488 0.4113904 -0.4994329 -0.39195228 0.34472695 -0.20660332 -0.16306822
user344 -0.14636488 -0.038111012 -0.20200363 0.24404213 0.41074705 -0.35383266 -0.06667161 0.60064787 -0.40371072 -0.22530816
user11 -0.18704438 0.044142816 -0.15701196 0.51298577 0.25398278 -0.26478383 0.21396922 0.5109516 -0.2995074 -0.09395411
user577 -0.14244716 0.18950184 -0.11635838 0.510142 0.23586412 -0.27466428 0.2981253 0.49355388 -0.04077004 -0.32974514
user234 0.0073977606 -0.033365566 -0.038095955 0.5301622 0.48035064 -0.16813892 0.17732564 0.50669444 -0.31564495 0.23979789
movie313 -0.26418343 0.5309083 0.010953172 0.26202193 0.1340076 -0.31099594 -0.2677729 0.8172892 -0.40733403 -0.21851115
user537 -0.17934106 -0.0952997 -0.18498254 0.5181671 0.280715 -0.3231673 0.044840146 0.53263557 -0.4276707 0.12176557
movie56 -0.22446 0.42315653 -0.14394346 0.34902403 0.3209611 -0.42444408 -0.14979874 0.4929949 -0.10841522 0.06620798
movie117 0.121579446 0.43774423 -0.19248943 0.31081155 0.3576295 -0.43875718 -0.3624009 0.55555135 -0.09841856 -0.30033797
movie172 -0.14504932 0.37076205 -0.17957482 0.40424833 0.3017103 -0.15240142 -0.09841186 0.6179387 -0.03315738 0.032260887
movie204 -0.1368826 0.41742998 -0.14013916 0.24475785 0.3717236 -0.10681956 0.022167044 0.64443946 -0.13940084 -0.012002671
user393 -0.14969337 0.33275935 0.027733732 0.5482481 0.2432713 -0.10049955 0.4356412 0.46383587 -0.3005368 -0.34208983
movie269 -0.3731872 0.39336067 -0.039434247 0.18783051 0.28530255 -0.39600518 -0.3073855 0.68207335 -0.5787477 0.0050495784
movie151 0.11549567 0.36394927 -0.19607295 0.33602732 0.4909518 -0.22753213 -0.29695883 0.48981535 -0.20500283 -0.24347703
user276 -0.22352114 0.20969518 -0.25249478 0.68025535 0.12792362 -0.33698958 0.22320884 0.33535096 -0.09730174 -0.22241339
user721 -0.19172396 -0.0357096 0.42520246 0.77728754 0.40136155 -0.34861016 0.10191352 0.54566246 -0.2172559 0.028582647
user128 -0.16126835 0.023044378 0.048163395 0.3734927 0.44684064 -0.2963286 0.1554861 0.5783524 -0.231002 -0.048574574
movie222 0.040974077 0.3874324 -0.23420176 0.37982798 0.34285107 -0.16745156 -0.3203692 0.60613304 -0.10848188 -0.26164928
movie173 -0.22635339 0.4106487 -0.15002327 0.32215855 0.2910189 -0.19866547 -0.1243936 0.63953114 -0.13041334 -0.0048950547
user279 0.019369492 0.16878009 -0.3635282 0.8310291 0.15501454 -0.034608368 0.26629272 0.32457817 -0.23865552 -0.08820545
user174 -0.07021718 0.28337288 -0.07611338 0.42653883 0.4314388 0.00036618178 0.28046325 0.42163795 -0.49554393 -0.49447706
movie405 0.21797389 0.41688523 -0.17682765 0.41275713 0.41411796 -0.31198737 -0.301249 0.5015582 -0.045330018 -0.3009306
user303 -0.08702091 0.13852164 -0.15798356 0.66221535 0.26795226 -0.3156089 0.16726585 0.34633884 -0.15811345 -0.21947294
user887 0.057256036 0.16759607 -0.14242025 0.7390107 0.4838201 0.1826886 -0.07234763 0.43119693 -0.020656137 -0.39160293
user751 -0.29809076 0.20168665 -0.13865276 0.31684083 0.19063666 -0.15505214 0.1838666 0.7157146 -0.19387768 -0.21017757
user693 -0.12646654 -0.07021435 -0.06184385 0.40682676 0.3036623 -0.5633847 0.015997127 0.6700682 0.045933895 0.06719385
movie748 -0.086219266 0.522451 0.21435766 0.42514548 0.24234979 -0.32735354 -0.30685988 0.7654392 -0.288147 -0.26043355
movie69 -0.03888027 0.32646683 -0.07199104 0.3144974 0.38798636 -0.25251096 -0.068913 0.6286408 -0.122640446 0.04019131
movie302 -0.37521195 0.38732934 -0.053172838 0.30308285 0.14995587 -0.4589742 -0.3435167 0.71751 -0.52166414 0.07300376
movie25 0.11564498 0.42964444 -0.07801596 0.27009922 0.55433095 -0.30270043 -0.23338239 0.44409525 -0.36074653 -0.31578058
movie79 -0.1386003 0.35418534 -0.19963056 0.30828714 0.30629104 -0.3120677 -0.12179349 0.59876424 -0.057607263 0.03574066
user23 -0.36780715 0.03171334 -0.33694026 0.4307043 0.20202641 -0.06482157 -0.050480764 0.6923335 -0.12589473 -0.07530119
movie15 0.16887045 0.3846308 -0.03215817 0.33171633 0.5194343 -0.30915302 -0.29010764 0.5203381 -0.256809 -0.28222895
user503 -0.14921679 -0.1084422 -0.23839892 0.39590794 0.4827153 -0.21124329 -0.013484319 0.48969007 -0.41782042 -0.026871987
movie210 -0.102545485 0.4302363 -0.16671306 0.32318717 0.24174577 -0.21169028 -0.021997321 0.6743038 -0.04133607 -0.013236006
movie423 -0.06369432 0.3698636 -0.1680044 0.40087554 0.36025012 -0.123427674 0.00037096796 0.5554726 -0.16348685 0.021131076
movie9 0.15334482 0.3047481 -0.2078426 0.29074702 0.520235 -0.40861252 -0.3468572 0.44389197 -0.35015866 -0.1953399
movie111 0.20909303 0.40318367 -0.08914161 0.29861736 0.53372437 -0.32166636 -0.16978672 0.4301471 -0.3366056 -0.2852099
movie328 -0.2657647 0.47007477 0.21645835 0.3775136 0.240958 -0.38811943 -0.32097274 0.7549887 -0.2905894 -0.17564574
movie118 0.11429054 0.46847865 -0.13002892 0.36874858 0.39274305 -0.30504513 -0.34599197 0.5531877 -0.038216274 -0.37224117
user262 -0.24699068 0.14879227 -0.040541116 0.47106624 0.35477254 -0.30090886 0.07644727 0.4592383 -0.18734874 -0.30989093
movie275 0.024566123 0.2022801 -0.24763763 0.20774363 0.6284109 -0.20194453 -0.30507946 0.47495452 -0.48496687 -0.084545344
movie318 -0.10279184 0.28802824 -0.10900617 0.2485858 0.40154737 -0.30405757 -0.13733494 0.6521145 -0.15524706 0.07848035
user712 -0.2104868 0.3372227 0.05005251 0.55782986 0.43717754 0.19101775 0.6085837 0.39445293 -0.3076557 -0.26253894
movie216 -0.06858448 0.33770823 -0.18369366 0.21300404 0.37882614 -0.24598643 0.07536887 0.6084863 -0.24075328 0.09210441
user846 -0.229716 0.09778634 -0.06475294 0.5223943 0.32388648 -0.19761778 0.49147683 0.45450562 -0.19415246 0.14001891
movie276 0.12640767 0.26901832 -0.23816927 0.32051635 0.48885834 -0.46682528 -0.3573686 0.39899662 -0.38949203 -0.233643
movie257 0.013153879 0.42841446 -0.245641 0.30965742 0.40023696 -0.2051861 -0.38115788 0.5502215 -0.24289301 -0.34166828
movie289 -0.16991012 0.3920126 0.1507945 0.40503234 0.4255429 -0.31403884 -0.3741499 0.5850791 -0.46461752 -0.1222484
user401 -0.06059809 -0.054557417 0.041033857 0.3549442 0.5358043 -0.3079211 -0.13120131 0.65616447 -0.20160416 0.055058837
user296 -0.12831494 -0.13697647 -0.264809 0.4585892 0.44075683 -0.17270124 -0.31691098 0.5956508 -0.38592848 -0.054157358
movie168 -0.16009873 0.3572277 -0.25895852 0.30718797 0.38371775 -0.15363124 -0.105664276 0.5535191 -0.12311385 0.013234189
user429 -0.14493988 0.06176587 -0.13915317 0.47672418 0.35916772 -0.28629282 0.1654175 0.45799 -0.2004145 -0.14787115
user436 -0.13909082 0.17791378 -0.043071177 0.50913113 0.24808188 -0.6027947 0.3967523 0.31301376 -0.22682837 -0.1849082
user682 -0.1709454 0.16822857 -0.09067966 0.58728653 0.16726537 -0.36214077 0.33655882 0.43195635 -0.17717639 -0.28815988
user601 -0.20792624 0.108262494 -0.10749438 0.60701066 0.43724647 -0.12950504 -0.1269982 0.43960133 -0.059991818 -0.21024331
user72 -0.05893109 -0.104395255 -0.12416982 0.40457922 0.285091 -0.5723288 0.022350127 0.64157027 -0.011284206 0.009598943
user593 -0.011968824 0.0901054 0.09764146 0.33178395 0.45014662 -0.42747942 0.17994839 0.5605559 -0.25510275 -0.306827
user654 -0.091843575 0.023589177 -0.2447928 0.43070462 0.36976522 -0.1800555 -0.14898373 0.56173885 -0.25100058 -0.37302968
movie22 -0.10231273 0.3993038 -0.06494316 0.3132007 0.25297663 -0.25321808 0.026778985 0.70176107 -0.057135276 -0.00033461294
movie195 -0.2077027 0.40731138 -0.22217534 0.33133855 0.21407598 -0.290674 -0.039635185 0.6240391 0.039185427 0.021522453
user308 -0.14695865 -0.057543427 -0.14008586 0.5412902 0.4955236 -0.3466242 -0.013670212 0.3864592 -0.12545212 0.18326063
user639 -0.10483318 -0.15863167 -0.14004333 0.21415497 0.52964157 -0.14866887 0.24169204 0.6476417 -0.6101206 0.18751046
movie191 -0.15059593 0.26892638 -0.13883826 0.23129597 0.42794064 -0.19876806 0.0067853457 0.64198184 -0.18468821 0.19736156
movie234 -0.18021926 0.42378816 -0.16392821 0.45296443 0.35646543 -0.35706916 -0.093586214 0.39718115 -0.00640108 0.08840598
movie742 0.23355368 0.38913515 -0.14133868 0.3603637 0.3998251 -0.5330961 -0.29746175 0.46736592 -0.10835998 -0.4160996
user463 0.15274908 0.03356727 -0.48469347 0.5771063 0.3969894 -0.010897196 -0.45093942 0.46092245 -0.4903967 -0.550102
movie64 -0.031539828 0.30600327 -0.12723885 0.2031393 0.31879568 -0.3858424 -0.014253283 0.6983116 -0.12851535 0.11982957
user270 -0.4917665 0.107888885 -0.3033119 0.5876869 0.31638104 -0.5623396 -0.02071909 0.1036614 -0.34289303 -0.1985921
user7 -0.3618946 0.0988775 -0.038735904 0.6951596 0.33215576 -0.21777695 0.171003 0.34829992 -0.20383717 0.10556339
user330 -0.15152481 0.096348375 -0.050535757 0.50002456 0.46143168 -0.029855411 0.09636176 0.5383158 -0.100240625 -0.24581155
user378 -0.0755924 0.14437011 -0.063076265 0.41083184 0.3394681 -0.34683302 0.32927814 0.45062274 -0.27475154 -0.24805936
user292 -0.19933665 -0.11322548 -0.278031 0.5506724 0.39466137 -0.3262763 -0.32161215 0.5268054 0.0036573182 0.084771246
user214 -0.3574383 -0.1251797 -0.40333802 0.4211615 0.23828427 -0.37133884 -0.24674156 0.60154265 -0.20803274 -0.015148635
movie183 -0.25955555 0.3567123 -0.22140034 0.45846057 0.25436705 -0.34767425 -0.1754072 0.49578792 -0.0010962558 0.10637641
movie202 -0.110491455 0.4510208 -0.13838506 0.2916999 0.32252628 -0.22380519 0.07186393 0.56116277 -0.19906339 -0.080033086
user59 -0.051604517 -0.027984103 -0.09407432 0.5598468 0.4160781 -0.27264455 0.10813843 0.4774748 -0.112278365 0.008101499
user293 -0.12267755 0.058290068 -0.10993197 0.48623633 0.23794124 -0.5118308 0.2111441 0.47310853 -0.1630858 -0.117257155
user222 -0.084918335 0.25521842 -0.035960577 0.6177743 0.264471 -0.18272078 0.3328351 0.40685788 -0.20889851 -0.36249554
movie268 -0.3817733 0.38112506 -0.1287713 0.37020877 0.3398755 -0.35384506 -0.34614787 0.46440062 -0.55919576 0.0036936523
user92 -0.0940019 0.1259806 -0.15265897 0.5160221 0.28070298 -0.40383726 0.20408787 0.39789775 -0.16915783 -0.31708136
user201 -0.29818273 0.0034487303 -0.27957386 0.581953 0.22524737 -0.52418643 0.10142558 0.31099537 -0.25233236 0.0053418768
user880 -0.1127077 0.30928543 -0.08709919 0.6607784 0.21989593 -0.18529168 0.18644765 0.3853806 -0.18361184 -0.39508224
user94 -0.15619172 0.07892374 -0.22804894 0.5599542 0.2164503 -0.28917906 0.25593874 0.43429157 -0.20694587 -0.20448008
movie96 -0.12436331 0.36730537 -0.23961666 0.3225473 0.22028449 -0.35678193 -0.06854603 0.6140017 -0.0502611 -0.030494392
user922 -0.40740395 0.20998472 -0.25151077 0.43899173 0.17436421 -0.06151298 0.0647428 0.642734 -0.016938236 -0.44132152
user907 0.005988969 0.084681235 -0.0022928065 0.33208162 0.5202147 -0.4678935 -0.036941588 0.44966617 -0.33434522 -0.44158962
movie28 -0.023345081 0.3925405 -0.12078587 0.36946338 0.36632863 -0.18845615 0.012398601 0.5635526 -0.09499469 0.003791236
user617 -0.7525064 0.22624828 -0.24036288 1.0842588 0.41179523 -0.44456783 -0.28217408 -0.20575465 -0.0069883806 0.42557526
movie97 -0.04524725 0.32359338 -0.12607048 0.26357496 0.35882646 -0.29371598 0.07182521 0.61572266 -0.103199095 0.059716832
movie82 -0.026990112 0.3912454 -0.29377386 0.33675817 0.20307894 -0.1640374 0.033431258 0.6604201 -0.03971618 -0.061270315
user230 -0.24363558 0.061799016 0.07564058 0.48008707 0.41242898 -0.12437594 0.021212237 0.6738762 -0.017893739 -0.06806761
user496 -0.36821777 0.13182552 -0.26063028 0.53157103 0.2951509 -0.112252735 0.13076809 0.4274704 -0.12697731 -0.1470005
movie357 -0.08232982 0.2982094 -0.12167039 0.32034245 0.3748854 -0.30122676 -0.14014044 0.64532644 -0.064072266 0.2727206
user224 0.010046669 0.029630959 0.15225285 0.4370966 0.24435672 -0.59727514 0.36111012 0.5966767 -0.28640646 -0.24744177
user592 0.025945613 -0.030250888 -0.16574682 0.6918152 0.22353889 -0.3912926 -0.10895144 0.50103396 -0.3077124 -0.11406641
movie245 -0.25834787 0.47050217 0.2083838 0.34390226 0.35539773 -0.57308525 -0.28438213 0.53933465 -0.41811135 -0.17973462
movie301 -0.2850894 0.44383 0.05817835 0.25111762 0.34252453 -0.34178433 -0.31712008 0.6574489 -0.5618742 -0.13849317
movie323 -0.14539959 0.50071216 0.3504247 0.47209975 0.333537 -0.37853178 -0.3209287 0.7158376 -0.08114174 -0.1961054
user896 -0.21860453 0.07430692 -0.15984751 0.50215447 0.1558703 -0.442112 0.22209191 0.51152754 -0.19682173 -0.14538997
movie125 0.22073415 0.42089856 -0.05090821 0.32143652 0.4992605 -0.40305865 -0.19609304 0.46741417 -0.15680654 -0.31885764
movie132 -0.10688515 0.3157579 -0.16240205 0.32890972 0.37559617 -0.12842472 -0.044050127 0.6490309 -0.113521636 0.16331616
movie333 -0.23508121 0.44198593 0.10787842 0.37517968 0.16354014 -0.49336284 -0.3167505 0.7435453 -0.36314458 -0.08356926
movie196 -0.1342024 0.3518908 -0.121390305 0.25619337 0.35895395 -0.26383522 0.023481099 0.5948131 -0.1709037 0.035718497
user264 -0.58568746 0.13085192 -0.26173115 0.51467824 0.43183944 -0.46477014 -0.039564352 0.109131895 -0.4142702 0.041387845
user698 -0.18788408 -0.10104293 -0.08943253 0.5451545 0.4880771 -0.032631353 -0.15563215 0.6584514 -0.098456345 0.24499796
user435 -0.15865408 0.20720716 -0.11967007 0.57798004 0.26995212 -0.27335212 0.1602167 0.4081643 -0.07774951 -0.322438
movie12 -0.09298101 0.30910903 -0.27930048 0.24552484 0.31829613 -0.51493174 -0.11611411 0.49122316 -0.22904164 0.014312656
user541 -0.14485028 0.26861805 0.1053478 0.5197413 0.4366742 0.116425514 0.32217604 0.52906454 -0.22196895 -0.39960766
movie176 -0.18017833 0.35344034 -0.21060418 0.39649495 0.2698411 -0.379283 -0.21498355 0.58395433 0.12980703 0.046581704
user321 -0.10875695 -0.2572808 -0.14686982 0.4104404 0.63313884 -0.12510759 -0.041656196 0.5912794 -0.3017428 0.3797168
movie143 -0.084735475 0.39905602 -0.14966466 0.3526764 0.4048959 -0.13561782 0.018612942 0.538622 -0.08845306 0.06704943
movie197 -0.17126007 0.2624944 -0.07142834 0.20920856 0.46534947 -0.24900554 -0.08586346 0.6408425 -0.2857965 0.22162774
movie135 -0.07088619 0.29413953 -0.15486431 0.35084832 0.41317144 -0.16464537 -0.051705483 0.5936198 -0.13962974 0.17202729
movie153 -0.11699404 0.34943905 -0.25033742 0.26674944 0.36526775 -0.18596302 -0.0055658533 0.589164 -0.17097868 0.11507135
user878 -0.20528126 -0.12284933 -0.15807603 0.35115376 0.57722497 -0.072937146 0.06741446 0.5278455 -0.45792308 0.00868986
movie238 -0.11637649 0.32890216 -0.3133227 0.28052372 0.34494808 -0.27150652 -0.050186437 0.5059485 -0.23144586 0.06239514
user758 -0.12667832 0.05647753 -0.25119787 0.4956367 0.1985819 -0.23683907 0.0021506257 0.6059758 -0.26676974 -0.14198561
user629 -0.283988 0.0033938142 0.17802173 0.46383965 0.37315798 -0.60464203 -0.0538614 0.56032664 -0.17090222 -0.019137446
movie475 -0.06431869 0.260217 -0.45809513 0.3440452 0.4841957 -0.36133838 -0.4485747 0.3085899 -0.3347961 -0.16287786
movie70 -0.027024135 0.35187146 -0.18807879 0.2815095 0.4251237 -0.17510642 0.094836354 0.516065 -0.31136176 0.07864478
user561 -0.13998336 -0.042786963 -0.21906146 0.45129088 0.2463588 -0.31299862 0.12478507 0.5911766 -0.26339778 0.0046529323
movie194 -0.10838297 0.24930555 -0.12976176 0.33781973 0.49548814 -0.17277591 -0.2088522 0.5935571 -0.1434231 0.30512258
user38 -0.32489166 0.3453641 -0.032102246 0.8755141 0.36978206 0.0837443 0.00034493007 0.2891408 0.057539098 -0.29300743
user236 0.030049939 -0.03486949 -0.017160688 0.45878738 0.429719 -0.311629 -0.06705665 0.63739336 -0.043762296 -0.07250098
user130 -0.07767661 0.27316415 -0.107980825 0.71577245 0.102813736 -0.28100967 0.110090494 0.4712593 -0.07561067 -0.35845625
movie89 -0.21883349 0.33358294 -0.3282197 0.36958858 0.24321903 -0.25220987 -0.10814332 0.58551854 0.030980323 0.079822205
movie185 -0.27700892 0.33923292 -0.18774515 0.42252487 0.36183748 -0.39641342 -0.17801198 0.44200042 -0.062341895 0.23800534
movie322 -0.19330747 0.41934937 0.38851294 0.45287588 0.4061751 -0.5294362 -0.2697194 0.5947889 -0.31409836 -0.061454162
user334 -0.22059786 0.015527714 -0.24269217 0.3707502 0.27969286 -0.30143693 0.09559248 0.5414199 -0.54680896 -0.07842674
user145 -0.040283162 0.21571872 -0.1210111 0.73949987 0.10402608 -0.41940317 0.09986287 0.4174642 -0.04040926 -0.30674514
movie282 0.22655879 0.41019958 -0.07257655 0.3155644 0.42438903 -0.56776726 -0.33469585 0.4866987 -0.16273393 -0.34456915
movie546 0.21291406 0.47069684 -0.21299045 0.37876073 0.34078354 -0.48460242 -0.15229358 0.41547915 -0.09135791 -0.35505903
movie186 -0.16571978 0.36534312 -0.20248593 0.32127732 0.36665285 -0.17556083 0.009569287 0.55684423 -0.12703656 0.14440157
user786 -0.19092965 0.06960533 -0.061139144 0.3960339 0.44102505 -0.22745772 -0.10004828 0.5936193 -0.09789973 -0.1786913
movie427 -0.09574583 0.2558724 -0.14293945 0.30766284 0.44987416 -0.24629754 -0.104798876 0.5950885 -0.13982198 0.26106057
user705 -0.038813353 0.22351982 -0.16746528 0.5560447 0.124316216 0.002909687 0.21043675 0.7582854 0.18290196 -0.38840508
movie655 -0.15152842 0.3993794 -0.12897682 0.2647858 0.39312243 -0.3109477 0.045385867 0.52526075 -0.17151731 0.07151778
movie483 -0.11827689 0.23663431 -0.1693313 0.24164236 0.41819167 -0.25190037 -0.12653811 0.6572273 -0.16134533 0.27740535
user406 -0.17778194 0.022539696 -0.13556579 0.50365406 0.44676995 -0.28741178 0.09986475 0.40191275 -0.2313336 0.0769828
movie11 -0.13718168 0.3764972 -0.20561081 0.31139112 0.16940469 -0.50666684 -0.0004915992 0.5859433 -0.13170801 -0.010707657
movie144 -0.14007811 0.36577103 -0.3617529 0.35621813 0.21620597 -0.22309907 -0.07647831 0.58613884 -0.03236735 -0.044692896
user399 -0.18784688 0.15110418 -0.14367855 0.63832605 0.23117024 -0.2951368 0.22700275 0.39783347 -0.055902146 -0.16432011
user505 -0.2538814 0.0350336 0.084866956 0.506047 0.36037576 -0.06324889 -0.0030669617 0.7679638 -0.0071338485 -0.07372719
user90 -0.12968153 -0.11336168 -0.116130866 0.35152224 0.44854265 -0.34071156 0.093526274 0.5499883 -0.561805 0.24578753
movie71 0.028487489 0.4401745 -0.09291355 0.30117467 0.34923416 -0.15442903 -0.0031308397 0.663668 -0.108235456 -0.09481263
user889 -0.13826175 -0.011289127 -0.31472123 0.5046361 0.26610827 -0.3117512 0.10288985 0.4670418 -0.29216447 -0.08197841
movie678 -0.12477911 0.48340574 0.18335792 0.58198285 0.28558853 -0.3217822 -0.35199943 0.61765975 -0.1467402 -0.1213342
movie228 -0.20063981 0.42689177 -0.19274753 0.33266002 0.21954007 -0.0691756 0.043219175 0.7047148 -0.0717518 0.050124783
movie215 -0.11196986 0.34898528 -0.113046646 0.26784807 0.3603555 -0.28626963 0.14267327 0.576595 -0.17636363 0.14117618
user551 -0.15853466 0.17515874 -0.1189075 0.49787793 0.12598188 -0.51738465 0.16621804 0.51425815 -0.10458809 -0.2758054
movie496 -0.1299254 0.34281695 -0.15156195 0.31806517 0.42498845 -0.23868708 -0.11594543 0.5427668 -0.1940268 0.1870818
movie568 -0.029780285 0.44666576 -0.18017948 0.34151033 0.23562269 -0.2968361 0.053712144 0.6106792 -0.0063405763 -0.07448752
movie161 -0.087387234 0.4281836 -0.16974562 0.35181722 0.16741635 -0.2252806 0.15304041 0.6482298 -0.09136222 -0.07381779
movie8 -0.073244296 0.35986644 -0.25899604 0.29641604 0.34089625 -0.0697427 -0.038126603 0.6311868 -0.24649115 0.045025937
user474 -0.10689898 -0.13651921 -0.07955706 0.35301402 0.5018103 -0.2938711 0.06201156 0.6221058 -0.24584441 0.22570436
user286 -0.1235789 0.13515267 -0.14085129 0.48984382 0.30270368 -0.12159161 0.20945252 0.4896173 -0.37855694 -0.30486217
user921 0.084420875 0.18499762 0.09224691 0.65937823 0.41916075 -0.03653053 -0.024140758 0.573184 0.009327779 -0.4333943
user756 -0.22259733 0.14307384 -0.21480024 0.6035257 0.23167606 -0.09839484 -0.0073560947 0.52379966 -0.06794753 -0.40715066
movie95 -0.16595675 0.45404458 -0.18241177 0.3953855 0.30099642 -0.072100535 0.0037543918 0.5582989 -0.11853882 -0.090220965
movie272 -0.28795397 0.5343557 0.008668306 0.15348884 0.14578965 -0.287609 -0.15984342 0.8636269 -0.48511523 -0.1163108
movie88 -0.10844831 0.42484424 -0.040668804 0.2913034 0.411771 -0.24203908 0.20905696 0.4967626 -0.20704666 0.060810603
user938 0.22136521 0.17733356 -0.06507721 0.6246327 0.43061596 -0.4128704 -0.32874972 0.39947706 -0.11394408 -0.7523693
movie471 0.30687016 0.37525526 -0.13193323 0.33197984 0.45899072 -0.48139396 -0.28975138 0.48602492 -0.1733485 -0.31066063
user733 0.34487766 -0.21269415 -0.5762294 0.53610426 0.50334525 -0.31994623 -0.3116766 0.28609905 -0.6713206 -0.5064434
user268 -0.2626774 0.19570631 -0.31174588 0.5614441 0.14958727 -0.27424642 0.16573632 0.41364324 -0.14959635 -0.3381121
user764 0.13510191 0.07163866 0.013417981 0.46165547 0.53146565 -0.35904685 -0.103883594 0.46299857 -0.19616473 -0.42779258
user311 -0.19182363 0.0862668 -0.022473106 0.44031212 0.30121636 -0.24011548 0.33694887 0.58699405 -0.1604348 -0.039785992
user620 -0.377898 0.41655654 0.05858872 0.90066653 0.52455026 0.2215943 -0.04959319 0.17745142 -0.042295784 -0.3911675
movie508 0.09405365 0.27467608 -0.32926106 0.2778877 0.47275499 -0.5306746 -0.37211043 0.36176604 -0.37015435 -0.22246584
user749 -0.118129715 0.18822818 -0.024496159 0.5779657 0.30961108 -0.10582455 0.21687976 0.5395206 -0.041873872 -0.20825596
user299 -0.14836758 -0.056893226 -0.38265422 0.3639405 0.3383156 -0.10027884 -0.026852235 0.60282636 -0.46811378 0.018965757
user804 -0.21421748 0.11816032 -0.083902195 0.61819696 0.3437377 -0.1972393 0.12740755 0.43210638 -0.03870966 -0.14022183
user630 0.17893985 0.15805821 0.09003827 0.4878093 0.47830808 -0.441847 -0.1400692 0.49462795 -0.11416391 -0.49598306
user291 -0.20270063 0.32286748 -0.14100778 0.68080854 0.26290604 -0.4297114 0.2047019 0.14344001 -0.115670234 -0.37367445
user524 -0.032035213 -0.059758816 -0.060270607 0.42351308 0.43568787 -0.39109492 0.14677572 0.53854185 -0.24625245 0.11057349
user650 -0.21525091 0.0476816 -0.1626083 0.5436509 0.28976768 -0.11883966 0.11323662 0.6001462 -0.045851346 -0.004410986
movie307 -0.3224117 0.4890698 0.10701624 0.3745059 0.025714703 -0.4593687 -0.2653061 0.8504779 -0.3603131 -0.14035445
movie180 -0.08509647 0.29262915 -0.21040866 0.28752592 0.32904774 -0.3694197 -0.016208824 0.5759838 -0.09753733 0.17679454
user363 -0.27587765 0.11680736 -0.3133903 0.6256608 0.143096 -0.26978716 0.069493644 0.45221537 -0.17282012 -0.065437086
user864 -0.18663786 0.22204591 -0.16543362 0.47518775 0.26802766 -0.24753548 0.20049407 0.45334846 -0.14109129 -0.34354404
user223 0.42362386 0.12098075 0.19229959 0.5239933 0.4140619 -0.30854338 -0.12690291 0.72396076 -0.13130961 -0.52477354
movie283 -0.012529518 0.25363728 -0.24298434 0.17717883 0.5767924 -0.20119338 -0.20614105 0.48530686 -0.5246954 -0.14368215
movie265 -0.062475752 0.40844187 -0.20291206 0.30975333 0.2166517 -0.3023404 -0.07586453 0.6810267 -0.000799835 -0.044371784
movie603 -0.16355668 0.24101843 -0.2348014 0.30295298 0.44096947 -0.2551453 -0.2471134 0.5846884 -0.21165437 0.33743462
user85 -0.18840845 -0.07691128 -0.14248255 0.40994114 0.48531672 -0.20920831 -0.00719793 0.5340094 -0.37342915 0.14898914
user916 -0.08151324 0.03402884 -0.23521662 0.45689094 0.23858483 -0.38794217 0.22526419 0.48834774 -0.2011882 -0.19003095
movie588 -0.12107408 0.42303422 -0.047327567 0.47099766 0.35254684 0.02956871 -0.035859123 0.6266482 -0.050357584 -0.060053337
user159 0.081879914 0.25745884 0.25732017 0.7298785 0.5358402 -0.3290915 -0.21087912 0.33381927 -0.1668573 -0.620733
movie182 -0.19796732 0.28254133 -0.13369603 0.27654272 0.25693417 -0.48235434 -0.039591182 0.6301518 -0.09464678 0.121938646
user747 -0.24863808 0.025091155 -0.11866917 0.49321067 0.4268337 -0.15000932 0.06419225 0.4910644 -0.3677025 0.14979638
movie13 0.10217442 0.2490761 -0.39952922 0.21225098 0.5325825 -0.3102258 -0.3160913 0.41227937 -0.56637675 -0.17881648
movie235 0.02944783 0.43335593 -0.3883275 0.3782417 0.3291728 -0.1700448 -0.22291683 0.4596524 -0.25854036 -0.3366436
user883 -0.18703823 0.010153432 -0.2957932 0.4118498 0.2140229 -0.20869553 0.15278044 0.5966294 -0.5039726 0.007256898
user727 -0.15591276 0.26199585 -0.18560189 0.6226508 0.19173393 -0.20823161 0.17713891 0.4335407 -0.032385755 -0.370805
user648 -0.14125028 0.22579388 -0.18038043 0.6904588 0.3265072 -0.111750774 0.07477065 0.35658064 -0.04944746 -0.2272794
movie274 0.36979195 0.40686896 7.108584e-05 0.22505377 0.52522326 -0.2683324 -0.08790308 0.6169309 -0.31621906 -0.27951533
user194 -0.11242718 0.11327136 -0.025123825 0.4517752 0.36905894 -0.1424483 0.2458731 0.5868216 -0.17067142 -0.032160655
user385 -0.21565793 -0.07564043 -0.41650322 0.55474854 0.3496942 -0.24805664 -0.0986116 0.39903632 -0.29948473 0.1823722
user15 0.13518374 0.03624671 -0.10479327 0.45271364 0.4355987 -0.30749258 -0.31610063 0.5624663 -0.49985835 -0.544429
user835 -0.05024888 -0.043922544 0.055807915 0.33567223 0.52707136 -0.29073295 0.008147359 0.66856694 -0.1871053 0.076366894
movie321 -0.2992675 0.41608948 0.2340481 0.36485463 0.48462594 -0.33178538 -0.3217715 0.54753953 -0.6063279 0.004771244
movie435 -0.049067557 0.27059865 -0.12999393 0.3185403 0.43849885 -0.12016747 -0.09774155 0.6594882 -0.16565561 0.20405911
movie271 -0.26489127 0.48439178 0.012757044 0.42843962 0.12233248 -0.29768506 -0.3346542 0.7753988 -0.119820885 -0.16744232
movie14 0.001279027 0.14896566 -0.35314038 0.18636459 0.6207045 -0.20110972 -0.38535035 0.4739479 -0.61758596 -0.026289038
user894 0.036414325 -0.0996103 -0.35846546 0.43243557 0.2304761 -0.27454984 -0.09119119 0.61843103 -0.6939947 -0.19648547
movie273 -0.027274651 0.37663245 -0.34049308 0.33913794 0.32135755 -0.61900795 -0.39550653 0.36930546 -0.24033907 -0.27086073
user532 -0.053540383 0.2045833 0.015123684 0.6017379 0.28935805 -0.19595218 0.10903008 0.5287641 -0.20319228 -0.18435846
movie319 -0.3043749 0.39668137 0.14494428 0.34138668 0.43266 -0.36807638 -0.18654172 0.5210542 -0.6656607 0.043848
movie298 0.11052556 0.39348078 -0.2079972 0.39360952 0.29548857 -0.31192568 -0.48502403 0.6481706 -0.1433218 -0.28809124
movie385 -0.115302935 0.50439095 -0.2701002 0.4104876 0.06852663 -0.3006962 0.05105231 0.601892 0.0016145109 -0.16295095
user523 -0.22291204 0.039010406 -0.25423715 0.30489647 0.47373793 0.035544142 0.07527226 0.5323356 -0.653893 -0.2405145
movie597 0.24554497 0.4535381 -0.19814357 0.36468023 0.35684368 -0.38302606 -0.2387562 0.51636356 -0.061375096 -0.38212433
movie211 -0.098955035 0.3033401 -0.12984067 0.33793965 0.43489078 -0.1386928 -0.017077642 0.5828121 -0.2065028 0.27726588
movie4 -0.034821756 0.35995933 -0.29178718 0.30252448 0.19808261 -0.41800416 0.048105203 0.5745191 -0.1803725 0.039877042
user708 0.18144307 0.17490025 0.09573328 0.56311345 0.452038 -0.32028094 -0.18205677 0.49402812 -0.3360225 -0.5774676
user253 -0.21665007 -0.023593996 -0.034610137 0.37197775 0.24979162 -0.39562336 -0.08737807 0.7863827 -0.07844068 -0.08062421
movie179 -0.12060517 0.3257074 -0.28489453 0.27749684 0.37568876 -0.21925533 -0.009516637 0.5257526 -0.26434955 0.1775195
user387 -0.20301616 -0.029163614 -0.41656178 0.6295458 0.23040687 -0.16597436 -0.09058353 0.47347602 -0.17730227 -0.08969308
user911 -0.33136553 -0.0034523625 -0.08179894 0.43639195 0.58817405 0.08060648 -0.1318042 0.61680573 -0.10319571 0.08102926
movie200 -0.3330168 0.41750905 -0.20139872 0.38008642 0.31758282 -0.54298186 -0.1339881 0.34639448 -0.051627602 0.030064255
movie515 -0.105913356 0.26362842 -0.30156407 0.3379075 0.4186599 -0.12700836 -0.44017103 0.5949761 -0.31343845 0.07789474
user184 -0.028973153 -0.08310924 -0.19550166 0.32362422 0.45787084 -0.23881063 0.20402923 0.5361465 -0.42591715 -0.07704692
movie124 0.06033318 0.18125068 -0.433768 0.2352744 0.46319917 -0.4536572 -0.4698493 0.43867695 -0.5107071 -0.12048889
user328 -0.1819843 0.11093273 -0.04324297 0.4247305 0.15791334 -0.5819128 0.22522469 0.57489145 -0.2114922 -0.101949036
movie284 0.2691414 0.38078046 -0.102973066 0.31462494 0.4975475 -0.44763845 -0.23540665 0.45558023 -0.27900216 -0.32621402
movie83 -0.13756056 0.34175658 -0.2757537 0.21832268 0.42079282 -0.1362152 0.024233585 0.52340686 -0.3429391 0.013822515
movie255 0.19915117 0.42698413 -0.06274835 0.17776546 0.55193806 -0.24190572 -0.28876686 0.586203 -0.36371377 -0.44534817
user178 -0.020808775 0.08573254 -0.027779914 0.39647618 0.34359774 -0.43077055 0.03644482 0.5841146 -0.13299297 -0.36608517
user327 -0.25062603 -0.027350422 -0.23917997 0.3915901 0.27703723 -0.4857233 -0.013923481 0.5027171 -0.31471086 -0.07601717
movie845 0.26675949 0.40697938 -0.08536087 0.23875171 0.554984 -0.23237446 -0.07720994 0.49902987 -0.41330767 -0.27998778
user271 -0.05266696 -0.029536147 -0.08328937 0.3313201 0.4714138 -0.20690392 0.10280743 0.6168119 -0.32432583 -0.05396835
movie527 -0.0020553924 0.24789701 -0.16700152 0.32801017 0.39731354 -0.22275437 -0.100515105 0.6357532 -0.14867653 0.25539416
user152 -0.0065909424 0.22905493 0.15785824 0.2892677 0.5117775 -0.35283384 0.29051566 0.47370675 -0.37443656 -0.4067807
movie340 -0.42461526 0.43759546 0.00950043 0.24148099 0.17280751 -0.41970974 -0.27511716 0.74593025 -0.5568734 0.0029758601
movie208 -0.14468029 0.36782557 -0.23081546 0.3045896 0.42983788 -0.055091705 -0.019055529 0.53068584 -0.19893794 0.10909607
movie393 -0.08715478 0.4888666 -0.083688505 0.39935246 0.38135597 -0.064927265 0.19847946 0.4596398 -0.23865372 -0.10765088
user95 -0.22821961 0.1241346 -0.059214447 0.5994671 0.33996004 -0.07456218 0.21992831 0.46953258 -0.14563552 -0.09521421
user704 -0.29317796 -0.015522812 0.06195098 0.38266844 0.4659234 -0.21434465 -0.08713293 0.71376616 -0.206294 0.39250696
user1 -0.15745628 0.050097715 -0.24484922 0.5745285 0.28657287 -0.12645568 0.0949299 0.4619205 -0.2917092 -0.26235896
user186 0.14684004 0.1836861 0.07821105 0.650334 0.1297338 -0.67675877 0.09366295 0.52374053 0.00082306395 -0.32743534
user885 -0.090856686 0.14827682 0.054293208 0.3909966 0.4636522 -0.064542085 0.21523473 0.6183636 -0.11844207 -0.31642547
movie133 -0.067126445 0.27614152 -0.01046918 0.264224 0.49815893 -0.21113715 -0.08075482 0.6568398 -0.12719494 0.19611062
movie476 0.31025994 0.441682 -0.08738316 0.29260924 0.555129 -0.2904813 -0.19371447 0.4660532 -0.23237415 -0.34880432
movie175 -0.22136125 0.25018927 -0.32843 0.35207173 0.32375234 -0.31797832 -0.14118335 0.5088602 -0.20505731 0.22307214
movie326 -0.26788676 0.49946186 0.31336635 0.4985532 0.20333149 -0.5613287 -0.2311277 0.6291084 -0.32133403 -0.16117622
movie419 -0.14432327 0.45234263 -0.10731458 0.4593177 0.4014651 0.036881536 0.0069449837 0.53997564 -0.08770201 0.11313799
movie99 -0.09955375 0.43272838 -0.15739647 0.412017 0.32901683 0.022911845 0.07511554 0.5926021 -0.18062018 0.0033971511
movie367 -0.12638919 0.44981736 -0.24868627 0.31953165 0.26693144 -0.22744569 0.18840323 0.46428314 -0.3020569 -0.07753776
user497 -0.2453047 0.21827945 -0.32350034 0.6297983 0.18133788 -0.04495763 0.2507519 0.3834159 -0.19195688 -0.37454677
movie147 0.11784023 0.4859642 -0.19130209 0.3852191 0.2996817 -0.4734924 -0.23472239 0.45293492 -0.23850924 -0.33453494
movie402 -0.042788297 0.45360133 -0.0072964034 0.31569868 0.38176972 -0.32432485 0.28024352 0.4810328 -0.15940425 -0.047038242
movie259 -0.07709179 0.37440982 0.3699157 0.5831217 0.25649932 -0.152441 -0.22147584 0.8559168 -0.1847066 -0.10695723
user875 -0.35262793 -0.12614477 -0.19610989 0.4273699 0.28882906 -0.27702457 -0.12802614 0.7145404 -0.1679575 0.19222689
movie58 -0.056374427 0.29721916 -0.17982861 0.2969552 0.3218444 -0.22247837 0.038686447 0.6463474 -0.20545997 0.17542818
movie66 -0.04838825 0.47810552 -0.05046415 0.27012423 0.3892854 -0.1442398 0.13221677 0.57700545 -0.28578436 -0.06996053
movie432 -0.2979526 0.45958918 -0.21135059 0.3718149 0.39434 0.04257767 -0.013121953 0.5132262 -0.10325898 -0.06421418
movie451 -0.13071457 0.4812502 -0.06946654 0.32749197 0.37519118 -0.15555957 0.22765154 0.47232413 -0.26580185 -0.055515047
movie187 -0.099856034 0.24755928 -0.18929972 0.3391774 0.26422912 -0.377727 -0.13500881 0.69209373 -0.025056181 0.263774
movie285 0.0015121347 0.18626551 -0.37735337 0.075068854 0.54548407 -0.29886952 -0.3372941 0.51613027 -0.81088704 -0.08194665
movie514 -0.05921783 0.21381731 -0.1990316 0.27472928 0.4668835 -0.27386674 -0.16734065 0.5989085 -0.24628277 0.34329557
user653 -0.1539568 0.17020404 -0.1330697 0.46932608 0.22773886 -0.23171242 0.21551828 0.5672422 -0.08905642 -0.23849325
movie591 0.28435412 0.3251394 -0.15402196 0.43284744 0.37936434 -0.57607126 -0.26172945 0.43870318 -0.16882226 -0.12301453
user472 -0.20504886 0.27610648 -0.1030363 0.62673366 0.2383212 -0.042221103 0.18009147 0.47645247 -0.07263721 -0.4366828
movie690 -0.29174292 0.4721999 0.16558273 0.3185047 0.13920052 -0.30071822 -0.22332694 0.8720664 -0.48426053 -0.07455878
user374 0.22841145 0.04380068 -0.28398338 0.56942016 0.26300243 -0.5040437 0.053886976 0.4379507 -0.054157387 -0.29822358
user870 -0.17138317 -0.032564312 -0.19357197 0.43865675 0.34327772 -0.38458747 0.14352247 0.48559418 -0.20366427 0.055542115
movie134 -0.1042782 0.24003708 -0.11388081 0.31444776 0.43488318 -0.3106844 -0.102807485 0.58891904 -0.17867507 0.32679912
movie739 -0.069017164 0.5079563 -0.1032795 0.34461543 0.32762858 -0.17002884 0.27351972 0.4522735 -0.33372068 -0.08110298
user301 -0.16520737 0.1462847 -0.18280722 0.5349993 0.250512 -0.24704698 0.13600858 0.4797849 -0.06188215 -0.31000677
movie209 -0.12667145 0.3614446 -0.2496273 0.364856 0.3213807 -0.15717489 -0.035721194 0.57543945 -0.122705884 0.18155225
movie250 -0.04760066 0.40710974 -0.41443565 0.43480146 0.27313226 -0.23672703 -0.44478023 0.5028826 -0.08699149 -0.3163348
movie751 -0.12093864 0.44507805 -0.047917943 0.29512572 0.053285263 -0.1806377 -0.21134163 0.9691858 -0.26404932 -0.22944409
movie327 -0.4935829 0.48418087 0.11491856 0.41877797 0.28023973 -0.61170393 -0.41009158 0.4744895 -0.49382296 -0.0055370666
movie230 -0.2871283 0.4630328 -0.26652288 0.4230865 0.14982936 -0.19080916 -0.021145483 0.58862555 0.068293214 -0.044698514
user454 -0.1952765 -0.014648222 0.0941148 0.36794478 0.46239597 -0.18362875 0.03474906 0.72942746 -0.23718463 0.087412335
user533 -0.026750516 0.027921164 -0.16671823 0.42564154 0.44699913 -0.2781371 -0.010291644 0.4756038 -0.26506102 -0.22084768
user881 -0.19603004 0.18909262 0.017628212 0.5191996 0.40289384 -0.079176165 0.18295822 0.5321736 -0.08074435 -0.17230403
user500 -0.01632926 0.026378296 -0.19373806 0.39733928 0.39150468 -0.2706364 0.20921855 0.44982934 -0.47556365 -0.28645787
movie660 -0.05945768 0.3785802 -0.091205955 0.30640677 0.34072217 -0.20979716 0.13134356 0.58453834 -0.28350917 0.015610899
movie154 -0.23494452 0.36763614 -0.31725934 0.28374183 0.31233773 -0.04936066 -0.019381955 0.6020984 -0.22064367 0.11874885
user833 -0.15956451 0.028894732 -0.39679995 0.68774676 0.18262109 -0.44689173 0.005819475 0.32156685 -0.06509543 -0.0017993116
movie582 -0.15476294 0.20515017 -0.30208594 0.25888845 0.30400407 -0.31270847 0.03182867 0.57519203 -0.34304258 0.18483315
movie403 -0.14388351 0.5121819 -0.20897564 0.41997457 0.10724609 -0.27829766 0.25808695 0.53573513 -0.042307984 -0.123900265
movie304 -0.29136086 0.4251363 0.1741674 0.36316535 0.3622904 -0.11509866 -0.36059505 0.7576293 -0.5612208 -0.10374517
movie479 -0.16314097 0.21575774 -0.09475203 0.2755453 0.45971096 -0.26611397 -0.18973087 0.6465349 -0.17832398 0.29884112
movie732 -0.058317963 0.4165758 -0.14114946 0.2102009 0.34485698 -0.3084287 0.23219198 0.5168696 -0.3835821 -0.05828978
movie332 -0.33604732 0.49875775 0.33702558 0.45170715 0.21743098 -0.5449409 -0.32376638 0.6935502 -0.3908156 -0.16650432
movie480 -0.19270265 0.24126272 -0.17027874 0.31624013 0.3641966 -0.20984824 -0.23757608 0.72562504 -0.13249922 0.4056279
user244 -0.100381345 0.1238444 -0.18277727 0.3356579 0.37684977 -0.36964455 0.28914005 0.40294525 -0.3169852 -0.39279026
user313 -0.2781156 0.084125996 0.020478519 0.53622484 0.410775 -0.124125466 0.024652405 0.59112614 -0.062512 0.11830969
movie692 0.028405463 0.34628943 -0.14727862 0.25748056 0.3467882 -0.2162395 0.06789019 0.63810086 -0.22918242 -0.020320486
movie248 0.15570313 0.3974296 -0.36420947 0.32128403 0.37440953 -0.14389239 -0.2751497 0.53767306 -0.34320116 -0.3040362
user788 -0.2288719 0.18699545 -0.03601649 0.46251062 0.25531852 -0.4347447 0.22052625 0.49530992 -0.08471073 -0.12741013
movie23 -0.12081678 0.24271846 -0.22512043 0.29073185 0.32718316 -0.5605003 -0.16063643 0.53397536 -0.124278486 0.24791284
movie315 -0.36436912 0.5963846 0.04347201 0.022853427 0.040740002 -0.39948055 -0.12705538 1.0010332 -0.49821484 -0.15287907
movie310 -0.22237262 0.4715399 0.1528342 0.3204335 0.13808316 -0.38919064 -0.31304446 0.8756494 -0.4025016 -0.065422446
user919 -0.12289661 0.07004145 0.0016634102 0.5214871 0.3909556 -0.265366 -0.07663185 0.5019402 -0.46104506 -0.30529222
movie443 -0.23866282 0.38978365 -0.1605701 0.5544059 0.39617336 -0.32809886 -0.110818915 0.29888013 -0.061694518 0.21943155
movie474 -0.21942432 0.25031275 -0.23292653 0.36194235 0.33710235 -0.22693285 -0.17250378 0.6328461 -0.065795496 0.3467216
movie203 -0.02180178 0.3215379 -0.28901154 0.30048934 0.26278135 -0.3540287 -0.03751625 0.59483355 -0.099800654 0.055742342
movie628 0.117272854 0.3890329 -0.14316852 0.3294324 0.4017265 -0.62544477 -0.26838726 0.40103912 -0.2420156 -0.1934337
user666 -0.11487601 -0.0815465 -0.1324523 0.42683145 0.33411875 -0.46194002 -0.0573585 0.59890074 -0.1371248 0.06485828
movie137 -0.011595717 0.16563314 -0.55039126 0.24229693 0.38414657 -0.34857646 -0.40443733 0.4819126 -0.5251929 -0.04271514
user942 -0.27815953 0.06967607 0.20750943 0.38524473 0.3676374 -0.16799219 -0.13796712 0.896949 -0.16159412 0.12845048
movie433 -0.2413209 0.3752242 -0.30606452 0.35756978 0.2827115 -0.24959221 0.12263003 0.43944257 -0.23880927 0.11781303
user305 -0.06583162 -0.1443201 -0.2732027 0.46452153 0.27258244 -0.2931644 0.054251008 0.6319846 -0.2904662 0.11553047
user339 -0.33942682 0.020504069 -0.20480487 0.5170871 0.20558912 -0.3270274 0.029499384 0.56198573 -0.13487993 0.056577723
user343 -0.23687981 -0.018299434 -0.29917252 0.4324394 0.26470235 -0.36144343 0.07466274 0.4890721 -0.3145505 -0.09389544
movie243 0.011613252 0.41964856 0.33296314 0.6006168 0.35094357 -0.23444036 -0.24583179 0.6906597 -0.15428166 -0.13698414
user506 -0.16794008 0.06613614 -0.015445325 0.520027 0.27122545 -0.1633388 0.20539574 0.6593919 -0.13512295 0.02391959
user932 -0.17224786 -0.06912632 -0.109394416 0.57037854 0.51384896 -0.030702567 0.04577667 0.5068549 -0.20696755 0.31834856
user65 -0.15014786 -0.0067417594 -0.013987796 0.34033588 0.43348768 -0.31585318 0.15161823 0.59955007 -0.21188888 -0.12557028
user606 -0.15028894 0.12615064 -0.09666576 0.5396698 0.34534597 -0.27795082 -0.036943883 0.46648392 -0.11697665 -0.3091259
user731 -0.0757045 -0.08274865 -0.011576301 0.39652097 0.5281393 -0.11487121 0.06138414 0.705058 -0.14489323 0.30916077
movie651 -0.17096561 0.32185686 -0.18071671 0.24201638 0.28845233 -0.34480464 0.073895544 0.620963 -0.12266251 0.10370235
movie684 -0.02130545 0.31453255 -0.21575297 0.31672493 0.1308602 -0.47360495 0.08796396 0.6783538 -0.04032427 0.08248889
user486 0.2423441 -0.009413995 -0.367687 0.6414568 0.3679678 -0.3302916 -0.2793898 0.35099164 -0.5474357 -0.32814392
user591 -0.28262317 0.028283352 -0.13273147 0.2354616 0.55839616 -0.15381768 0.23143046 0.46738818 -0.5503555 -0.0012000323
user790 -0.04966255 0.23105414 -0.14788957 0.5628077 0.248391 -0.13015515 0.27747145 0.457659 -0.23619294 -0.40267396
user886 -0.15611553 0.13194028 -0.1969307 0.48832276 0.21665569 -0.5026505 0.3421331 0.3730949 -0.17930609 -0.17056078
movie218 -0.25185135 0.4767143 -0.23933159 0.5589434 0.24892266 -0.53570014 0.02696735 0.20804597 -0.036013663 -0.048700817
user207 0.12742874 -0.096198626 -0.2352231 0.45209798 0.2959335 -0.37691593 0.04997983 0.6144835 -0.15048245 -0.13265891
movie511 -0.16334839 0.25237674 -0.17315519 0.28792968 0.42528462 -0.116066374 -0.18732609 0.6714444 -0.18824632 0.27990204
movie199 -0.015662748 0.13750473 -0.06046636 0.29962182 0.49140742 -0.1957255 -0.20734419 0.73178375 -0.25644898 0.37939203
movie411 0.2562844 0.4765491 -0.07022122 0.5096778 0.52133036 -0.30326378 -0.14797142 0.31343755 -0.1398307 -0.37742135
movie24 0.08995306 0.43523595 -0.35233295 0.4677295 0.28409487 -0.19005546 -0.30830157 0.49351427 -0.11848766 -0.2814407
movie566 -0.077968836 0.3880445 -0.15536693 0.2525311 0.22739735 -0.44499257 0.16800165 0.5978445 -0.039263338 0.02438507
user892 -0.17025201 0.0895577 -0.03711486 0.50463504 0.39495194 0.013733322 0.15561563 0.65066177 -0.07242994 0.0076837325
user851 0.20164451 0.11822931 0.07109084 0.7277974 0.2525123 -0.31269413 -0.10594869 0.6140163 -0.041072305 -0.2956894
user622 -0.16813056 0.14673258 -0.22704947 0.54885125 0.26914886 -0.12626012 0.18057796 0.47388998 -0.17468755 -0.23121785
user409 -0.05692865 -0.2286746 -0.049402203 0.712074 0.39776385 -0.26644447 -0.013893597 0.5487798 -0.19640924 0.4633447
user312 -0.2317436 -0.10297293 -0.14802058 0.4804975 0.56809884 -0.042881783 0.0054910863 0.509191 -0.3136358 0.3736201
user338 -0.2607318 -0.10253395 0.03813658 0.3812507 0.61174214 -0.0744929 -0.13894802 0.6862528 -0.2773116 0.38217753
user660 -0.35691538 0.23499003 -0.17987704 0.5353569 0.21501188 0.019616678 0.06766843 0.5841203 -0.12359401 -0.29555804
user87 -0.10730023 0.28339636 -0.11577976 0.37941307 0.28873685 -0.2030692 0.47533906 0.44802487 -0.38522792 -0.33787805
user487 -0.14741078 0.1693572 -0.078379266 0.4850307 0.19126648 -0.30933386 0.26302698 0.56240374 -0.11512594 -0.35440812
movie763 0.2661376 0.43697825 -0.10140689 0.33567074 0.42800394 -0.38843343 -0.23485543 0.51675296 -0.1579148 -0.36302102
movie193 -0.014458417 0.27004686 -0.14638132 0.39310405 0.3080078 -0.20719923 -0.041778732 0.6878171 -0.047172297 0.20444666
movie86 0.02133332 0.1509756 -0.18095799 0.18003374 0.45223522 -0.36343363 0.034632884 0.5941941 -0.4694243 0.19962871
user60 -0.20624214 -0.024004469 -0.019132024 0.56968313 0.56151676 -0.097342424 0.06414276 0.48158193 -0.10815696 0.38249806
movie252 0.24386837 0.4016969 -0.1591118 0.5147446 0.33217087 -0.12757017 -0.3443197 0.6321038 0.047641438 -0.40715924
movie281 0.2069186 0.40592813 -0.24039406 0.32223955 0.4477736 -0.44021788 -0.21426174 0.39794776 -0.22681539 -0.3529095
movie347 -0.28064454 0.591425 -0.14475982 0.25917152 -0.055882037 -0.1970072 -0.10979601 0.9042903 -0.59186006 -0.07353764
movie472 0.20113446 0.5489796 -0.14522102 0.42259282 0.38680503 -0.2035786 -0.17352784 0.49593425 -0.04051207 -0.4070477
user407 -0.2903349 0.16448182 -0.114412904 0.4235123 0.3348172 -0.29593563 0.10405473 0.48397526 -0.12221048 -0.19643037
movie498 -0.01622777 0.21882978 -0.15703556 0.33562797 0.48502558 -0.15988451 -0.19198032 0.6345961 -0.18853334 0.35695302
movie293 0.10675081 0.383307 -0.31938437 0.36216885 0.3771853 -0.47416282 -0.39293852 0.39314628 -0.38969177 -0.2881284
user6 -0.080459416 -0.07628885 -0.124384895 0.41388676 0.49003538 -0.19812332 -0.11373915 0.59400797 -0.38398546 0.05401923
movie1028 0.36504778 0.4975043 0.024254445 0.37341264 0.50630707 -0.34418878 -0.15831165 0.48197475 -0.15238133 -0.32573757
movie226 -0.013672105 0.46455 -0.3263946 0.47724235 0.0776381 -0.46826008 0.15562151 0.4356103 0.05683817 -0.1860917
user109 -0.13270278 0.16847964 -0.17428602 0.5365239 0.18200094 -0.33787206 0.17435335 0.5005176 -0.039274853 -0.34766555
movie523 0.009286095 0.25066066 -0.061210845 0.2727683 0.46575686 -0.25480244 -0.09361452 0.661998 -0.24184042 0.2776627
user456 -0.08758228 -0.01895399 -0.36498114 0.56410164 0.18311141 -0.44600987 0.087319106 0.42974094 -0.21514522 -0.07226076
movie654 -0.17601077 0.20680316 -0.25546682 0.25192764 0.38664514 -0.38846737 -0.08471849 0.5647806 -0.21495754 0.37554944
movie685 0.30652216 0.48654476 -0.09561854 0.40558308 0.31396514 -0.48898047 -0.1380183 0.5075625 -0.026670964 -0.3537027
movie42 -0.074745335 0.37551495 -0.40022478 0.30748755 0.2542948 -0.37643528 0.014657259 0.43714452 -0.27818587 -0.03137647
user495 -0.33434874 0.1733446 -0.12844755 0.6318166 0.22681306 -0.10034104 0.19968434 0.4867534 -0.0182207 -0.11684668
user455 -0.11194707 -0.011845953 -0.19931905 0.37539792 0.27189404 -0.41944957 0.02667332 0.5782169 -0.27317885 -0.30470338
user908 -0.2895157 -0.074316755 -0.036587596 0.5271877 0.5146077 -0.34843305 -0.20172071 0.49867904 -0.033440687 0.21742484
user562 -0.30821276 -0.012340187 -0.18354866 0.47698876 0.2644512 -0.23229079 -0.035915956 0.6808603 0.08905116 -0.027383428
movie462 -0.033734657 0.15375364 -0.32273796 0.23349321 0.37913692 -0.24554308 -0.0989489 0.6383408 -0.37439486 0.19180866
user372 -0.6370555 0.23484917 0.019923382 0.84078306 0.33280063 -0.9722077 -0.11168358 -0.13483787 -0.043128695 -0.02644842
user200 -0.12934029 0.24571648 0.0031470188 0.6341653 0.29833412 -0.08874381 0.16541623 0.5026307 -0.02429893 -0.34797937
user316 -0.23236905 -0.20163256 -0.0184509 0.42843565 0.54197407 -0.26210052 -0.0981116 0.61628574 -0.2093329 0.15818425
user518 0.3827416 0.0076354016 -0.3849573 0.47799894 0.5509047 -0.5385669 -0.3884963 0.26446292 -0.28879005 -0.6688064
movie188 -0.03990157 0.400479 -0.24674572 0.38309178 0.19154091 -0.36873847 0.025204608 0.569836 -0.05338691 0.071432784
user295 -0.1581487 0.14381222 -0.087108664 0.41214526 0.40272725 -0.07613125 0.34239593 0.5208378 -0.20121531 -0.27362928
movie213 -0.06270385 0.20748234 -0.25998318 0.25406775 0.4059567 -0.1746611 -0.032924708 0.6130673 -0.42939487 0.22432177
movie77 -0.09066146 0.42159313 -0.14057368 0.40122584 0.16516551 -0.48414543 0.15808718 0.53110886 -0.058296196 -0.0805186
movie240 0.005506719 0.4537143 -0.31656486 0.48373777 0.3621002 -0.2301454 -0.18755499 0.34225705 -0.107303545 -0.25263715
movie418 -0.23607597 0.5059935 -0.15176362 0.43076625 0.41077402 0.086566046 -0.036660362 0.50737613 -0.11706433 -0.013478742
movie150 -0.10949349 0.35049692 -0.4177281 0.31794405 0.40480694 -0.4072279 -0.40843743 0.34160125 -0.40655744 -0.24046785
movie239 -0.024691122 0.4630832 -0.15449667 0.31922236 0.2668271 -0.22633807 0.21579537 0.5525554 -0.16539688 -0.1083157
movie756 0.3437519 0.5309324 0.008726133 0.32955796 0.5369963 -0.23761234 -0.16680498 0.4934335 -0.2092718 -0.4524239
movie705 -0.091932505 0.23187694 -0.08095483 0.32122147 0.47876722 -0.14895524 -0.14908375 0.6821445 -0.13816515 0.36640024
user144 -0.14060205 -0.049460392 -0.2808401 0.31202435 0.34650669 -0.23952484 -0.07315408 0.646272 -0.39621484 -0.19057094
movie431 -0.13909543 0.40303648 -0.32505053 0.4584703 0.23049352 -0.10093014 -0.1407378 0.5928788 0.05410589 0.0042690113
movie87 -0.017418815 0.27564925 -0.14475709 0.3157302 0.33046222 -0.2257021 0.042227443 0.6715293 -0.1754374 0.12998885
movie866 0.3120676 0.45458058 0.009492177 0.3269289 0.6188191 -0.33895868 -0.2619527 0.40228465 -0.26375154 -0.4262683
user452 -0.1926395 -0.0580213 -0.07713524 0.55463517 0.4881002 -0.1274242 0.0047482634 0.49350038 -0.25034377 0.10259762
movie410 0.17653991 0.4494399 -0.32037488 0.40246347 0.3425772 -0.3265207 -0.2792935 0.4349788 -0.20653655 -0.33414513
user872 0.35304737 0.2794979 0.16357926 0.54459524 0.30834466 -0.49242377 -0.11530046 0.6396862 0.029907344 -0.56741416
movie325 -0.21017444 0.35752574 -0.050737977 0.6090069 0.42314583 -0.5340628 -0.3959441 0.23000064 -0.36679813 -0.06435461
movie229 -0.1488319 0.45244676 -0.2174832 0.4428664 0.11625838 -0.10518783 0.09560938 0.6913922 0.10286242 -0.012945658
movie879 -0.19145328 0.3906304 0.31845883 0.41827273 0.21277042 -0.4310839 -0.30728287 0.8578492 -0.23664945 -0.10660168
movie559 -0.35483637 0.51918584 -0.28345916 0.56645495 0.27209246 -0.42310825 0.10585617 0.124495134 -0.14855905 -0.011911513
movie303 -0.41333777 0.39494082 0.009325432 0.24453266 0.4147815 -0.21874958 -0.21436468 0.56840503 -0.86137044 -0.0074127642
user774 -0.36801088 0.20738465 -0.1266177 0.6164863 0.23192668 -0.33015275 0.163587 0.364809 0.0413225 -0.2647676
movie735 -0.009123077 0.30116245 -0.12148497 0.24397345 0.3366327 -0.4472021 0.11243661 0.5888405 -0.22319034 0.12572968
movie485 -0.09990278 0.25813097 -0.16120374 0.35549653 0.5084507 -0.11542557 -0.07582069 0.55498636 -0.13866638 0.2697737
movie484 -0.115914635 0.25618967 -0.088705696 0.25422934 0.40690896 -0.28407028 -0.21795146 0.75907004 -0.067054294 0.37653676
movie164 -0.37690824 0.5107657 -0.23575795 0.54927856 0.3484049 -0.34835654 -0.18804674 0.23918262 0.018521328 -0.04188826
user425 -0.28404745 0.10358123 -0.34281093 0.5921809 -0.04252365 -0.44425166 -0.04903685 0.6312716 0.04345387 -0.17398185
movie358 -0.21563643 0.4246957 0.06674413 0.57156974 0.157721 -0.41042662 -0.3427938 0.65218294 -0.11006331 -0.1647757
user543 -0.16816589 -0.004877429 -0.33824733 0.36252868 0.22341013 -0.3844051 0.20860107 0.5349647 -0.24127516 -0.0751951
movie292 -0.2878186 0.2986057 0.23755449 0.45103264 0.3094283 -0.52567434 -0.18980098 0.5882803 -0.53472865 0.016421994
movie190 -0.1904373 0.16086161 -0.31348297 0.3289292 0.37057596 -0.21555705 -0.07271849 0.5795999 -0.19679756 0.3367951
movie596 0.15849514 0.47291616 -0.16727561 0.38567278 0.42694324 -0.08506088 -0.30452278 0.5551571 -0.1670782 -0.47977674
user102 -0.43625888 0.26852787 -0.09755582 0.5670891 0.17025192 -0.2487162 0.029386902 0.5241755 -0.003347229 -0.2544904
user843 -0.52919275 0.14392076 -0.07665145 0.66355366 0.3146799 -0.16825329 0.031180367 0.4242133 0.08822057 0.0056269197
movie148 0.13522129 0.463198 -0.16650261 0.4121751 0.35473126 -0.4578287 -0.22643735 0.41915807 -0.04508982 -0.27291057
user460 -0.19985355 -0.098053604 -0.5927836 0.430315 0.46543908 -0.1539467 -0.52992153 0.36376515 -0.77547646 -0.43453842
user860 -0.32368004 0.24183328 0.027986472 0.09959114 0.33114433 -0.30235666 0.05257286 0.7168248 -0.7056979 -0.21167533
movie156 -0.18576556 0.3703159 -0.4125403 0.36073682 0.20403352 -0.36525422 -0.09144804 0.5029653 -0.019134926 -0.0016412137
user868 -0.3437699 0.17471851 -0.27040234 0.5416052 0.25683296 -0.043247536 0.1353238 0.46193284 -0.16585763 -0.21102767
user64 -0.29605886 0.066939265 -0.2232153 0.35963988 0.22350883 -0.24903618 0.039677583 0.67917407 -0.11858969 -0.16413628
user421 -0.43288437 0.023409082 -0.2333697 0.49327105 0.24632497 -0.59168595 -0.21461144 0.48416758 0.048693035 0.13738175
user24 -0.22039993 -0.029095914 -0.17860022 0.34090444 0.37727943 -0.5456943 -0.16915837 0.5347096 -0.16384803 -0.17523484
movie227 -0.098775156 0.4965006 -0.20040894 0.43225095 0.13952641 -0.14458355 0.12507397 0.6442792 0.019320719 -0.12891252
user189 -0.004528583 -0.17948122 -0.2709058 0.45891526 0.46375626 -0.16831005 -0.08707471 0.58153546 -0.3549925 0.09851499
movie223 -0.12460251 0.262015 -0.24386884 0.32795322 0.3308481 -0.4676084 -0.13674474 0.49738857 -0.14351556 0.14505558
movie94 -0.12596719 0.5815841 -0.14006585 0.49265 0.29471025 0.06748264 0.25605622 0.4546765 -0.17200148 -0.19575712
movie47 -0.18848674 0.3146245 -0.31505042 0.3321923 0.38893974 -0.31461594 0.022984756 0.38342956 -0.29799795 0.12019604
movie242 -0.2587856 0.29628783 -0.11082327 0.34523547 0.4472998 -0.2575318 -0.18475817 0.40712965 -0.9210619 0.042763844
user458 -0.0034039048 -0.15328346 -0.26227537 0.38323987 0.38270235 -0.44083217 -0.058122717 0.5410286 -0.35704353 -0.0050379774
user206 -0.25171438 0.31238994 -0.093765326 0.40644267 -0.36626774 -0.5524149 0.22400038 1.0340273 -0.6948795 0.010520184
user89 -0.12653926 -0.0047538276 -0.21678522 0.30200422 0.50591934 -0.23293278 -0.04937724 0.45905057 -0.58348036 -0.3026644
user514 -0.14403252 0.02324039 -0.162302 0.2914295 0.29621565 -0.26550862 0.13854255 0.6969957 -0.25865448 -0.16093616
movie455 0.019417824 0.3631678 -0.44730848 0.49853018 0.30459285 -0.3017514 -0.41390577 0.41016343 -0.077007875 -0.1817362
user479 -0.09388849 0.026335314 -0.09859948 0.5006974 0.29869834 -0.18291691 -0.070262715 0.69941336 -0.029684443 -0.13526987
user21 -0.3550904 0.25493452 -0.0044019553 1.2347257 0.38131613 -0.4882496 -0.2193484 -0.17896323 -0.047104016 -0.09438763
movie270 -0.42364693 0.46334934 -0.028140781 0.42927426 0.14706145 -0.29516456 -0.26843706 0.6456192 -0.4726066 -0.016125476
movie91 -0.19511557 0.4646979 -0.26279467 0.48444173 0.21653955 0.016657615 -0.054788724 0.61612356 0.05058149 -0.084157646
user840 -0.20965192 -0.07764059 -0.16952357 0.4902383 0.39072567 -0.20725557 0.06284946 0.5599123 -0.21603347 0.2669822
user643 -0.14926104 0.053984758 -0.17800038 0.4399139 0.37989625 -0.26105487 0.023157753 0.5224612 -0.115457594 -0.13712628
user246 -0.32532877 0.28449276 -0.21085528 0.68634737 0.2021803 -0.16528516 0.20040211 0.32488587 -0.009950062 -0.32513255
user379 -0.31398183 0.06375027 -0.14653091 0.43525442 0.33289364 -0.12411347 0.15679313 0.58397067 -0.19201484 0.025126234
movie550 -0.08827348 0.5403186 -0.27588525 0.41808674 0.10237315 -0.30008525 0.16127343 0.53625226 0.03829308 -0.17339838
movie750 -0.18774222 0.43492946 -0.015095806 0.26156172 -0.09608821 -0.4334157 -0.11490109 1.0114108 -0.41192716 -0.039360765
movie699 0.10729902 0.30007958 0.026957942 0.23990633 0.44130865 -0.3239927 0.12481245 0.6657985 -0.16543977 0.14871877
user659 -0.11851168 0.0136872735 -0.0023883134 0.4768582 0.42375955 -0.28818852 0.09528409 0.56481504 -0.15166274 0.21211417
movie246 -0.05872131 0.27539647 -0.5073248 0.34212977 0.43805385 -0.28531423 -0.39735276 0.3274154 -0.4375069 -0.23475495
movie531 -0.1643789 0.15373768 -0.30288613 0.27998996 0.4405245 -0.32877684 -0.15619774 0.48438236 -0.4218176 0.2000873
user42 -0.05342625 0.16270329 0.14942017 0.49088183 0.49071524 -0.28362054 0.27041245 0.4440901 -0.14554738 -0.27009892
movie31 -0.031262264 0.48032725 -0.03534737 0.39322776 0.33076718 -0.36765033 0.098812655 0.47540417 -0.027529672 -0.06381373
movie509 -0.013305162 0.17467365 -0.3607329 0.25513545 0.3900704 -0.42218438 -0.009803911 0.44574744 -0.4458359 0.14555751
movie116 -0.01972565 0.089479476 -0.5541873 0.19182763 0.47660458 -0.24882002 -0.1734444 0.41120458 -0.7299992 -0.055315312
movie291 0.3214813 0.36238912 -0.08179732 0.43787584 0.49270338 -0.510793 -0.30565113 0.39381117 -0.1364422 -0.26789364
movie447 -0.43018377 0.50023746 -0.2624742 0.5583583 0.29754135 -0.38815215 -0.090159185 0.20702136 -0.027833253 0.067541584
user324 -0.14622095 0.2073052 0.13334978 0.50053734 0.33731169 -0.4851129 -0.35697886 0.5769766 -0.37435997 -0.44325364
movie231 -0.13467501 0.50735873 -0.29572865 0.34358838 0.15056765 -0.13729078 0.12938266 0.6057281 -0.048847765 -0.19001533
user679 -0.37257543 0.023184048 -0.083569735 0.34357044 0.42293206 -0.19044834 -0.10827054 0.6454972 -0.108405836 -0.29599756
movie1047 0.34081888 0.4893511 -0.1168011 0.40359998 0.45574838 -0.26920554 -0.15527643 0.4432562 -0.21115045 -0.40159693
user332 0.046747655 0.20862044 0.0013161598 0.5811726 0.20231643 -0.5474911 0.042237945 0.49817395 -0.02625657 -0.48915842
user56 -0.19651335 0.22038293 -0.071834475 0.55390847 0.36864817 -0.12393072 0.2910957 0.3821167 -0.17184402 -0.39590147
movie382 -0.16669175 0.25067997 -0.2938891 0.25884125 0.47371724 -0.18055926 0.058099 0.43662253 -0.45753714 0.18144356
movie482 -0.07592055 0.1294104 -0.13305141 0.25922227 0.53003114 -0.18999067 -0.23297527 0.7036387 -0.2070178 0.52505195
user930 0.041213892 -0.08139982 -0.29264686 0.25176057 0.43179196 -0.3344871 -0.19442791 0.6460495 -0.32670206 -0.33662584
movie1016 0.15406212 0.43381882 -0.1514785 0.5162043 0.28057027 -0.4070655 -0.30122158 0.49234945 -0.023479035 -0.28963664
movie225 0.22663726 0.5022316 -0.19409408 0.5262494 0.4209581 -0.10544808 -0.10323352 0.39650232 -0.10622715 -0.29730678
user10 -0.22660501 -0.03854759 -0.13809787 0.41209784 0.43312752 -0.15359965 -0.060842074 0.63041836 -0.22277446 0.16209897
movie249 0.11840896 0.44367725 -0.30045545 0.33468008 0.22641616 -0.28434488 -0.36553407 0.664465 -0.17551102 -0.37013537
user318 -0.25120404 0.1486739 0.034371324 0.3699884 0.47142893 -0.05233829 0.14050856 0.56490934 -0.43749917 -0.119747594
movie73 -0.14913425 0.5393446 -0.0702743 0.35349602 0.28102845 -0.1701092 0.25952795 0.50911176 -0.19332106 -0.17318408
movie65 -0.03419874 0.42424393 -0.20911592 0.4318463 0.30362803 -0.23491092 0.11999548 0.43448785 -0.21388808 0.049125556
user346 -0.20937702 0.12532948 -0.1889585 0.5653508 0.052380145 -0.4254487 0.19540805 0.56910247 0.02444005 -0.2625067
movie815 0.3158227 0.504974 0.063882284 0.32930136 0.5509382 -0.31768852 -0.17414972 0.48271322 -0.3305254 -0.41735384
user347 -0.017755039 0.16903202 -0.063636996 0.5248068 0.25886905 -0.41396168 -0.039390415 0.5528796 -0.07364746 -0.33980852
user608 -0.2582358 -0.038122766 0.0060258578 0.31483307 0.43629295 -0.38952425 0.014201165 0.6083895 -0.44340158 0.10014829
user719 -0.0722519 -0.017458705 -0.08419648 0.38554394 0.44477025 -0.38951805 -0.16621196 0.60490733 -0.10606529 -0.22683927
user119 0.117774494 0.08187256 -0.098938264 0.41998437 0.3086354 -0.34499368 0.035159875 0.6180397 -0.26008636 -0.3455521
user125 -0.24573763 0.24205059 -0.1067121 0.4680672 0.48233137 0.07691457 0.22534339 0.3887115 -0.38392 -0.28381717
user254 -0.3212375 0.32383338 0.092764795 0.6824447 0.4346637 0.19981688 0.09906286 0.47582543 -0.08833001 -0.19426262
movie129 -0.0050195493 0.23338957 -0.63011235 0.3085679 0.3652368 -0.5208158 -0.39299825 0.28635627 -0.4657831 -0.12363697
movie324 -0.3153921 0.29724962 -0.03829621 0.6572988 0.3129882 -0.5470272 -0.41075543 0.33490676 -0.38045955 0.105746806
user274 0.13837425 0.090905316 0.12450619 0.4303769 0.612915 -0.40394622 -0.19183296 0.47857445 -0.21508798 -0.4313622
movie55 -0.14623536 0.40877396 -0.41431016 0.37397864 0.07201254 -0.4412077 -0.043648988 0.5467694 0.010145694 -0.05369951
user96 -0.3102261 -0.045851365 -0.12493233 0.4059382 0.30822593 -0.4462706 -0.111225545 0.6907665 0.12910421 0.15537047
movie657 -0.16087057 0.25505152 -0.28542614 0.33086365 0.34517312 -0.4105981 -0.17756659 0.5281669 -0.11639347 0.3513075
movie109 -0.13472308 0.41571587 -0.33191144 0.44065496 0.41457286 -0.16745861 -0.38582307 0.3904412 -0.12891594 -0.22190705
movie217 -0.42736867 0.5091787 -0.32089654 0.5176718 0.22810242 -0.38819063 -0.009909419 0.20647821 -0.08631253 -0.17309056
movie343 -0.3743247 0.46850538 0.029975828 0.5190782 -0.013914468 -0.40122843 -0.34818286 0.80393016 -0.10684398 -0.15759127
movie762 0.26034316 0.37245584 -0.19693261 0.22520247 0.52082515 -0.53433996 0.02412191 0.2948992 -0.5120261 -0.2393539
user823 -0.29590717 0.0313527 -0.20664033 0.4816029 0.3084581 -0.21528637 0.019115888 0.5383827 -0.10273012 -0.12996809
user897 -0.035148185 0.108454935 -0.054774843 0.52544886 0.36507934 -0.12040485 0.0054018307 0.65153486 0.09125882 -0.20616369
user122 -0.10426615 -0.065624386 -0.08337236 0.29109508 0.2916712 -0.47402626 0.5068769 0.6253814 -0.27020374 0.24025957
movie331 -0.35795033 0.49103272 0.29342797 0.42299291 0.21410847 -0.5152271 -0.30519032 0.71042436 -0.42685547 -0.08464911
movie501 -0.16223931 0.4821524 -0.048854515 0.48719886 0.44985887 0.21112426 0.07285233 0.56016797 -0.10614418 0.034023933
movie528 -0.09134739 0.20792384 -0.098266855 0.23154128 0.4980601 -0.38844806 -0.1744165 0.6217246 -0.12954497 0.32430568
movie520 -0.052444525 0.32193163 -0.0070866677 0.26978052 0.3619423 -0.33588567 -0.06611347 0.7299245 -0.060155712 0.24982196
user490 0.07777542 -0.1266627 -0.5728148 0.59451777 0.4831358 -0.18897231 -0.6454979 0.37118763 -0.4503287 -0.49620613
movie241 -0.07049097 0.41049427 -0.22063717 0.3678192 0.27088448 -0.34344742 0.18395866 0.46121964 -0.08745126 -0.05340726
movie346 -0.42200017 0.53665483 -0.14589356 0.3387567 -0.068984866 -0.42536741 -0.21470563 0.7540071 -0.5168577 -0.14388207
user180 -0.2993915 0.08336076 -0.26863918 0.31130737 0.23699933 -0.39129952 0.3005248 0.50484866 -0.22154537 -0.3046735
user326 -0.42879155 0.094001696 -0.068601094 0.6055545 0.32867506 -0.1873342 0.014095269 0.5288692 0.09170984 0.081153765
movie178 -0.08079711 0.2935132 -0.057002082 0.26219973 0.39417195 -0.34068638 0.024595188 0.6229402 -0.21465544 0.29941347
user933 -0.22208492 0.18966398 -0.23527187 0.52097195 0.25682238 -0.24429455 0.10353567 0.48367953 -0.021833185 -0.23593335
movie504 -0.08634993 0.19995415 -0.10672162 0.27625415 0.48748934 -0.41016686 -0.03952618 0.553789 -0.11981439 0.3882134
movie631 -0.08191292 0.33721325 -0.19730392 0.33936432 0.28911272 -0.31830078 0.10148535 0.53132457 -0.22530864 0.13571407
user83 0.0020163294 0.29901132 0.20388615 0.5351414 0.5067289 -0.030569024 0.23983456 0.47029468 -0.22436106 -0.41834265
user734 -0.14021952 -0.07578838 -0.06957847 0.30627832 0.47435495 -0.15935908 -0.095033206 0.76707715 -0.1669754 0.0009565383
user398 -0.13241445 -0.024734652 0.09743638 0.42031717 0.4805435 -0.13823988 0.14928834 0.6847268 -0.14612226 0.054611996
movie123 -0.0061774426 0.4302986 -0.3328965 0.5040221 0.41493678 -0.40649512 -0.3817625 0.24562137 -0.121521145 -0.32231945
movie316 -0.32210192 0.55118376 -0.08454076 0.18637912 0.015717313 -0.277068 -0.1735144 0.9139581 -0.45498145 -0.09479399
movie526 0.0054388377 0.34250957 -0.118179314 0.44690815 0.3725013 -0.107747726 0.07595295 0.5917695 -0.016870525 0.21864934
user766 -0.30595404 0.03174639 -0.04278781 0.46702856 0.4427831 -0.114658855 0.07325104 0.5655985 -0.1237471 0.1061478
movie659 -0.10499631 0.27846253 -0.08577584 0.34200877 0.53273964 -0.16588332 -0.102505155 0.53369343 -0.24258734 0.29638234
user795 -0.19058472 0.21546276 -0.19680145 0.6264852 0.298259 -0.12875967 0.08730044 0.36605582 -0.15045723 -0.3687622
movie205 -0.048216052 0.264125 -0.0560421 0.43360013 0.47640568 -0.14094315 -0.058973912 0.5775018 -0.107913956 0.44081244
movie381 -0.17836234 0.37771115 -0.3029729 0.16816342 0.3319485 -0.15886647 0.18576133 0.5308791 -0.5014832 0.0738811
user2 -0.22007485 0.057010483 -0.17332877 0.27726895 0.48098052 -0.23006348 -0.2766895 0.5513284 -0.7899247 -0.39975885
user536 -0.33973992 0.05915707 -0.04871151 0.4800876 0.40239236 0.042572353 0.08155731 0.6240861 -0.1714818 -0.14283267
movie170 -0.096520066 0.08081262 -0.33087474 0.30655423 0.42648005 -0.26611796 -0.04279623 0.53965145 -0.396289 0.3624348
user267 -0.2321955 0.09895693 -0.3449897 0.5477508 0.11573002 -0.24367301 0.093265094 0.5634754 0.038538888 -0.32724652
movie682 -0.3282501 0.47157478 0.31994975 0.5948895 0.11886723 -0.4896253 -0.29466903 0.72348297 -0.18799432 -0.10058497
movie169 -0.26760563 0.30725902 -0.46156502 0.26347804 0.29550487 0.027244274 -0.25280967 0.67779803 -0.17616194 0.038752533
movie428 -0.16971853 0.3253183 -0.21175213 0.33577856 0.44107386 -0.17010559 -0.007935784 0.49916986 -0.22458506 0.28778267
movie2 -0.023316221 0.43441418 -0.36044958 0.46371838 0.0870655 -0.24336153 0.17976072 0.56094927 0.031805243 -0.029590778
movie378 -0.009400209 0.37829491 -0.029633885 0.41897154 0.47210068 0.034986258 0.11544176 0.5784343 -0.13647804 0.1403653
movie93 0.037590787 0.27183977 -0.45055038 0.4226404 0.3773421 -0.39256346 -0.37145215 0.32383388 -0.45856422 -0.13359137
movie72 -0.17546302 0.58448535 -0.11134994 0.35120535 0.40746564 -0.16923037 0.24170965 0.33437064 -0.2475612 -0.06790603
user787 -0.24128985 0.056152593 0.13395098 0.39790508 -0.09813569 -0.46482366 0.0069022337 1.0973138 -0.55165565 -0.113038115
movie38 0.08263791 0.56875646 -0.18694952 0.43333772 0.21329276 -0.24300778 0.36878434 0.45437026 0.010866026 -0.23074779
user348 0.31755325 0.25052342 0.0938285 0.5327454 0.5562444 -0.40955803 -0.09310029 0.34544688 -0.19378862 -0.78172
movie473 0.018775849 0.36057398 -0.2950349 0.3794459 0.47598165 -0.13061857 -0.29985565 0.4531748 -0.2479562 -0.15852506
user934 -0.22686699 0.002718225 -0.10591818 0.4951223 0.41464356 -0.09250642 0.12927353 0.5259642 -0.34093553 0.10453181
movie380 -0.17887802 0.49117506 -0.18531042 0.46543735 0.15079826 -0.16401789 0.11586871 0.57277554 -0.06922924 -0.13851617
user815 -0.22765553 0.1030373 -0.061724015 0.5334887 0.43717936 0.078650855 -0.012371695 0.6161082 -0.062376205 -0.08870521
movie708 -0.13145606 0.23740685 -0.23397711 0.22183351 0.34824377 -0.4209127 0.13962926 0.5241902 -0.28805307 0.15703034
movie928 0.1505889 0.5992439 -0.1714813 0.5242884 0.42512703 -0.3512156 -0.08029646 0.20601359 -0.07720958 -0.42365456
movie421 -0.100413226 0.3614331 -0.3511872 0.3811472 0.23025908 -0.21301937 -0.031238444 0.5565454 -0.07416017 -0.039084937
movie260 -0.2325965 0.5022285 0.113364354 0.6014767 0.23262943 -0.3703128 -0.2531585 0.5158335 -0.19912733 -0.024541186
movie510 -0.093835644 0.28698072 -0.10017599 0.45027283 0.23400141 -0.14194822 -0.0065152887 0.7430233 -0.04125455 0.2726268
movie68 -0.10993206 0.5546097 -0.3629287 0.40511826 0.109239414 -0.31939018 0.24847665 0.40389934 -0.16334186 -0.20539184
user773 -0.33147863 -0.03248432 -0.4516333 0.51334286 0.2074178 -0.15467392 0.030845571 0.50243735 -0.28481138 -0.15913585
user621 -0.2351986 0.28376585 -0.16270992 0.65850705 0.25147086 -0.08608589 0.10210385 0.38629135 -0.06466077 -0.38424042
user82 -0.055081174 0.0588604 -0.011983944 0.5046388 0.57787794 -0.11871956 -0.19616185 0.50348437 -0.16901013 -0.15607433
movie709 -0.08612075 0.3192253 -0.28428093 0.29806027 0.3527039 -0.24343716 0.042091373 0.5022583 -0.38042524 0.15309086
movie162 0.0113346595 0.31053025 -0.006880653 0.31626883 0.38461655 -0.27694577 0.16246048 0.6156603 -0.24576132 0.16659245
user507 -0.2186034 0.27621222 -0.037484948 0.45541888 -0.069289245 -0.33801204 -0.32884803 0.9746456 -0.10401266 -0.43847832
user557 -0.48524153 0.17086022 -0.085435204 0.4986912 0.119475596 -0.39589676 -0.28095132 0.6579791 -0.3526502 -0.22349028
user239 -0.1967024 -0.12895574 -0.20262085 0.41238618 0.48857114 -0.21330507 -0.08677265 0.55718154 -0.29648802 0.17964606
movie177 -0.09430441 0.36168984 -0.12157743 0.32585743 0.22992013 -0.32616505 0.11149894 0.6787329 -0.0043797023 0.14113161
user555 -0.15112276 0.16102947 -0.1893881 0.3549663 0.31237665 -0.38961616 -0.2700696 0.57160264 -0.24919708 -0.48191273
user116 -0.09567916 0.0034284806 -0.24587427 0.59300095 0.014274659 -0.08717917 -0.26318437 0.9353518 -0.30460635 -0.027427392
user380 -0.19053921 -0.09532214 -0.13349055 0.46893623 0.2810203 -0.25335646 0.1558554 0.6705276 -0.14019603 0.18266077
user663 0.0625255 0.07085567 0.010918522 0.5129524 0.37701538 -0.70234513 -0.17879981 0.42047277 -0.2381538 -0.3774027
movie198 -0.02981191 0.2245009 -0.33115953 0.26296705 0.26404005 -0.37499216 -0.09497438 0.63340265 -0.27436265 0.17393032
movie747 -0.123790294 0.35180226 -0.28011197 0.28764898 0.254822 -0.22010773 0.26847792 0.5295421 -0.35818556 0.04112519
user525 0.14891961 0.17407934 -0.074775465 0.39024624 0.52161425 -0.5359241 -0.4266946 0.436247 -0.18946609 -0.7310879
user936 0.19498697 -0.030110186 -0.47578073 0.5137729 0.35774675 -0.35961896 -0.3717677 0.40412626 -0.54741806 -0.5112748
user699 0.21601608 -0.056983586 -0.14916739 0.7314303 0.44553193 -0.3056806 -0.24721383 0.36944786 -0.29713833 -0.24560227
movie895 -0.2005461 0.5273085 0.1062909 0.53314674 -0.117076226 -0.5378348 -0.20974445 0.84513694 -0.15811448 -0.20873943
movie478 -0.12482495 0.21173905 -0.14433393 0.21009183 0.54091394 -0.23734409 -0.16566826 0.6162264 -0.25304058 0.46823257
user664 -0.31628945 -0.080980465 -0.13168883 0.3562766 0.3861657 -0.3949822 0.048176754 0.5702878 -0.23994626 0.119608395
movie29 -0.09407218 0.57823193 -0.25595534 0.3536711 0.12621032 -0.086183235 0.31254438 0.5842622 -0.21469516 -0.2094571
movie48 -0.05622762 0.24634044 -0.12528601 0.29996398 0.41297698 -0.30952498 0.13934228 0.5450931 -0.2651647 0.30150613
user158 -0.17916362 0.021256337 -0.3582667 0.44772434 0.26220122 -0.41053122 -0.016916651 0.45768523 -0.14040712 -0.31159234
user453 -0.12983634 0.21883559 -0.25950044 0.55430436 0.24956003 -0.24283494 0.19072355 0.37322918 -0.13867158 -0.40353927
movie306 -0.53109825 0.39662585 -0.09412441 0.21418607 0.3848654 -0.21037138 -0.20481355 0.5208426 -0.874887 0.061942898
movie219 -0.5743562 0.5519852 -0.3083929 0.6535468 0.16519265 -0.47357997 -0.048524756 0.11833076 -0.04212011 0.03550337
movie404 -0.1575233 0.5037292 -0.15644069 0.5381713 0.37972128 0.10769793 0.06338073 0.43703339 -0.116798244 -0.0036668447
user839 0.14397275 -0.015502213 -0.23087946 0.49311766 0.5017852 -0.41865757 -0.2919334 0.36040586 -0.40559787 -0.45487213
user943 -0.15159482 0.2060319 -0.1033699 0.5736094 0.23799331 -0.42013866 0.28195113 0.37462047 -0.004773533 -0.33418095
movie53 -0.29561338 0.52218986 -0.30061615 0.5375061 0.14177695 -0.6019781 0.0723944 0.21772993 -0.032820545 -0.062257897
user847 -0.081696816 0.09029927 -0.17152439 0.6061004 0.43212032 -0.10811518 0.020705426 0.3972642 -0.1890618 -0.19035637
user58 -0.17332816 -0.006318784 -0.2629771 0.36235428 0.3992721 -0.22803383 -0.04697422 0.513695 -0.45408666 -0.11596312
movie131 -0.07528426 0.2644365 -0.15529114 0.19269884 0.3909495 -0.2466317 -0.04946148 0.7172357 -0.21306862 0.24278933
user79 -0.40640414 0.05699653 -0.40825665 0.2724261 0.39877912 -0.28204364 -0.35876575 0.423 -0.8829788 -0.4753239
movie1014 0.27069405 0.4493335 -0.23449913 0.38806698 0.35289323 -0.33554167 -0.21176153 0.47046658 -0.25747502 -0.35704938
user627 -0.082720175 0.070115484 -0.07140394 0.3608064 0.102758706 -0.6741907 0.27987027 0.6601493 -0.02361864 -0.1611619
user548 -0.18863457 0.15046683 -0.07644343 0.56148183 0.26244202 -0.43345332 -0.2566551 0.5195799 -0.14949425 -0.2983555
user52 -0.0051323078 -0.085129775 -0.27821475 0.26989505 0.62533575 -0.46038458 -0.3239802 0.38999516 -0.42806908 -0.34087265
movie157 0.052907497 0.34592274 -0.16157125 0.3278252 0.2834897 -0.406942 0.08068295 0.578626 -0.10435034 0.13431554
user715 -0.064521104 0.12191514 -0.14378263 0.53613245 0.25700584 -0.43537056 0.04425321 0.46540388 -0.08860676 -0.36111566
movie155 -0.123573415 0.4574587 -0.23946862 0.26107877 0.31838214 -0.14540285 0.18535338 0.48829848 -0.37468728 -0.21099319
user294 0.053608995 0.18490738 -0.12978335 0.7065714 0.14294575 -0.46276173 -0.44160604 0.5990396 -0.026419615 -0.5205474
movie663 -0.043121226 0.28159955 -0.20233868 0.31734928 0.550801 -0.1570707 -0.010217528 0.44326895 -0.3462558 0.3017579
movie214 -0.27754962 0.38569048 -0.2605919 0.45761377 0.23342551 -0.22080381 0.031158973 0.5029314 -0.03877431 0.20641708
user277 0.14671397 -0.019472694 -0.29181626 0.41795745 0.46064255 -0.62145835 -0.41120937 0.37786788 -0.33590686 -0.51989466
user539 -0.3325612 -0.16974579 -0.17544095 0.1583319 0.48435712 -0.23434643 -0.068093985 0.69587475 -0.5599806 0.03056686
movie746 -0.24484769 0.42024773 -0.35600427 0.33061066 0.277299 -0.19748725 0.08368962 0.4210273 -0.24418084 -0.14259276
movie126 0.22817107 0.2943986 -0.23085746 0.29213452 0.57444805 -0.45628735 -0.30679372 0.33888862 -0.3960656 -0.38279563
movie233 -0.004516816 0.47190237 -0.1747923 0.44556066 0.12549794 -0.4287829 0.23228385 0.5312619 0.07392236 -0.1315618
movie521 -0.0076063173 0.18844916 -0.17867647 0.33441967 0.3596484 -0.33724272 -0.00056757306 0.62356395 -0.13126026 0.3623824
user488 -0.18440892 -0.025328325 0.12174408 0.52487916 0.4037359 -0.2065813 -0.047802307 0.6962368 -0.11221642 0.06318094
movie122 0.14441763 0.5023309 -0.24610911 0.46719003 0.35101053 -0.27249703 -0.07436005 0.37257951 -0.1343383 -0.29291487
user757 -0.23373584 0.10580399 -0.2623232 0.4828979 0.09365518 -0.3731841 -0.03519483 0.6747335 0.09883425 -0.27851367
user586 -0.19576897 0.18525434 -0.27034688 0.55388796 0.068617225 -0.59417117 0.096061766 0.4510852 0.10342047 -0.3110511
movie136 -0.10529696 0.32853863 -0.06878688 0.38364923 0.45679164 -0.019987362 -0.040843323 0.614387 -0.21667834 0.27707785
user901 0.15238883 0.11802487 0.048943568 0.736197 0.45884025 0.20825179 0.01129521 0.6086319 -0.14807422 -0.24846579
movie90 -0.19572379 0.49921498 -0.18298616 0.433241 0.32986215 -0.16536406 0.24456614 0.3311061 -0.2838014 -0.08658541
user624 -0.020587647 0.17723355 0.031896632 0.37505376 0.44470897 -0.48959544 -0.14983808 0.45950723 -0.44215578 -0.49080965
user863 -0.19756289 0.26476583 0.063583426 0.5961552 -0.26064098 -0.30431524 -0.037163682 1.1039189 -0.52268094 -0.010447251
movie62 -0.28538418 0.6227841 -0.37864125 0.4017413 -0.10619592 -0.036524106 0.1681449 0.74669987 0.061582714 -0.25818843
movie356 -0.02342293 0.45733497 -0.078749925 0.37123272 0.2851123 -0.3904096 0.21556391 0.46787822 -0.21084267 -0.039003257
movie280 0.32046553 0.37377477 0.018692479 0.24299185 0.61586785 -0.47406313 -0.033120975 0.39524376 -0.37636966 -0.31348744
user862 -0.15199694 0.011898241 -0.038694996 0.5258614 0.39159772 -0.37667865 -0.08423037 0.5489379 0.08977167 -0.050255895
movie988 0.09136396 0.28546736 0.38702586 0.58732706 0.6198384 -0.33352083 -0.34495682 0.5083422 -0.24407722 -0.08705446
movie507 -0.03833803 0.18701239 -0.017272972 0.33661932 0.51079047 -0.2555342 -0.109749965 0.646046 -0.1327304 0.39510766
user249 -0.1472161 0.055488482 -0.26707393 0.36475587 0.21189453 -0.5223393 0.011553158 0.5499835 -0.12613697 -0.29105198
user825 0.18379204 0.16761664 -0.091392405 0.6268877 0.41806275 -0.40675223 -0.27098817 0.3855264 -0.14001007 -0.49284294
movie470 0.21753684 0.42857608 -0.20646602 0.45897025 0.15348691 -0.25248116 0.2253751 0.6026216 -0.014242859 -0.091742575
user566 -0.32726428 0.044737376 -0.12617427 0.39592105 0.3474244 -0.2582206 0.21623479 0.5208446 -0.19199443 -0.02112407
user902 -0.42926595 0.06636251 0.08516754 0.47774515 0.3398636 -0.22865453 -0.43842646 0.7768465 -0.07992515 -0.19082437
movie873 -0.17981598 0.42639127 0.51824945 0.55177814 0.43676206 -0.55275726 -0.12784462 0.48046947 -0.5027503 -0.13094169
user320 0.03932956 0.19984107 -0.17035873 0.6249678 0.117056675 -0.31863362 0.10645478 0.5765555 0.11113445 -0.45551276
movie477 0.25614402 0.4894421 -0.03652605 0.5237901 0.48533502 -0.100617774 -0.22741768 0.47846082 -0.19174433 -0.2834051
movie159 -0.14180006 0.5046492 -0.15766698 0.40530294 0.13553548 -0.51793635 0.16074912 0.45175198 -0.04958371 -0.11460444
user694 -0.08516957 -0.02396306 0.074585125 0.3887081 0.5389014 -0.22850865 0.011944167 0.6826172 -0.0038775746 0.23948239
movie192 -0.1887314 0.21831904 -0.16831316 0.38185063 0.38342872 -0.44551465 -0.10902133 0.4887063 -0.16861159 0.47664613
movie81 -0.005654145 0.3282839 -0.20947976 0.38849995 0.30869657 -0.28870392 0.12102299 0.5215487 -0.14066018 0.15547256
user44 -0.21433307 0.17661586 -0.08340248 0.53060615 0.30036563 -0.17187575 -0.019858064 0.5991413 0.10579969 -0.3153285
user290 -0.10065852 0.15446432 -0.008968232 0.5645279 0.37786913 0.06545047 0.013499944 0.6762949 0.0656694 -0.20683354
movie662 0.06278754 0.35013983 -0.05329289 0.27992946 0.39356467 -0.20627832 0.13339783 0.6478182 -0.21952005 0.14909492
user468 -0.14729129 -0.008293953 -0.27845642 0.32240394 0.34628975 -0.42635933 -0.045745675 0.5273319 -0.2667258 -0.24494301
movie781 0.077698775 0.5438593 -0.018960487 0.2877416 0.41936642 -0.27311784 0.41948962 0.3557968 -0.45086053 -0.2526899
user665 0.014924573 0.056001745 -0.15397477 0.4062808 0.36468503 -0.3715536 -0.098735325 0.5726984 -0.10115035 -0.40354726
user498 -0.26684678 -0.09898338 -0.30688375 0.53899825 0.24461478 -0.51024884 -0.094469845 0.46174377 -0.20670618 0.12457892
user735 -0.2390414 0.05701223 -0.07813455 0.35216337 0.5929854 -0.40687567 -0.37592217 0.36729392 -0.5652605 -0.4744394
user545 -0.22403242 0.24732408 -0.10194458 0.58158684 0.20271039 -0.119215384 0.21094875 0.55133605 0.004963148 -0.2922175
user848 -0.17354295 -0.10241012 -0.12458501 0.3945363 0.45402372 -0.17562407 0.0040216357 0.6486305 -0.17293711 0.16147575
movie724 -0.023997804 0.34616277 -0.067109324 0.1219374 0.48805097 -0.35616022 0.3014318 0.46690443 -0.5023734 -0.083676495
movie926 0.21851727 0.5299078 -0.12103584 0.45863578 0.4132659 -0.15365803 -0.2624331 0.5022089 -0.12060532 -0.4896425
movie744 0.14452706 0.22134437 -0.36861697 0.20347638 0.44698706 -0.59102446 -0.3252484 0.39411727 -0.5937446 -0.20271501
user12 -0.24088722 0.006471167 -0.030773457 0.25756463 0.2960096 -0.37044907 0.077202916 0.7549513 -0.20151302 -0.14611551
movie184 -0.43049264 0.53083724 -0.34864038 0.6603151 0.15622811 -0.38533285 -0.03769942 0.1967077 0.045648336 -0.012451487
user126 -0.56400776 0.3803576 0.35180685 0.59469265 0.13544601 -0.20671894 -0.11207531 0.76003313 -0.52737886 -0.090186276
movie1012 0.1959361 0.46478388 -0.21703425 0.4612763 0.4387678 -0.3499374 -0.34650755 0.34076205 -0.21319366 -0.4117207
movie465 -0.09876836 0.50613225 -0.017585894 0.52336955 0.36630002 0.110055625 0.12346278 0.5445921 -0.09403291 -0.031530064
user381 -0.120235115 -0.02071793 -0.19067727 0.45247212 0.28881246 -0.119549744 0.030033946 0.6559432 -0.3672914 -0.05472113
user16 -0.19267264 0.015940001 -0.056958865 0.34771162 0.357666 -0.3042629 0.084872566 0.66440547 -0.11682993 -0.034107614
movie689 -0.08901726 0.52803147 0.17383519 0.3292636 0.12562332 -0.38025904 -0.28038856 0.9184585 -0.25008458 -0.058537137
movie408 -0.19640711 0.24370912 -0.5519226 0.353999 0.29460052 -0.15225716 -0.39544165 0.50820065 -0.32151362 -0.14730074
user325 -0.19470447 -0.0067378515 -0.12767777 0.51805717 0.43841234 -0.035537917 0.0020372772 0.57171595 -0.20834726 0.11794108
user634 0.18836187 0.06368601 -0.08991549 0.5593835 0.55032164 -0.39164445 -0.324533 0.33082232 -0.44579285 -0.5093272
movie458 0.16298755 0.28790095 -0.34019557 0.2991593 0.5038933 -0.35248527 -0.4740724 0.44044644 -0.41169065 -0.3372071
movie449 -0.14988132 0.43446583 -0.33497322 0.39446798 0.15362145 -0.17682466 0.089001074 0.5728494 -0.02330998 -0.06522112
movie1039 -0.1415502 0.2817096 -0.24858648 0.344062 0.27150333 -0.14830223 -0.07173883 0.69835734 -0.09973121 0.16080937
user123 -0.2517306 -0.21542913 -0.08620413 0.40347865 0.54812175 -0.30596963 -0.20054361 0.5796562 -0.33985028 0.21092787
user394 -0.23502637 0.24280354 -0.28810376 0.6742054 0.19766498 -0.19815059 0.095771946 0.377359 0.093619965 -0.35163292
movie312 -0.47443232 0.60937005 0.049037233 0.16211325 0.2357668 -0.21731654 -0.22869134 0.71987677 -0.82026666 -0.31358635
user668 -0.40975985 0.23577161 -0.25731358 0.45531717 -0.0057506193 -0.11100521 -0.30953142 0.834394 -0.38639414 -0.36319026
user445 0.2646759 0.088996835 -0.32411408 0.75541306 0.15658593 -0.5639765 -0.33379474 0.42738894 -0.06325106 -0.1907473
movie264 -0.24389675 0.42885575 0.19846681 0.8202242 0.22882594 -0.6738661 -0.3053304 0.3205432 -0.096721694 0.09544903
movie54 -0.13520487 0.44619924 -0.17140462 0.4288517 0.12964639 -0.40117842 0.24609493 0.47543067 -0.14969258 -0.06061474
user882 -0.09492681 0.13458009 -0.013210754 0.5288457 0.46106896 -0.050637495 -0.03246098 0.58099407 0.041431412 -0.23717186
user193 -0.1989974 0.29036272 0.053680573 0.30168295 0.2080279 -0.35512164 0.21640371 0.65517145 -0.3737261 -0.44355926
user352 -0.3977705 0.062262446 -0.45561814 0.40435106 0.10156315 -0.43248248 -0.093110524 0.60518044 0.07557346 -0.128893
movie729 -0.07528806 0.3691926 -0.20486565 0.39606816 0.3199757 -0.46226707 0.09658436 0.40154797 -0.09425679 0.005500502
movie755 -0.17145504 0.5444695 -0.044030234 0.43741444 0.36291406 -0.0094942 0.1772084 0.47242546 -0.14907782 -0.246436
movie420 -0.2865071 0.56957024 -0.12392618 0.561363 0.41680586 0.15467161 0.09644677 0.36178464 -0.12316766 -0.074026465
movie554 -0.096828386 0.6312408 -0.26757008 0.59592134 -0.038541697 -0.15656391 0.2357683 0.52646905 -0.048876267 -0.09806504
user567 -0.25784647 -0.086023375 -0.16253573 0.4983996 0.47348332 -0.20656691 -0.16154337 0.56930155 -0.17541005 0.440914
user110 -0.19888285 0.35008734 0.07161913 0.58726835 0.014783217 -0.46508235 0.55844474 0.48108426 -0.1525839 -0.3014075
movie305 -0.3218674 0.39107913 0.0020303538 0.30110297 0.3046725 -0.32164788 -0.08130515 0.56300914 -0.87120247 0.08471099
user738 -0.2668058 0.09283785 -0.19850667 0.37739733 0.2135878 -0.19863288 -0.033999752 0.75167644 0.03931286 -0.22186512
user221 -0.196409 0.15721539 -0.25593165 0.50336444 0.11277526 -0.37456736 0.18567276 0.5131498 -0.15742576 -0.22909844
movie412 0.19621527 0.5361573 -0.056376517 0.38624156 0.5261807 -0.24092591 0.036622267 0.3373495 -0.28870478 -0.26949432
movie67 -0.31052768 0.5893155 -0.2243565 0.37324595 0.37847188 -0.15833046 0.31023085 0.22068886 -0.31510368 -0.26860994
user20 0.005904278 0.105615646 0.041248735 0.4957307 0.4380244 -0.13054648 -0.17015186 0.69312596 0.03616395 -0.30632022
movie707 -0.07811652 0.11527983 -0.20497268 0.3014506 0.49984747 -0.29484797 -0.05196369 0.4991904 -0.4956554 0.32649022
user447 0.031986874 0.064941615 -0.15350164 0.44405562 0.36793584 -0.4811369 -0.11878408 0.48295116 -0.12219835 -0.41436505
movie549 -0.059234403 0.29888436 -0.16751352 0.22931208 0.31562176 -0.43458852 0.1851472 0.5510895 -0.25322276 -0.003245431
movie92 -0.07922325 0.38365182 -0.28598666 0.45853883 0.11366707 -0.6300251 0.17389518 0.38006103 -0.069899805 0.010979268
movie717 0.4056328 0.45826536 -0.088674545 0.48194546 0.39429125 -0.65213287 -0.0946435 0.31710708 -0.15510045 -0.33583692
movie517 0.0039922916 0.20641257 -0.1641303 0.264032 0.5081599 -0.23308426 0.014488823 0.5419958 -0.45731428 0.4355914
movie679 -0.08113852 0.4445479 -0.1773466 0.48457143 0.09889314 -0.2886186 0.051943988 0.6645788 0.18395369 0.0021856064
user484 -0.25965846 0.18620026 -0.12524597 0.46092603 0.23655853 -0.16667068 0.084064335 0.64299244 0.016004616 -0.44182682
user521 -0.25273108 0.11965082 -0.26399744 0.46708968 0.22137272 -0.13394186 -0.045605376 0.6314155 -0.10039954 -0.3371766
user70 -0.33406848 0.24966481 -0.07456066 0.63043916 0.28970972 0.13239972 -0.007819179 0.6074074 0.08518982 -0.32922524
movie715 -0.11676939 0.3765972 -0.25139886 0.28301305 0.18342294 -0.49230614 0.31039038 0.46564412 -0.2871544 -0.014654259
movie21 0.17597196 0.50143474 -0.28669643 0.42915714 0.5223648 0.018420197 -0.1311671 0.35990906 -0.15915297 -0.29922733
user927 0.06727875 0.31557307 0.11451964 0.54824847 0.4300104 0.05675443 0.36102736 0.49982086 -0.196645 -0.47363093
user913 -0.33949652 -0.020764502 -0.23155133 0.39276782 0.23129782 -0.30600303 -0.13042982 0.6760341 -0.17845744 -0.10710902
movie220 0.4721919 0.37242448 0.025867397 0.33238304 0.6235871 -0.28598797 -0.109756224 0.44267303 -0.3771052 -0.3483461
movie720 0.070966534 0.47265545 -0.07945516 0.46280664 0.14194247 -0.20441687 0.26938796 0.6401959 0.042604845 -0.22162305
user939 0.3985035 0.1305831 -0.01070774 0.61107385 0.45832965 -0.31813756 -0.27615312 0.53317297 -0.0672429 -0.5880335
user99 0.004774047 0.09588025 -0.04673082 0.43626106 0.33574277 -0.62427175 -0.22338499 0.52178925 -0.18998745 -0.45412886
movie51 -0.087979995 0.4091389 -0.15609677 0.30171895 0.20530032 -0.4072874 0.33173501 0.5311569 -0.26740175 -0.06642416
user489 -0.34992114 0.11747657 0.29467216 0.8580601 0.042829126 -0.3465694 -0.23709854 0.80857277 -0.20011835 0.015060735
user763 -0.064865544 -0.1411375 -0.19803257 0.33562922 0.39199373 -0.3814624 0.05894969 0.5801444 -0.34032467 -0.07204717
movie311 -0.47889474 0.5391994 -0.11608439 0.15598804 0.15557921 -0.10068348 -0.17210248 0.8136395 -0.90739715 -0.10794708
movie792 0.029327024 0.2708666 -0.2483659 0.2897053 0.3869387 -0.2867302 0.15959147 0.47133577 -0.4740866 0.16847435
movie317 -0.10229268 0.28916743 -0.113394804 0.1976623 0.3304936 -0.44884482 0.18609849 0.57609874 -0.28866783 0.044817504
user903 0.0058170278 -0.06858649 -0.30961782 0.4964546 0.34960374 -0.47563568 -0.06437621 0.4318395 -0.23351331 -0.085461795
user185 -0.25628203 -0.0836924 -0.049631197 0.28825393 0.661767 -0.23155278 -0.14088929 0.49543896 -0.53807306 -0.04825831
user542 -0.11161112 0.06382545 -0.17190412 0.45469874 0.3366429 -0.2525302 0.14714763 0.5063217 -0.19134079 -0.18010615
movie338 -0.2097753 0.5008444 0.29015294 0.43041125 0.12273924 -0.3272803 -0.058622006 0.82020766 -0.28152993 -0.093050264
movie5 -0.28687048 0.5713092 -0.15451741 0.5338539 0.23160851 -0.76676905 0.15124324 0.080743864 -0.07506614 -0.18163916
user298 -0.17493369 -0.028942626 -0.025125397 0.3547353 0.5391772 -0.13969715 -0.054332446 0.64385194 -0.17410427 -0.058917876
movie529 -0.13964857 0.10547686 -0.2542497 0.37431532 0.51495016 -0.21289833 -0.13112962 0.4794086 -0.39217857 0.45553258
movie45 -0.058548044 0.016435387 -0.44847175 0.17866145 0.36650416 -0.18983233 -0.13078652 0.70432097 -0.5062059 0.27815384
movie10 0.087276 0.21461785 -0.5736587 0.39131513 0.46572265 -0.109186485 -0.28465942 0.33421442 -0.61480397 -0.119147226
user336 -0.062029775 0.38846573 -0.06756786 0.48271185 0.38544354 -0.07820546 0.3413712 0.32946843 -0.3832796 -0.5499061
movie864 0.32303494 0.4170976 -0.13359082 0.398216 0.5458493 -0.22370203 -0.30376428 0.43102846 -0.31251866 -0.37658256
movie736 -0.03453663 0.2603352 -0.12201846 0.1852157 0.46765414 -0.24031153 0.35677043 0.49850652 -0.5450866 0.14183088
user210 -0.34902212 0.09849373 -0.02910254 0.4309425 0.34720525 -0.23081546 0.006403841 0.5943308 -0.13082708 -0.17869921
user806 -0.16944349 -0.051479913 -0.3462081 0.45934302 0.24335955 -0.28753862 -0.102328226 0.6056853 -0.11091895 -0.10470798
user623 -0.22491479 0.031879257 -0.017228888 0.38276282 0.49158174 -0.12564287 -0.15892199 0.6884867 -0.071154095 -0.08506643
movie287 0.21881591 0.23454258 -0.2738008 0.23829898 0.57350445 -0.38990942 -0.23695567 0.362197 -0.6815348 -0.17515849
movie820 0.24553926 0.55357516 -0.16851872 0.5367048 0.39060298 -0.1731274 -0.06772564 0.36890197 -0.03945448 -0.36290056
user828 -0.31771153 -0.21962851 -0.6162926 0.2388412 -0.034323767 -0.5788835 0.13596828 0.6537241 -0.8843205 0.03845209
movie778 -0.010824745 0.33633962 -0.14303598 0.23431706 0.2602837 -0.53897035 0.2703812 0.5051644 -0.30374518 -0.10832401
user404 -0.31960607 0.2315287 0.56185496 0.47544765 0.18477935 -0.4850595 -0.16367915 0.97712183 -0.2665464 -0.21478814
user494 -0.0023889006 -0.064162664 0.1039625 0.34789228 0.6023264 -0.3527535 -0.20885755 0.6425322 -0.24256091 -0.12866819
movie52 -0.11286333 0.188086 -0.3797662 0.21575707 0.42207894 -0.14933668 0.14812997 0.5093323 -0.51254296 0.23061553
user871 -0.058299825 0.09497307 -0.11897942 0.43015662 -0.01855357 -0.3277458 0.20079902 0.84195215 -0.43506408 -0.14059709
movie661 -0.06403651 0.15694508 -0.085664555 0.25758165 0.48435658 -0.18160142 -0.034354184 0.7188415 -0.18460259 0.5093107
movie1074 -0.107036434 0.5252984 -0.16198945 0.30081898 0.34129673 -0.33194527 0.35227668 0.32828584 -0.29417554 -0.16743639
movie212 -0.105297394 0.13938601 -0.36186227 0.24913359 0.33941135 -0.26690137 0.061771475 0.59586114 -0.36630148 0.34094244
movie290 -0.060175013 0.4322431 -0.21525307 0.3936351 0.39023897 -0.34685507 -0.19421822 0.36777678 -0.24271151 -0.2609935
movie386 -0.27480108 0.5963917 -0.26089042 0.44428557 0.13705431 -0.12324147 0.3113757 0.42598444 -0.20194514 -0.21261775
movie20 0.061745446 0.07524971 -0.5824109 0.3663249 0.40662995 -0.1542258 -0.33377227 0.45093185 -0.5887242 -0.07043267
movie924 0.18824945 0.46120805 0.044250395 0.34855947 0.57504463 -0.44012794 -0.14872341 0.34242356 -0.19879228 -0.4435651
movie652 -0.17860228 0.29272288 -0.44469514 0.25779483 0.28918555 -0.27144477 0.05870631 0.4583 -0.42326704 0.11207472
movie584 -0.12189136 0.35686886 -0.07780854 0.32994178 0.45703086 0.02921817 0.15104847 0.55766207 -0.35072872 0.09839106
movie949 -0.078377 0.5011665 -0.20465752 0.28695074 0.41827467 0.05167592 0.19073702 0.45339206 -0.53630364 -0.17148025
movie63 -0.3060365 0.687512 -0.096013956 0.45179987 0.28466746 0.15848228 0.36632356 0.4504009 -0.14170876 -0.31830963
movie278 0.38874888 0.44968495 -0.031789634 0.28362206 0.49182907 -0.48474938 0.017283311 0.4070229 -0.39703164 -0.39493334
movie919 -0.05868761 0.16917886 -0.62276536 0.37864736 0.29543674 -0.38372272 -0.39686096 0.41354215 -0.29804572 0.054673396
movie429 -0.14719543 0.31370303 -0.16041811 0.44083643 0.4809836 -0.16939718 -0.22887585 0.48980293 -0.084006146 0.31362864
movie1011 0.34483996 0.34181127 -0.41197142 0.3440816 0.29916912 -0.55057347 -0.22490907 0.42895728 -0.29851586 -0.3493626
user442 -0.27779654 0.22050293 -0.35516095 0.6414205 0.06980248 -0.5003846 0.094561934 0.32102618 0.0322341 -0.29756898
user459 0.20443475 0.13860969 0.19411168 0.5399852 0.49980006 -0.2553091 -0.29305467 0.6428621 -0.12639026 -0.5114242
movie506 -0.11426106 0.34920406 -0.09063202 0.31387803 0.54003936 -0.2490956 0.087447934 0.41095886 -0.23221101 0.28418055
movie399 -0.13970149 0.5775106 -0.1274072 0.48147514 0.24150951 -0.041033868 0.2171289 0.50125164 -0.081502594 -0.114753865
user203 -0.10446205 0.05810301 -0.14177378 0.5437675 0.40584448 -0.30198923 -0.55252856 0.5488123 -0.22795051 -0.6243613
movie665 -0.27820906 0.47127244 -0.38995704 0.50237966 0.13731197 -0.4331687 0.06129344 0.30659193 0.013672879 -0.020610457
movie417 -0.21439628 0.5450074 -0.16854708 0.44340202 0.39951238 0.061778586 0.2316028 0.38609812 -0.23121427 -0.01488942
user899 -0.060296685 0.00905623 -0.17553638 0.40871006 0.26885834 -0.28376126 0.06285623 0.67641413 -0.13353224 -0.24066435
movie604 -0.13218431 0.21771786 0.103015736 0.27311617 0.60546476 -0.34293061 -0.15982334 0.6107073 -0.19209366 0.617474
movie693 0.02582298 0.41849357 -0.12884125 0.31965607 0.15464348 -0.57516336 0.21258028 0.5939012 -0.03629779 0.053868562
user32 -0.15295728 0.15742153 -0.33346453 0.5061684 0.26495984 -0.28791046 -0.56175685 0.5686558 -0.09287686 -0.67953837
user529 -0.454578 0.23547617 0.50108945 0.65551955 0.24597879 -0.6820863 -0.24717747 0.64557046 -0.2676072 -0.05745324
movie163 -0.2503589 0.43102515 -0.043316253 0.3287813 0.5090839 -0.008370883 0.06731702 0.49167863 -0.33801615 0.17510836
user424 -0.14154446 0.021378467 0.31508526 0.6814047 0.4548826 -0.060646735 -0.32229722 0.7265168 -0.3104589 -0.22954777
user599 0.4015937 0.23765025 0.3826211 0.5487956 0.7156408 -0.46671942 -0.06391246 0.31743938 -0.5249141 -0.508108
user216 -0.24523707 0.10055519 -0.24063383 0.41135362 0.28788406 -0.38669232 0.05351445 0.45646623 -0.21115208 -0.3227832
movie49 0.005510979 0.5233411 -0.1572075 0.36411935 0.31950796 -0.2839677 0.32493576 0.36920896 -0.2751921 -0.2033686
movie425 -0.023814043 0.28707433 -0.35483003 0.35984284 0.123015575 -0.42417946 0.09708013 0.598894 -0.129985 0.13420893
user709 -0.38996616 0.22392952 -0.2608643 0.6594624 0.12598233 -0.51465166 0.14651293 0.27266857 0.04953382 -0.20977412
user556 -0.42943487 -0.096361026 0.1758328 0.39406335 0.53212136 -0.4060312 -0.2149752 0.63519835 -0.30940467 0.23925827
user451 -0.16393901 0.06918704 0.5938928 0.9851408 0.3065569 -0.43568787 -0.08074687 0.57156277 -0.5104162 0.06461372
user837 0.3491982 -0.009017085 -0.06655099 0.2690788 0.6781824 -0.35245484 -0.23759063 0.49674 -0.57942843 -0.6652942
movie3 0.13649416 0.414297 -0.40844655 0.41674575 0.25833833 -0.2597047 -0.19585143 0.47211286 -0.22657642 -0.3506823
user493 -0.034404553 -0.017531881 -0.051031586 0.5548864 0.3121977 -0.31940672 -0.26329812 0.7026065 -0.015159405 -0.22641474
movie436 -0.4347771 0.48754108 -0.3417121 0.64181525 0.22922568 -0.39854214 -0.12165232 0.18767074 -0.00088770804 0.11943564
user434 0.35212743 0.2797813 0.21695362 0.5924345 0.73322546 -0.39622924 -0.20418619 0.24259788 -0.23915555 -0.70542693
movie676 0.0030845893 0.28505808 -0.30484536 0.44486648 0.47301534 -0.4125696 -0.36863804 0.2593848 -0.594928 -0.17727473
movie625 -0.11338106 0.5362783 -0.14361726 0.46318758 0.33579656 0.11847716 0.12530705 0.5537976 -0.049132552 -0.19949843
user722 0.27021822 0.13324387 0.022031112 0.46537146 0.43929 -0.6476265 -0.32067233 0.49087355 -0.23350202 -0.5420109
movie401 -0.23146069 0.6015196 -0.22488989 0.4804157 0.25959858 -0.10514838 0.31744382 0.31484067 -0.20523356 -0.1488836
movie969 -0.07585969 0.42345896 -0.09141593 0.46083802 0.5199776 0.18515019 -0.0650407 0.5612891 -0.120288424 0.104046725
movie487 -0.1509951 0.23861462 -0.16997774 0.036803834 0.48588762 -0.20950301 -0.019722244 0.72531563 -0.47363037 0.41587427
movie642 0.0006747808 0.30647823 -0.28738827 0.39211798 0.13040677 -0.52726996 0.15258971 0.5310853 -0.11683739 0.11997219
movie416 -0.091906145 0.4860677 -0.12365553 0.46795788 0.38461864 -0.02840371 0.0034156556 0.48136592 -0.1413558 -0.04156047
movie538 -0.1819711 0.48937118 0.17206012 0.5115597 0.012818945 -0.120279364 -0.29146534 1.0294361 -0.18288285 -0.21886444
movie26 -0.19268362 0.31792346 -0.17842513 0.17707185 0.41707662 -0.4003851 0.23789223 0.39722225 -0.5762461 0.16734876
movie44 0.014225246 0.39961305 -0.10184486 0.5167499 0.37731916 -0.4725944 0.18150228 0.25789788 -0.17368351 0.15175083
user392 -0.26278576 0.058919773 -0.108903006 0.3974344 0.34062076 -0.12986523 -0.23295487 0.71882904 -0.49526975 0.034190904
movie673 -0.062058777 0.34698775 -0.1415555 0.3992681 0.23922375 -0.34180522 0.11708466 0.6074848 0.03071009 0.2385323
movie518 -0.10372502 0.23670663 -0.29904926 0.36564595 0.017199459 -0.57699704 0.119950086 0.6470414 -0.17545338 0.22157152
user904 -0.055055097 0.15394534 0.06848156 0.19650823 0.4788552 -0.50515294 0.36891437 0.44705108 -0.50251985 -0.46804053
user391 -0.1910485 -0.12336858 0.04606904 0.45602491 0.42788938 -0.49634913 -0.15624928 0.62521017 -0.08579697 0.114033915
user361 -0.29798698 0.030054837 -0.030890826 0.28588104 0.49779344 -0.37314236 0.21065724 0.44937184 -0.4478868 0.047025476
movie17 -0.44195098 0.49188843 -0.4637108 0.5427721 0.17690548 -0.3706998 -0.17334251 0.2224964 -0.14332429 -0.080141075
user661 -0.30696088 -0.056463245 -0.05772509 0.43238568 0.3321057 -0.18864273 -0.04971143 0.7096427 -0.21156695 0.01737912
user891 0.47895303 -0.020897878 -0.03200294 0.48493934 0.6093689 -0.63665366 -0.22842567 0.36890325 -0.23495749 -0.6437087
user250 -0.21822621 0.0068115764 -0.13115534 0.6184206 0.35997158 -0.27681342 -0.14429286 0.45115015 -0.17829241 -0.13019963
movie448 -0.4383876 0.45302454 -0.19281423 0.7348585 0.2957653 -0.40695354 -0.0080557475 0.0983563 0.012343622 0.2011829
movie696 0.12121259 0.3942475 -0.30681452 0.32045656 0.44634318 -0.57270634 -0.22282967 0.2535842 -0.40747622 -0.25011778
user204 -0.50406367 0.09741203 0.09085595 0.35494593 0.37832698 -0.36036068 -0.22264528 0.6291038 -0.72021675 -0.09369156
movie33 -0.14129858 0.48899534 -0.2712243 0.36552927 0.03525189 -0.5104215 0.2079518 0.49975693 -0.13190256 -0.09334256
