2625 64
movie50 -0.18361534 -0.07743959 -0.07498956 0.021283584 0.07075415 -0.22473179 0.104770444 -0.34541574 -0.017879033 0.07686905 0.13329433 0.30844495 0.33628246 -0.20933267 -0.053265404 0.14894284 -0.07727024 -0.46297252 -0.04803181 -0.018885981 -0.19226456 -0.12656158 0.090551496 -0.11450659 -0.09505211 -0.034298077 0.08883734 -0.09624086 0.11748755 -0.30463442 0.03110666 -0.23585358 -0.10434887 -0.06687459 -0.4414469 -0.055479903 0.13035549 0.4343907 -0.085948646 -0.2473829 0.11623673 0.024759127 -0.093538806 0.1768373 0.087945305 -0.18782845 0.08683054 -0.0022233683 -0.03884988 -0.0070440257 0.17448342 0.06980287 -0.26407573 -0.17946304 -0.14101702 0.024005605 -0.024582447 0.13506481 -0.1481148 -0.024655985 -0.16856982 -0.0043634158 0.075279236 -0.067919314
user655 -0.28457385 -0.02354212 0.15091348 0.2658407 0.23478937 -0.0026407868 0.032942824 0.041857455 -0.23809634 0.3848454 -0.41947788 -0.09597593 0.1589866 -0.1230411 -0.040522892 0.3393494 -0.2216294 0.016952211 -0.125319 -0.33727172 0.101800986 -0.45422548 0.04963709 0.108769305 0.073598854 -0.04762139 0.30117595 -0.058545284 -0.031382155 -0.21660154 -0.31768614 0.010169149 0.050442845 0.08789097 -0.30427182 0.4923115 0.021205422 -0.179443 0.1454439 -0.5828621 0.42857194 -0.2940911 0.38844174 -0.0016135434 -0.15820557 -0.4910757 -0.060070645 0.09690808 0.29205993 -0.13460827 -0.33421504 0.06318996 -0.29519677 0.33544162 -0.1468459 0.1640656 -0.41739225 0.04273736 -0.28021517 -0.017976666 -0.35480562 0.0060717636 0.28741533 -0.47513315
movie100 -0.3471411 -0.10788855 -0.17686583 0.019833434 0.35069636 -0.2703895 0.17327856 -0.28194794 0.19746372 0.068512715 0.104807995 0.33570242 0.5007165 0.08010645 -0.17944002 0.015471656 -0.064861715 -0.24054809 0.09927796 0.15494455 -0.24234372 0.057951037 -0.16909689 -0.11952074 -0.0077948067 -0.05331767 0.1216481 0.029872425 0.0012599186 -0.061895106 0.03545736 0.021306027 -0.048096452 0.12281316 -0.34564748 0.15596387 0.06962631 0.24464837 0.099190965 -0.22539347 0.06964674 0.18112846 0.0064617717 0.16020453 0.03967782 -0.2850909 0.10348772 0.05834704 -0.15463305 -0.11056106 0.15987407 -0.06755444 -0.26049247 -0.034587137 -0.118640654 0.11213562 0.19796562 0.015270605 -0.26640356 -0.047784057 -0.26734567 0.18313786 -0.07928516 -0.08887764
user13 -0.09490609 -0.3443745 0.07790462 -0.07151752 0.3135173 -0.46940637 0.19292812 0.15953895 0.030761097 0.2512095 -0.24414504 0.05594464 -0.21799621 -0.18390755 -0.23610963 0.0033715032 0.3870994 -0.027198471 0.24318415 -0.02416134 -0.034724317 -0.040933866 -0.53382576 0.3160566 0.25496504 -0.08948468 0.01569136 0.24298748 -0.13834573 -0.08554666 0.045049705 0.23850533 -0.3398294 -0.22586034 -0.13808675 0.15467475 0.27180165 0.14683306 0.04165908 -0.3699445 0.17981687 -0.2922722 0.34346223 -0.050393037 0.108444184 0.17151508 0.11582218 -0.11255358 -0.1400589 0.051448967 -0.05094448 -0.23964986 -0.23090935 0.022724584 -0.06320153 0.031631026 -0.13242096 0.18077013 -0.22265957 0.25410935 -0.13450469 0.11308992 0.031426463 -0.44452026
user450 0.37037855 -0.31890923 -0.037154257 -0.13444833 0.34906572 -0.12480134 0.01692096 -0.029719759 -0.020375898 0.39062756 -0.14237303 -0.04510792 0.13035877 0.042589165 -0.20431268 0.13419658 -0.15425216 0.16771887 -0.025048507 0.11434668 0.30392748 0.01659558 0.02026821 0.0017682716 -0.21817246 0.080360875 -0.26305422 0.25690252 0.17617108 -0.35873243 -0.22594115 0.29848635 -0.20901947 -0.08352753 -0.27690533 0.20046584 0.28044048 0.24333999 -0.10891022 -0.19306548 0.038541216 -0.036190398 -0.05737206 0.20020078 -0.19104232 -0.067804955 0.45147648 -0.053294443 -0.195289 0.022924483 -0.38971755 -0.33352834 -0.14516082 0.13031588 0.05384183 -0.35710666 -0.09018707 0.04391386 -0.16233002 0.17133191 -0.15518306 -0.14069442 0.24991664 -0.20656824
movie258 -0.25914907 0.09137486 -0.22921692 0.20747045 0.21913731 -0.09079767 -0.072007656 -0.4855063 -0.13027743 0.2716791 0.2378129 0.40085325 0.2664558 0.049578946 -0.19586766 0.30632672 0.11445252 -0.14142932 0.19388127 0.10681052 0.1137767 -0.18089403 -0.019269114 -0.2369504 0.03824107 0.0007754286 0.033534702 0.03515409 0.038524956 -0.21433906 0.25190708 -0.13131908 -0.2467904 -0.13813365 -0.48939887 -0.43378013 0.20672387 0.19950661 -0.030042257 -0.3668918 0.27665392 0.17886601 0.15271558 -0.05256115 -0.081275195 0.0665453 0.27059737 -0.0754112 0.019075805 0.03588131 0.023593765 0.08393079 -0.1681093 0.11049571 -0.022352738 0.03279818 0.04695632 0.006734805 -0.14453624 -0.20085277 -0.14508282 -0.2359524 0.16569078 -0.0017902266
movie181 -0.037903756 -0.008290908 0.041237533 -0.024829164 0.03953438 -0.23253319 0.049218558 -0.4922154 -0.11320394 0.16374089 0.035867833 0.31455353 0.2878298 -0.19023025 -0.1532396 -0.053629722 -0.051307704 -0.41244647 -0.0822059 -0.011481102 -0.086180516 -0.054049738 0.19207531 -0.02875415 -0.049376983 -0.069070406 -0.028116336 -0.079258025 0.10325072 -0.3214779 0.04284909 -0.2806407 -0.23003723 -0.104167424 -0.44673932 -0.076873615 0.0638314 0.46729752 -0.03196266 -0.28923362 0.0553867 0.009979172 -0.16237134 0.2639916 -0.005833187 -0.19579141 0.20752922 0.123103015 -0.030774888 -0.10380531 0.052062966 0.0390329 -0.34279904 -0.14526735 -0.11354857 -0.0059279115 0.036245234 0.08880375 -0.051681288 -0.051220585 -0.07029874 0.037699264 0.0825285 -0.049392823
user416 -0.020310549 0.2087992 0.060556397 -0.061131787 0.16101643 0.0054051885 0.044665787 -0.22902675 0.06749468 0.3494263 -0.058906075 -0.035129063 0.053901836 -0.055398643 -0.16675888 0.09483842 0.04787105 -0.27678186 0.007374701 -0.02865835 0.3997867 0.029859101 -0.100871265 0.016551059 -0.059160195 0.018654361 -0.35228997 0.15281162 0.006089078 -0.2612471 -0.25346154 0.4211191 -0.06099193 -0.17504996 0.056433633 -0.008380049 0.32011315 0.028476542 0.148215 -0.36511257 0.30644017 -0.24111424 -0.0048418897 0.42099267 0.054989886 0.17220153 0.077983536 -0.19257385 0.19064954 -0.0053148353 -0.011114557 -0.23744692 -0.47831476 -0.012542871 0.21978392 -0.16909944 -0.009243704 0.19949625 -0.39062262 0.29535708 -0.0821367 0.36391646 0.06896652 -0.0049281274
user276 -0.19058956 -0.15783332 0.16245438 -0.008847484 -0.10910883 -0.1378287 0.049050838 -0.10953969 0.13019556 0.2670349 -0.05074021 -0.084937416 0.17446098 0.2887633 -0.19552563 -0.14190954 -0.13753363 -0.12653497 0.026058648 0.09188502 0.2623414 -0.14364593 -0.13978976 0.03634599 -0.059925262 0.25529388 -0.07833832 0.057897102 -0.08961641 0.104373775 -0.16304569 0.09760361 -0.20721857 0.061204124 -0.33777773 0.118988134 0.50255364 0.030431349 -0.14183207 -0.45475006 0.09427704 -0.023782445 -0.33191842 -0.0027625714 0.11120278 0.15836054 -0.024655206 0.09465534 0.23212737 -0.02634878 -0.15850301 -0.07177874 -0.233575 0.09416483 -0.3593034 0.13927837 -0.15658629 0.07080829 -0.39939818 -0.032068986 0.18149978 0.11130647 -0.07787243 -0.20017743
user405 -0.2711022 -0.009142769 0.27828705 -0.15033148 -0.31138828 0.06908519 0.32827613 0.45970744 -0.0029874379 0.25924164 -0.34139147 0.024631435 -0.36910313 0.12155351 -0.4761669 0.025433155 -0.276983 0.06333506 0.08043898 -0.13981605 0.06993406 -0.021839017 0.12925805 0.05859296 -0.19519325 -0.27466202 -0.24320169 -0.22353768 -0.055107046 -0.5038556 0.35216844 0.21545072 -0.19849968 0.24019906 -0.34494886 0.28993326 0.41689485 0.092454955 -0.0341969 -0.45463604 0.30449033 0.0064415517 0.024999462 0.14838222 -0.12714292 -0.309013 -0.024396705 -0.18788983 0.26923078 0.1166543 0.06103875 -0.66963625 -0.4661645 -0.05890748 -0.55485845 -0.04263652 0.15510912 0.33087113 -0.39326006 -0.019790668 -0.2222472 0.027515393 0.2022918 -0.44205078
movie127 -0.31393448 0.043560542 -0.13316971 0.308427 -0.06588559 -0.36451805 0.16053444 -0.36747044 0.16620913 -0.19904386 0.081857234 0.037401393 0.4306124 -0.20976742 -0.15223116 -0.070232905 -0.07527831 -0.5360539 0.0027977405 -0.017591374 -0.13152151 -0.059837807 0.038747706 -0.003114279 -0.3495895 0.10210306 -0.033319917 -0.049662918 0.27912614 -0.29935455 0.051557418 0.080264695 -0.101885766 0.017680813 -0.35033596 0.120786764 0.13353974 0.27102527 0.117052115 -0.16923265 0.23251465 0.171041 -0.18178117 0.0878437 -0.025417726 -0.19039463 -0.018408375 0.143 -0.2750653 0.08989734 0.24537864 -0.039627414 -0.25647417 0.029640064 -0.14709638 -0.19849709 0.1859016 0.024940403 -0.29000312 -0.06327692 -0.29896417 -0.15700105 0.058019646 -0.07626454
movie286 -0.2986678 0.14701341 -0.39075017 0.082523584 0.22553843 -0.09438035 -0.09194934 -0.40484765 0.09380119 0.08042136 0.23102537 0.42722657 0.49791718 0.21890935 0.11365724 0.30698025 0.19136722 0.02132906 0.24685127 0.0566903 -0.21713787 -0.4189186 -0.08111023 -0.10143619 -0.10037908 0.21214192 -0.22684492 -0.0017592718 0.041408356 -0.2649644 0.13479729 0.17663755 -0.108376086 -0.22670873 -0.19196287 -0.06874118 0.223401 0.26286897 0.253775 -0.40073228 0.26226833 0.1351112 0.097402155 -0.24759416 -0.15252301 0.11002504 -0.03299719 0.1412659 -0.25984833 -0.19851117 0.0100583825 -0.30243295 -0.1316838 0.2175452 -0.22906174 0.033800825 0.27036592 0.34104446 -0.019475078 0.029864948 -0.30772698 -0.12929526 0.0013362749 -0.07542376
movie1 -0.063374534 -0.17373309 0.03188971 -0.07519763 0.23696731 -0.28543946 0.10760774 -0.31130838 0.089541934 0.21634404 0.033802766 0.27581176 0.41415268 0.010794029 -0.04444683 -0.058494378 0.15493888 -0.3166567 -0.079547495 0.16794825 -0.30975014 -0.13673212 0.056602716 -0.054902613 -0.092722595 0.013669931 0.091746084 0.14216393 0.14553335 -0.15808134 0.14485563 -0.24507555 -0.28663325 0.15489566 -0.47429505 -0.058382418 0.028200798 0.46504965 0.047153212 -0.014135997 0.07029494 -0.043847084 0.09522568 0.26985973 0.11059209 -0.11510744 0.054811433 0.13106406 0.16580866 -0.07844006 0.19280832 -0.0823516 -0.17349234 -0.19955498 -0.10139717 0.023546668 -0.06839799 0.21032672 -0.37545314 0.122687966 -0.050224993 0.18318868 0.024492988 -0.052707296
movie288 -0.34226897 -0.030650651 -0.1534892 -0.027111873 0.08401652 -0.022906486 -0.17382014 -0.30804914 -0.12858957 0.081676 0.23728263 0.38865772 0.23432359 0.26814914 -0.2219456 0.33842683 -0.07706595 -0.21875356 0.28195927 0.031503964 -0.18647712 0.03935943 -0.0419373 -0.029232701 0.107918106 0.27988344 -0.079703346 0.05510229 -0.08530154 -0.013269109 0.0056734164 -0.23402321 -0.40080082 0.080091596 -0.46204373 0.004304673 0.29782325 0.22248209 -0.17189117 -0.39805245 0.20403609 0.04892975 0.135793 -0.09540596 -0.014636308 0.26594576 0.123173065 0.002749035 -0.015236673 0.12273194 0.20404999 -0.08961692 -0.04120932 0.2198661 0.13282327 -0.07971477 0.0961947 -0.013528769 -0.29097855 -0.15010837 -0.42202336 0.07857594 0.013828553 0.09467294
movie174 0.11237925 -0.04194731 -0.080282904 -0.084189415 0.099291764 -0.3153458 0.06842973 -0.17545521 -0.11476315 -0.06914747 -0.044958107 0.17493914 0.19323415 -0.3212211 0.06485058 0.028133536 -0.2977913 -0.33858117 -0.07521346 -0.12637065 0.028242402 -0.006904036 -0.08128363 -0.040235296 -0.047912896 0.14538024 0.062938206 -0.03775563 -0.012028114 -0.18422988 -0.003389003 -0.15500401 -0.08180059 -0.15910232 -0.45281425 0.028333193 0.36043158 0.16259532 -0.117961906 -0.22589712 0.092041366 -0.11010526 -0.1586776 0.04784807 0.04563902 -0.22170027 0.15966468 -0.053030785 -0.21114941 -0.033021696 -0.018258836 0.024400985 -0.15409043 -0.36500576 -0.20727654 0.04684811 0.20312263 0.21361403 -0.16764966 0.0028318546 -0.17111787 0.12632549 0.4906684 -0.12292297
user303 0.039899226 -0.07352062 0.025399338 -0.2680818 -0.121176966 -0.24887674 0.041682843 -0.32712537 -0.14499089 0.34634146 0.025865663 -0.03762157 0.15401833 0.21296997 -0.14910161 0.0077225263 -0.10210561 -0.23588583 0.26246673 0.17720334 0.024292817 -0.2167649 -0.15049987 0.0924292 -0.051090933 0.16853707 -0.18894807 -0.24497661 -0.0076090987 -0.11884554 -0.40618178 0.25862995 -0.07762664 -0.1425707 -0.27258763 0.060898058 0.15233015 0.08254938 0.02145086 -0.46075144 0.09600794 0.14341202 -0.28348875 0.20468915 0.114121586 -0.09195066 -0.29796696 -0.024199562 0.2680536 0.171565 -0.27179426 -0.113492906 -0.07976149 -0.0070826137 -0.068353385 0.091324955 -0.23913127 0.32635924 -0.33233556 -0.027754793 0.019931495 0.036152255 -0.18459712 0.005247289
user7 0.048550375 -0.45514032 0.2310135 0.052183073 0.48583445 -0.14054227 0.10612149 0.035576414 -0.09989296 0.20822178 0.3312255 -0.05386422 -0.20885375 -0.14843693 -0.026353328 0.029862499 -0.17381015 -0.19300216 0.035143245 0.1702862 -0.097033516 0.11259531 -0.026179103 0.20095295 0.1332748 0.13371341 -0.11266198 -0.20450632 0.16832086 -0.37855145 -0.12180073 0.118528515 -0.050159827 0.114924334 -0.25514564 0.13029201 0.7091898 -0.13732944 0.21998101 -0.6729025 -0.14241134 0.11961891 -0.07215659 -0.45098656 -0.12438811 0.13254036 0.39761025 -0.16200124 0.043648683 0.15081695 -0.13445923 0.11297125 -0.43684635 -0.17473215 0.11977375 -0.06786201 0.095947 0.27933308 -0.14234877 0.11808056 0.05678231 0.21125308 0.16047378 0.06990927
movie98 -0.0067918883 0.11079111 -0.31316796 -0.0752983 0.24386744 -0.23798242 0.1637368 -0.28749248 -0.16997157 -0.12080878 0.007282592 0.17401394 0.2371943 -0.22524458 0.004501408 0.0460408 -0.27319244 -0.16195372 0.034767766 0.070155755 0.01528991 0.016238594 0.12306412 0.04858231 -0.20985451 0.025514264 0.11582178 0.021948585 -0.21619442 -0.1710667 0.055072185 0.10917741 -0.31062686 -0.0094087 -0.54936725 0.22640182 0.23998226 0.11536718 -0.080759846 -0.2520414 -0.049339544 -0.11559984 0.10747506 0.14916527 0.15890768 -0.00030886443 0.026442831 -0.19559683 -0.1101467 -0.19756885 -0.07883848 0.024676515 -0.06658435 -0.23990369 -0.09524579 0.22422683 0.26220465 0.2159778 -0.36385536 -0.05316291 -0.28865498 0.07059611 0.14209872 -0.12573056
user234 0.47652727 -0.12767716 -0.202022 -0.06862899 0.5600358 -0.38957587 0.112564385 -0.073056415 -0.08350059 0.3933126 -0.3669294 -0.1955721 0.075329475 -0.123347454 -0.11664011 0.003734322 0.23385419 0.08302234 0.4355302 0.23500714 -0.08951909 0.119086884 -0.08864094 0.3394138 0.14898933 0.00985387 0.310229 0.18771112 0.11112849 -0.3791142 -0.20934844 0.05593105 -0.19478686 -0.08054227 -0.15413271 0.39945063 0.09228616 -0.10694676 -0.009978436 -0.6328811 0.22055818 0.016469877 0.0031095482 -0.16733167 -0.30192587 -0.12682676 0.23225754 -0.2724178 0.2147628 0.016271196 -0.089783 0.07260264 -0.056155812 -0.122022055 -0.2998651 -0.23832497 -0.23285046 0.10045198 -0.027156884 0.24840456 -0.39212728 0.3089575 0.044605818 -0.21956141
movie300 -0.12707585 -0.14284068 -0.1128194 0.11758141 0.17781933 0.048583988 -0.11803651 -0.48636633 -0.11626632 0.23258054 0.08528652 0.4694437 0.1441939 0.17599651 -0.037889555 0.35764876 0.24094857 -0.12689397 0.2966287 -0.23310627 -0.025019245 -0.24340986 -0.087687515 -0.16436484 0.11147843 -0.010773964 -0.1941453 0.13216275 0.2254271 -0.021330511 0.15131278 -0.07982805 -0.3512687 0.13372631 -0.40769523 -0.46614856 0.061200086 -0.01345579 -0.05443028 -0.50672835 0.34361482 0.05147335 -0.0049629062 0.10778262 -0.07007129 0.20440823 0.25411797 -0.011801474 -0.24635544 -0.33050114 -0.007093179 0.0025018472 -0.06286273 -0.01870356 -0.12932998 -0.104719415 0.38944674 0.09811174 -0.35535938 -0.01965808 -0.19571602 -0.031047381 -0.07041642 -0.18938725
user279 0.25071135 -0.71747005 -0.06949448 -0.39554167 -0.05875628 -0.2070733 0.019654887 -0.14331175 -0.012047321 -0.19430539 -0.25172397 -0.09264727 -0.11866618 0.24437587 -0.22630303 0.595915 0.09339432 -0.024704007 0.004408785 0.02657351 0.016692277 -0.09396906 -0.42659354 0.2575538 0.2414525 0.32430422 -0.36437672 -0.3495219 0.14531945 -0.32057893 -0.14677113 0.29115117 0.24092427 0.37174705 -0.60031724 -0.18682757 -0.028864944 0.087549135 -0.31429082 -0.11238353 -0.2607684 -0.15065818 -0.430854 -0.0030955877 0.2741461 -0.39981815 0.03079615 0.007904587 0.17354876 0.31058937 -0.37497243 -0.01821474 -0.2812276 0.14583583 -0.48899963 0.090066604 -0.10217505 -0.0034696737 -0.59096515 -0.11226539 -0.1366632 0.1250189 0.101160236 -0.21117078
movie56 -0.08490432 -0.059438795 -0.18797867 -0.09749959 0.22097038 -0.21267998 0.056982167 -0.23602986 -0.09683538 -0.1747219 -0.07681619 0.15323874 0.20445524 -0.27771786 -0.1569186 0.06650002 -0.2805454 -0.30223978 0.094733365 0.032141283 0.1420272 0.06422418 -0.12751585 0.17670758 -0.081778824 0.039907902 -0.011256738 -0.015423242 -0.2329237 -0.114480935 0.04478345 -0.093718424 -0.22322729 -0.07576602 -0.600618 0.2177232 0.18390177 0.13430034 -0.034326423 -0.16195749 0.08122688 0.08727993 0.06936758 0.0021018514 0.10724829 -0.15284814 -0.113867305 -0.18460768 -0.25092188 -0.04332709 -0.004273557 -0.030533703 -0.09113756 -0.3036452 -0.017148916 0.3426294 0.059132956 0.24759734 -0.2578141 -0.06367653 -0.3126054 -0.0937744 0.16156213 -0.020352745
user393 0.051944863 -0.38844636 0.062702745 -0.2260227 -0.055555414 -0.28482825 0.024727328 -0.013979889 0.23576647 0.18505192 -0.1012775 0.027743863 -0.21541324 0.17624515 -0.5357262 0.25511035 0.113059714 -0.17798702 0.038577836 0.3590351 0.22100492 0.09463447 -0.15853538 -0.00759949 -0.035919342 0.59678453 -0.23987767 0.15400381 0.034035712 -0.41851458 -0.11825325 0.11462609 -0.24142434 -0.1998145 -0.20787026 -0.22112183 0.48495957 0.012091115 -0.01914008 -0.05363487 0.0245793 -0.22558606 -0.12372277 0.33803108 -0.34191316 -0.022438278 0.17605378 -0.027916467 -0.13859218 -0.026837397 -0.03785407 -0.13587809 -0.3507839 -0.0050411914 -0.221128 0.09126448 -0.05130356 -0.1443278 -0.276183 0.085884 0.073212415 0.18228996 -0.12904198 -0.30680832
movie313 -0.37638104 0.06432012 -0.15883413 0.26646855 0.3157499 0.11417534 -0.48519784 -0.36678177 0.090470016 0.1835135 -0.11692677 0.5408617 0.11777285 0.026010657 0.024433672 0.3597647 0.0499987 -0.027533589 0.63653994 -0.009380735 0.17930031 -0.25204366 -0.060624223 0.12427894 -0.18803754 0.0700981 -0.0877016 0.039425716 0.086249076 -0.052345607 0.33027393 -0.2875736 -0.23625787 -0.12006617 -0.6694155 -0.09843201 0.34906796 0.18335111 -0.14638022 -0.19519696 0.34100792 0.131869 0.040553283 0.12989631 0.060820397 0.09906787 0.2283154 0.010882939 0.02370471 -0.25794315 0.25696415 -0.06037915 -0.063908406 0.26879576 -0.25175616 -0.25149915 -0.036145475 -0.12837818 -0.11241234 -0.1926972 -0.08527989 0.16099858 -0.008449249 -0.0031646283
movie294 -0.20721737 -0.12905963 -0.24457535 -0.12339419 0.024664538 -0.07369663 -0.21404363 -0.373145 -0.17040452 0.304068 0.016630871 0.4106005 0.13776167 0.1373027 0.04892404 0.4304463 -0.05954441 -0.25785607 0.33700386 -0.09307965 -0.30819616 -0.20745404 0.046981335 -0.055981096 0.18378457 0.25818872 -0.17167673 -0.09019695 0.18096536 -0.040066954 0.013041791 -0.15080461 -0.529415 0.11301182 -0.36927333 -0.31955025 0.06094087 0.17592357 -0.076608896 -0.31697437 0.29461855 0.074109204 0.054479983 -0.055211812 0.093959 0.21244231 0.09937717 0.061769422 0.007522267 -0.15525791 0.15642627 -0.088791944 -0.16783613 -0.0537075 -0.15112966 -0.047208793 0.034523364 0.033284634 -0.1861072 -0.06485405 -0.43251988 -0.07008101 0.08174524 -0.0027431545
user94 -0.036331836 0.028166806 -0.04986736 -0.012698517 -0.029252222 0.02764536 0.20198216 -0.053333573 -0.11188455 0.43576336 0.06739247 -0.049977418 -0.0015698838 -0.04716607 -0.13648015 -0.03857925 -0.22984006 -0.17014506 0.02790468 0.22423406 0.18775047 -0.21244301 -0.04258052 0.035006016 -0.007633821 0.20307298 -0.17724809 -0.10084172 0.10406244 -0.060922947 -0.0739734 0.29864955 -0.03896073 -0.1109905 -0.4774898 0.18077171 0.45516828 0.197406 -0.15124393 -0.2714126 -0.018038558 0.14084367 -0.06189635 -0.01163258 -0.015462231 -0.094161086 0.035840757 -0.0006242215 0.05541458 -0.056083295 -0.28924027 -0.056451123 -0.21882446 0.18291236 -0.13817766 -0.040060513 -0.24364011 0.19864726 -0.4958594 0.19082613 0.3255891 -0.12252226 -0.056153003 0.088877305
user846 0.12650213 -0.15237506 0.18624128 -0.06821928 -0.07391768 0.020682573 0.35337788 -0.035086554 0.11987363 0.15711848 -0.0487194 0.010697613 -0.08044511 0.006742659 -0.22013862 -0.06578676 -0.24382125 -0.06116057 0.13845146 0.067165695 0.007795134 0.13840707 -0.012022472 0.24999593 -0.05520746 -0.16857116 -0.24823238 0.019955587 0.11256707 -0.40290576 0.19333573 0.34547478 -0.10425994 -0.26086447 -0.2927097 0.1847905 0.5000914 0.1866069 -0.13951188 -0.19838977 0.18281764 0.18849474 0.11968076 -0.158634 -0.22586775 0.19990648 0.12243133 -0.16880769 -0.010325771 0.03282275 -0.21395314 0.0091403 -0.4310646 -0.116999365 -0.22372621 0.11239708 -0.28604546 0.2444883 -0.47374263 0.3868577 -0.23377615 -0.28667566 0.076382436 0.01698711
movie172 0.10142016 0.12756439 -0.013851574 -0.19174585 0.0357984 -0.22340028 -0.033810027 -0.16503662 -0.11600056 -0.065389 -0.08415953 0.25535947 0.04491194 -0.14909136 -0.052878097 0.04252289 -0.048562754 -0.245226 -0.095976695 -0.018886736 0.10217163 -0.20367192 0.025066938 0.09720695 -0.117015176 0.17580913 0.11478854 -0.025653806 -0.071123265 -0.28347135 0.10781458 -0.2545512 -0.09153807 -0.2234182 -0.60276186 0.12273032 0.29035005 0.2813995 -0.14518754 -0.23805022 0.19806585 -0.020501029 -0.030333508 0.19209681 0.07455082 -0.32166857 0.13368647 -0.07900467 -0.0003921123 0.18693657 0.040938154 0.1844652 -0.011409356 -0.2932962 -0.2537331 0.19998196 0.072924234 0.21176514 -0.16386928 0.15932149 -0.15799046 0.1135602 0.33815736 -0.085992575
user308 -0.041158613 -0.2900485 -0.13806447 -0.24683785 0.1376289 0.07243999 -0.054123428 -0.2400491 0.19971411 0.052173685 -0.06433867 -0.3387515 -0.09308482 -0.0289351 -0.03677504 -0.16788667 0.018675106 0.035779603 0.23866284 0.16713749 0.05742986 -0.15673631 0.06740834 0.19522311 0.10853981 -0.030110283 -0.11040188 -0.009842085 0.23344846 -0.12187142 -0.22734506 0.23426214 -0.2909372 -0.28220138 -0.23148252 0.2498205 0.1746983 0.1966045 0.10434333 -0.5041935 0.080179654 0.3340714 -0.035724007 -0.4407526 0.2602134 -0.12716725 -0.08257006 -0.31963018 -0.007009798 -0.000681391 -0.16872655 0.087204844 -0.1927795 -0.053318415 -0.30043888 -0.24252069 0.052777275 0.20111743 -0.46543366 0.22542942 -0.045024347 0.22152343 0.3309329 -0.18443562
user537 -0.0053047035 0.035735212 -0.072215475 -0.036271248 0.1754003 0.18361588 -0.044507127 -0.08515947 -0.23326294 0.31893808 -0.10757946 -0.05587998 0.10303433 -0.16919258 -0.17998442 0.0090303235 0.24365559 0.16333413 0.26528224 0.18984395 0.1616733 -0.21174778 -0.11456879 0.30493405 0.092002675 -0.24744889 0.14859815 -0.14665785 0.09905056 -0.17195942 -0.13384919 0.09931741 -0.08172629 -0.10711284 -0.28560802 0.05940418 0.2533885 0.2345253 0.0808119 -0.27272373 -0.011650082 -0.031771623 0.038483236 -0.41961884 -0.22271678 -0.0971515 -0.0104488665 -0.012000987 0.038993303 -0.14869429 -0.06247963 -0.071924604 -0.18431348 0.084914155 -0.23065276 -0.103087805 -0.12685668 -0.1811825 -0.5727769 0.33230272 -0.34929857 0.24061473 0.21579003 -0.056286804
movie121 -0.03891329 -0.17069718 0.24434853 -0.14248808 0.09676621 -0.18283758 -0.14898776 -0.28149316 -0.0068446547 0.03356629 0.09488082 0.048061848 0.3016309 -0.018114094 0.031574376 -0.09980005 0.076719396 -0.43592498 -0.19054873 0.21247344 -0.1169224 -0.068617225 0.04156693 -0.111756876 0.051891837 -0.10489042 0.04266275 -0.15474662 0.044949938 -0.087609336 -0.1662754 -0.28467998 -0.21901911 0.16494559 -0.5226702 -0.22776102 0.11492154 0.3945433 0.06100146 -0.28832301 0.28678787 0.11284308 0.08347277 0.1760046 0.056549244 -0.23394214 0.3096926 0.15332022 0.09742221 -0.14660975 0.05634068 0.023529198 -0.18266928 -0.14515752 -0.012373551 -0.15744609 0.06886391 -0.1562908 -0.3933746 0.108455844 -0.1773556 0.17046143 -0.07425772 -0.049102273
user59 0.010410249 -0.11142383 -0.018275043 -0.09060256 0.21248512 0.07130296 0.084618114 -0.1723952 -0.17416643 0.23297878 -0.052799948 -0.15115936 -0.110475086 -0.17727369 -0.029453471 -0.12659599 -0.098626874 -0.020275408 0.41064554 0.2614655 0.1757527 -0.10642301 0.16993946 0.29679778 0.10135843 -0.019701572 -0.18254805 -0.023716176 -0.0032833368 -0.08172558 0.0072070523 0.2699913 -0.17507647 -0.06901438 -0.38804877 0.2262051 0.2546056 0.29368958 0.0035341068 0.0115889115 -0.06067658 0.22987996 0.14900565 -0.19395909 -0.07198099 -0.12777576 0.18663058 0.011554408 -0.051127616 0.19731301 -0.4156446 -0.037577838 -0.1507608 -0.0022430245 -0.24819872 -0.010572306 -0.0803329 -0.059959564 -0.551039 0.14790316 -0.2931079 0.029849723 0.29847196 0.1790252
user130 -0.30427435 -0.058339123 -0.0014127223 -0.07608188 -0.036842115 -0.3062439 -0.22595078 -0.41404253 -0.074848495 0.15918663 -0.07376636 -0.02585154 -0.10263632 0.23624483 -0.19920152 0.14168374 -0.20281227 -0.29367083 -0.07953436 0.35679236 0.13814645 -0.33176485 -0.15161659 0.3189954 -0.100685954 0.29322127 -0.045681637 0.07341624 -0.30775627 -0.009233335 0.029206531 0.32546577 -0.35636663 -0.16819888 -0.33113042 0.17328182 0.25149155 -0.13526677 -0.14963081 -0.045545153 0.30799347 -0.2507091 -0.2403728 0.12309474 0.07007498 0.2500311 -0.108597495 0.019687133 0.09396985 0.26648176 -0.025578853 -0.02021881 -0.31406212 -0.0770877 -0.083354 0.04091615 0.16763346 0.114713274 -0.2581359 0.13044389 0.10655303 0.27608743 -0.48697072 -0.30780965
movie237 -0.32743138 -0.22191401 -0.047587987 0.06231752 0.25597155 -0.22271065 0.061133385 -0.23961382 0.13593867 0.20173928 -0.04361481 0.04021196 0.24144731 0.10696119 0.04138801 0.108424224 0.08345766 -0.32643574 0.10003442 0.23070696 -0.18521757 0.09073358 0.11045627 -0.3006823 0.070051126 0.11246939 0.18005718 -0.16794252 0.029553466 0.009001216 0.008556519 -0.0031788142 -0.3195022 0.12123381 -0.5343339 -0.18691339 -0.021666275 0.09236747 0.39913395 -0.2898382 0.19417247 0.12975746 -0.06367643 0.07553681 -0.046251316 -0.24332483 0.08205809 0.30956888 -0.09240169 -0.23121177 0.05012393 -0.1742444 -0.05033579 -0.18291587 0.0023373591 -0.14162308 0.12783866 -0.008930248 -0.54641706 0.24596155 -0.28945217 0.12826435 -0.20311002 -0.069307685
movie7 -0.023023132 -0.23426078 0.0613391 -0.09330177 0.098141804 -0.24703364 0.19260214 -0.3475504 0.100459635 0.16098772 0.2166798 0.23298132 0.57049793 0.08214001 -0.3457293 -0.079192646 -0.13341968 -0.20731127 0.17481177 0.15829767 -0.14782284 0.14310512 -0.0344749 -0.037326053 -0.15200149 -0.05233551 -0.14097902 0.220974 -0.13287443 0.00453702 -0.054844983 -0.14493272 -0.19893174 0.09760487 -0.40859127 -0.008484333 -0.036503755 0.5377425 -0.03517432 -0.27362642 0.02904507 0.07173786 0.17228568 0.084716946 0.15914902 -0.29564038 0.12847893 0.11464801 -0.16072065 0.057052255 0.18804415 0.06936191 -0.20655566 0.104689196 -0.21436988 0.19377439 0.19981489 -0.11711925 -0.24986632 0.036589988 -0.07485916 0.25038803 0.13046658 0.01691293
user592 -0.09040476 0.089077756 0.10886097 0.010607817 0.13927332 -0.4302792 -0.064172 -0.6244787 -0.13523476 0.3389806 -0.12209487 0.044645794 0.21101663 -0.014769635 -0.31344166 -0.08716304 -0.2409275 0.07593509 0.3836878 0.1212956 0.31366113 -0.52774847 -0.3936859 0.10222911 -0.15410455 -0.05197311 0.25041795 -0.28970453 0.12755649 0.22479087 -0.28319645 0.20458718 -0.22176753 -0.058780883 0.13409726 0.059819233 0.075996846 0.07716765 0.11281668 -0.11049287 0.17652589 -0.1373767 -0.027775772 -0.097513534 -0.073988356 0.06288855 0.017832993 0.34030008 0.08759787 -0.03849351 -0.014197874 0.009060507 -0.15941118 -0.07605777 -0.020987025 0.08570733 -0.010253122 0.16254824 -0.50453764 -0.050839636 -0.074602254 0.07469889 0.2350121 -0.13939933
user429 0.06899526 -0.07897876 0.09432909 -0.2759333 0.06269857 -0.026439333 0.0036572237 -0.14855424 -0.15758003 0.28653425 -0.033810105 0.17152405 0.16073993 -0.0740538 -0.15393475 -0.047024656 -0.075551264 -0.3094356 -0.012633951 0.050014462 0.24923415 0.08863711 -0.094009936 0.12028218 0.1450266 0.19928361 -0.074026994 -0.02433325 0.19778937 -0.08909996 -0.019292569 0.3756311 -0.2552771 0.054064218 -0.14925662 0.25690618 0.164905 0.09463621 -0.015106321 -0.37100115 -0.08609361 -0.020307042 -0.18615949 -0.02940757 -0.12371485 -0.059259243 0.074080095 0.018501936 -0.058319215 0.013938496 -0.4024086 0.12222962 -0.38326192 0.1384787 -0.17823604 -0.087288156 -0.15652847 0.08493491 -0.43654552 0.13672501 -0.07732756 -0.018612823 0.049982306 0.014489272
movie117 0.03716159 -0.379656 0.092299506 -0.15159895 -0.07146596 -0.18511854 0.00074173673 -0.43394423 0.026595404 0.2674777 -0.15132189 0.3527188 0.41282043 -0.15535468 -0.09621912 -0.09717746 -0.04741431 -0.39600414 0.04936027 0.1824373 0.043995004 0.045564767 0.11498531 -0.080148704 0.006718455 -0.09877038 -0.19373718 0.052977502 0.22730257 -0.008260585 -0.028897194 -0.18548843 -0.19280511 0.23609155 -0.40803075 -0.016627984 0.020044787 0.24726817 0.095590025 -0.20128834 0.41813827 0.112920605 0.12842235 0.018479856 0.2251799 -0.15146343 0.25574353 0.19595602 -0.104279764 -0.22230136 0.2632181 -0.1785581 -0.06986163 -0.17947043 -0.08191203 0.20435551 0.13742374 0.009863903 -0.34508318 0.1630401 -0.10482002 0.19584845 -0.081748106 -0.11926363
user758 -0.11943395 0.045800064 -0.11427368 -0.24864283 -0.097881146 -0.28912905 -0.46743596 -0.29505324 0.29960775 0.0062265056 0.2090063 -0.27249104 -0.091298275 -0.04819639 -0.34128475 0.08409031 -0.08909586 -0.1781626 0.3308422 0.14899866 -0.090772964 -0.3224636 -0.256218 0.25544676 -0.015520256 0.099147566 -0.010379032 -0.16456632 0.053722274 0.09988724 -0.475954 0.2244664 -0.10558544 -0.2439683 -0.19772834 0.01186752 0.2365059 0.18597534 -0.06106365 -0.32747695 0.1589812 -0.14386073 0.0169604 -0.19401449 -0.15154317 -0.11141941 0.34049383 0.06385561 0.07236027 -0.08045425 -0.2801505 0.25067735 -0.17611651 0.1785477 -0.14005569 0.20146513 -0.13839777 0.1352301 -0.23858294 -0.096202694 -0.18842667 0.14913107 -0.06819188 -0.5027421
movie79 0.08121623 0.04738874 -0.1057393 -0.18387811 -0.12268617 -0.1638134 0.16552757 -0.2454029 -0.016950052 -0.26817894 -0.033773433 0.15378813 0.30834037 -0.1375948 -0.08726138 0.005270849 -0.1643136 -0.31321964 0.09666605 -0.045766626 0.20975207 -0.0729001 -0.070651904 -0.00088783586 -0.09072625 0.03972362 0.25047353 -0.19120076 -0.030466074 -0.107039616 -0.038857933 -0.13887912 -0.1906737 -0.119677 -0.5150076 -0.022154668 0.37643033 0.030063676 -0.11786783 -0.21561213 0.108917914 -0.09085983 0.079642855 0.04168932 -0.07825953 -0.048013624 0.20730045 -0.049530815 -0.17531161 0.13350493 -0.1360251 -0.0734321 -0.12857945 -0.42568427 -0.21616814 0.16213886 0.1440651 0.053607605 -0.38232103 0.16881448 -0.19538638 -0.0022952599 0.0760057 -0.17761096
movie173 0.16657412 -0.09113101 -0.17702655 -0.23284902 0.26411733 -0.19843875 -0.023953788 -0.15865082 -0.2114873 -0.03539603 0.130017 0.32662666 0.10735707 -0.04482958 0.11360957 0.019878136 -0.17061175 0.11300396 -0.010103196 -0.023161363 -0.05483965 -0.107574925 -0.04226172 0.024143286 -0.24582879 0.22392778 0.07007938 0.0016208735 0.0029867967 -0.12977533 0.13202904 -0.15763608 -0.40064114 -0.19974177 -0.498121 -0.017081631 0.291602 0.27652472 -0.35497987 -0.30216503 -0.15962309 -0.015203038 -0.118815236 0.15734136 0.0755091 -0.16165 0.022360887 -0.04871297 -0.12202181 0.11734722 -0.12121384 0.10714437 -0.15678912 -0.32547602 -0.10432263 0.19599071 0.048661213 0.22877818 -0.31035757 0.16750093 -0.10161876 0.13561723 0.16025937 -0.06681561
movie222 -0.03442059 0.069886364 -0.10825391 0.03268918 0.111842416 -0.13577907 0.13668121 -0.40907124 -0.09488647 0.22413039 0.17568532 0.08800858 0.4554723 -0.09479461 -0.13835466 -0.15996666 0.12555054 -0.3886057 -0.1804242 0.16075607 -0.002812056 -0.08002702 -0.06630614 0.08229972 0.11830276 -0.15794022 -0.062727794 0.13154387 -0.088019855 -0.14735444 -0.021745281 -0.28808028 -0.2711699 0.17819609 -0.5185513 -0.27969348 -0.09935642 0.6119957 0.08050086 -0.25321472 0.0730017 0.16530515 0.025194153 0.23620677 -0.101835385 -0.26757354 0.22982235 -0.051691335 0.033420812 -0.21807061 -0.08277378 0.28464955 -0.2800651 -0.17251343 -0.045705725 0.065649554 -0.059315518 -0.051399864 -0.28862727 0.024872014 0.011419406 -0.08561254 0.097559564 -0.31940487
user474 0.12855586 0.044775166 -0.01968295 -0.2592204 0.3140422 0.1066798 -0.03349624 -0.35338444 -0.20047623 0.037455183 -0.1493681 0.07471274 0.021068128 -0.25802985 -0.06660076 -0.016745638 0.21707544 0.046961594 0.13190737 0.30357572 -0.03329975 -0.0059107393 -0.019465225 0.13847116 0.030711753 -0.12818123 0.07938342 -0.10554602 0.11053532 -0.2487351 -0.23391537 0.111045614 -0.07272426 -0.37156036 -0.08358136 0.286897 0.38248098 0.16652323 -0.056002934 -0.1360893 0.08574503 0.289829 0.12188768 -0.33173215 -0.24062839 0.009371538 0.1699607 -0.019237198 -0.15238024 -0.069986746 -0.16971727 0.036560927 -0.3038634 -0.15383567 -0.06575804 -0.11234275 -0.00049335393 -0.053603835 -0.6450262 0.21433744 -0.23535316 0.018521802 0.1955301 0.050028425
user551 -0.07463656 -0.13416676 -0.23743814 -0.012870396 0.09090666 0.040025022 -0.015068689 -0.21822146 -0.2058233 0.21078177 -0.35057744 0.07778588 0.06733991 -0.1675993 0.21164529 -0.23750849 -0.10805037 -0.21943747 -0.004521912 0.013629926 0.0102327 0.026941283 -0.06674499 0.3022464 0.063395135 0.40310606 0.04012373 0.2798208 -0.05895722 0.1449418 -0.2333471 0.4381252 -0.32855535 -0.17932603 -0.54187346 0.13576931 0.23303515 0.033408843 0.03156243 -0.29038838 0.5223753 0.04897034 -0.1813571 0.1068372 -0.31663272 0.07525176 -0.054440007 -0.051735338 0.15530933 -0.23617588 0.026940031 -0.13184288 -0.3436768 0.3922149 -0.10466142 0.16276495 0.11782086 -0.023643365 -0.4992791 0.14634955 0.38463154 0.014948802 0.006500141 0.039485943
user880 -0.0068029924 -0.33279222 0.254811 -0.26436317 -0.1683288 -0.25281802 0.055325363 -0.13510063 0.07178557 0.30699012 -0.06347143 0.07396247 -0.05686307 0.090894416 -0.18066747 0.24578318 -0.07304129 -0.2541688 -0.13942495 0.045742363 0.0661683 -0.28710777 -0.14983937 0.085128754 -0.06367864 0.648606 -0.26752087 -0.09307852 -0.0820163 -0.19309328 -0.0835716 0.24011971 -0.21372595 -0.25844657 -0.08254336 -0.02241622 0.23079632 0.19250059 0.27764347 -0.021403698 -0.08386571 0.00681806 0.0005177357 0.017564876 0.19113351 -0.066599265 0.08959072 -0.19775061 -0.06805425 0.23538497 0.061189983 -0.3608164 -0.49757436 -0.039800245 -0.058180705 0.0070888344 -0.031358447 -0.022094673 -0.61970264 -0.09791349 0.12840515 0.0455247 -0.2621111 -0.10805022
user378 -0.26296794 0.01275731 -0.020888763 -0.08469795 0.09196317 0.1310166 0.20855077 0.23630874 -0.03937924 0.49771115 -0.20591825 0.07046934 0.35558048 -0.070004284 0.08605667 0.00027608257 -0.17979892 -0.17898007 -0.059623204 0.25476146 0.29333514 0.06381275 0.115238026 0.01620443 0.22865006 0.15139894 -0.25926682 0.31193313 0.36875483 -0.23021309 0.07696528 0.2799639 -0.23988388 -0.24644582 -0.3153987 0.120078 0.5424323 0.16504528 0.1983994 -0.2655102 0.14615987 -0.024989322 0.123000145 0.3280863 -0.10239056 -0.2137898 -0.05345856 -0.129115 -0.12758136 0.005810954 -0.32402962 0.19487688 -0.099960275 0.15591246 -0.03244914 0.12787959 -0.1043197 0.08102632 -0.37181005 0.0932212 0.22251666 0.018985651 0.107761875 -0.0028880124
movie204 0.2387993 -0.0140318535 -0.16485295 -0.12503724 0.07441214 -0.2159914 -0.079817876 -0.122697845 -0.12946849 -0.10646177 -0.136673 0.14313926 0.18599275 -0.15274441 0.19477795 0.051941346 -0.19759443 -0.0904373 -0.12808631 -0.046086628 0.1987288 0.08096422 -0.078954235 0.019470008 -0.025933633 0.26896197 0.10386641 -0.024150122 0.14674442 -0.16770467 0.08270505 0.017494624 -0.14698997 -0.20813338 -0.4377494 0.01999038 0.3299603 0.29486513 0.0799401 -0.059687417 0.027822819 0.023176324 -0.14348102 -0.026675234 0.15278275 -0.23207761 0.115841165 0.073116936 0.04128397 -0.050890666 -0.11061058 -0.19967178 -0.37368652 -0.47948918 -0.19288762 0.008609204 0.04246238 0.19828321 -0.33671033 -0.037149377 -0.2247653 0.18956678 0.29652917 -0.0220631
movie318 0.12809779 0.26938766 -0.12723118 -0.11930938 0.24346948 -0.2522465 0.20549312 -0.020698873 0.35318792 -0.14788997 0.09041734 0.28709534 0.049549732 -0.05254727 0.054791715 0.15049352 -0.017799396 -0.21399805 -0.025831498 0.2295933 0.033910494 -0.18727256 -0.014980622 -0.036635786 -0.07753059 0.055615325 0.09489921 0.059264023 0.095911 -0.16896473 -0.015550886 -0.0737397 0.00016849878 -0.1880463 -0.59814453 0.0666817 0.27883536 -0.06084236 0.24389994 -0.26448035 -0.07351939 -0.15757184 0.12222896 0.10093981 -0.16644755 -0.21929362 0.049741603 -0.0839995 -0.02043748 -0.038231667 0.09792666 -0.19559337 -0.043891292 -0.21233983 -0.18481989 0.15026031 0.16895095 0.27420133 -0.60393476 -0.07934188 -0.13907778 0.07192858 0.3173859 -0.033720408
movie302 -0.34088787 -0.09489215 -0.32674864 0.26962653 0.18367216 -0.025279017 -0.019457284 -0.27414402 0.30114183 0.1736633 -0.010601698 0.39645207 0.7273448 0.27357927 -0.34990418 0.35557413 0.28340897 0.0048914156 0.3412592 -0.29314324 0.09899736 -0.25125688 -0.4155262 0.16065544 -0.08182746 -0.016675694 -0.050559133 0.11864945 0.08158128 -0.28907135 0.13739547 -0.0992172 -0.011111651 -0.13739261 -0.17271349 -0.22254752 0.5484319 -0.035246577 -0.31033647 -0.3140048 0.25260526 0.22853065 0.039140426 -0.12768647 -0.1254491 0.018424392 0.06464913 -0.11345328 -0.15058291 0.13575827 0.056778356 -0.03797788 0.24927497 0.22137582 0.19552243 0.033577524 0.32188973 0.07173482 -0.41867206 -0.22599417 -0.22954594 0.0019855548 0.092490084 -0.10203226
movie210 0.0040128785 -0.0078088474 -0.023813084 0.050009187 -0.027404211 -0.2482396 -0.21591619 -0.1794475 -0.09546056 -0.02429602 0.01354157 0.22531435 0.025266992 -0.36467934 0.02248753 -0.17080455 -0.038259905 -0.09329946 -0.07888998 -0.09972475 0.056240473 0.05501535 0.031092301 0.19163238 0.026719963 0.42840046 0.14000039 -0.09424342 0.12804194 -0.083880246 -0.08147505 -0.14086789 -0.10764076 -0.11337638 -0.6393472 -0.06669778 0.39895684 0.33220097 -0.014710835 -0.30414814 -0.0340124 0.043152776 -0.0667111 0.24095091 0.060910832 -0.089400485 0.21152171 0.037909925 -0.11993136 0.10649797 -0.08667902 0.056473758 -0.14197688 -0.34278455 -0.21488778 0.045873858 0.07711809 0.042988814 -0.29340515 0.15563194 -0.19517785 0.054672558 0.25681478 0.18195795
user435 -0.039691627 -0.19238152 0.112584546 0.06264505 0.019421011 -0.05402661 -0.12122309 -0.1676404 0.04390232 0.059430886 0.28141123 -0.34700432 0.15163146 -0.106694475 -0.18679425 0.121832974 -0.13364543 -0.24478249 0.0416433 0.17815039 0.1452999 -0.25406918 0.032489385 0.21872945 0.028770668 0.17876184 -0.16440089 0.12441666 0.051931456 0.40205392 0.17599125 0.20078497 -0.16912355 0.022470051 -0.50657415 -0.056869607 0.4692815 -0.0441077 0.30795217 -0.15276435 -0.038298678 -0.24112709 -0.2328232 0.10023062 -0.16776748 -0.026405593 0.19643283 -0.038245436 0.118277 0.24375948 -0.14209925 0.00057038077 -0.5863109 0.040140532 -0.07641681 0.13484581 -0.07370241 0.2112412 -0.24859637 0.144254 0.01952481 0.024814043 -0.08414131 -0.20570041
user90 0.11194577 -0.19476119 -0.01847355 -0.035742927 0.30175346 0.10922976 -0.027715422 -0.27486923 -0.24978724 0.034243945 -0.22142021 0.06510605 0.27241957 -0.08386167 -0.3642609 0.09431049 0.15108962 0.21511737 -0.014904598 0.23776764 0.018967992 0.07541638 -0.16498712 -0.005052632 -0.28351995 -0.35477394 0.15751268 0.15292631 0.4789698 -0.246702 -0.31184208 0.1704891 -0.03730406 -0.009532911 -0.3382375 0.4570184 0.43476814 -0.13819055 -0.17358808 -0.070349775 0.15890147 -0.23388682 0.08642419 -0.20734584 -0.36569053 -0.2187733 0.22277635 0.15285176 -0.15954721 -0.2355813 -0.07379224 -0.038662322 -0.097952105 0.056061424 -0.041301228 -0.027973276 -0.2708175 0.20713122 -0.42301348 0.22124979 -0.28561664 0.020325953 0.22711986 -0.08529715
user796 0.052330233 -0.48035005 -0.0134906685 -0.09754831 0.2000593 -0.2586211 0.08708857 -0.032812025 0.021295287 0.23376422 -0.28870496 0.09120238 0.13319257 -0.11507715 0.046132173 0.41339678 -0.11957322 -0.0049584378 -0.004298556 0.059410278 -0.11827468 0.26002225 0.27565083 0.2873573 -0.30805844 -0.03804858 -0.38216138 0.10861094 -0.22336908 -0.17878577 -0.12332504 0.29690552 -0.41340545 -0.2869029 -0.22980732 0.005970283 0.26298705 0.13190612 -0.13033722 -0.0965865 0.12286419 0.04529131 0.033817075 0.30555767 -0.072981015 -0.036122084 0.10090107 -0.28350604 -0.29922503 0.071696594 -0.13702361 -0.08237068 -0.14470786 -0.008063428 -0.03447508 0.08125123 -0.19791214 -0.09894716 -0.52710515 0.20344873 0.016558474 0.08640406 -0.032153644 -0.37277612
movie269 -0.34553522 -0.04045421 -0.2073132 0.13946792 0.43102658 -0.19522859 -0.17236646 -0.6532198 0.22625747 0.06440345 0.25230896 0.46993586 0.58581156 0.07293141 -0.27446505 0.25124928 0.42386138 0.0101832785 0.12055669 -0.07473634 0.08983011 -0.06491589 -0.39369014 0.16599204 -0.0052388436 0.073081926 0.08758215 -0.15509751 0.19047311 -0.30555615 0.29306278 0.26332748 -0.07486933 -0.09077199 -0.37974942 -0.18793081 0.30934364 0.17689697 -0.19702679 -0.20980035 0.15038782 0.027301788 -1.925408e-06 -0.012808937 -0.06949841 -0.044890292 -0.09232568 -0.015594014 -0.20212176 0.024507366 -0.023328312 -0.33305496 -0.01827813 0.26502213 -0.15696111 -0.24187517 0.11757185 0.32873327 0.06358638 -0.10333647 -0.29960185 -0.2784642 -0.17432821 0.02090847
user334 0.06720279 0.44872665 -0.08619602 0.19785206 0.41353342 0.03154495 -0.044344105 -0.23884447 -0.2862063 0.14330955 0.07062962 -0.15603764 0.2609336 -0.13362554 -0.04891501 0.19494145 -0.08555403 -0.25054142 0.47080657 -0.105670445 0.31275675 0.03667387 -0.3903824 0.04972918 -0.16085973 -0.34313202 -0.16174896 0.06725569 0.040597793 -0.06639666 -0.37059042 0.07243975 -0.034829702 -0.13976525 -0.08451148 0.053319167 0.46895722 0.20186186 0.28234014 -0.13226032 0.0374306 -0.04989081 -0.35142353 -0.28426892 0.09834056 -0.37613982 0.33770585 -0.18416561 0.16703744 -0.07583262 -0.1982458 -0.39847165 -0.07590832 -0.07929086 -0.14408351 -0.08780359 -0.3213067 -0.06591731 -0.36398116 0.2633496 -0.27082035 -0.022256883 -0.19959222 -0.24667507
user747 0.14510891 0.08973741 0.035377122 -0.09842911 0.1850721 -0.062300812 -0.19092816 -0.04431794 0.28322402 0.14607547 -0.16859847 0.25596344 0.1327452 0.1427225 -0.21917507 0.025422947 0.19441953 -0.124668635 0.36889842 0.012667635 -0.22766535 -0.11041286 -0.48948386 0.20645392 0.01612716 0.057363257 0.115262054 -0.25246504 -0.081724204 -0.15684491 -0.28357476 -0.11929168 -0.2942337 -0.027073054 -0.24867256 0.5998457 0.4549078 0.22811589 0.27206334 -0.13293989 -0.030659188 0.12565233 0.0873104 0.019853972 -0.15790133 -0.10734262 0.12949559 0.2585925 -0.28971896 0.40303913 -0.15821688 0.16908221 -0.08179331 -0.078155175 -0.26947057 -0.1884041 -0.42970464 0.19251871 -0.20826681 0.04864329 -0.077002846 0.17208022 0.34714565 -0.2522314
user92 -0.13259724 -0.13923489 0.13539246 -0.0055800476 0.12536842 -0.30085006 0.030131212 -0.2245446 -0.010822068 0.31322816 -0.08477171 -0.13123128 0.28137794 0.093920656 0.07115938 0.0006448466 -0.31133443 -0.35354266 0.25339937 0.058726884 0.1969199 -0.4469436 0.013572813 0.07801088 0.16134693 0.08105756 -0.084387936 0.07869312 -0.0560945 -0.19530466 -0.0925465 0.0046611773 -0.29091364 -0.014581926 -0.28821728 0.14644818 0.3383126 -0.093012236 0.18244909 -0.0755412 -0.15652923 0.03215474 -0.100486815 0.23763183 0.18309757 -0.043155346 0.0631836 -0.062591985 0.016213613 0.112014614 -0.37334594 0.20502116 -0.18043382 0.106512174 -0.30232203 0.2986602 -0.013935044 -0.29383335 -0.343124 0.25989643 0.048013113 -0.18178664 -0.024380496 0.111578815
movie64 0.017035576 0.055333484 0.010558749 -0.31777325 0.24976204 -0.3584862 0.036962334 -0.012993247 0.2732486 -0.05356918 0.10595113 0.21491092 0.28528565 0.066013366 -0.023578703 -0.03460503 -0.19194207 -0.23504329 0.050143246 0.15961681 0.09097444 -0.14821132 -0.053368602 -0.024885848 -0.048629254 0.17693293 0.014625994 -0.186766 -0.065670766 -0.14843372 -0.12560347 -0.06180628 -0.07070025 -0.03823686 -0.39768863 0.14505157 -0.015969066 0.019296886 -0.20524281 -0.34502757 0.10045546 -0.0025321308 -0.059409436 0.19204094 -0.026715437 -0.04311027 0.018949091 -0.055319313 -0.110951625 -0.13735667 -0.09230665 0.025551835 -0.065049514 -0.34820125 0.034037236 0.044539392 0.33130112 0.24426806 -0.6378606 -0.09075526 -0.21721853 -0.06465018 0.5018146 -0.16511911
user201 -0.5430578 0.09703377 0.13547069 0.0056191906 -0.02454552 0.023154456 -0.04932585 0.2922773 -0.30256474 0.25110635 -0.10118438 -0.2143447 0.12828484 0.062115576 -0.059972208 -0.26478782 -0.011465682 -0.13215683 -0.06399783 -0.092439815 0.13352232 -0.24940978 -0.101770595 0.10344019 -0.12693338 -0.023060564 0.15044078 -0.01359701 -0.23589613 -0.1152564 -0.3322587 0.13519502 0.015933543 -0.15517122 -0.5655905 0.271438 0.4153057 0.117935106 0.040632393 -0.54474247 0.20780389 0.09861205 -0.259331 -0.1723592 -0.009657799 -0.20759335 -0.023809632 0.40856355 0.13834973 -0.0135780545 0.17631546 0.21084823 -0.10903939 0.34534934 -0.19568947 0.08555995 -0.18825707 -0.0969911 -0.74395 0.036577843 0.04078051 0.11451414 0.20699407 0.15445809
movie168 0.12221567 -0.027078513 -0.15064369 -0.1274092 0.27836093 -0.27161938 -0.1692363 -0.06647773 -0.14997219 0.091727726 0.046242 -0.0049782875 0.1353415 -0.06305057 0.011528369 -0.09630419 -0.08248998 -0.06585825 -0.13037589 -0.0783279 0.058159746 -0.10418262 -0.04411066 -0.0031891689 -0.030110724 0.38157564 0.116845444 0.074782096 0.02198192 -0.188609 0.2660241 -0.047929414 -0.18519586 -0.27503836 -0.62109345 0.20857595 0.2391298 0.2800421 -0.13202274 -0.06518671 -0.05778597 -0.0355481 -0.012748781 -0.047017854 0.16814548 -0.2532913 0.18912783 -0.2671008 0.07233369 0.094031185 -0.075540245 0.06754448 -0.44117594 -0.44914272 0.07826809 0.15389812 0.040589783 0.15099566 -0.21133576 0.10292514 -0.234644 0.014482618 0.29071298 -0.07283846
user682 -0.031087505 -0.013265315 0.08890444 -0.256307 -0.013306198 0.17620805 0.08821262 -0.1405181 -0.07380672 0.477233 0.040080342 -0.12828255 -0.05843281 0.082929775 0.043812376 0.051468052 -0.060775794 -0.415221 -0.07636666 0.3348857 -0.036429733 -0.22436717 -0.21173076 0.21100937 -0.008863586 0.42270464 -0.15916806 0.27557498 -0.15715937 -0.049734544 -0.20807458 0.10446611 -0.16523318 -0.29848382 -0.420515 0.18589315 0.1544036 0.08559484 -0.21386278 -0.09087265 0.073186696 0.13182972 -0.2537657 0.24508534 -0.09826372 0.031483866 -0.16860972 0.028684288 -0.035401486 -0.050076436 0.07591376 -0.12354904 -0.5832228 0.13151112 -0.15491699 0.059950717 0.16012987 0.11969566 -0.435945 0.07746203 0.12553728 0.036448214 -0.13211595 -0.06806332
user804 -0.12657477 -0.4007388 0.14943527 -0.094305 -0.070506 -0.46256268 0.045626644 -0.18130204 0.16410807 0.053371318 0.1304709 -0.19670857 -0.070981406 -0.080611534 0.22574677 0.06447094 -0.06536735 -0.020807916 0.23512495 0.041354403 -0.16863671 0.003397871 -0.123307966 0.02851318 0.21609482 -0.078282505 -0.46907693 0.11220199 -0.12070623 0.007903967 -0.026570335 0.03953007 -0.06441464 0.06247592 -0.4227439 0.092243075 0.220658 0.13354808 0.029196756 -0.09670251 -0.10829973 -0.12246685 -0.22936381 -0.09062294 -0.26301494 -0.067885764 0.124484435 -0.043073837 0.02475662 0.110933654 -0.48115715 0.048422635 -0.35106492 -0.08453698 -0.48132235 -0.12373275 0.3012187 -0.17865078 -0.53998643 0.19664852 0.078297324 0.1388174 0.08597905 -0.06503175
movie96 0.10669265 -0.01411235 0.17597345 -0.14732264 0.054125167 -0.20634449 0.14441843 -0.104441255 -0.18242958 -0.20514455 0.005011236 0.18544053 0.062867545 -0.035991088 -0.022644714 -0.010922462 -0.2464781 -0.49450287 0.04616246 0.04505026 0.108469054 -0.06672531 -0.16442162 -0.06435505 -0.22606593 0.130107 -0.011546427 0.08438132 -0.05130052 -0.15431711 -0.034260727 -0.24832885 -0.04406399 -0.23683915 -0.6084953 -0.10432118 0.05454403 0.07854691 -0.18069427 -0.1691314 0.017181609 0.038785268 0.12649368 0.2029651 0.1484327 -0.15334009 0.3190905 -0.1618307 -0.12358544 0.2332609 -0.05589639 -0.010564389 -0.1693593 -0.25873038 -0.057976376 0.055215508 0.10974397 0.1481367 -0.46532366 0.19150381 -0.09238642 0.15615751 0.48815584 -0.18636103
user532 -0.17914075 0.35350728 0.31544238 -0.12087337 0.08765757 -0.15219212 -0.11634341 -0.4917758 0.1990136 0.25720158 0.040518068 0.14333765 0.30565143 -0.116527334 -0.0647107 -0.12909591 0.24758606 -0.111489095 -0.0913112 -0.19794369 0.19918035 0.100636564 -0.045307543 0.38739726 -0.1131303 -0.073052436 -0.55464244 0.13198103 -0.22503132 -0.28241476 -0.16394646 0.4520834 0.24132417 -0.04307345 -0.1669306 0.115847304 0.3627035 -0.32968646 -0.042491082 -0.25169858 0.33772573 -0.050517183 0.189561 0.4475866 0.094811305 0.3798215 0.34332576 -0.25541985 0.55393463 0.31783864 -0.09075844 -0.35372624 -0.24517661 -0.33099556 0.06448859 -0.26011604 -0.038218036 0.1368329 -0.49719816 0.134486 -0.07584698 0.4698835 -0.17752059 0.023826545
movie9 -0.18789746 0.24164368 0.1533008 0.20650558 0.3671084 -0.28217104 0.35436362 -0.19314905 0.2332256 0.081846654 0.26012218 0.22794893 0.520716 0.20548995 -0.1631457 0.19579911 0.19868469 -0.34563696 0.17102352 0.4078468 -0.024099767 0.005739184 0.060907252 -0.08822865 -0.27962244 0.37095845 0.006414368 0.06922967 0.23886801 -0.25647065 -0.17455564 -0.086567044 0.18355942 0.30665708 -0.23461653 0.10034142 0.07187083 -0.036666386 0.2052555 -0.15523688 0.19688241 0.29869762 0.040528882 -0.04600045 0.01036288 -0.1433882 0.19296595 0.29549775 -0.11058396 0.023507195 0.025197936 -0.015579822 -0.39905953 -0.18675835 -0.28071275 0.123335525 0.35576195 0.18603717 -0.2654097 0.108850196 -0.3308284 0.2662309 -0.14171945 0.14154941
user151 0.36590153 -0.32934803 -0.28839147 0.107860155 0.16062711 -0.10536359 -0.023792999 -0.15411767 -0.2214747 0.20562254 0.14240102 -0.07087267 0.19954632 0.054284908 -0.1691777 0.07165231 0.14945778 0.07037785 0.09893651 0.105081335 0.26118067 0.23414594 0.033909086 0.2518553 0.020939363 -0.08822886 -0.05052269 -0.07112378 0.26463458 -0.28830993 -0.26576447 0.16735542 -0.33785778 0.08276478 0.013948183 0.1441258 0.26835427 0.26225173 0.10549995 -0.180077 0.0062745805 -0.018893085 0.10776238 -0.011132078 -0.011453155 -0.3238783 0.17843176 -0.17785534 -0.36749908 -0.017349442 -0.31467727 0.16519907 -0.15076877 0.100892544 -0.13815928 -0.052523654 -0.09428299 0.28451446 -0.58229184 0.10895375 -0.24742019 0.14763503 0.44603026 -0.059413057
movie22 0.18464759 0.067683175 -0.07922502 -0.20674792 0.062321972 -0.23519102 0.050616976 -0.22486956 0.10703011 -0.033078317 -0.10611524 0.34509182 0.2738931 -0.3481043 0.017614858 0.00878576 -0.27481624 -0.054109737 0.015352226 -0.036162525 0.2830706 0.005479098 -0.15789387 0.027597621 -0.037541125 0.3267708 -0.11639102 -0.06678974 -0.04838865 -0.09116181 0.04993839 -0.19367844 -0.21280348 -0.03723581 -0.40140572 0.0075655296 0.24350086 -0.051495466 0.06921185 -0.2959745 0.12236445 0.10375309 -0.04255078 0.05066124 -0.08897023 0.015005286 0.17197022 -0.20256627 0.030755715 0.06790028 0.25979936 -0.14968432 0.038824968 -0.27654096 -0.39902714 0.017686099 0.08775746 0.12450306 -0.38260764 0.26865992 -0.28120607 -0.15754507 0.34458628 -0.20012808
user406 -0.17557761 -0.060684904 -0.05596906 0.091726765 0.2750798 -0.059981417 0.10588176 -0.06059879 -0.04490747 0.06411477 0.12023635 -0.16896008 0.20029081 0.035154194 -0.12032966 -0.16522482 0.04193777 -0.09432363 0.31526616 0.40662047 0.08707303 0.009311918 -0.1373299 -0.07755435 0.20133746 -0.22901784 0.0942571 -0.014127918 0.1588039 -0.17726547 0.048032157 0.15057795 0.043125506 -0.16691852 -0.29332834 0.5103076 0.34296766 -0.0030688383 0.12753226 -0.4810874 -0.19810571 0.15707119 -0.033258107 -0.07849897 -0.046578452 -0.09428389 0.28692663 -0.19168507 0.034478247 0.10633806 -0.12644142 0.21982242 -0.23612057 -0.2860489 -0.19897857 0.008520331 -0.2652412 0.1862992 -0.46797338 0.17420211 0.12633683 0.24328506 0.054680996 -0.102498844
movie69 0.050239988 0.113519855 -0.13763492 -0.16862433 0.09040807 -0.30805185 -0.0067454334 -0.11449164 0.19780864 -0.04063811 0.064556964 0.25171813 0.1163613 -0.12943113 0.23930946 0.033969954 -0.111971304 -0.13684677 -0.045698244 0.1868527 0.20579875 -0.058828767 -0.07285115 -0.004983014 -0.12876227 0.16527595 0.083009176 -0.018387135 -0.012673086 -0.11661361 0.025806734 0.06628191 -0.15212414 -0.025736187 -0.5195091 0.038892854 0.22055158 0.06164317 0.07243429 -0.16650333 -0.017408457 -0.16198263 0.0037106436 0.067268096 0.081254385 -0.09629508 -0.05859091 0.15269059 0.08521312 -0.084628575 -0.011727751 -0.15848845 -0.1321845 -0.42429504 -0.17108046 -0.128303 0.0030264105 0.22065866 -0.56422997 0.2577089 -0.20992449 -0.076564044 0.26638442 -0.17616445
user293 -0.034848645 -0.06715927 0.15574239 -0.36306337 0.28223225 -0.22939612 0.015843293 -0.14284642 -0.055448346 0.13444452 0.042003118 -0.1288382 0.25490838 -0.008250509 -0.10496337 0.06670131 -0.0744868 -0.025629576 0.18726058 0.02595936 0.1623452 -0.23424095 -0.09408338 0.11698977 -0.12711701 0.21609147 -0.01413799 -0.07639925 -0.14787376 -0.07442688 -0.2902067 0.28708252 -0.17375292 -0.23314637 -0.15303887 0.3400873 0.23337671 0.09392221 -0.09672779 -0.32958555 0.35627863 0.32490262 -0.1889756 0.08296646 0.10423349 -0.06307396 0.066890776 -0.09783291 -0.11657189 -0.3380919 -0.27063823 -0.0056142416 -0.27680534 0.065519996 -0.026371816 -0.08343312 -0.10892679 0.05732434 -0.36461484 0.18511924 0.22243167 0.011762493 0.20628144 -0.06040137
user642 0.107162744 -0.3327945 0.13642213 -0.23805577 -0.12673576 -0.5408446 -0.14715119 0.18271442 0.1792671 0.22304901 -0.27337414 0.07968419 -0.061231002 0.4089417 -0.27211484 0.024071462 -0.44131377 -0.37364885 0.018669454 0.31293347 0.07773392 -0.0727751 0.20863882 -0.3087558 0.102718174 0.3831911 -0.45487577 0.15300788 0.051790364 -0.39032915 0.1482965 0.15997134 -0.20208043 -0.10976716 -0.07007151 -0.015805233 0.49365962 0.2069439 -0.010118406 -0.3263435 0.29906544 -0.23294482 0.10464378 0.31410235 -0.07624092 -0.06383045 0.005506009 -0.46531793 0.25982314 0.20335107 -0.038007025 0.094444 -0.405709 -0.060187135 -0.19926809 -0.09414672 -0.19661982 0.0065641534 -0.13797528 0.0028370714 -0.10076167 0.2684788 0.05647879 0.075311564
user222 -0.075405955 -0.09937433 0.19545197 -0.15364935 0.08964316 -0.33086613 0.0271435 -0.26673612 -0.19628912 0.48109332 0.005287216 0.11002452 0.00054341706 0.13361397 0.16452385 0.07119941 -0.17364721 -0.36816126 -0.13315406 0.11784726 0.12195909 -0.03231301 -0.14800309 0.059663154 0.019290723 0.3553944 -0.33446336 0.15296422 -0.036249276 -0.20790432 0.044861097 0.1952026 -0.26055625 -0.07059026 -0.33598667 0.18548085 0.29025012 -0.017378973 -0.018578256 0.035881456 0.24976724 0.20214523 0.0155546935 0.23394094 -0.08629482 0.04883328 -0.14136308 -0.16196236 0.05713687 -0.041931696 -0.22252242 0.07703473 -0.34482554 0.046535492 -0.111595 0.22791123 0.021832902 -0.0023470086 -0.35751256 0.09156456 0.24603598 -0.14490442 -0.048246477 -0.020251999
movie151 0.22257832 -0.20556371 0.04761304 -0.072144434 0.27065155 -0.19093639 -0.067524105 -0.29199684 0.0215565 0.08643374 0.23197196 0.13858768 0.3764733 0.021416241 -0.190109 -0.05885381 -0.16515419 -0.21755071 -0.033921234 0.029240167 -0.11490638 -0.19337958 0.06482174 -0.096678495 0.15780163 -0.18077809 -0.04974128 0.0812294 0.037389398 -0.01978619 -0.17749862 0.021766651 -0.3556414 0.23681395 -0.47470015 -0.053118072 -0.12972935 0.6665138 -0.1637997 -0.21184371 0.22127256 0.15695062 -0.0017617412 0.230222 0.053737987 -0.3410217 -0.12788719 -0.079172716 0.02391589 -0.24903098 0.09624134 -0.22270241 -0.31388208 -0.17687647 -0.09200544 -0.13274804 -0.094620824 0.12809421 -0.1640647 0.01140945 -0.07201016 0.29525733 -0.050985012 -0.021335622
movie195 0.013394299 -0.044050105 0.124783404 -0.16996688 0.03980176 -0.35007438 0.16740449 -0.2503476 -0.3035562 -0.102287956 0.05263106 0.042383097 0.2164375 -0.19352768 0.048397295 -0.0968803 -0.104076914 -0.26443845 -0.022305852 -0.021272955 0.31657 0.057753053 -0.1499212 0.11783851 -0.14605723 0.12830909 0.012813387 0.15396428 -0.031967256 -0.16229518 0.047386467 -0.18886656 0.03186401 -0.30352244 -0.54841745 -0.00046073616 0.22238018 0.25535518 -0.12684216 -0.22606835 0.058741294 0.02326725 0.06706995 0.095591374 0.12336598 -0.0858505 0.21297486 0.0024001417 -0.04310011 0.080339335 -0.084854975 -0.008391198 -0.13415155 -0.2797856 -0.23993722 -0.014826845 0.19173421 0.09155629 -0.13869128 0.21563475 -0.21776225 0.09893447 0.4397312 -0.16489446
user291 0.05642097 -0.22644916 0.22240946 -0.30084595 0.09705164 -0.04235358 0.17154548 -0.18420799 -0.01696226 -0.02610993 -0.11215294 -0.26919505 -0.1284903 0.5353608 -0.031831913 0.062343773 -0.17315552 -0.43883106 -0.0036647143 0.12294895 0.23799141 -0.4843977 -0.19059108 0.056549557 -0.013149837 0.20977314 -0.117289305 0.046193775 -0.15645717 -0.13232335 -0.2776442 0.16745652 -0.12059425 -0.14463226 -0.38133743 0.3420303 0.38275328 0.2502734 -0.1454965 -0.33482608 0.19073245 0.3025218 -0.12834755 0.32791147 0.27144894 0.36439863 -0.1989811 0.38401935 -0.07032835 0.0779294 -0.15820462 0.21078932 -0.4448472 -0.02184049 -0.16217937 0.3471856 0.20369247 0.043713592 -0.318587 -0.007471734 0.082384326 0.16388202 -0.24618492 -0.073271886
movie357 0.039397307 0.11215521 -0.14606106 -0.1597953 0.27141145 -0.49950257 -0.0882786 0.043829583 0.028970648 0.08021329 0.14705507 0.10597604 0.25962013 -0.07741444 0.071915284 -0.13886425 -0.15810306 -0.1274696 0.054839317 -0.009630621 0.05063955 0.06645412 -0.14350939 0.06889777 -0.22599433 0.19193079 0.2063115 -0.036096845 0.15645586 -0.21884686 0.06924896 0.153306 0.02233612 -0.081671245 -0.45728287 0.17765126 0.27682823 0.25690123 -0.007036304 -0.12369235 0.04486805 -0.29415432 -0.13156568 -0.06189646 -0.04669873 -0.18640548 -0.041390505 -0.034850124 -0.02267351 -0.23470262 0.06804654 -0.18498564 -0.09687522 -0.2304241 -0.27729282 -0.07055489 0.61684835 0.09973527 -0.48246822 -0.057745233 -0.20293172 0.059900757 0.30496883 -0.05014651
user417 -0.20294893 -0.2737058 0.03644761 -0.18618561 -0.016827257 -0.23333427 -0.013627111 -0.16225915 0.011758384 0.06941858 0.18997149 -0.19187891 0.08478829 0.12448706 0.019451246 0.12632364 -0.32877612 -0.24578935 0.062559664 0.15411355 -0.05139376 0.061461724 -0.20946473 -0.037580825 0.049156815 0.097558476 -0.30463576 -0.0048656007 0.015523011 -0.49301606 -0.17526248 0.24505092 -0.18756263 0.0021058253 -0.4117917 0.13598943 0.40784764 0.10188518 0.17839 -0.2752503 -0.2095959 0.1072092 -0.38695502 0.018504161 0.014251336 0.07937983 -0.02745506 -0.2792058 0.38435706 -0.073091425 -0.19399959 -0.13181278 -0.20148617 0.11284122 -0.34989443 0.28350392 0.022751696 0.10143846 -0.20425631 0.16847013 0.012435942 -0.0037337602 -0.023708157 -0.027304024
movie183 -0.033427767 0.0646553 -0.24148199 0.010054136 0.009521163 -0.27660024 0.19978665 -0.30048653 -0.19177304 -0.05791726 0.16190042 0.12147266 0.40228474 -0.23961435 -0.08935786 -0.20075192 -0.26435307 -0.2670357 0.2015518 0.017169321 0.21897283 0.095305674 -0.013733664 0.20422073 -0.055592924 0.014701918 0.11678611 0.13478205 -0.103993796 -0.18266349 -0.050812203 -0.09293313 -0.24378821 -0.1736306 -0.49072215 0.18302894 0.27845687 0.27583295 -0.1246122 -0.15499465 0.019941641 -0.09312254 0.085949816 0.037715524 0.09474716 -0.17523758 0.12550102 -0.098446585 -0.077235796 0.15898375 -0.15315206 0.14304905 -0.16252686 -0.046000224 -0.22700179 -0.06828735 0.3192097 0.22844356 -0.023006009 0.075962394 -0.1573442 0.098767996 0.3013094 -0.3559898
user311 0.211525 -0.05325294 -0.016829997 -0.09688725 0.09070653 -0.11534629 0.015175752 0.039384834 0.050111488 0.6197484 -0.05340389 0.06458684 -0.07398352 -0.21797006 0.082262546 0.100031994 -0.053206272 -0.34349766 -0.14202224 0.33010188 0.095594615 0.090383925 0.20243466 0.14983124 -0.05847644 -0.1455565 0.014582193 0.100080155 0.14478005 -0.49579397 -0.27073264 0.36338213 -0.25674644 -0.17610002 -0.40386435 0.01630889 0.19938605 0.1534143 -0.40460065 -0.12151793 0.14528334 0.17008828 0.34083837 -0.027336363 -0.19308576 0.23641747 0.21193343 -0.16379866 -0.07872625 0.028035378 -0.43297052 -0.0057446687 -0.35697776 -0.064097844 -0.10480935 -0.23022608 0.11722879 0.06309476 -0.35311598 0.32198364 -0.07951017 0.05300454 0.09007145 0.08643595
user457 -0.22313625 -0.13161334 -0.01151792 -0.26318374 0.16475104 -0.36916217 -0.1402828 -0.1326647 0.012269875 0.29785702 0.27648345 0.030563582 0.12902682 0.16337489 0.034978397 -0.12551199 -0.10821728 -0.18793045 -0.0016930188 -0.009174783 0.3167392 0.12768227 0.18084173 0.13707337 0.43027115 0.11960037 -0.074714765 0.29149222 0.19372863 -0.20583348 -0.17828415 -0.12062392 -0.16486539 0.053423867 -0.107934736 0.25969335 0.6969061 -0.046028353 0.05771586 -0.041041836 0.10605925 0.16715012 0.08602434 0.13212201 0.1566242 -0.46682036 0.12869541 -0.02964153 0.0010013229 0.20467076 -0.20495306 -0.04101225 -0.27360937 0.2526132 -0.12686373 0.029705405 0.16505796 0.07377946 -0.42237765 0.059814505 0.13861611 -0.09681511 0.21904166 0.0056709596
user889 0.19097055 -0.06327757 0.12434278 -0.12776777 0.016198246 0.08278364 0.052290652 -0.10217828 -0.14932257 0.42974105 0.019379053 0.103791334 0.24126013 -0.12711474 -0.1538024 -0.07993153 0.07753352 -0.38804942 0.31208748 -0.21070473 -0.08885404 -0.32578713 -0.29956684 -0.0065496336 0.41392854 0.02635326 -0.23643646 -0.1510785 -0.043552388 0.028775599 -0.1915028 0.102135964 -0.0014150258 0.000835871 -0.20780407 0.12648785 0.14278531 -0.1094395 -0.084835924 0.07294305 0.072006665 -0.10695962 -0.1615796 0.045357246 -0.057282407 -0.24913181 -0.018852104 0.06594166 0.15185617 0.19228263 -0.2810931 -0.14701001 -0.42894092 -0.0076886904 -0.07583286 0.19162843 -0.022664182 0.3360978 -0.5868656 0.24054492 -0.09623089 0.06278415 0.15284696 -0.014183066
movie257 -0.2582813 -0.23745759 -0.015490438 -0.03002242 0.03875942 -0.28419352 -0.07708829 -0.7013998 0.053352185 0.016422285 0.088147506 0.3866868 0.20708938 -0.090315536 -0.12373432 0.04943466 -0.086838014 -0.12500311 -0.18369082 0.11502974 -0.076018035 -0.0781884 0.02138998 -0.17502795 0.13073583 -0.065668866 -0.061936505 -0.1688856 0.4579151 -0.24144284 0.13848561 -0.29651573 -0.3054435 -0.10076873 -0.22256976 -0.08953506 -0.07670622 0.40644774 -0.105850324 -0.30447692 0.27999222 -0.019640923 -0.023476765 0.049004186 -0.011322644 -0.23424058 0.15605494 0.07397236 0.08421137 -0.09207327 0.08234376 0.24070983 -0.3004058 -0.079971865 -0.13590886 0.048247896 0.066713385 -0.15168399 -0.39803284 0.26091987 0.17252728 0.053434417 -0.18327898 -0.24518904
movie216 -0.11415125 0.055868607 -0.11916884 0.107996 0.17143314 -0.14179376 -0.112360954 -0.034656193 0.101255186 -0.055946857 0.0037557893 0.15386258 0.09348991 -0.108596005 0.30774426 0.088585995 -0.15330485 -0.11530362 -0.1152884 0.011310869 -0.03761036 0.07204093 -0.13814847 0.00972334 0.033555776 0.17659937 0.13863747 -0.037742272 0.20535038 -0.1241304 -0.17469268 0.10295556 -0.2934031 -0.20095618 -0.5297727 0.029552301 0.28166288 0.023764811 0.105403006 -0.121792376 -0.07951743 -0.021452514 0.058872253 0.24942052 0.03654982 -0.18475094 -0.006515326 0.062467292 0.23259255 -0.014709705 -0.17103058 -0.12852241 -0.23128763 -0.40358874 -0.096995495 0.030293863 0.21689619 0.32279432 -0.42820635 0.08305615 -0.24241345 -0.021506269 0.31094497 0.03790318
movie423 0.20796482 0.1542877 -0.031296276 -0.0595519 0.053184528 -0.16341844 0.072877966 -0.18331537 0.20203196 0.12074185 -0.008664804 0.23212415 0.03328879 -0.17147109 0.13564497 0.0069503314 -0.059718415 -0.101200365 -0.0795612 0.27864048 0.20254332 -0.17793038 -0.010432481 -0.031188022 -0.09787562 -0.005848321 0.08438785 -0.0055413735 -0.0566112 -0.15832193 -0.03709736 -0.04984978 -0.25039843 -0.094006434 -0.46314096 0.19432776 0.36901754 0.2369979 0.0477291 -0.11881277 0.14910273 -0.1625857 -0.034218792 0.06024022 0.051215883 -0.26928037 -0.16643804 0.030739542 0.16044077 -0.040000495 0.047254108 -0.013466736 -0.15773496 -0.50409055 -0.24841857 -0.12671672 0.17070927 0.30452463 -0.32564843 0.2195053 -0.114173144 -0.04684763 0.33833703 -0.09355468
user864 0.07019713 -0.07526906 0.17874643 -0.17783901 0.08600995 -0.20888849 0.042846084 -0.19525065 0.10834764 0.37126794 0.046729065 0.029071309 0.33696857 0.15296933 0.03744124 -0.12888488 -0.32623413 -0.082198404 0.062493347 0.10572468 0.26891857 -0.07868353 0.043238845 0.15551065 0.051672753 0.2406979 -0.015425087 0.20891048 0.06767847 -0.2174013 0.13613237 -0.084124155 -0.33859673 -0.104695514 -0.013452971 -0.07193489 0.5399941 0.19099015 0.19988608 -0.087822914 0.016499039 0.21847166 -0.02269317 0.04820566 -0.21357492 0.073730215 -0.043566003 -0.22548805 -0.09962347 0.13374616 -0.27751073 0.09290705 -0.3208267 0.04690013 -0.23925528 0.15649468 -0.16004704 0.062308837 -0.5092456 -0.15771645 0.13717587 0.17826632 -0.11134411 -0.16364977
movie405 0.041979678 -0.14944549 0.22687808 0.11372872 -0.0035653259 -0.24406846 -0.1412271 -0.30279723 -0.04988168 0.008997364 -0.028864574 0.08117155 0.40419024 0.09213162 -0.13719974 -0.21766911 -0.045111194 -0.32946005 -0.2073181 0.24213532 -0.09754982 -0.0650861 -0.022170164 -0.21090257 0.2787705 0.018188016 -0.112225786 0.022418855 0.09685785 -0.008163092 -0.03609917 -0.43256897 -0.22426246 0.060436245 -0.42827752 -0.07885587 0.061238002 0.34539655 0.13026829 -0.1997665 0.24892586 -0.013870102 0.1981584 0.031100517 -0.09257568 -0.11318163 0.38054526 0.10290125 0.13186467 -0.19144025 0.04804295 -0.13229091 -0.14060286 -0.12190619 -0.14504948 -0.10091129 0.09618693 0.031327005 -0.46645543 0.24185565 -0.022166334 0.056923635 -0.22435455 -0.16058603
user916 0.2543586 0.027552705 0.29643485 -0.10546657 0.16661072 0.19221151 -0.09893306 -0.25351614 -0.054397013 0.19811942 0.04001944 -0.20153676 0.32189384 -0.26341444 -0.21894556 -0.104216255 -0.23967683 -0.2121849 0.06330785 0.021450458 0.13247617 -0.21915193 0.19455628 0.16219628 0.1872444 0.0039004036 -0.11857411 -0.15214697 -0.095280744 -0.034134377 -0.14311035 -0.010994658 0.06139779 -0.13753003 -0.39107305 0.3319053 0.25289917 0.07089041 0.08345241 -0.22091208 -0.017674519 -0.19823045 -0.22594212 -0.06299423 0.08527526 -0.09109833 -0.07696491 0.1117748 -0.11653192 -0.11687455 -0.36062622 -0.096599184 -0.3272327 0.24758376 -0.3362619 0.38617787 -0.040689446 0.18424691 -0.6453601 0.16207246 -0.14485125 -0.17525284 -0.08240946 0.13875495
movie12 -0.16525514 0.24047028 -0.14634702 0.008193322 0.15585387 -0.04775575 0.15218318 -0.020244857 0.073901325 -0.15508889 -0.01866133 0.30255994 0.45248443 0.096528426 -0.28754902 0.09967675 -0.25602204 -0.052996103 0.20872359 0.0027187152 0.36351523 -0.07198106 -0.1704795 0.29774764 -0.07322962 0.10708384 -0.072444834 0.029933032 -0.060099054 0.12684855 0.022979092 -0.07232773 0.15689011 -0.024366748 -0.54401004 0.06923076 0.23651849 0.032882325 -0.06576305 -0.103024766 0.048031487 0.122174576 -0.0041117985 0.10704788 -0.025372917 -0.19257294 0.035425212 -0.33655798 -0.2543936 -0.0030474048 -0.08171053 -0.016422858 -0.28913897 -0.3492125 0.00036905598 0.2032256 0.45224 0.033256352 -0.4833142 0.2012577 -0.23229255 0.012355604 0.33083937 -0.009066156
movie275 -0.3387001 0.005805861 -0.16300555 0.0999682 0.536099 -0.22551273 0.15868057 -0.3986038 -0.012785695 -0.17324075 -0.04598328 0.35453132 0.2913118 0.19089729 -0.05312825 0.08165188 0.18861912 -0.05676635 -0.25985318 0.11468392 -0.33556017 -0.027477005 0.22730282 -0.010420885 0.032652147 -0.020540105 0.0043315114 -0.15151937 0.096254125 -0.32851708 0.12360554 0.19681957 -0.17789811 -0.037713498 -0.027925126 -0.37677303 0.2503595 0.01648683 0.25413603 -0.3748696 0.045489922 0.37557563 -0.16020946 0.23643327 -0.1709149 -0.30923113 0.06151682 0.37661406 -0.08062172 -0.18689509 0.13091893 0.039863277 -0.40780976 -0.1863255 -0.27124256 -0.024884772 -0.17696017 0.24195243 -0.42461708 0.0043742224 -0.24878864 -0.019474803 -0.002329784 0.033234317
movie191 -0.047448378 0.20692293 -0.15401141 -0.032517638 0.3409588 -0.33881664 0.023769436 0.03509652 0.2952194 -0.06511988 0.3059571 0.051891785 0.25275844 -0.14027002 0.026899707 -0.042586762 -0.09301327 -0.036733475 0.071855664 0.11991004 0.14432764 -0.124018244 -0.06101196 0.112342745 -0.09892492 0.0807696 -0.21139826 -0.024358721 0.036703173 -0.27375516 -0.12540688 0.04940462 -0.08151399 -0.25913554 -0.49657744 0.14782201 0.25164104 0.14400229 -0.0713355 -0.036503807 0.028056664 -0.055601392 -0.21567285 0.13856503 0.08441424 -0.26388735 -0.14341551 -0.03636218 0.048110183 -0.13978745 0.044796295 -0.015033843 -0.2722224 -0.46931207 -0.29418203 -0.099190116 -0.0013229476 0.37585804 -0.3330288 -0.053061582 -0.005350587 0.18052629 0.3086327 0.06432373
user472 -0.4109871 -0.17080648 0.06940835 -0.088693 -0.16738275 -0.20698835 -0.22973727 -0.17140259 0.17576654 0.1154537 0.21996613 0.06078153 -0.12207943 0.18773319 -0.137661 -0.14308383 -0.25504455 -0.5383452 0.03296583 0.26895848 0.103401445 -0.043574393 -0.029481016 0.06898897 0.2058781 0.053946286 -0.46802312 0.19550113 -0.17088294 0.14422798 0.120469905 0.22577709 -0.16639456 -0.06404385 -0.44169676 -0.129544 0.74931294 0.10223679 -0.14805613 0.03133554 0.21993007 0.021523617 0.121594295 0.24196036 -0.15754609 0.05834117 0.04710871 -0.19667669 0.37338114 0.07565068 -0.222386 0.027995091 -0.2606691 -0.041885618 -0.13644184 0.20478603 -0.13739647 -0.003271851 -0.23866557 0.25069934 0.011653077 0.06068805 0.017752405 -0.04595399
user286 -0.056258015 -0.16395584 -0.07077991 0.18460302 0.13289525 -0.44615033 -0.36337668 -0.44494203 -0.26454484 0.34080127 0.34188953 -0.2724125 0.06773468 0.051853247 -0.2410982 -0.17927557 0.034225192 0.042366482 -0.23589751 -0.03693119 0.2790586 0.27247515 -0.6981718 -0.23304665 0.1156731 0.17145634 -0.3786145 0.028508972 -0.36805168 -0.36346617 -0.090572916 0.08792428 -0.13542163 0.1595799 -0.09593977 0.07827851 0.54215956 -0.29813498 0.31544188 -0.07532448 0.06737655 -0.16644828 -0.38434798 0.19887596 0.14860585 0.0106154075 0.1029927 -0.27789283 0.048135836 -0.08222964 -0.019872626 -0.23237477 0.21020955 0.016385037 -0.4046503 0.38914925 -0.10488052 0.3141748 -0.45064223 0.22827096 -0.53682244 0.42602196 -0.24912485 0.07526818
movie89 0.10348262 0.08357392 0.04421286 0.1304246 0.33881798 -0.23646787 0.13425103 -0.15902543 -0.30636752 -0.0837784 0.12243207 0.088470966 0.23116378 -0.08277693 -0.017544407 -0.04677622 -0.28724587 -0.30014676 -0.09149728 0.053821787 0.031894848 0.08974478 -0.29786107 0.15435952 -0.16567674 -0.022659836 -0.20392892 0.002188327 0.12188577 -0.21338901 0.050015017 -0.1377846 -0.059771903 -0.35205156 -0.6061859 0.09937686 0.1744705 0.19685936 -0.05669284 -0.06601497 -0.072394915 -0.0131809395 0.06282737 -0.0432934 0.14209104 -0.12549888 0.03159838 -0.09559903 -0.04532481 0.19757508 -0.16117632 0.083235376 -0.06701033 -0.18798472 -0.30863476 0.22646795 0.21800305 0.18410437 -0.19752571 0.14238064 -0.0683634 0.18111336 0.33687922 -0.26482952
user749 -0.011203776 -0.2625326 0.021363767 0.04791522 0.119384944 -0.33758932 -0.3009898 -0.20760421 0.14573868 0.23271231 0.060890563 -0.048578802 -0.03928305 -0.21983337 0.03089331 0.01836227 -0.35885474 -0.2134035 0.033007506 0.48820364 0.11383556 -0.10709872 0.029497284 0.06242019 0.2178279 0.29483464 -0.24044569 0.31258917 -0.091948554 -0.15776943 0.18802647 0.13239 -0.28584358 -0.20699637 -0.15726587 0.2429675 0.039419252 0.086256124 0.11402674 -0.15334064 0.12317513 -0.016308948 -0.25016412 0.07790707 -0.2982274 0.05302924 0.28025153 -0.30023354 -0.25326762 0.3574767 -0.3119263 0.050868563 -0.45215234 -0.032284543 -0.12946227 -0.33111358 0.14238845 0.19737828 -0.12826054 0.23773582 0.01613724 0.13024566 0.068147585 -0.24024025
movie276 -0.12674615 -0.066780515 -0.020748971 0.1116134 0.18390733 -0.45970803 0.069905154 -0.41616175 0.35304034 0.34376562 0.22685437 0.17900975 0.48353425 -0.01849551 -0.14997175 0.06874541 -0.04316432 -0.36461723 0.303914 0.31364143 -0.3773421 -0.022636084 0.10870499 -0.23047277 -0.00028332826 0.3007169 0.05083176 0.33001453 0.11656848 -0.35241592 0.02787932 0.05256931 0.1302281 0.055650514 -0.1577054 0.29958928 -0.19272572 0.031787716 -0.22553049 -0.22024408 0.12410397 0.20010109 0.21060543 0.046471972 0.0022111798 -0.04962452 0.047760062 0.11406616 -0.10281983 -0.11057221 0.22484474 -0.13356535 -0.15610369 0.0017367981 -0.07468308 0.2085422 -0.029931163 -0.042640217 -0.43313795 0.04506469 -0.5263677 0.25659257 -0.021456987 0.21847174
user561 0.012589699 -0.022587636 0.18106197 -0.1210538 0.3179986 -0.049607795 0.03741723 -0.003796061 -0.21303086 0.2930541 0.100296676 -0.052201707 0.2670369 -0.056199476 -0.032665864 -0.15392645 0.26790234 -0.020030051 0.12140029 0.13535681 -0.08416636 -0.061739117 -0.3478657 0.17300719 0.1330598 0.105178356 0.22295162 -0.08951434 0.18181805 0.054752156 -0.11984794 -0.066204906 -0.026328063 -0.13155219 -0.36194912 0.29845244 0.4161163 0.20326462 -0.0018582835 -0.31833515 -0.31829152 0.073102586 -0.1926252 -0.14139773 -0.041752536 0.037507717 0.20152418 0.13610372 0.31438676 -0.08602962 -0.5123663 0.018623471 -0.25199288 0.17599997 -0.083509885 0.07958538 -0.07138199 -0.015369119 -0.58154273 0.3031091 -0.17149888 -0.060817808 0.15934943 0.12171947
user896 0.010870041 0.04153542 -0.10270162 -0.22570623 0.036657553 0.06213381 -0.020434706 -0.16487253 0.07704942 0.21995011 -0.029864648 -0.20016517 0.3519461 -0.11117975 -0.001265843 0.082300976 0.06235087 -0.119975545 -0.038436573 0.20643674 -0.2011393 -0.20019116 -0.11359572 0.09029158 -0.25547197 0.25795358 0.13460338 0.1818145 0.034472637 -0.24204229 -0.022039302 0.11490786 -0.57812166 0.07945315 -0.28986737 0.08535299 0.31414947 -0.12204567 -0.17337431 -0.33267468 -0.06253371 0.2129422 -0.2528377 -0.20992376 -0.33021846 0.01695691 -0.1188147 -0.06465313 0.16733134 0.13631372 -0.21012151 0.11493845 -0.31598496 0.29310045 -0.2954578 0.07727858 -0.18948369 -0.18124759 -0.46732578 0.14975302 0.14438778 -0.22490841 0.13766143 -0.33840057
user524 0.1393937 -0.15540001 0.08146098 -0.20373094 0.4044799 0.19235945 0.14140558 -0.0045163496 -0.15652388 0.2491834 -0.39061356 -0.31275633 0.45895216 -0.13364498 0.048764527 0.12965661 0.0471241 0.0057490156 0.23359616 -0.16522358 0.027253915 -0.18220152 0.11372727 0.19949412 0.059259236 -0.075820886 -0.17015941 -0.33108234 -0.07486033 -0.24129242 -0.04854689 0.3095883 0.20707521 -0.06250467 -0.5589749 -0.012213641 0.30062786 0.32149243 0.080575675 -0.1397536 0.2047393 0.14618734 0.06757365 -0.28227326 -0.21407402 0.073206656 0.035940375 -0.041517526 0.07917471 0.032119386 -0.09575858 0.101432934 -0.14652301 -0.19305569 -0.015325729 -0.2964162 -0.22121419 0.14740884 -0.5256821 0.4666429 -0.14336193 -0.20264392 0.2040895 -0.072296925
movie15 -0.0852908 -0.1016484 -0.02369723 0.0057713618 0.120986655 -0.27161473 0.14939171 -0.23206536 0.06001343 -0.0013365004 0.17982507 0.28881046 0.29548407 0.045123026 0.14735481 0.17174175 0.43543002 -0.4970416 -0.13550702 0.5196265 -0.039602593 -0.018621413 0.18599305 0.10841891 0.16870172 0.051886622 0.17537616 0.016249057 0.30072826 -0.11176321 -0.035068534 0.0848074 -0.3772778 0.3592422 -0.25111723 -0.044571728 0.031818803 0.32751316 0.16034892 -0.14095935 0.4351138 0.16887234 -0.25591347 0.2793133 -0.041279413 -0.21324718 0.036997396 0.35437837 0.11237209 -0.3942827 0.12765884 -0.12315741 -0.27689752 -0.15366642 -0.021745604 0.13413359 0.1104175 -0.07736904 -0.44081882 0.08686521 -0.32278615 0.17443487 0.10652126 -0.10173526
user883 0.02057664 -0.07169392 0.40243423 -0.22966574 -0.09344463 -0.112601936 -0.12553681 0.069204986 -0.063968584 0.09520619 -0.1339686 -0.18545035 0.25390613 -0.3406184 -0.33750618 0.16028754 0.32843533 0.114970416 0.40499362 -0.07739568 0.24017467 -0.521464 -0.035323087 0.2928289 -0.30372605 -0.2438124 0.04880692 0.208988 0.24031645 0.0073666913 -0.27051297 -0.082550265 0.009500016 -0.21731885 -0.11941036 -0.09026537 0.35509297 0.14834228 -0.052755337 -0.41621912 -0.09518865 0.44665825 0.0343085 -0.09251431 0.2504868 -0.24406207 0.13488175 -0.1262357 -0.15754575 -0.23649967 -0.28465617 -0.2662618 -0.30852363 -0.031235727 -0.19502738 0.34035265 -0.25548762 0.19392815 -0.2035104 0.027748859 -0.57515585 0.30153653 -0.020777568 -0.117995255
movie176 -0.0375733 0.102595545 -0.18928663 0.013175864 0.008421221 -0.2593926 0.25587204 -0.21442641 -0.32004303 -0.34042922 0.049013846 0.24452974 0.24087529 -0.07814314 0.04673659 -0.17006972 -0.3977562 -0.22004677 0.06671114 -0.060490742 0.06652938 -0.03671524 -0.14031781 0.2614049 -0.07787194 -0.026721915 -0.0018138741 0.2879605 -0.021146845 -0.15025967 -0.0976019 -0.2170188 -0.26332074 -0.12580085 -0.5818297 -0.02830624 0.2842817 0.19952443 -0.111527115 -0.21966591 -0.07957459 -0.016346123 0.09311158 0.029396847 0.13580336 -0.07066626 -0.03084999 -0.1306904 -0.14948456 0.22921464 -0.13316824 0.110548005 -0.20786642 -0.09949173 -0.33794495 0.073538974 0.17511643 0.10786492 -0.27556783 0.18513781 -0.11645687 0.014798598 0.14892161 -0.10014122
user18 0.27442852 0.05549182 -0.15472275 -0.16324517 0.34062582 -0.26403847 -0.305483 -0.035890028 -0.20039192 0.2812423 -0.058139976 -0.08802609 0.16480355 -0.099659346 -0.23946713 -0.008336535 0.02475463 -0.0060286145 0.07811193 0.3531871 0.107363805 0.18329811 0.038123153 0.033451594 0.05529952 -0.30335855 0.13196181 -0.17555825 0.55215704 -0.32513016 -0.055063304 0.16796461 -0.07537351 -0.2610365 -0.16031504 0.15269737 0.40367207 0.20449291 -0.056767363 -0.14909534 -0.0262081 0.13641581 0.20911711 -0.17251405 0.20625955 -0.1167009 0.045504928 0.0990852 -0.19207935 0.069965765 -0.057492588 -0.049680572 -0.15543196 0.13188097 -0.40993237 -0.15797362 -0.1288836 0.15649486 -0.38912445 0.43670133 -0.38405856 0.06009091 0.22877236 0.04144589
user145 -0.3176875 -0.11300474 -0.11211158 0.24272642 0.19041781 -0.11239736 0.18503417 -0.2661802 -0.13489905 0.08004687 -0.010602246 -0.06392295 0.20016724 -0.017651193 -0.15255047 0.4132087 0.30659813 -0.21601854 0.06559256 -0.021162972 0.062236 -0.18592505 -0.072133794 0.2276006 0.1440237 0.15332861 -0.036073044 0.1742277 -0.35586467 -0.13384217 -0.45709994 0.28761485 -0.31299984 0.04542049 -0.4760988 0.14298847 0.47985604 -0.09555673 -0.19095865 -0.17396842 -0.070901826 -0.36169532 0.205001 0.28041792 0.1242989 0.241515 0.14114039 -0.16911341 0.31592792 0.13180853 -0.33742622 0.21326736 -0.15407549 -0.18971092 -0.026619589 0.44745243 0.015172121 -0.3408032 -0.37572002 0.19879253 0.21705046 -0.01608686 -0.3789229 -0.07165082
movie328 -0.10844471 -0.2067244 -0.18440971 0.35942426 0.007890371 0.060499426 -0.28419402 -0.3457331 -0.12942694 0.22393133 0.26098707 0.5672612 0.16600999 0.099555455 -0.053182065 0.58582366 0.11146269 -0.10136278 0.39181322 -0.098885074 -0.14318293 -0.15034829 -0.22712992 -0.24294314 0.1669074 0.13198647 -0.15007539 0.26806018 0.1517908 -0.31861 0.14226805 -0.19398218 -0.31687522 -0.17708123 -0.2580316 -0.22670126 0.1162653 0.027276484 0.08610282 -0.41094118 0.20463082 -0.08238627 -0.13844967 0.08309652 0.089177914 0.27683514 0.13416176 -0.07078595 -0.1388057 -0.25148043 0.03659627 -0.18402413 -0.1868893 0.050395552 -0.1958988 -0.24414563 0.19393297 -0.11214166 -0.4023692 0.033080008 -0.07224571 -0.104062475 0.05351086 -0.3791431
movie234 0.21150725 -0.053861313 0.12216859 0.058717526 -0.098411426 -0.38735193 0.02424064 -0.12059943 -0.051529255 -0.18021187 0.14217968 0.122651264 0.2552123 -0.1637937 -0.07006958 0.005347427 -0.2636246 -0.21961334 0.27007183 -0.06727898 0.13779154 0.14482519 0.098739766 0.17399906 -0.07263827 -0.031374536 0.17578384 -0.022387823 -0.14787257 -0.107034184 0.08832943 0.091335736 -0.2311252 -0.03391027 -0.50988734 0.20293722 0.52086675 0.084386304 0.089081 -0.24290115 0.030643083 -0.09628271 0.12453032 0.035768047 0.32210308 -0.16598898 -0.08297719 0.0025289096 -0.19157411 0.20346758 -0.24312574 0.0052186716 -0.03292451 -0.19275238 -0.11846761 -0.047898103 0.14792474 -0.07478668 -0.3677097 -0.116053246 -0.44502702 0.11610299 -0.02951705 -0.22489099
user85 -0.009571209 0.13609344 0.0046815714 -0.085411444 0.17637873 -0.071170755 -0.20836158 -0.028143512 -0.08179645 0.22542216 -0.08937543 -0.24481007 0.22264658 -0.14367132 -0.12908669 -0.19396362 0.13701102 -0.007038986 0.05296911 0.13546546 0.064915635 -0.043087345 -0.28785616 -0.004019079 0.2428403 -0.14588723 0.05717728 0.06976553 0.14733045 -0.11854991 -0.104944654 0.18526843 0.06850034 -0.0383465 -0.3903805 0.20882672 0.2638424 -0.048557967 -0.055828396 -0.46098208 0.26849377 0.015625205 -0.10621965 -0.12661725 -0.32558566 -0.17611897 0.10616114 -0.22122765 -0.18889327 -0.13014977 -0.34601933 0.18573518 -0.18318425 -0.12925611 -0.113430664 -0.11453485 -0.28598243 0.3729291 -0.40099555 0.06908739 -0.10847442 0.24866264 0.2549426 0.1957192
movie483 0.12993038 -0.007550377 -0.1839728 0.012230371 0.19386294 -0.45345923 -0.09043292 -0.24812365 -0.2079251 -0.1418964 0.16777281 0.095703095 0.35562232 -0.16821665 0.024159338 -0.28317556 -0.13745151 -0.3454833 0.0010655037 0.032840468 -0.24146609 -0.12911372 -0.1131972 0.06670706 -0.35957634 0.15325154 0.03588464 -0.10432387 -0.062034506 -0.32663262 0.14152627 0.22602658 0.01564563 -0.40167895 -0.23308475 0.31866926 0.46455315 0.086486 0.046632838 -0.21201164 0.03031498 -0.023392083 0.16056836 0.029301729 -0.19588572 -0.2881401 0.14818853 0.0013422269 -0.014397766 -0.33635813 -0.14153054 -0.017084276 0.053543385 -0.3585138 -0.11389066 0.16461828 0.06659394 0.09340661 -0.27671543 -0.07033325 -0.12838532 -0.10493073 0.48731005 -0.07073448
movie28 0.26884982 0.03747813 -0.0763786 -0.3127242 0.18562491 -0.22478426 0.16332155 -0.22589941 0.25480226 0.0625366 -0.022315212 0.098257855 0.08841738 -0.034088463 0.16662402 -0.04038608 -0.15068783 0.059541438 -0.044164333 0.21092601 0.12520228 -0.1613514 -0.049626093 -0.13610604 -0.16885984 0.09911848 0.2598871 -0.0553601 -0.17121883 0.116776824 0.03709711 -0.15091658 -0.2755752 -0.0653714 -0.6091914 -0.16364004 0.41456056 0.12225388 -0.102384515 -0.14346553 0.16082476 -0.10650416 -0.055221446 0.01434045 -0.033464476 -0.19090372 -0.041018043 0.08021222 0.08367888 0.083043925 -0.0933964 -0.105457716 -0.11846233 -0.31257904 -0.12124862 -0.03466766 0.13079658 0.28243232 -0.48329586 0.22566159 -0.12508658 0.016646925 0.441898 -0.28227037
movie202 -0.09871818 0.0012788024 -0.18658629 0.01442759 0.11754918 -0.283532 -0.15704913 0.012466452 0.023645392 0.027114352 0.040521216 0.14994322 0.05757704 -0.4024255 0.06370539 -0.022535661 -0.18418024 -0.048457034 -0.16766883 0.1319106 0.09328296 0.07572042 -0.19337 -0.011370435 0.008635239 0.17774786 0.1939512 -0.030088924 0.10600707 -0.023377417 -0.1194259 0.07622518 -0.33125484 -0.057014234 -0.64025086 -0.077526435 0.35171774 0.088063374 -0.16767453 -0.052916553 -0.0380657 0.16308212 0.07052291 0.14599976 0.16333172 0.057516027 0.050371144 0.133255 0.12441702 0.043983914 -0.15136652 -0.011505818 -0.19870503 -0.5298897 -0.2665052 0.31126294 0.07497491 0.22451441 -0.3013468 0.14322667 -0.25967106 0.09564361 0.23085493 -0.10335234
user178 -0.1095047 -0.113138676 0.18768917 -0.25824302 0.19578087 -0.31483415 0.022942504 -0.50488055 -0.08503946 0.270207 -0.19917437 0.16994627 0.33838657 -0.38868138 0.09127906 0.17225924 0.14488338 -0.18706796 -0.34628353 0.22474195 0.07350121 0.0052498803 -0.07618956 0.009504891 0.009518799 0.17830162 0.05193692 0.30217257 -0.07791568 0.045230374 -0.14208116 0.26185426 -0.40392974 -0.39730707 -0.21758445 -0.03450826 0.1443471 -0.11232023 0.18983053 -0.1367637 0.03411934 0.1688314 -0.2148066 0.15290248 -0.022299325 0.07843857 -0.05958715 -0.036285184 0.03819352 0.13847381 -0.12170027 -0.19833735 -0.10712371 0.20962529 0.054780103 -0.17680082 -0.03753916 -0.17016625 -0.576874 0.062728964 -0.03670775 -0.112838045 0.08524526 -0.017048975
user399 -0.14430913 -0.18557338 0.06951544 -0.16429564 0.16717787 -0.014167914 0.28984892 -0.156251 0.18654718 0.30454728 -0.0047834283 -0.39467767 -0.18424502 0.22343752 0.15953073 -0.018391594 -0.47917825 -0.5356661 -0.1675811 0.3045229 0.022324048 -0.35683572 -0.20689799 0.12529239 0.17897488 0.11985118 -0.13466093 0.27093217 -0.2865714 -0.42995355 -0.0006131404 0.13470477 -0.33023393 0.16922602 -0.2837237 -0.08734224 0.4090948 -0.013883488 -0.45484462 -0.27785093 0.025114195 -0.13218847 -0.21399769 0.1841894 -0.37969604 -0.16043943 -0.035611883 -0.2124407 -0.21370962 0.23334475 0.19715205 -0.067875095 -0.29384506 -0.1323966 -0.01598947 0.011196854 -0.2563183 0.19280782 -0.3610747 -0.17078277 0.26653758 0.32534206 -0.06214697 -0.046581957
user716 0.37132192 0.0020002155 -0.24119435 0.037663393 0.26917723 -0.15801752 -0.1881976 -0.20788315 0.08613013 0.3049223 -0.030879881 0.0392854 0.14628127 -0.15399693 -0.11293702 -0.097985856 0.111593686 -0.051557627 0.018136976 0.1735663 -0.10075247 0.2990057 0.11564689 0.12324953 -0.061585844 -0.053885292 -0.1101527 0.032796368 0.1642219 -0.31533018 -0.07877215 0.14206262 -0.27360436 0.017252155 -0.13917159 0.12278692 0.34583074 0.15250312 0.17469883 -0.28533328 -0.063128605 0.1603085 0.038960423 -0.08795318 -0.27368808 -0.10624673 0.10063811 -0.28468087 -0.32132015 0.12190974 -0.25146812 0.14127773 -0.16425905 -0.23872969 -0.16563214 -0.50461525 -0.085235484 0.060905036 -0.58573854 0.20742641 -0.04282008 0.16490532 0.19543561 -0.0031905517
movie135 0.17500933 0.102021396 -0.034564994 0.14022432 0.12448002 -0.26397228 0.033832163 -0.08277771 0.003527564 0.073663644 0.32483566 0.10216623 0.188922 -0.0014832428 0.13223015 -0.05181269 -0.1137785 -0.06825389 -0.00035712222 0.07827326 -0.11780094 -0.12200286 0.01820259 0.052437738 -0.08612434 0.0055000912 -0.16021913 0.100850515 0.14003754 -0.15038162 0.13571504 0.06788188 0.048904166 -0.2810965 -0.5174654 0.32969972 0.323003 0.084200345 -0.17002203 -0.09580051 0.093913764 -0.1474532 0.12590548 -0.08153944 0.070407525 -0.24169423 -0.10213105 -0.058755618 -0.05653046 -0.02067715 -0.06791917 0.15466216 -0.33225244 -0.38266852 -0.38926208 0.18878272 0.15358166 -0.08087747 -0.3305958 0.053299528 -0.08795424 0.13313487 0.46285325 -0.17501394
movie25 -0.17819154 -0.29315487 -0.13355583 0.07515923 0.114331104 -0.103821166 -0.06462627 -0.5384538 0.045324814 -0.037265748 0.07240645 0.051021136 0.3122041 0.25664315 0.03305462 0.011616676 0.08791487 -0.106492884 -0.22257693 0.093865015 0.0039014858 0.1189454 0.050077856 -0.12605639 0.17419992 -0.040280297 0.078272946 0.14698179 0.40338558 -0.074241646 -0.120873615 0.06455255 -0.2896764 0.18479526 -0.6237228 0.103427485 -0.049787894 0.42091838 0.13256164 -0.07582191 0.13014437 0.25358737 -0.002417045 0.1261462 0.01557012 -0.37192276 0.19126448 0.25851238 0.20576529 -0.05185658 0.051516037 -0.15590376 -0.14882079 -0.024454659 0.015637083 -0.018346565 0.044853356 0.10715162 -0.4067665 0.079355784 -0.36790493 0.15647344 -0.33614147 0.014701038
movie268 -0.094428085 0.046361286 -0.054136667 -0.01895409 0.39739546 0.13548084 -0.4347934 -0.40241733 0.087317616 0.50156856 0.3584294 0.60165054 0.36423874 0.28326312 -0.22572693 0.325527 -0.10096764 -0.06481407 0.25378555 0.017103009 -0.26032615 -0.3550355 -0.55430555 0.23841316 -0.111803755 0.13237481 0.02537236 0.1193639 -0.1505622 -0.31257212 0.21959376 -0.055403564 -0.022824567 0.011612456 -0.18544126 -0.025287153 0.09543957 0.3328248 -0.03421673 -0.5089206 -0.09616769 -0.3221693 0.0021453148 -0.06467691 -0.32407394 -0.15020494 -0.19986022 -0.11560456 -0.20843963 0.17041731 0.18558331 -0.2354676 -0.2175411 -0.017506745 0.31396297 0.1611464 0.17096251 -0.018218458 -0.2206234 0.086366594 -0.12474223 -0.053077664 -0.122797385 0.3673405
user387 0.112617694 -0.07722748 -0.037198536 0.062088773 -0.01909924 0.077744454 0.07986335 -0.2735492 -0.13130084 0.5580134 0.18934013 -0.17780748 0.3022091 -0.41795167 -0.0632351 -0.117810816 -0.3430199 -0.13031016 0.1082439 0.15494257 0.21872671 -0.4350069 -0.09157763 0.18719892 0.106856555 -0.14714442 -0.12664695 -0.22929649 0.18970087 0.025839133 0.22472298 0.049758635 -0.16613041 -0.0994265 -0.20192952 0.21431546 0.25383174 0.18098193 0.12257966 -0.24279197 -0.3027518 0.23995923 -0.36861628 -0.31543216 -0.09628335 0.1176367 0.12860088 0.32478228 0.1629934 0.30170876 -0.081303194 0.03826363 -0.16852343 0.076459855 -0.086789876 0.31189546 -0.078937225 0.1929108 -0.54365253 0.015544967 -0.07656002 0.35169795 0.1634478 -0.2587516
movie748 -0.10422738 -0.20104022 -0.14508757 0.06491785 -0.004339154 -0.03539389 -0.25884107 -0.4639016 -0.2342029 0.17281179 0.20358329 0.31794232 0.40523258 0.2344626 -0.19501683 0.42438453 0.14976385 -0.16347797 0.30585814 -0.030347085 -0.12789522 -0.21992894 0.07827069 -0.22379553 0.15765792 -0.025319288 -0.27353746 -0.011016008 -0.082002126 -0.18393604 0.06674992 -0.22568892 -0.2786839 -0.2270217 -0.38179234 -0.28682727 0.15254174 0.17500667 -0.18054058 -0.19962974 0.44148043 0.052748207 -0.09574019 0.11520095 0.15978558 0.23660149 0.4163294 0.042773545 -0.18659312 -0.20670973 0.008961689 -0.32651094 -0.4180493 0.06649893 -0.011411508 -0.033220045 0.15885857 -0.020174285 -0.01149389 -0.03693194 -0.2547343 -0.12758107 0.24106874 -0.21731137
user339 0.30749768 0.06242125 0.28695548 0.2475404 0.2577336 0.0037900298 0.10255728 0.019271761 -0.109813385 0.19343778 0.14396764 -0.07269459 0.35332787 -0.17143495 0.17037815 0.061000563 0.0696677 -0.24689502 0.031658117 0.059433673 -0.04993968 -0.16042455 0.023535678 0.23019327 -0.13570744 0.06620465 -0.24423936 -0.10096116 0.22194912 0.11166073 0.03246141 0.12800838 -0.20012105 -0.06911665 -0.32781702 0.52178997 0.42481893 0.25897023 -0.21156012 -0.23591109 -0.21484585 0.30365488 -0.19686677 -0.3932831 0.35367385 0.032445412 0.113034815 0.031078575 -0.2671277 -0.112452015 -0.30780798 -0.2934038 -0.3850283 0.07033229 -0.23276636 -0.19388229 -0.30115482 0.26373369 -0.45908573 0.14475977 0.12787768 -0.24483624 -0.017774217 -0.16147444
user727 -0.05149089 -0.362484 -0.06850573 -0.1353569 -0.10301892 -0.34815294 -0.04662834 -0.45373857 0.058027603 0.07089428 -0.028074797 0.09004703 -0.056194343 0.0335499 -0.073216945 0.15478009 -0.1998232 -0.16353405 -0.19689238 0.35256806 -0.13842359 -0.10147141 -0.055231262 0.25176707 -0.022576556 0.2708691 -0.1897889 0.009344978 -0.15200746 -0.23843247 -0.14377014 0.21363452 -0.016666131 -0.014705041 -0.30052975 -0.011395303 0.41480553 0.03133047 -0.21255645 -0.105364494 -0.38962367 0.067270644 -0.19906789 0.27663666 -0.07497284 -0.031289965 0.06293465 -0.018010607 0.025063138 0.115755685 -0.3493007 -0.19814341 -0.47425172 0.18857461 -0.21622942 -0.016330203 0.15068494 -0.05623814 -0.28318304 0.098870866 0.13181332 0.070541166 -0.14340273 -0.15320572
user299 -0.16931342 0.08485254 -0.08292236 0.21347985 0.19636889 0.101505235 -0.2397021 -0.0066182134 0.21016996 0.25559196 -0.17862219 -0.13721378 0.1206559 -0.063091666 -0.32742766 0.039053414 -0.11607316 -0.24877915 0.35153604 -0.045368973 -0.26074767 -0.11293573 -0.1910325 -0.053499814 0.098634906 -0.41835505 -0.14849526 0.047938604 0.52782506 0.19515592 -0.2885007 0.23254718 -0.13388167 0.057601724 -0.25528637 -0.20040356 0.44200298 -0.22289696 -0.12830414 -0.19182904 -0.2986431 -0.0044868896 -0.08816345 -0.00085055066 0.2249365 -0.19792506 -0.16046025 -0.25068808 0.0062466576 -0.2600695 -0.15599428 -0.039800238 -0.36940783 -0.035518806 -0.13305585 -0.05805689 -0.3665515 0.32853773 -0.41376746 0.3148746 -0.37593254 0.25459254 0.4852205 -0.1998977
user389 0.36677945 -0.24989465 -0.17725529 -0.088325135 0.20846918 -0.18456046 0.23331316 -0.19438392 0.20612466 -0.05944594 -0.17653082 -0.03535158 0.044573117 0.16576877 -0.11627075 0.11848404 0.075492576 -0.0100539215 0.21136352 -0.12969875 -0.041331936 -0.03820623 -0.16149302 0.043090764 -0.025722254 0.062681966 -0.13175474 -0.1627271 0.31780434 -0.028936055 -0.19694777 0.17569442 -0.08258986 0.11284389 -0.1503496 0.5226141 0.44920078 0.33750063 0.006452802 -0.43579686 0.12763496 0.27604344 0.15771891 -0.07663263 -0.0074400664 -0.05253134 0.109800786 -0.4930454 -0.2592357 0.045687158 -0.12798755 0.08661787 -0.35638493 -0.33473793 -0.08096799 -0.30310932 -0.4245365 0.40389353 -0.23890805 0.5255244 -0.23198684 -0.14050922 0.07528896 -0.059721038
user648 0.05711807 -0.3901484 0.068702884 -0.21598464 -0.019769667 -0.46097413 0.053137314 -0.059267163 0.17858538 -0.13240771 -0.10965835 -0.32984644 0.15347865 -0.21303499 0.22923136 0.20511167 0.053678848 -0.16413568 0.09385585 0.00937639 -0.23433028 -0.045150217 0.020034017 0.029263057 0.061324995 -0.05574176 -0.32747608 0.12201324 -0.06326254 0.11940238 0.13165396 0.064607985 -0.06931124 -0.0010700503 -0.34028092 0.020944903 0.6964704 0.2957722 0.15206988 -0.22427341 -0.15264304 -0.12038799 -0.17913182 0.19460285 -0.21656208 0.0003829489 0.25452316 0.09444077 0.18065044 0.50570625 -0.3602854 -0.0038514168 -0.44523644 -0.28283685 0.06131364 0.05822907 0.13908471 0.1413317 -0.1790525 0.030706763 -0.1332703 0.14634712 -0.073362045 -0.25354335
user269 0.0468816 0.064090185 0.39623937 0.15330009 0.08831582 -0.122885175 0.19245727 0.09688656 -0.033474192 0.28466263 0.11215501 -0.31780073 -0.121305466 -0.0014778429 0.079499535 -0.01411436 -0.045371614 -0.0297585 0.23088107 0.16788298 -0.22209305 -0.054050926 -0.42774296 -0.14998245 0.11205605 0.0024566818 -0.20816517 -0.22271436 0.31185278 -0.12178505 -0.12412562 0.3408655 -0.1170209 -0.09973556 -0.2637083 0.4096834 0.22175588 0.37633547 -0.08337186 -0.3824385 0.14787006 -0.06961663 -0.03137118 -0.16371824 0.18278036 -0.38960302 0.044568397 -0.32128727 -0.23587413 -0.41208005 -0.2605538 -0.03492372 -0.055551037 0.0022846293 -0.34499836 0.27685475 0.1384071 0.0063585243 -0.67836493 0.19876906 -0.040257487 -0.1554426 0.092033066 0.21976712
user894 -0.08721885 0.054056726 -0.06288445 0.4468015 0.5890664 -0.13550112 -0.50107217 0.023761801 -0.15937714 0.08606493 -0.30767092 0.086212404 0.5078265 -0.23111942 -0.1746032 0.056178603 0.28903145 -0.069901764 0.40131944 0.44746354 0.19687308 -0.92939675 -0.22419399 0.11164198 0.14037657 -0.3669992 -0.13983643 0.013052125 0.07969401 -0.17795742 -0.48325238 0.002862806 0.11601561 -0.22888443 -0.13146424 -0.029867398 -0.010699857 -0.09462599 0.019921433 -0.49204618 0.09225375 -0.5321434 0.022935998 -0.09394075 0.47568154 -0.17887482 0.24980198 0.008446286 -0.25290638 0.11270544 0.068209626 -0.3218904 -0.17771423 0.046482407 0.040827192 0.07984754 -0.19667637 -0.05789786 -0.19068787 0.04959394 -0.42118165 -0.020339075 -0.11847951 -0.019998988
user328 0.012317404 -0.1342875 0.47427434 0.22232813 0.2617987 -0.037128016 -0.015700847 -0.13581535 -0.06291893 0.3102625 -0.23120117 0.21289156 0.20092689 0.009320969 0.30509084 -0.010712403 -0.10695272 -0.040842336 0.020470258 0.17050683 0.0196136 -0.187081 0.20103921 0.3838944 -0.1615483 0.16734102 0.13112268 0.38225228 0.06986446 -0.3487077 -0.103655584 0.20551687 0.040681224 -0.0036802401 -0.42485237 -0.0021673182 0.6119937 0.019512312 0.3150305 -0.27398527 0.39739743 0.10474527 0.37344447 -0.25845313 -0.23320931 0.14437182 0.20447274 -0.17027798 -0.19985762 -0.026639001 -0.3070103 -0.26223832 -0.16957222 -0.09940583 0.12783729 0.051489122 0.2142742 -0.02110507 -0.27411005 0.13161957 0.4010154 -0.11887377 0.20177725 -0.064645655
user268 -0.008149826 -0.17211378 -0.138294 -0.4484582 -0.30015057 -0.093114115 -0.099453345 -0.460813 0.015192566 -0.19006793 0.12136515 -0.17447874 0.27416873 0.16609336 0.042102017 -0.036239788 -0.20488004 -0.054128915 0.119455725 0.19843742 0.0590003 -0.39143306 -0.122665524 0.13260604 0.008616688 -0.05387422 -0.36613074 0.049798902 0.009263473 -0.060221378 0.10645039 0.3657652 -0.008113731 -0.09685568 -0.28044757 -0.07640993 0.41231847 0.008610727 -0.14252256 -0.40918085 -0.22390866 0.22295676 -0.1580944 -0.071320295 0.097350724 0.013806385 0.0963567 -0.17668316 0.21328491 0.18123358 -0.25987983 -0.23646326 -0.28375793 0.10471987 -0.3382458 0.3373473 0.10035115 0.16661635 -0.35607114 0.028140165 0.100901656 0.123877 0.053904656 0.08394634
user437 0.23689604 0.3742335 -0.20450228 0.02770466 0.21637379 -0.15149558 -0.16703378 0.11091196 -0.02036128 0.047688343 -0.20483324 -0.041350696 -0.0735437 -0.012780732 0.055011615 -0.076433145 -0.22817506 -0.18958592 0.43990028 -0.08457584 -0.17353086 0.1763664 0.05011965 -0.3434276 0.19507375 -0.16778272 -0.24551873 -0.040805094 -0.088794164 -0.057029217 0.020593205 0.12693186 -0.21365163 -0.0075072986 -0.074388854 0.030485198 0.43173313 -0.024984354 -0.15083168 -0.39155617 0.4178937 -0.09365716 -0.27106544 -0.031320747 0.10799241 -0.4418175 0.11548955 -0.10502245 -0.29634225 0.2199083 -0.5379141 0.060831133 -0.39296094 -0.0028689026 -0.21587054 -0.00440445 -0.38340265 0.369967 -0.6799295 -0.036469802 -0.23514868 0.21055691 0.0785001 0.12701969
user932 0.27703238 -0.23284915 0.24480961 -0.16524586 0.389741 -0.17637008 0.13818945 -0.08546158 0.039874595 -0.06384177 -0.2712213 0.05552277 0.15638976 -0.001413729 0.10167431 0.019192528 0.40150094 -0.06614489 0.33113626 0.24943687 -0.48553678 0.06653876 -0.023029441 0.6205505 0.038406886 -0.05621225 -0.056417424 0.060198773 0.17718653 -0.4552521 0.16039379 -0.0712201 0.033541653 0.225846 -0.3807815 0.3627714 0.28796443 0.13881622 -0.15476744 -0.25820404 -0.41420224 -0.03096422 -0.1311834 -0.24197373 -0.1222888 -0.2755965 0.26018205 0.05090349 -0.11952955 -0.025170421 -0.7062358 0.14200318 -0.2540975 -0.058382638 -0.2436582 -0.38226867 0.21606424 0.16953202 -0.22390842 0.388518 -0.31068385 0.2058041 0.16363129 -0.08631804
movie197 0.027154392 -0.018398078 -0.113010824 0.14651397 0.3022726 -0.33112738 -0.07298093 -0.16244885 0.2749895 -0.014070393 0.28809252 0.0874318 0.081958294 -0.1008747 0.1380072 -0.18244295 0.061805088 -0.01637084 -0.2281493 -0.020700207 -0.00941152 -0.23470932 0.0941002 0.030589268 -0.08717003 -0.09777865 0.102494605 -0.08992257 0.15628451 -0.26404166 -0.001098536 0.04151103 -0.045950424 -0.3814165 -0.35601652 0.22269668 0.5139188 -0.026906678 -0.1366017 -0.054275475 0.1094722 -0.07322213 0.089635044 -0.11917763 0.050030008 -0.41342235 -0.22117962 0.060732912 -0.25115314 -0.031945698 -0.090772405 -0.13867588 -0.14883351 -0.46345076 -0.17344286 -0.09829831 0.21697964 0.23105134 -0.5603546 0.03788365 -0.15060121 0.06945771 -0.022476882 -0.20898587
movie238 0.077422455 0.015027527 -0.30768746 -0.055763524 0.17124252 -0.36307582 0.024046518 -0.017215934 -0.0607186 -0.074131966 -0.06962305 0.15495539 0.25515348 -0.17416383 -0.015363475 0.0018715276 -0.22066244 -0.010717797 -0.2037936 -0.13871095 0.026615573 -0.11681508 -0.24216753 0.10292025 -0.039227884 0.20114407 -0.0024861605 0.018662719 0.09485244 -0.1880121 -0.024517456 0.3164063 -0.18073432 -0.06022889 -0.50104934 0.15497875 0.1840405 0.30208904 0.0705992 -0.09670771 -0.079930834 0.21797201 0.06955796 -0.13090841 0.16549684 -0.25612006 -0.136412 -0.29795596 0.1491544 -0.13916367 -0.18165936 -0.06849907 -0.20615341 -0.29343328 -0.07237284 0.11619205 0.1877747 0.20310625 -0.4112586 -0.10277896 -0.27231348 0.20505342 0.08416467 0.20734131
user312 0.18524593 -0.24717523 0.03708897 0.12788248 0.45082036 -0.23738332 0.08954979 -0.3764696 -0.10461556 -0.03364199 -0.10708099 -0.09069136 0.25075257 -0.12925987 -0.2599443 -0.17187132 0.09583375 -0.05460087 0.05401107 0.2886905 -0.15566957 0.14412607 -0.0052668904 0.31704256 -0.09201121 -0.351755 0.14830601 0.08697026 0.3936329 -0.6146822 0.01085039 0.013405917 -0.061592754 0.074626 -0.15614994 0.43975106 0.3622849 0.06540024 -0.018843966 -0.4196194 -0.6174446 0.068318106 -0.016140541 -0.2728405 -0.3277164 -0.027883185 0.3583396 -0.02397748 -0.10679278 -0.1690326 -0.16055818 0.11773188 -0.23931552 -0.21056624 0.111004084 -0.37359607 -0.24246104 0.28550962 -0.26583198 0.1712561 -0.22800234 0.35419893 0.4987395 -0.006727667
user95 0.17632814 -0.17421363 -0.13293445 -0.110071965 0.16193736 -0.41504696 -0.21707274 -0.005931746 -0.08625365 0.17158675 -0.09391413 0.032282807 -0.04215959 -0.10309121 0.1427616 0.14592941 -0.29442957 -0.3232393 -0.10284377 0.40137085 -0.066317655 -0.064148664 -0.12248755 -0.028817043 -0.011511749 -0.3681884 -0.10915345 -0.06614701 -0.01032149 -0.48749065 -0.007769266 0.22693823 -0.109685935 0.004469755 -0.22013369 0.07427367 0.33192095 0.29347733 -0.056177586 -0.083662845 0.029361935 0.06254346 -0.14116384 -0.037131667 -0.050387435 -0.025637595 -0.1705848 -0.19062191 -0.16592225 0.012055692 -0.45728102 -0.32998264 -0.3057713 -0.009075203 -0.23644878 -0.094854996 0.08407035 0.093657754 -0.33408862 0.1058089 0.03929642 0.19550227 0.029025836 -0.1382047
