2625 64
movie50 -0.012272787 0.0058435607 0.00870724 0.010413209 -0.0063977777 0.0056591267 -0.0046501886 0.00028030094 -0.008483132 0.0019726728 0.009115001 0.02060911 -0.01873489 -0.009495357 0.009267699 -0.0012527105 -0.010550909 0.0036941455 -0.005227722 0.008295959 0.016832266 0.010609786 -0.0087542925 -0.00224177 -0.00945767 -0.014971059 -0.0042905402 0.0006032457 0.018983476 -0.021715242 0.0024115078 0.00057352916 0.011837166 -0.00085088884 0.0076137837 -0.004468181 0.0032968686 -0.003103473 0.01171267 -0.0147438785 -0.0013421791 0.008849083 -0.009835853 0.0197328 0.011556881 0.010955582 0.010048781 0.0037961197 -0.010204514 -0.010900943 0.00925253 -0.014855165 0.011912541 -0.0032573335 0.014613857 -0.0029884158 0.025092376 -0.0042968607 -0.002185256 -0.0007046969 -0.006496102 -0.009701108 0.0068051917 0.000373015
movie258 -0.0074549117 0.016762145 0.004773975 0.024226412 -0.0015967218 0.0041501843 -0.003566348 -0.008001674 -0.007875888 -0.002059427 0.01096108 0.00815053 -0.020472365 -0.007748277 0.003625863 0.0072357887 -0.0031265481 0.00089511817 -0.018079093 -0.001564555 0.0038443173 0.0050057652 -6.390936e-05 -0.010136673 0.0042461446 -0.0049081314 0.0051889047 -0.0090808 0.020236105 -0.024168164 0.005717321 0.010063714 0.0052116327 0.008049972 0.0030913402 -0.0053412854 -0.0029267804 0.00360307 0.004398316 -0.010575564 -0.009196962 0.004151869 0.0002317983 0.008108676 0.0012263417 -0.0006051857 0.018223375 0.0025736804 0.0001291878 -0.009348894 0.008164759 -0.009847173 0.004257657 0.006343391 0.0065112035 0.008133764 0.023752186 -0.011585329 -0.0023815518 0.0008149815 -0.006909476 -0.00026137516 0.0011806163 0.00941457
movie286 -0.0138702225 0.017166648 0.012168947 0.020554861 -0.012673072 0.006663849 0.0018157199 -0.015288514 -0.0038767878 0.005598915 0.009326373 0.0073579764 -0.007685357 -0.0016409336 0.010966989 8.250903e-05 -0.0032460224 0.0055519836 -0.002879565 0.0063512875 0.012588725 0.009586748 -0.008351435 -0.012561107 0.0059834756 -0.013631249 0.0095147025 -0.009396996 0.017770866 -0.014096539 0.0023012853 0.004896873 0.010620317 0.0022772476 0.008094356 -0.0074090627 0.000187647 -0.0024231698 0.014058698 -0.017026968 -0.0136678945 0.005641131 -0.00971631 0.020752294 0.013369138 0.0062555196 0.017340226 0.008837045 -0.0073489593 -0.0022207408 0.010416739 -0.011309477 -0.00032050812 0.007977549 0.011429934 0.0025052591 0.022951437 -0.011020033 0.009327836 0.0059536514 -0.012105975 0.003080193 0.013583658 0.0017514807
movie300 -0.015449522 0.017927 0.01268008 0.01567445 -0.0031594902 -0.0018493334 -0.0039783292 -0.011499326 -0.012330321 0.0065966602 0.008991717 0.014440932 -0.01542887 -0.0032647918 -0.003956374 0.0035183772 -0.00050759036 -0.0022841336 -0.012893692 -0.004132663 0.016865037 0.0016509072 -0.00538862 -0.0012163365 -0.009870487 -0.0027651035 0.0042524477 -0.0034384604 0.0145614045 -0.021736486 0.005184963 0.0023016976 0.006742185 0.003489171 0.0001138863 -0.0035054053 0.0059945164 0.0045363638 0.0035592015 -0.016319556 -0.0008676068 0.0008527981 -0.009641785 0.008211819 0.013736812 0.0024812405 0.017845916 0.0029138941 -0.0063615516 -0.004016755 0.011107548 -0.0028579063 0.0075468095 -0.0053516347 0.009867888 0.00044160892 0.015369033 -0.009606911 0.0074496716 -0.009163298 -4.2720803e-05 -0.012182929 0.0081778765 -0.006176109
movie294 -0.0044727535 0.004559574 0.002942426 0.021385685 -0.006204631 0.0032473153 -0.0053434577 -0.0037230088 -0.013366283 0.007608799 0.0046731383 0.018138641 -0.021499688 -0.0071398 0.011152419 0.0062277867 -0.0029364019 0.010262718 -0.0060888687 -0.00033792102 0.009643286 0.015411855 -0.008124294 -0.0034085617 -0.0025211792 -0.010189247 0.005747925 0.003142852 0.014537888 -0.019561956 1.7144652e-05 0.012512373 0.011464412 0.009885267 0.001587314 -0.009851861 -0.00035550958 0.0017038786 -0.0006274178 -0.0125489645 -0.010697447 0.003272148 -0.007660501 0.014863977 0.0057433816 -0.0009361043 0.0067587537 0.008694037 -0.007907803 -0.00023970219 0.00469312 -0.015562037 -0.0005976402 -0.003774105 0.014431025 -0.0046547353 0.022764668 -0.009393863 0.0072283004 -0.0040614735 -0.00643755 -0.006690111 -0.00021543205 0.007212028
movie288 -0.017136328 0.009628347 0.013508687 0.014349057 -0.0065628635 -0.0005855944 -0.0006825492 -0.010981727 -0.015118142 0.00032307647 0.00028815176 0.006241138 -0.0053822985 0.0036057637 -0.004932014 0.00022472737 0.00024020443 -0.0016936017 -0.014941921 -0.0061253873 0.013227944 0.005318102 0.0007781798 -0.009771084 -0.0015630943 -0.0007507811 0.010723286 -0.0113673 0.0070551317 -0.013309767 0.006148856 0.00578556 0.010356144 -0.0023698257 -0.0007558111 -0.010878647 -0.00092399877 0.0007718286 0.010953668 -0.016313806 0.0011680668 -0.0035579754 -0.004486982 0.013654609 0.0010083155 0.005259574 0.0076321885 0.0047354326 -0.006076063 -0.012899946 0.012242758 -0.0059819887 0.007832739 0.0021234588 0.011918125 -0.0011104399 0.021082105 -0.011120713 0.001304146 -0.0025002314 -0.00026023854 -0.006242146 0.002963212 -0.0054163453
movie313 -0.0026483543 0.0019454937 0.0101744095 0.016179448 0.0033305087 0.007200314 -0.0003816826 -0.010897314 -0.011482017 0.007850732 0.0031383492 0.009651065 -0.017945873 -0.002101497 0.009883593 -0.0042046704 -0.005187225 0.007975238 -0.0015438083 0.0006436595 0.008573049 0.0030228111 -0.006391949 0.0030545723 0.0051703034 0.0005947225 -0.003520722 -0.00484651 0.012370752 -0.01013714 0.010871849 0.014238212 -1.1073809e-06 -0.00020008233 0.005528229 -0.010353413 0.0072513614 -0.008557414 0.006641855 -0.009868217 -0.0015648117 0.0069383606 0.00086628605 0.004795755 0.0041596345 -0.0008560333 0.016324364 0.0067287832 -0.007600701 -0.009452446 0.0015865115 -0.009210166 -0.002965694 -0.0028516508 0.0034611463 0.0029917979 0.009100226 -0.00830647 0.0034660327 -0.0019251121 -0.00091573223 -0.00695932 0.010929355 0.0076000956
movie181 -0.017447155 0.002447367 -0.0029610682 0.019325638 0.00055375765 -0.0012387988 -0.0021941648 0.00335644 -0.005068556 -0.00069541845 0.012261487 0.012348992 -0.005029975 -0.0082762055 -0.005883167 -0.006461409 -0.008014193 -0.0014827206 -0.012062906 -0.0026752835 0.013360205 0.015334569 0.0051257624 -0.0033278996 -0.002315793 -0.004804478 -0.0027031456 -0.006129033 0.018462095 -0.006678484 -0.0024619892 -0.00032921403 0.00048015657 -0.003487624 0.0072388947 -0.006989022 0.007919509 -0.009980097 0.003024304 -0.0046737343 0.0004695156 0.0013990364 -0.010220641 0.019597653 0.008605767 0.0069453293 0.015826585 -0.005942332 0.00325902 0.002220234 -0.0007497932 -0.006270506 -0.00014646092 0.002140897 0.014712625 -0.006531621 0.01889698 -0.010094943 -0.00662571 0.00085930154 -0.0055982675 -0.008644024 0.004854751 0.007699793
movie100 -0.0047087814 0.008850482 -0.0020466615 0.0130059505 -0.008013365 0.0076121544 0.0073665404 -0.0023886608 -0.014439628 0.0058326 0.011585788 0.00481097 -0.0035383247 -0.0029823931 0.0034879267 -0.0031300776 -0.010092702 -0.0011240183 -0.0057103503 -0.0047754957 0.015521383 0.006995475 0.0020158791 0.002577044 0.005744865 -0.0058655217 -0.0010918508 0.0013486536 0.0056018922 -0.015744815 0.009027841 0.010490319 0.006905165 0.005659926 0.0080947215 -0.0006379933 -0.0027820794 -0.009293973 -0.00041371418 -0.0150866285 -0.00415092 0.008405816 -0.007343615 0.008190324 0.0079909 0.00097427325 0.010624248 0.0026595981 -0.0103254635 -0.0066235466 0.0049428227 -0.011060126 0.002701917 0.0061457055 0.010957504 -0.0006330004 0.011884546 -0.0040999893 0.0016320162 -0.0026391598 -0.004387661 -0.0023823828 0.012726716 -0.0014349226
movie127 -2.4655725e-05 0.015052282 0.0008081713 0.011109884 -0.009718574 0.008585998 0.0028409518 -0.0019427402 -0.003295104 -0.005394089 0.004860328 0.00813552 -0.011181324 -0.009648693 0.00061332696 -0.008983526 0.0030804342 -0.001540868 -0.006956326 -0.0032414785 0.008856643 0.0060883006 0.0024682204 -0.0070675462 -0.008888266 -0.010819254 0.0023935437 -0.0014311163 0.0031154605 -0.0071204305 0.0026584682 0.003208478 0.0008303485 0.00087374926 0.004322313 0.0030468788 0.009131984 -0.0026297742 0.0021981555 -0.0050679366 -0.0066365274 0.0054348297 0.0049665743 0.0126130795 0.005847403 0.0048212246 0.006340474 -0.0019310068 -0.008465561 0.0014436586 0.0076649575 -0.008937996 0.0067362934 0.0021770273 0.001888033 0.00223956 0.017617278 -0.012983118 8.1135615e-05 0.0066859643 -0.008431482 -0.008798809 0.0041629015 -0.0012517
movie302 -0.011171966 0.004804966 0.006659998 0.0100169405 -0.007497232 0.0066837524 -0.00042592952 0.0017016059 -0.0008146344 -0.00062831334 0.0072277216 0.007269525 -0.013833989 -0.009129923 0.007918978 -0.0010499964 -0.005813764 -0.0005764497 -0.0022580673 -0.006820009 0.0017288489 0.004916845 0.0066454858 -0.0018006772 0.004227668 -0.00025433605 0.0025158352 -0.007189341 0.009337007 -0.0142667815 0.01038443 0.008635889 0.007746812 0.0034591865 -0.004593628 0.0005007348 -0.0019786295 0.00014058742 0.0092339665 -0.006043131 -0.00145828 0.006957501 0.003053999 0.015865786 0.008392772 0.0046461797 0.00072663144 -0.0029958894 -0.007147026 -0.012309932 0.011069433 -0.0034553194 0.0026313977 -0.0023949249 0.008452817 -0.0038077263 0.012271849 -0.0036555731 0.0010334783 0.0060185688 0.0017401229 -0.0045859786 0.0029019124 0.0036550811
movie269 -0.015192893 0.0026040918 0.0024494538 0.013709656 0.0036695364 -0.0052101547 -0.0017035444 -0.010411143 -0.013723406 0.0039948067 0.004325532 -0.00095926516 -0.010058727 -0.002866482 0.0066725644 0.0066637304 -0.011259565 -0.0038446859 -0.007492143 -0.004358548 0.0083048465 0.011163082 0.0070902472 -0.0034111026 0.004642881 -6.73467e-05 0.0043339916 -0.010561173 0.0029074594 -0.0055808984 0.0054429667 0.0039272723 0.004393794 0.0014683058 0.008025667 0.0046796077 -0.0016133162 -0.003396244 0.0040469356 -0.011011299 -0.008717432 -0.006126489 -9.9391276e-05 0.007316445 0.008328337 0.0008585468 0.015470979 -0.00090948644 -0.000533916 0.0037414478 -0.0020789972 -0.003951861 0.0013999183 -0.001005978 0.012401145 -0.0074386033 0.0062074414 -0.0054257186 0.004821612 0.0056859227 0.0012986319 -0.009318066 0.01282879 0.003124657
movie328 -0.00862604 0.0063592475 0.007691839 0.016559787 -0.0031307526 -0.004203529 -0.003582903 -0.0054441555 -0.0032600465 -0.00102695 0.011269226 0.004687712 -0.005714717 0.0011266352 0.0039448263 0.00025981021 -0.01132222 0.009987931 -0.012856751 0.00023272517 0.013745418 0.01353199 -0.007368957 -0.00090202375 0.003107769 -0.012169786 -0.005787336 0.0038607013 0.00924796 -0.01217527 0.006371362 0.008470156 0.012483125 -0.0025956985 0.00013343783 -0.0072645466 0.004665844 -0.00978704 0.0051434045 -0.009886268 -0.008425487 0.0084394105 -0.0022788676 0.016100926 0.009632729 -0.003627314 0.013752824 0.0020848943 -0.0001991207 -0.011282083 0.012493919 -0.014249635 -0.0047729732 0.008568553 0.007628072 0.0071930927 0.0033901439 -0.0060926634 0.008459123 -0.006278987 -0.003035658 -0.0018731516 0.013063404 -0.002907162
movie1 -0.011663022 0.003556777 -0.0013897229 0.017248 0.0025284772 -0.007570351 0.00920656 0.0005038709 0.0010255978 0.005111968 0.00046626054 0.011301051 -0.0019125403 -0.0043635867 0.0010802526 0.0026894417 -0.0032779982 0.002779318 -0.0064733094 0.0014892337 0.008580153 -0.00047941087 0.0025249864 -0.0060639232 -0.00034680005 -0.012169625 -0.0017411675 -0.006057363 0.00938402 -0.005249456 0.010456056 0.010331434 0.0015564745 0.004561283 0.0014967363 -0.0004995898 0.007562705 -0.00576046 0.003679802 -0.011958146 -0.0019878834 -0.0019317697 -0.00066501676 0.0036843168 0.0068238196 -0.0030015223 0.011474032 0.008379716 -0.0029880723 -0.00049072586 -0.004409782 -0.013862245 0.00213188 0.0056455825 0.01443398 -0.0006059266 0.008593332 -0.000945013 0.0018305895 0.0008241666 0.0022146087 -0.0028544327 0.0028292215 -0.00023823953
movie268 -0.0036504655 0.0040489333 0.008998022 0.0057614925 -0.0010106683 -0.0012721698 0.0064793127 -0.0023523716 -0.0049676313 0.0077742874 0.0056875674 0.0039707073 -0.0041678 -0.006081574 0.0040113963 -0.003172395 -0.008997429 0.005961633 -0.009573694 -0.0016171719 0.01406318 0.00070064206 -0.0073205107 -0.00921776 -0.003483909 -0.012412097 0.0047709304 -0.007851179 0.0039498126 -0.011132807 -0.002484607 0.007248661 -0.00017040732 -0.0036978708 0.0043088114 -0.010604899 -0.0026137526 0.006395769 0.011261731 -0.0031199271 -0.007271818 -0.00037333142 -0.0023549967 0.0071970373 -0.0027587267 0.0041345176 0.005546627 -0.00354879 -0.0072174817 -0.004260577 0.002664416 -0.013885529 -0.0031857004 -0.0071423724 0.008747892 -0.0063640294 0.0021203062 -0.013405387 0.002892318 -0.0051318742 0.0036473263 0.0034559737 0.012938234 -0.004284637
movie174 0.0012994338 0.0036887685 -0.0015322146 0.002930838 -0.008353691 0.0074339323 0.0005834717 0.0026150094 -0.010136848 0.006434287 -0.0030851453 0.006036652 -0.015987976 -0.0062122564 -0.0041222093 -0.00098097 -0.008748271 0.0022768918 -0.007904772 -0.0025857221 0.012062477 0.002458239 0.0048656473 0.0007023758 0.0060008573 -0.0020064374 -0.0047207447 -0.005360689 0.015151051 -0.017699445 -0.004235717 0.0040016435 0.0041222963 -0.004061657 -0.0018207477 -0.008594615 0.0037223548 -0.006453751 -0.0011699295 -0.007060066 -0.0020514012 0.0034835155 0.0023888794 0.014033169 -0.002128857 0.007577199 0.013267819 0.0013581906 -0.0044505605 0.0034145494 0.001351823 -0.010840558 -0.002580157 0.006138409 0.00071497314 -0.0048011956 0.0025416324 -0.0057585267 -0.005715324 -0.00017041295 0.00350115 -0.0025608053 0.011212682 -0.007888207
movie748 -0.0054628495 0.0031810256 -0.0017066925 0.009638929 -0.0078044073 0.000121531375 0.00039813243 0.0035668134 -0.008935679 -0.0064951046 0.011420228 -0.0020909028 -0.0039919447 0.0013175393 0.00051642675 0.002290151 0.0039822515 5.6622648e-05 -0.013360937 -0.0013233856 0.0010647308 0.00068731664 -0.0050306898 0.0013331415 0.00015615692 0.0033141456 -0.00044974822 -0.006090588 0.0007938135 -0.012733306 -0.00047314895 -0.0027711098 0.0018256243 -0.002362345 0.0075934646 0.0025152564 0.0007319549 0.0018255884 0.009246811 -0.01196068 -0.0071289376 0.008154737 0.0061775357 0.010860358 -0.0038398847 -0.0015237194 -0.00049366767 0.0051858765 -0.0036730494 0.0012865363 0.0043609464 -0.001689336 -0.0062917313 -0.00042086933 0.008610669 0.006773556 0.014269374 -0.010852221 -0.00017622567 -0.0073973695 0.0047173374 0.0018595629 -0.0002748846 0.001710033
movie237 0.00090710213 0.00072030426 0.008875192 0.016399968 0.0009250797 -0.006420088 0.0072050095 -0.0022581527 -0.011059167 -0.006244724 0.0059229983 0.004875379 -0.0099423975 0.0013833262 -0.0024179886 0.0053694774 -0.00020623418 -0.0013102235 -0.001834371 -0.0054418044 0.006127909 0.0014178634 0.0033430492 0.0023791376 -0.0033776476 -0.00249119 -0.004529704 0.004789374 0.012512923 -0.013828733 0.0010557963 0.0062993634 2.978836e-05 0.0034507436 0.009433686 0.0024731674 -0.002757117 -0.0039546536 -0.004147578 -0.0024692842 0.0014622308 -0.004067992 -0.002845766 0.005385054 0.0004958973 -0.00011889518 0.009746558 -0.007347575 -0.002698302 -0.0024757574 0.0027618646 0.0005316274 0.010372698 -0.00016503244 0.005545616 -0.0024710249 0.009174592 -0.0108654555 -0.00750081 -0.00418641 -0.0035862017 -0.0031376604 0.01112193 0.0053070704
movie7 -0.0060168942 0.012078472 -0.0023959782 0.016897481 9.21968e-05 0.0074728113 0.009416543 -0.0020115909 -0.0091651715 0.004643982 0.007029622 0.005744056 -0.0146439085 -0.007098352 -0.004165488 -0.004919089 -0.0011877994 0.00016953381 -0.0024466217 -0.0026215727 0.004225177 0.008882382 0.0013381672 -0.00055637216 0.0018597977 -0.0100374995 0.006955512 0.0002756966 0.004726428 -0.006520732 0.007543562 0.0063430043 0.006169678 0.0042656404 0.0052223587 -0.0031966923 -0.0017523513 -0.00043742039 0.009610005 -0.013346227 -0.010258359 0.0006851505 -0.0039046064 0.009010034 -0.00065832207 -0.0056672334 0.00088635 -0.0053985054 0.0020782263 0.0040708985 -0.0045536743 -0.0033258721 0.004478266 -0.0058773314 0.007187694 0.005132913 0.0051005697 -0.0026484004 0.0065708775 -0.0037316235 -0.0077667767 -0.0034561723 0.010869516 -0.0059553147
movie245 -0.0070321443 0.009225455 0.0062963325 0.013097738 0.005598696 0.00022584968 -0.0026381405 -0.0048782746 -0.010112439 -0.0030508896 0.007991217 0.01078324 -0.014607677 -0.0028534487 0.001422162 -0.0041686064 -0.0042178896 0.002689133 -0.013567574 0.004315306 0.0028437376 0.00289889 -0.00071133155 -0.0018262564 -0.000995722 0.0029397188 0.006543596 -0.005613067 0.0019011485 -0.013834489 -0.0009663621 0.0005264448 -7.31833e-05 0.009116063 -0.0009743734 -0.009632916 -0.001880202 -0.0044051292 0.0020645559 -0.0046068877 -0.001783473 -0.0032535745 -0.004602081 0.0033730464 0.0077312826 0.009630446 0.0056924624 -0.0011027084 -0.0043991315 -0.006659496 0.005522084 -0.010560466 -0.002842468 -0.0009909262 0.010386704 0.007830484 0.007816961 -0.010655055 -0.007341682 -0.003295761 -0.0036116766 -0.0042688823 0.012776103 0.0027363808
movie333 -0.0034623232 0.0043156473 0.010491704 0.014247659 -0.0032689297 -0.00033922997 -0.0053340574 -0.0059432304 -0.008750319 0.0049663666 0.00522223 0.00016595193 -0.011450133 0.0034544365 0.00739732 -0.0059873606 0.0012433172 -0.0063593597 -0.004947231 0.0074398154 0.013994985 0.0029837831 0.0070900116 0.0018577689 0.0033296642 -0.0093943775 0.0016327332 -0.0040830486 0.0010793362 -0.014832193 -0.004594476 -0.0031776093 -0.00085318985 0.0057028835 0.010458523 -0.0101567665 -0.004281897 0.003444544 0.0091299545 -0.0006778976 -0.009784114 -0.00024360389 -0.0042750053 0.013406602 0.009788854 0.007977663 -0.0005402087 -0.0019729962 0.00026862184 -0.004670558 0.011115885 -0.008567073 -0.0030832237 0.00526045 0.013675957 -0.005087819 0.012188821 -0.0009459886 -0.0028774082 0.00069022505 -0.007773261 0.004875352 0.00081727724 0.0029703865
movie9 -0.00888402 0.0052312803 0.005635964 0.010992866 0.0042392653 -0.0054976176 0.0056001283 0.00021632752 -0.0027088032 -0.0029004293 0.007644121 0.008056287 -0.0057599503 -0.0041947546 -0.0045108935 -0.0006255374 -0.0043959357 0.006730981 -0.012297634 0.0056439433 0.011455743 -0.002359984 0.004300018 -0.009811959 -0.0049299267 -0.0030464935 -0.0055731446 0.0069257775 0.005346752 -0.012882752 0.00042987848 0.00022869176 -0.0033813824 0.0047899485 0.0047508017 0.0034420232 0.005737502 -0.01002099 0.00018023608 -0.0038456318 -0.00023689389 0.0019422453 -0.0069975704 0.010713563 0.00016749614 -0.00578724 0.013707772 0.003966623 -0.0073354477 -0.0063413656 0.009088594 -0.011436769 0.008574722 -0.0040964186 0.0020447455 0.00723034 0.016143247 -0.00067228527 0.0028611915 -0.0011061814 -0.0024932276 -0.004934951 0.01133153 0.005125673
movie121 -0.005792558 0.009785133 0.00561933 0.008494438 7.7825076e-05 0.004902572 0.0017579764 -0.00080279633 -0.008090949 0.0016630095 0.009514218 0.014528066 -0.012946532 0.004676706 0.0067071808 0.006435701 -0.007478046 0.008573231 -0.0019738218 -0.0053121825 0.0023711284 0.009998452 0.00730469 -0.005113146 -0.0054726154 0.0033185096 -0.003202725 -0.006683427 0.012014077 -0.0040867254 -0.0018634236 0.009432199 0.0055849636 0.0037383507 0.0011826345 -0.0047656326 0.0092804935 -0.0063675586 0.002356665 -0.011353417 -0.0034958806 0.0029763433 0.0064336434 0.009628145 0.0011886741 0.007903876 0.008280436 0.0021722054 0.0046244077 -0.0029515887 -0.004475376 -0.0036252637 0.008286272 0.00021900825 -0.00013918706 0.00762946 0.0117467325 -0.0020078297 -0.0032038062 0.004681182 -0.0032291475 -0.008753218 0.0057250713 0.0086531
movie323 -0.0041188076 0.0030043405 -0.0029650887 0.012665344 -0.0030347367 0.0053030495 0.00057637336 -0.010258873 -0.012309514 0.0065357923 -0.0015990043 0.012346445 -0.013969546 -0.0036169162 -0.005399915 0.004549484 0.00016196592 0.0060642455 -0.012653085 -0.002704844 0.005140126 0.005615294 0.0066497885 0.0022611634 0.0056731403 0.00082850904 0.0055973832 -0.00834075 0.0042517935 -0.011840692 0.007066836 -0.0042030024 0.010433142 -0.00550643 0.009985017 -0.009286738 -0.0071162498 0.00021522488 0.010658262 -0.012461927 -0.0040454725 -0.0041423854 0.0060312934 0.012642629 0.0018080866 -0.00018910738 -0.0015856579 0.0049380297 -0.0061998507 -0.0010881168 0.009549136 -0.011470896 -0.000979142 -0.0040911245 0.0093181245 0.002802658 0.01676738 -0.010734238 -0.007931329 -0.002464005 -0.002581597 -0.008621592 -0.000498197 -0.0065073883
movie272 -0.009861736 0.0057159397 0.007982627 0.0082688965 0.0019947886 0.004492987 0.0017977789 -0.007716131 -0.008336941 -0.0058006407 0.0022242584 0.0012161492 -0.003139511 -0.00062992726 -0.0025856916 -0.003887551 -0.0009054774 0.004592594 -0.004058064 0.0024785383 0.002169376 0.00028987703 0.0050283344 -0.005815522 0.0012620151 0.002865325 0.0016069175 -0.008741081 0.008685059 -0.004582198 0.009257814 -0.003157176 0.0074649993 0.0049696392 0.0027179867 0.0011534448 0.0016533871 -0.0043081413 -0.0015112743 0.00093800045 -0.009994583 -0.0058099236 0.00018763101 0.007815446 0.0050026914 0.009427322 0.011202017 -0.0052713444 -0.0036377804 0.0018468736 0.005965802 -0.0073357252 0.002581077 -0.0035825942 0.011310762 0.0001992877 0.0069034696 0.0014861911 0.006143876 0.0068028 -0.006822679 0.0055659246 0.002196428 0.008900775
movie15 -0.0057173464 0.0094845975 0.0013659964 0.01603186 -0.0059883757 -0.005274373 0.0012144584 -0.0037033162 -0.0031585973 -0.0062688044 0.0059536826 0.011891085 0.0007814026 -0.0048062676 -0.0036124403 -0.0066000605 0.00042691856 -0.00071089016 -0.012056476 -0.0066805393 -0.0028300937 0.0057362826 0.00511117 -0.008631055 0.0006568679 -0.008700685 -0.0034114518 0.005564772 0.011992791 -0.012899325 0.009161218 -0.0044568283 0.0073990934 -0.0040725 0.008873847 -0.008003117 0.007935159 -0.0044336403 -0.0004388305 -0.005682002 -0.00884341 -0.001556505 0.0063214824 0.013263523 0.003055712 0.0072493837 0.012649174 -0.0044423314 -0.009126032 -0.000361088 0.00566923 -0.004185766 0.002021371 -0.00403758 0.00010056073 -0.0041489075 0.006726938 -0.009760217 0.0017400668 -0.002467847 -0.0005079834 -0.006872134 0.005960489 -0.0026145023
movie117 -0.0058913673 0.003890702 0.0025455244 0.0035329207 -0.008254962 -0.007681855 -0.0025360093 0.0026663952 -0.0070280912 -0.005518739 0.010119737 0.0049568894 -0.011714664 -0.008227445 0.009436341 0.0065717595 0.000360343 0.007163233 -0.0079718465 -0.0009824112 0.00083588745 0.011358391 0.0013238615 0.0021365604 -0.006013633 -0.0020269668 -0.0023789501 -0.0036992559 0.013292899 -0.0048205196 0.008008634 0.008413938 0.0020494477 -0.00037658736 -0.003302368 0.00079244905 -0.006023609 -0.006224623 0.0030967277 -0.009059556 -0.009657923 0.0015008213 0.0019848591 0.006634559 -0.0046035806 0.0016188544 0.0025438957 0.0043763127 -0.007256589 -0.00016459938 0.009491318 -0.0048760343 0.009966935 0.0054272804 0.013280625 0.0019179953 0.013427222 0.0035462647 -9.78592e-05 0.0036782513 -0.004189331 -0.0052608056 -0.0006594306 0.0016363917
movie301 -0.004573145 -0.0011036143 0.0041277464 0.010179722 -0.006120608 0.0034722115 0.0007220176 -0.010415341 -0.007214595 -0.002846891 -0.0013341263 0.0024020923 -0.012905462 0.0013383597 0.0096695125 0.0003208825 0.004122236 0.00907776 -0.006120164 0.003528227 0.0028683306 -0.0024670542 0.0042959466 -0.008887521 0.000117592404 -0.004886922 -0.0061073937 -0.0018217873 0.012710554 -0.013706209 0.0052079335 -0.0010663674 -0.000757061 0.0053110817 0.00816115 -0.009345572 0.0009797093 -0.0019489867 -0.0043748994 -0.01330185 -0.009791113 -0.003092679 -5.122725e-05 0.010150635 0.003321887 0.004500621 -0.001640336 0.0072615575 -0.010752543 -0.011457404 0.004899965 -0.010713661 0.005944757 0.0019856917 0.009046984 0.008426942 0.012983507 0.0038178721 0.0062217982 0.006170133 -0.009387404 -0.005694582 0.0036343746 0.0040960344
movie289 -0.012852766 0.010909577 0.0012304684 0.010696795 -0.007880441 0.005256117 0.0068691317 -0.005654987 -0.0047592777 0.0047023785 -0.0022576675 0.012286756 -0.0082883015 -0.004431489 0.003000469 0.0010604211 0.0015172828 0.009256908 -0.011800786 -0.0009099307 0.007513851 0.009163054 0.0043534916 0.0035184736 -0.0034471578 -0.0092513235 0.007380222 0.0041265883 0.009923847 -0.0038800465 -0.0015035473 0.0027403098 0.011396899 0.007034207 0.000549448 -0.0062193233 -0.0030308156 -0.0071982956 0.0062907217 -0.012841632 -0.0003281993 0.0020889132 -0.0077772834 -0.0011358863 0.0028817018 0.0008763238 0.012679602 0.0017632996 -0.0106502 -0.007249768 0.00073070225 -0.011256229 -0.0020415396 0.0028189826 0.0058979713 -0.0049212635 0.012068565 -0.011112468 0.008570977 -0.0068636304 -0.008687295 -0.004393888 0.009320699 -0.0026048075
movie222 -0.00693424 0.0051732315 0.007105372 0.014445169 -0.00023617993 -0.0025196709 -0.0017895824 -0.010317907 0.00055075996 0.000788115 0.0011828413 0.010519677 -0.0073584435 -0.0013212083 0.0024855651 -0.0006284131 -0.0004924363 0.0026485792 -0.011198896 -0.0055251075 0.0008305095 0.004057201 0.0010090058 0.0017441096 -0.002261466 -0.005695724 -0.006887735 -0.00020312109 0.012903376 -0.014939448 0.010259658 0.00917956 -0.0014950254 0.009028143 -0.004283503 0.0059810244 0.004656782 0.0011503794 0.0065597193 -0.0005651116 -0.0031740165 0.0058994177 -0.004809296 0.011521925 0.002303821 0.008323594 0.011672603 -0.006137328 0.001600813 -0.007936163 0.007194816 -0.0066987337 0.00019483705 0.0016966648 0.0060481788 0.0075863283 0.00047378737 0.0031471595 -0.0059295385 0.0068358886 0.0047868243 -0.0077305487 0.010977404 0.008753267
movie318 -0.0095807845 -6.881046e-05 0.010454727 0.006483236 -0.0071273358 0.005378481 0.009009705 0.0031640448 -0.010161317 0.0068983813 -0.00013439827 0.0044731386 -0.00016408387 -0.008182457 -0.0025368002 0.00038435156 -0.011185075 0.0019998248 -0.0122662205 -0.0004556049 0.0042689475 0.003234619 -0.0037030035 -0.0027535027 -0.006209831 -0.0018807882 0.0037535653 -0.008602726 0.013828194 -0.015879115 0.0039728917 0.005868524 -0.00045313596 -0.00014532724 0.0078223925 3.8471917e-06 -0.00037033175 -0.0018580658 0.0030216677 -0.007633769 0.0004644276 -0.0037037532 0.004484835 -0.0005489954 -0.001385488 -0.0039178226 0.010031037 0.0007231918 -0.0005553249 -0.006196999 -0.0054910104 -0.010195512 0.002025945 0.0061675175 0.00876977 0.00044029066 0.016310792 0.00024785785 0.001546024 -0.0032683143 -0.004223215 -0.001981743 0.010229304 -0.00025501865
movie98 -0.0033947867 0.0004539604 0.008070417 0.01113889 0.0007100865 -0.0071250456 0.003830804 -0.0028638488 0.0011490273 0.0003527121 0.0029411754 -0.0028027608 -0.0034057922 -0.0008124031 -0.0048822295 -0.0038244298 0.0010282542 -0.0017185296 0.0015763943 -0.00043370988 0.0033519412 0.005453354 -0.0034800598 -0.00288313 0.0009174368 -0.0011176552 -0.0041831564 -0.0009099319 0.009605429 -0.0117822755 0.011108195 0.0029032377 0.0069732084 0.0004911191 -0.003880327 -0.0069244653 0.0010178406 0.0060316655 0.0056244065 -0.005106483 -0.0063251276 0.007699748 0.0024603975 0.010590394 0.008180963 0.0074338457 0.011361488 -0.0010092969 -0.0059061954 -0.0007763563 0.006526792 -0.0017688259 0.008405137 -0.004215003 0.005369718 -0.0032086724 0.007944363 0.00017347264 0.0032730093 -0.0013054183 0.00068231544 -0.0043402826 0.0033914356 -0.003496168
movie56 -0.011686098 0.010276725 -7.200263e-05 0.010278564 -0.00218732 0.004722209 0.0012901357 -0.0055912198 -0.0004175568 0.0014427652 0.009665569 0.003983245 -0.0077086226 -0.004555958 -0.0045361104 -0.0063416855 0.004617287 -0.0035203863 -0.009672688 0.008488143 0.003106787 0.005495313 0.00571166 -0.00088199874 0.00018623812 -0.0052339374 0.005734158 -0.001829311 0.010275228 -0.014739652 0.007210109 -0.0045199706 -0.0013666674 -0.0057726204 0.0006022817 0.0012376682 -0.00012294442 -0.008036485 0.0017896701 -0.005845541 -0.010104124 -0.0054801875 -0.0062866895 0.0059895543 0.0070391158 0.008836607 0.011534656 0.007871027 0.003718684 -0.005471241 0.009289589 -0.00969047 0.0059416606 -9.871134e-05 -0.0024371329 -0.0029611397 0.013409937 -0.0057411892 -0.006333448 0.006185998 0.0061756307 -0.0027337086 0.010245619 0.0008959886
movie340 -0.011380337 0.001955473 -0.0024645587 0.012253474 0.0010688395 -0.0027919575 -0.003130388 -0.0031508694 -0.0026876677 0.007366105 0.009488236 0.004447229 -0.013427494 -0.009595186 -0.0064047175 0.004807176 0.00048058463 0.002598746 -0.012007378 -0.00545867 0.009993807 -0.003220986 -0.0027971913 0.0054138433 0.0031674784 -0.0068524224 0.0028255729 -0.0080295745 0.01011735 -0.006150303 0.008494745 0.006273461 0.010924815 -0.0026651802 0.0013978693 0.004236404 0.00025253376 -0.008852803 -0.002539159 0.0023710926 -0.0034449224 -0.0075402907 0.0038677102 -0.00057302235 0.0054929177 -0.006723252 0.0018212524 0.005122333 -0.010670229 -0.007115709 -0.0019286945 -0.00763039 -0.004323113 -0.005259619 0.00561085 -0.0046011703 0.014418844 -0.011941483 -0.001158107 -0.0031479588 0.0016443148 0.00026250686 0.009330827 0.0025297182
movie79 -0.009720383 0.0098507535 -0.0008156505 0.003695129 0.00394794 -0.0077928575 0.0030525583 -0.008190589 -0.009268717 0.0073835757 -0.00515345 0.005758338 -0.007860069 -0.0068521714 0.0043163616 0.0025945553 -0.011541594 -0.0034697475 -0.009915772 0.0033970843 0.004764134 0.009923681 -0.0033078312 -0.002381996 0.0022248265 -0.009349059 -0.0018955386 0.005386316 -0.0016716238 -0.0062592397 0.0006621803 -0.0027276725 -0.00036638314 -0.003181412 0.0038769853 0.0005067983 -0.0023875358 -0.0017817926 -0.0035552678 0.0005811053 -0.003773825 0.0070292815 0.00632703 0.011030684 -0.0039118957 0.009090964 0.008807438 -0.005957807 -0.0011932009 -0.00085738924 -0.0049097617 -0.012318538 0.0039033755 -0.00029198485 0.009562453 0.0051956326 0.008140991 -0.001028035 0.00036807032 0.0037060226 -0.00953125 0.005324274 -0.0007891887 -0.003160255
movie25 -0.008234492 0.0076665087 -0.0021246858 0.0046147653 -0.0042568366 0.00030695787 -0.0011426037 0.004731858 -0.008464855 -0.0071219355 0.0066905054 0.010373006 -0.0049068932 0.0046237414 0.006318123 -0.006523164 -0.002946997 0.0064782444 -0.0032614758 -0.008000922 0.012396202 -0.0006683237 0.004759804 -0.008892888 0.0020958711 -0.0035777125 0.0061275573 0.0049724104 0.00013558747 -0.0124068 0.010074985 0.0076021105 0.009147278 0.0043429113 0.010497708 -0.00791408 0.008364457 -0.008890086 0.008742192 -0.012460042 -0.0046939533 0.007940746 0.0008611694 0.012022679 0.009486727 -0.002296942 0.0023002927 -0.001968069 0.00013243138 0.00085427635 -0.0037208332 -0.005611126 -0.0010102836 -0.00086908403 0.0069220397 0.0030094755 0.012694513 -0.0040415796 0.0034548286 0.0060998322 -0.009588279 -0.009805606 0.010544344 -0.001248015
movie690 -0.00046302105 0.0104687745 0.0024061515 0.012643721 -0.0037157177 -0.002263575 0.008062884 -0.005235063 -0.011695726 -0.0033162076 -0.004849317 0.008541148 -0.009000189 0.00064052996 -0.0055008647 -0.004364097 -0.005347263 0.0053052767 -0.0074356315 0.0008813084 -0.00059578026 0.007075193 0.0021296327 0.0030007772 0.0071957298 -0.0022653781 0.004973945 -0.008174264 -0.0005133844 -0.013917481 0.00819323 0.0071131233 0.008516646 0.0027697838 0.0047863037 -0.0016781397 0.0018404666 -0.007513499 -0.004654575 -0.0023412223 -0.0076683285 -0.0032830448 -0.006945688 0.01131831 0.009123925 0.008153452 0.0004492669 -0.0066009485 -0.0036269762 0.0028182357 0.0068778424 -0.004085109 0.0071860855 0.004125154 0.0055453465 -0.0032864956 0.0093095 -0.004377532 0.0072315233 -0.0028078936 0.0033022326 -0.003620876 -0.0011674564 -0.0069988426
movie257 -0.0076741003 0.0007066277 0.004775959 0.007872199 -0.002046453 -0.0027806934 -0.0023525427 -0.004274935 -0.00041598556 0.0021650977 0.004009085 0.0050367066 -0.0029139663 0.0013454765 -0.0044198534 0.006959863 -0.006947487 0.0071920343 -0.008323975 -0.0064542317 -0.0031078334 0.004844008 0.003000042 0.00081560225 0.005601538 0.0049674683 -0.0051357453 -0.00222965 0.0121618835 -0.010668943 0.0023695927 0.0035103944 0.00020051318 0.005117915 0.00015278812 -0.00358467 0.008408685 -0.0034678606 0.0047143744 0.0015253709 -0.010654231 0.005548831 -0.0073618386 0.0022672391 0.0053812163 -0.0024171683 0.007247256 0.0071853087 -0.0048420653 0.00029445213 0.0023107226 0.0010831949 0.0023703468 -0.0019760954 -0.0011468896 0.0049549188 0.0031739734 0.0029008898 -0.005078494 0.0049079517 -0.0019427547 -0.0020291503 -0.00032605618 0.00043568175
movie276 -0.012014036 0.0116665745 0.001533096 0.013863003 0.0027536016 -0.0054263994 0.00041999045 0.0032460531 -0.0039514415 -0.0040724725 -0.000119010285 -0.0005521766 -0.010104946 -0.0072230925 -0.00094863854 0.004118252 -0.0007191222 -0.006199938 -0.0057609715 0.007273772 0.011592891 0.004174418 -0.007452106 -0.0071021537 -0.0013833505 -0.011156658 -0.003504099 0.00076063385 0.0023468751 -0.0039442 -0.0024339214 -0.0029376503 -0.0029135619 0.00515317 0.006625606 -0.007145245 0.0019126313 -0.0043888916 0.005356129 -0.0026075456 -0.009418422 -0.0031494806 -0.0041178004 0.006738886 -0.00046792338 -0.006419675 0.0010292717 0.002724417 0.004263987 -0.009732053 0.0006362921 -0.00358685 -0.0044479296 -0.0066901515 0.0025128117 0.00477343 0.005318191 0.0030185352 0.0012198489 0.0062634386 -0.006040773 -0.002198614 0.0044294065 0.0058285897
movie307 -0.011894434 0.011853472 -0.00017932287 0.0054171677 0.001870583 -4.9379207e-05 0.0034851744 0.0009805233 0.002821271 0.0007777359 0.0046560746 0.010603184 -0.009987359 -0.002803335 -0.0013771282 0.003046619 -0.004546218 -0.0042320048 0.0032012966 0.0049177385 0.004802967 -0.0006809646 -0.004125101 0.0040448597 -0.008328025 -0.0011403908 0.004639186 -0.0021972877 0.0005637416 -0.005625765 0.002914304 0.002542995 0.006565307 0.0023301688 -0.0005344806 -0.0036904116 0.004088468 -0.0012653201 -0.0027928397 -0.012261108 -0.004589614 -0.00519503 -0.007345895 0.0133050885 0.009247789 0.0027246238 -0.0021858118 -0.0009801389 0.0015300132 -0.005814073 0.008933606 -0.009295028 -0.0039446023 0.00025462068 0.009253219 -0.007063962 0.014215396 0.0036134967 -0.00071933965 -0.008095385 0.0039883284 0.0013237613 0.0078674955 -0.0034320944
movie111 -0.004873994 0.00752095 -0.0017748653 -0.00032953417 0.003201477 0.004206678 0.004472314 0.00026380134 -0.01163387 -0.007234131 0.0072615845 0.006355716 0.0005237357 -0.0068677454 0.00055703864 0.006569466 -0.007783873 -0.0007100135 -0.0039775553 -0.000585284 0.002787537 0.0033242526 0.0034952324 0.0061508883 -0.003896815 -0.0073279706 0.0053917347 0.004018872 -0.0028917314 -0.00072340865 -0.0015419836 0.0026408723 0.0069427444 0.0033857399 0.0018475692 0.0028740673 -0.0036097902 -0.006772959 0.0011680617 0.0013198473 -0.006700674 0.0036886178 0.0009767909 -0.0008547625 0.009329181 -0.003416252 0.004595294 -0.0047104796 -0.008637635 -0.009523053 -0.0016739883 -0.010123323 -0.00093783607 0.0044500204 0.004102707 -0.004136297 0.010877269 -0.00836384 -0.0017723924 -0.0054744063 -0.0012429475 -0.0025590092 -0.0033391872 0.0056246184
movie172 -0.011229733 0.008462687 0.0057975 0.00067996036 0.0043666204 0.005907879 -0.00042356545 0.003980781 -0.0108400015 -0.003877002 0.009677078 0.0067906445 -0.010064222 -0.002811349 -0.0048313946 -0.0031318585 -0.0033086224 -0.005806045 0.0009960739 0.0043108948 0.00025400802 -0.0027622203 0.0025931855 -0.007693536 -0.008137516 -0.011323307 -0.00012573083 -0.0005233153 0.007438426 -0.0026223885 -0.0050374595 -0.00075097237 0.003669794 0.009213137 -0.003192968 -0.0061959946 0.0042752926 -0.0033461119 4.8001177e-05 -0.00032640525 0.0041585956 0.0047909683 -0.0063399547 0.0061589065 -0.0034151173 0.0069517028 0.00783344 -0.003652476 -0.002257811 -0.007016987 -0.0038494512 -0.006973984 0.003028654 0.0045754244 -0.0022187668 0.00061083614 0.013579502 -0.0111613255 -0.002485111 0.007720545 -0.0012993296 0.0021720596 0.0035707306 -4.5724348e-05
movie275 -0.0029650973 0.0108998045 -0.0014955987 0.0038860794 -0.0073585087 -0.00018922945 -0.0038376574 0.0010882748 -0.0049017756 0.000711738 0.0022845387 0.0045501813 -0.006244435 -0.0017828419 0.0039459253 0.0075687696 0.003308657 -0.00013867607 -0.0051441 0.00373874 0.01050395 0.0055096042 0.0016962187 -0.0021950186 -0.004718932 -0.008216549 -0.0069018463 0.0051519494 0.0067018387 -0.008877569 0.0106752245 0.008818427 0.008171139 -0.003995289 0.01033606 -0.004258422 0.0073407562 -0.0027839679 0.008882518 -0.0072163255 -0.005791403 -0.0068452256 0.002477412 0.008330958 -0.004128869 -0.00029074165 0.0041817315 0.0047521475 0.0027945372 -0.008533245 0.0029812779 -0.007932804 0.006789365 -0.005228423 0.00086488016 0.007124861 0.013701625 -0.007615949 4.4706085e-06 0.0075848615 -0.0033493475 0.005347197 0.0024362593 -0.005562986
movie271 -0.010021729 0.0067506367 -0.0029068196 0.006274474 0.0015215308 -0.0064077014 -0.00407913 -0.005874324 -0.0030914524 -0.007452379 0.007373824 0.00883277 -0.008135543 -0.0034359174 0.0034019598 -0.008024048 -0.0043497724 -0.0043079457 0.0023760747 -0.0066511943 0.009079208 0.0027556475 -0.0034635558 -0.00882159 0.0011379358 -0.00664723 -0.0061914693 -0.009783627 0.012741063 -0.003444953 0.0035209856 0.009414405 -0.0034381123 0.00045489322 0.005384364 -0.005820191 0.002885145 -0.0022560575 -0.0056632073 -0.011341206 0.0037641234 0.0033861897 0.0032610223 0.005650823 -0.0030941132 0.0072102384 0.0032666991 0.0007363047 0.00065136404 -0.010205664 0.002778288 -0.010323206 0.0058168 0.005061211 0.004712508 -0.0008701633 0.008419216 -0.011334707 -0.0038223374 -0.00713284 -0.0015010956 0.005301885 0.011478587 -0.002357944
movie315 -0.006718878 0.006691223 0.0008947665 0.0071615824 0.0013415031 0.0059461477 0.0010197718 -0.010064789 -0.0036460727 0.0022259883 0.006335215 -0.0015821009 -0.013177581 -0.0034398057 0.0017363374 0.0040900684 -0.0052393433 0.002131266 -0.0065307086 -0.0010531669 0.0017207237 0.004366506 0.0057070577 -0.009702414 0.0059002894 -0.0038594438 0.007865562 0.0025231035 0.0050700367 -0.012441505 0.005082612 0.0016163972 0.009315462 0.0008527074 0.007649944 0.003555609 -0.005559776 0.005684707 0.0076194196 -0.004837307 -0.004358677 0.004174273 -0.0069970014 0.007186519 0.0073917815 0.0068142633 0.0113020595 -0.006066598 0.0013810663 -0.007864734 -0.001716903 -0.009906518 -0.006452653 -0.005008482 -0.00038241822 0.0045698807 0.0039036176 -0.005901334 -0.006069595 0.0041565127 -0.007633622 -0.0017110647 0.0109618455 0.008425555
movie475 -0.011265146 0.0060022827 0.00096703577 0.003980023 -0.0075844526 0.003931308 -0.00073488074 -0.0017925228 0.0005270456 -0.0074225315 0.007998336 0.003628637 0.0018220427 -0.00512146 -0.0017081575 0.0059163566 -0.0026676701 0.0064264927 0.0019961514 0.0039796745 0.010856313 0.010790019 -0.003169925 0.0024003382 0.0035802582 -0.00881049 0.003516602 -0.005116157 0.0077068345 -0.0036420652 -0.0037371104 -0.0037992848 -0.004370937 0.0015994958 -0.0054036067 -0.00837766 0.006935075 0.0011084568 0.003775576 -0.004927325 -0.0020350083 0.00065366685 -0.0060639842 0.007983798 0.0017055202 -0.0041833906 -0.0015061811 0.0065562557 -0.0012414361 0.004452732 0.00068352174 -0.010635644 -0.0025009282 0.008207798 0.005943984 0.00028912644 0.011894185 0.0023585067 -0.00014785507 -0.0007329581 -4.1335017e-05 -0.008768823 -0.0029938966 0.0027589565
movie326 -0.009740336 0.009471889 -0.004623868 0.010809424 -0.008567143 -0.0019906217 -0.000870693 -0.0026856668 -0.0012748956 -0.0031391473 0.0067282235 0.011552584 -0.009870444 -0.003966684 -0.0021684153 0.00070926145 -0.0035305405 -0.0057658744 -0.0055707814 -0.0013897985 0.0063260673 -0.0023352925 0.0025043609 0.0010462194 -0.005290644 0.0024062581 0.0035701662 0.005398875 0.0067552277 -0.007996546 0.007699362 -0.0050099734 -0.001655035 0.0049997536 0.010112932 -0.008340762 0.0064480077 0.0027471113 -0.0034018485 -0.0062470743 0.0034657395 0.007971902 0.002983652 -0.0012887345 -0.0016764567 0.0044509536 0.010754822 0.0050535407 -0.004137926 -0.008332173 0.0076048863 -0.010740271 0.008550533 -0.002743385 0.007164629 0.008148758 0.007218998 0.0036248902 -0.0058303326 -0.0021244732 -0.0025784688 -0.008754398 0.010571358 0.005618883
movie173 -0.010439556 0.011513088 -0.00019774762 0.009408617 -0.006489249 -0.0017070144 0.008461102 -0.009648643 -0.006911109 -0.0016620805 0.0042159637 0.006595997 -0.00028017166 8.528189e-06 0.007417002 0.0037239583 -0.009919407 0.0059031383 -0.0021549978 0.0012577262 0.0073270593 -0.0027262988 0.0018278069 -0.006451271 -0.0076336954 -0.010117097 0.0046053696 0.0052422155 0.011117751 -0.008519881 0.0054145376 0.0055695176 -0.0020929477 0.009514784 0.0034050406 -0.0076827887 -0.0039774305 -0.0035492973 0.0031363505 -0.0075971535 0.0047722077 0.0064910594 -0.00048936676 0.0015303525 -0.0054460904 0.006008567 0.0042272983 -0.0021989369 -0.001991031 0.0035139679 0.0038666923 -0.0030945553 -0.00368032 0.0043046465 -0.0030039055 -0.005028893 -0.00043126367 -0.009985568 0.0013796428 0.005285022 0.004661084 0.0040714983 0.01048351 -0.0071222247
movie751 -0.0111409 0.008793683 -0.0013560966 -0.000627924 0.0024797146 0.004969688 0.0005378052 -9.196427e-05 0.0017856031 0.0021417118 -0.001490252 0.011236664 -0.0033845901 -0.008227337 0.0004322305 -0.00044689354 0.00027208249 0.008807567 -0.006499297 0.0055311243 0.0013409056 -0.0038538752 -0.008522347 0.0045497767 0.0036945937 -0.0007009923 0.004241445 -0.0040019727 0.01223217 -0.012083873 0.00477182 0.004186694 -0.0011055236 0.003461049 -0.0023208254 -0.0068331575 0.002090116 -0.008201469 0.0032589915 -0.00075070193 -0.0004452954 0.00094053894 0.007180135 -0.0016799957 -0.0035015172 -0.0009876896 0.0041539883 0.0012366136 -0.0062144776 0.0052701375 0.005696953 -0.010977239 -0.0036539235 -0.002905722 -7.396368e-05 -0.0056486456 0.0019236968 -0.0029503135 -0.0068643717 0.005323612 -0.0015483443 -0.0043633627 1.9412642e-05 -0.00593336
movie321 -0.009198854 0.0101342285 0.007200217 0.00616913 -0.008993734 -0.0021127574 0.008656621 -0.00992971 0.0017639175 -0.0017385151 0.008960916 0.0003699141 -0.010193506 -0.008049617 0.0056538177 0.0011421985 0.0040150434 -0.0056102225 -0.004177031 -0.007250406 0.009346297 -0.0013814447 -0.0051263967 -0.009893059 0.0008183304 0.003952427 -0.0039341 -0.0028839083 0.0055589937 -0.0036487682 0.0045721503 0.0031821758 0.0028266648 -0.003439444 0.0034320655 -0.0059354156 -0.0010101562 -0.004816227 0.01013497 0.00033370135 -0.0024387229 -0.005399253 0.0008369673 0.011617978 0.0011830752 -7.537211e-05 -0.0017651588 -0.0043704193 -0.0011369467 0.00020701208 0.0068811704 0.0038048816 -0.00495192 0.0033648938 0.010363848 -0.007575123 -0.00039068598 -0.009866767 -0.00035436923 0.00097344466 -0.0032374715 0.0059894873 0.0033054159 0.0019112345
movie515 -0.009396299 0.004432352 0.00892429 0.005277189 -0.0073313564 0.00056575343 -0.0037312792 0.002003508 0.00039055338 -0.0067467312 -0.0046252487 0.00906854 -0.008781026 -0.008920262 0.00030143166 -0.0015894572 -0.00021697882 -0.0022260556 -0.0019994394 -0.006555059 -0.0025047783 0.009200634 -0.0056979074 -0.0056386534 0.0016713358 0.001398022 -0.00089644274 -0.0013930309 0.008644513 -0.012604597 -0.005916645 0.0074203475 0.005710941 0.0058722766 0.0016605237 -0.0054317387 -0.0006418893 0.0016358208 0.0020822766 -0.0018721849 -0.007016527 -0.004315257 -0.005066687 0.0032250283 0.005261563 0.0058220024 0.004086941 0.0039182175 -0.00976966 -0.002613262 0.003783497 -0.002865807 0.0067587774 0.0034213383 0.010927599 -0.004727226 -0.0014216909 -0.010269817 -0.007015047 0.0011077931 -0.0074375723 -0.00093189743 0.0016886572 -0.0047704983
movie270 -0.004884644 0.006274828 0.0063387514 0.010692451 -0.0044283825 -0.005061499 0.0055419104 0.0022660454 -0.0015606045 -0.0065638125 0.008086178 -0.0021650807 -0.011714283 -0.0070565804 -0.00561352 0.0041284203 8.289428e-05 0.008735165 0.002878059 -0.0045480505 0.010318964 0.0048089046 0.0066770553 -0.0046326336 0.0030663933 -0.004372176 0.0058430983 0.0007484627 0.0094976025 -0.006284578 -0.0002065355 0.0015199431 0.0014208547 -0.0047048978 -0.0053292275 -0.0049373787 0.005660553 0.0026874028 0.00524919 -0.011763111 0.004954853 -0.0046318597 -0.00075465674 0.0057883603 0.010644642 -0.003333094 -0.0014278973 -0.004098902 0.004957121 0.0004562892 -0.0018755441 -0.0074835746 0.008003695 -0.0069860825 0.0056994543 0.0059224917 0.0141381845 -0.006390303 0.0071256277 0.0008679508 0.0035056882 0.0052414667 0.008896898 -0.0041964254
movie319 -0.0077672247 0.0027223958 0.0021499041 -0.001672898 -0.008587979 0.0063854973 -0.0035132659 -0.0023946916 -0.007148931 -0.0031311961 0.0066931536 0.005267209 -0.004758235 0.005526609 0.0044746874 -0.00012518807 -0.009986941 -0.0013150104 -0.0007120477 -0.006710936 0.010006146 0.007932064 0.00392181 -0.008857699 0.0022701821 -0.0027274091 -0.0028524352 -0.0017505214 0.0060888166 -0.0132464655 -0.0010195881 0.0004963577 0.006368824 -0.0021074705 0.008410674 -0.00053129514 0.0049948217 -0.007451654 0.0034501394 -0.0013997878 -0.007736401 -0.002159146 0.0008507418 -0.0013816054 0.003220828 0.0027015707 0.0023629514 -0.0016047559 0.0034567863 -0.0009143367 -0.0024846434 -0.008116156 0.0019622298 0.006201169 0.001343284 0.0033190257 0.0088552805 0.00011808817 0.002459682 -0.0046262885 -0.0016095459 -0.0026053265 0.011471507 0.0015141509
movie118 -0.011632697 -0.003356309 0.0022917704 0.007590328 -0.0058770715 -0.00075159234 0.0068433303 -0.00380516 -0.0012648962 4.4991673e-05 0.0042709312 -0.002453195 -0.005555283 0.0056144805 0.006038106 -0.005139178 -0.00023207253 -0.0013542257 0.0010580525 0.0071577285 0.007890744 0.0023271213 0.0020640558 0.0049439496 0.0068522193 -0.0024816461 0.0064306064 -0.006268715 0.004809305 -0.0068333647 0.0003598288 0.010182365 0.0030739703 0.008407047 0.009322419 -0.0004638462 -0.0043927724 -0.0071737664 0.008353295 -0.005654709 -0.00088344555 -0.0034291327 -0.008815818 0.010703545 0.0052619367 -0.0050990996 0.0021519933 0.00163185 -0.007047617 0.0019091044 -0.0053044204 0.0010284265 -0.005123466 0.00319083 0.00395794 0.00574319 0.01241772 -0.008092135 -0.005899996 0.0064036245 0.0009699514 -0.0035541696 -0.0015175657 -0.007150105
movie322 0.0025365758 0.011157608 -0.0031751369 0.009209991 -0.009509086 0.0058187316 0.0044601243 0.00012992442 -0.009886367 -0.00018068905 -0.0036843806 -0.0015285976 -0.0011473995 -0.006683094 0.0035946914 0.002697225 -0.008836578 0.003592519 -0.0026688501 0.0033371917 0.0037653467 0.0023973265 0.0068437164 0.005235069 -0.0063563115 -0.0026435377 -0.00075633865 -0.0037472423 0.010561553 -0.011104482 -0.002363706 0.0064836787 -0.0051606633 0.0035897146 0.0041572186 -0.0012993054 -0.002240523 0.006906039 0.0050819614 -0.007252841 -0.00433631 0.006728889 -0.0004561802 0.0049649794 0.0042558266 0.004281966 0.008732191 0.0018314668 0.004460017 -0.0017640048 0.00079285994 0.0016522702 0.0037021597 0.00038602238 0.00093749637 0.00039412815 0.0032382975 -0.009097497 0.0026267315 0.0010111082 -0.00021604101 -0.008530304 -0.0015536875 0.00039277243
movie151 -0.007087954 0.008479061 -0.0027992285 0.0030571504 -0.006673708 -0.004979687 0.0058961464 0.00041767876 -0.0043606265 0.000274929 0.008966065 0.01102867 -0.0023678315 0.0028328877 0.004412601 0.0065384577 0.0031457816 -0.0033132606 -0.007423953 0.005401146 0.0013148733 0.0063395137 -0.007935493 -0.005158584 -0.0010691656 -0.002809952 0.0025327203 -0.008075904 0.0107037835 -0.012007305 -0.00608657 0.006576821 0.008818088 0.0074661896 0.009689362 -0.0066608745 -0.0029746108 -0.0062882234 0.004271325 -0.0023309265 -0.0055940934 0.00604399 -0.00031930374 0.002505257 -0.0053499932 0.0060085305 0.0014195977 -0.00019105595 -0.008694187 -0.0007824534 0.00068440405 -0.002517365 0.0074898284 0.004399512 0.0024941338 -0.00021246339 0.010411942 -0.0012295311 -0.005989808 -0.0020011035 0.005593243 -0.0076370006 0.007140209 -0.0017581868
movie423 0.0031002786 -0.00013331567 -0.00236765 0.002783822 0.0012344082 0.003149011 -0.0015263597 -0.0069025997 0.0006037778 -0.00031044183 -0.00251766 -0.0018679845 -0.009816647 -0.008907702 -0.001959911 0.005129172 -0.0086536305 0.008537102 0.0014942243 0.003204943 -0.0033706743 0.011011509 0.005042294 -0.0028072775 -0.00591918 -0.0050261873 -0.0016460521 -0.0007367748 0.0056501254 -0.011822871 0.004368779 0.009233764 -0.0021353315 -0.0029108485 0.0054527004 0.0017090815 0.0060923677 -0.006632116 -0.0014559923 -0.006465095 -0.007193769 0.0050381534 0.0064786263 0.010423286 0.006764245 -0.003298644 0.010358873 -0.0043115057 0.0045277774 -0.0054339557 0.0047249715 -0.005410397 0.003927143 -0.0033677397 -0.0025868802 0.005022518 -0.00091172924 0.0031392763 -0.0018497386 -0.0026558572 -0.008929206 -0.004776744 -0.0042382 0.006534952
movie285 -0.0091073075 0.00927965 0.0059182 0.003057241 0.0062303706 0.0052823997 0.004714126 0.002693196 -0.00076591753 -0.0028293945 -1.3271608e-05 -0.0034384984 0.00092086435 -0.002640801 0.0021089457 -0.005127955 0.00049282203 0.0054048956 -0.006049927 0.004173626 0.007468662 0.0072844774 -0.007851399 -0.004171197 -0.007290849 -0.0073594614 -0.007382777 -0.008337619 0.0026448015 -0.010458198 0.0028416994 -0.002785687 0.0008992634 0.0063631977 0.00037844892 -0.0009361427 -0.0073001715 0.00054746575 0.008256402 0.0014352524 0.0031615521 0.00803253 -0.0030047537 0.0001608409 0.009727089 -0.0025963113 0.011229319 0.0052456837 -0.009376472 -0.01018165 0.007945522 0.0034560338 0.0070285853 -0.0029288842 -0.0020106172 0.0011758776 0.004452966 -0.005777911 0.006744246 -0.0050452678 -0.0060202526 -0.0045028813 0.0054841833 0.00646249
movie259 -0.006586499 0.008298184 -0.0045431 0.006973136 -0.0031972255 0.0028244706 -0.0053083096 -0.00560249 -0.0012990306 -0.0018529918 -0.0032152506 0.004137523 -0.0072106565 -0.0014746081 0.0045102276 0.006548123 -8.821425e-05 -0.00019736275 -0.0046792156 -0.0043286695 -0.0031458673 0.009811367 -0.00429914 -0.002150422 0.0032893782 -0.0020461595 0.0021433332 -0.0026885578 -0.00062736444 -0.008708075 0.007844122 0.0041050897 0.007990002 0.005677222 0.005699416 0.0051386715 0.0070578614 0.005641011 0.008642439 -0.008338096 -0.0046124933 0.00564909 0.0040031346 -0.0019204862 -0.002863165 0.007017618 0.009635209 -0.0034224363 -0.0009776183 -0.010372311 -0.00452422 0.003365182 0.0012429714 0.007265087 0.002758933 0.0044704834 0.0033722757 -0.009883862 0.0010320934 -0.0054144664 -0.0072326246 0.0028514152 -0.0013011891 0.00029880033
movie332 -0.009797841 -0.0036015795 0.0019272354 0.011853243 -0.0021474182 -0.0023603914 -0.0019946743 -0.009385517 -0.0061756857 -0.006244487 -0.0013106368 -0.00012363524 -0.008544371 0.0027367885 0.005310421 0.0065833693 -0.0092576565 0.0022233543 -0.0017942705 0.004954151 0.011149872 0.007816075 0.0048488467 -0.007432176 -0.008331329 -0.0023447825 0.007298775 -0.008841282 0.003794304 -0.0036574074 0.00088847434 0.0034859409 0.0013082203 -0.0007767275 -0.0017769259 0.005520704 0.0003544863 -0.0017517738 0.008688735 -0.0015665177 0.0055381386 0.0058552106 -0.008336779 0.012185255 0.0039672675 -0.0031377913 -0.0022446567 0.0037223413 -0.0031025822 0.00095742947 -0.0014778799 -0.011264207 0.0054905284 0.001943583 0.005706317 -0.0014537731 0.011086315 -0.011382061 -0.0015934461 0.005299806 0.004642495 0.0011526877 0.0010709964 -0.002655268
movie124 -0.0005009625 0.010793911 0.0070709893 0.0074659227 -0.009023303 -0.002844168 -0.005128243 0.0034647032 -0.009945068 -0.0065557086 0.0012296048 0.0064909835 -0.0074294354 0.0019301635 0.0032150026 -0.00487933 -0.008511405 0.00085011066 -0.008839043 -0.0045789205 0.005204963 0.009318315 -0.006506591 -0.0066693374 5.222481e-05 0.003498579 -0.0017526011 0.0055915886 0.0035882436 -0.008027934 -0.0008536649 0.004220649 -0.0052857855 0.00901225 3.8090664e-05 -0.0050882427 -0.0007217443 -0.0054190606 -0.0016476075 -0.010088976 -0.00440217 0.0046100854 -0.00070664077 0.003097142 0.006493802 0.008336733 0.011586399 -0.005951121 -0.006141954 -0.009472123 0.005548681 0.0018691262 0.007271217 -0.00071812177 0.0015861383 0.007178434 0.0056460663 0.0036927175 -0.0056178835 0.004594463 0.0021365087 -0.0068394504 0.00024631817 -0.0046185227
movie347 0.0041715545 0.011096885 -0.00551117 0.005429937 5.9447186e-05 0.0020945494 0.0020932592 0.0055997525 0.0036219375 0.007053475 0.0058019366 0.0050602434 -0.013518593 -0.006549162 -0.0044792625 0.0005848487 -0.000648252 0.00090219174 -0.0044326247 -0.0028840215 0.011229446 0.010243629 0.00649287 -0.0068892883 0.000108135304 -0.006335154 -0.0071189553 0.003916631 0.008556375 -0.008469575 0.0069548767 0.010521892 0.00945029 0.006272363 0.0012369812 0.005192742 0.0040411027 0.0031421378 0.0034807825 -0.0059161484 0.0027657873 -0.0075253556 -0.0011937745 0.009599646 0.006962699 -0.006654934 0.010620413 -0.005489668 0.0062817708 -0.0020707555 -0.0025296977 -0.0060142092 -0.0058779763 -0.007840354 -0.0019013326 -0.0059342245 0.0011688948 -0.0013115505 -0.00656279 -0.008250095 -0.0066903215 0.003577691 0.0012496269 0.006960632
movie405 -0.007595255 -0.0025233713 0.008790699 0.009397508 -0.0025716901 -0.0017802867 -0.0055792173 -0.0070057316 0.0008795804 0.0071187965 -0.005201075 0.004342801 -0.011100633 -0.0081161335 0.0047232313 -0.007118174 -0.009371901 0.0022546514 -0.00080653443 -5.6007862e-05 0.009869258 0.0073811114 -0.004745222 0.005492629 0.0022336661 -0.009269517 0.007704935 -0.005478983 0.004332995 0.001427126 -0.0030226207 0.0028293673 0.0022442099 0.002617203 -0.003372472 -0.0089565255 0.007497665 0.003646 -0.0030334073 -0.007604856 0.0005879231 0.008452723 0.004716242 0.009343617 0.0019127137 -0.001404757 0.011829492 0.0055665197 -0.004684173 0.0055650715 0.0032010572 -0.009375638 0.0043436973 0.001046208 0.007382457 0.0069720605 0.0073059015 0.00272987 -0.0059204507 -0.00089137704 -0.003850626 -0.0007246838 0.0071491725 -0.0023069072
movie742 -0.0029667537 0.0018066594 0.006175465 -0.0014598183 -0.004955221 0.0025935953 0.0031339617 -0.008121911 0.00055207044 0.006362405 0.004830031 0.009553109 -0.0022703435 -0.007596485 -0.0018665681 0.00021291625 -0.0045058634 0.0047727125 -0.008449375 0.0014008541 0.005302523 -0.00048407473 -0.007508685 -0.00047863857 -0.0026723463 0.0031282702 -0.0013988707 -0.0032714678 0.0011004509 -0.008035707 0.0024255267 0.009134803 -0.0042129145 0.00576104 0.007459652 -0.0028375115 0.0042422055 0.0027975591 0.0033681425 -0.0027016343 0.0032297876 0.004604822 0.00084553246 0.011852919 -0.0059835026 -0.0027804007 0.011330947 -0.00052831793 -0.004681477 -0.009162 0.0032698934 -0.0076739243 -0.0041596848 -0.0066165365 0.009352961 -0.0009928807 0.0057305438 0.0050269645 0.0028497658 -0.0020648895 -0.007733888 0.0024655994 -0.0038298415 0.0068226676
movie168 -0.004236569 0.010692978 0.0084686065 0.0126091605 -0.0030072478 -0.0065341983 -0.0022638268 -0.007193492 -0.009104805 -0.0076454454 0.002133689 0.008857185 -0.009709263 -0.008364103 -0.0027387857 0.0020246755 0.0002912042 0.0029084822 -0.0074295662 -0.0046356693 -0.0010430927 -0.0045472956 0.005701081 0.0010145761 0.0029299937 0.00227649 -0.005859295 0.0049918354 0.00051107584 -0.004726996 -0.00536128 0.009715616 0.0027589698 0.005958433 0.005018574 -0.0029144564 0.00270881 -0.005374404 0.0023333756 -0.004170693 -0.002570418 -0.005949212 0.0032166059 -0.0033107128 0.007960579 0.006153322 0.002453676 0.0038956348 0.0056450507 0.0045918953 0.0015814704 -0.01011374 -0.0021440482 -0.0016418835 0.003613594 -8.9095425e-05 -0.0009896151 -0.0025395555 0.006217018 -0.0011169664 0.0015293239 0.0024854564 0.0010117465 0.0017037098
movie176 -0.011484642 0.0026591977 0.0016419551 0.012002391 0.0040766536 -0.0017188096 0.0065495144 0.0011271033 0.0017300076 -0.0015867942 -0.005421136 0.01047141 0.001910631 0.0014581643 0.0017601365 -0.0016488178 -0.0011314148 -0.0068167998 -0.002751878 0.005410679 0.0068670954 -0.0013166644 -0.006511836 -0.007735594 0.0030112148 -0.005275587 -0.0024479628 -0.0056346874 0.0035482012 -0.0012697733 0.008938694 0.0010941129 -0.0055915345 0.0046274806 0.0029264265 0.0014889662 -0.0011180224 0.002546073 0.0003904674 -0.010694894 -0.0007365336 -0.006024937 -0.008011586 0.0038673873 0.0021814785 -0.00017409993 0.003304333 -0.007671738 0.0008223925 -0.0017959054 0.0046796636 -0.009391193 -0.0055638608 0.004892834 0.0029553021 -0.0014051233 0.012826315 -0.0017007408 -0.0010745142 -0.00092443556 0.00047218037 -0.0042296196 0.0019481542 -0.006508463
movie242 -0.0071298038 -0.0027441566 -0.0026511482 0.0027064653 -0.005672595 -0.0070654736 0.0061621172 -0.002911572 0.001321548 -0.0057686535 -0.005646548 0.01101694 -0.0077195675 0.0046610245 0.0014608381 0.0027529798 -0.010571109 -0.0038960234 0.0006934794 0.0048161666 0.008579212 0.0051592486 -0.0073200134 -0.0067858025 -0.0018572381 0.0022589043 -0.0033490928 0.0047522797 -0.004671089 -0.012442628 0.002388804 -0.0016379876 0.0017499534 0.004919372 0.0015443047 -0.00347684 0.0019845744 0.00020064764 0.0029549447 0.0019885912 0.0043857633 0.0045925146 0.0053420947 0.002173945 -0.0051288772 0.0050446466 -0.0025576344 0.0044416604 -0.0032714657 0.0051448266 0.0052883727 -0.0050158766 0.0023580526 0.0037438606 0.0034480735 0.0072057317 -0.0006468052 -0.011176138 0.0014805882 -0.0037201913 0.0049427603 0.00466557 0.007082807 -0.0020505872
movie12 -0.005585207 -0.00012241009 0.008060453 0.011654461 -0.0038224764 0.0023069493 0.0024699036 0.0040788497 -0.008984947 -0.0033704778 0.009774393 -0.0037979106 0.0015646163 0.0057221693 0.0022477848 2.581369e-06 -0.009266786 -0.004434864 -0.008241992 0.005366328 0.0003733984 0.0100381775 0.006575016 0.004340567 -0.0019332835 0.004455929 -0.000596978 -0.0055097872 0.0014517431 -0.00883813 0.0020714875 -0.0023261032 0.008814103 -0.0027845288 -0.0018422541 -0.007094194 -0.00047847806 -0.0058859163 0.0012307279 -0.0006651902 -0.007802095 -0.00631258 0.003827116 0.0120993415 0.009299325 0.00056205725 0.004972208 -0.0066856695 -0.010066636 0.0011482469 0.002515066 -0.00079785654 0.008818114 -0.0049455077 -0.0040511847 -0.0031098635 -0.0014253047 0.0019933179 -0.0028480762 -0.0053151874 -0.007957315 0.00062759034 0.0019025372 -0.0024177614
movie292 0.0023039791 -0.004597055 0.0065044775 0.012327624 -0.0049284757 -0.0022875473 0.005087381 0.0019889697 -0.0029787146 0.0023083584 0.0056022694 -0.0034164898 -0.0037189522 -0.009614144 0.0034673985 0.002819139 0.0009985415 -0.0034902978 -0.0012399663 0.005863771 0.010303375 -0.0016001693 -0.005881652 0.0012533133 0.004195245 -0.0074994005 0.0010459966 0.0054193255 0.00078527123 -0.008697097 0.007698536 0.0040633916 0.00074116065 8.4050276e-05 -0.0028048577 -0.008468283 0.006490668 -0.0008022905 0.001044562 0.0030146074 -0.0073119504 0.006385532 -0.0029742024 -0.00021840756 0.0042818743 -0.002150894 0.010323121 0.00026524437 0.00030316907 -0.0006400072 0.006296132 0.0029469149 0.0053843763 -0.0017421838 0.010744821 0.002433871 0.010225116 -0.011113415 -0.00651784 -0.007314323 0.0033746557 -0.0029014708 0.0073389756 0.0066632447
movie22 0.0012995213 0.009355142 0.00961059 -0.0001170014 0.0022796139 0.0046943445 0.007719766 -0.008672423 0.0020268105 0.0073756985 0.008276985 0.008926479 -0.003326738 0.005933476 -0.005513311 0.0014575958 -0.0045129997 -0.0033207 0.0015680417 -0.0031710004 -0.0031100076 0.0032647045 -0.0069147996 0.0046315794 -0.008670951 0.002003029 0.006985376 0.0016035645 0.0021636414 -0.009522942 -0.0023446558 0.009666602 0.006836737 0.0060455007 0.0066142445 0.0055935793 0.00090685237 -0.0031400446 -0.0008543574 -0.004316029 -0.0013307197 -0.0034137415 -0.008075699 0.0072603286 -0.00043130797 -0.0041488647 0.002332276 -0.0053346884 -0.00727044 0.005327458 -0.0022636957 -0.0011421451 0.0081016505 -0.0077802544 2.497899e-06 -0.0022422536 0.011437525 -0.006203227 0.0011242793 -0.0036870877 0.002455144 -0.0015613243 -0.0020094672 0.005439549
movie483 -0.0019432625 0.008650134 0.008496882 0.011834401 0.0020192838 -0.0064106174 0.002837468 -0.008534338 0.0032968624 -0.0021106119 0.0003787737 0.00035838588 0.0014228498 -0.0075386544 0.002672371 0.007314934 0.0035057825 0.0008343886 0.0010956287 0.0014449401 -0.0014258663 -0.0048539005 -0.002194459 1.3983326e-05 0.0053054923 -0.0097266715 0.0023978702 -0.0008144762 0.010865261 -0.01272358 0.0035622832 0.0067021684 -0.005411642 -0.0034813052 0.004969542 0.00058339007 0.0011318488 0.0057333447 0.006166775 -0.0049667805 -0.009307356 0.0037599416 0.002842371 0.0019233614 0.0034057328 -0.0006210337 -0.0026873064 -0.007685642 -0.009580349 0.0019091564 0.0035554287 -0.0011261285 -0.0057491674 0.0053364118 0.003910324 -0.0073031117 0.0086890785 -0.0019594927 0.0014967346 -0.0037949884 0.0017686603 0.0033785442 0.003946917 0.0076794983
movie64 -0.0011008856 0.008317167 0.0054603494 0.009638658 -0.0066873557 -0.007979422 0.008527299 -0.004765811 -0.009858345 -0.0037613541 -0.001442267 0.0098136505 0.0027682565 0.00388551 -0.00011953244 -0.0056042215 -0.009424426 -0.001771313 -0.008294196 0.0072596245 -0.001994459 0.0032473158 0.0051470743 -0.009325327 -0.0024663704 -0.0092068575 0.002250633 -0.0022455808 0.008565905 -0.008214384 0.0063434984 -0.0009423189 0.005860928 0.0056468374 0.0034302932 -0.0025721078 0.0083429525 0.0037622447 -0.0056960783 -0.004987765 -0.0066902363 -0.0073240143 -0.00019869776 0.0020374083 -0.00023469931 -0.0059410795 0.004829838 0.004544999 -0.010412556 0.0013564447 0.0050999885 0.002082124 0.00051518 0.0076135686 0.010298558 0.0062025683 0.00056371413 -0.00084853993 0.004619794 -0.0032222674 2.693049e-06 -0.0036743616 -0.0020315207 0.0057439124
movie210 0.0016065157 0.0011331646 0.008981266 0.009607847 0.006431169 0.005629568 0.006273364 0.0020277067 -0.006870942 -0.0012464738 -0.005133223 0.010925644 -0.004466732 -0.007813062 0.0014426915 -0.0012463406 -0.004907054 -0.0036392785 -7.120511e-05 -0.004171758 0.010623943 0.003691118 -0.0047047883 -0.0030296014 -0.009217723 -0.0065470473 -0.0031194924 -0.004715705 0.0063286494 -0.009944118 0.0021581776 0.005352939 0.0026677907 -0.0061013093 0.002252545 0.005499562 0.002127858 -0.0019669991 0.0021137223 -0.006659842 -0.00015813958 -0.0064465404 0.006156603 0.0043966393 0.003380458 0.008113917 0.0003506963 -0.004947999 0.0037316894 -0.00411593 0.0076368446 -0.00058167276 0.0060894312 -0.0010121773 0.0031653745 0.006343676 0.004320355 -0.009133604 0.0021856965 -0.0062954114 0.0030243834 -0.008215078 -0.001803025 -0.0071857343
movie508 0.0037511662 -7.143548e-05 0.0072917347 0.003590404 -0.0012866157 -0.0008454235 0.0057491944 -0.0058355737 0.0021630991 0.0054966277 0.0004895476 0.010161013 0.0018140785 0.003795337 -0.0071913167 0.0011656649 -0.0047688503 -0.0017315492 -0.00018893357 -0.0021205982 0.007032632 0.00071283616 0.0010459071 -0.0021339795 -0.0019031308 0.0030639346 -0.0064711375 0.004122353 -0.002292507 0.00034782305 0.008799149 0.000848359 0.0071602208 0.0039292285 -0.0037629744 0.0006358634 -0.00030094222 -0.0059134513 -0.0038213558 0.0033303685 -0.004198324 -0.0032242348 0.00052625727 0.010673312 -0.005093287 -0.005180854 0.0030200388 -0.0049180673 -0.0019375988 -0.006905689 -0.000947031 0.0031061536 0.0056444835 -0.00045182233 0.003019739 -0.0065510455 -0.0020952204 0.0014995555 0.0040367963 -0.0066274004 0.0025010756 -0.0039272117 0.0017558701 0.0026460285
movie282 -0.009239283 0.008196129 0.0027049705 0.00064491795 -0.00025762818 -0.003976948 0.007930765 0.0005946257 -0.010726419 -0.0040752585 0.0043319045 0.008342048 0.0015077661 -0.0031859626 0.0034566107 -0.0025624675 -0.006284871 -0.0058009448 -0.007973823 0.0065503414 -0.0018400026 0.008058863 0.00072708726 0.0038476654 0.00010551585 -0.0069646933 0.008504604 -0.004352948 7.4351985e-05 -0.0107360585 0.008389074 0.0066685476 -0.00018418508 -0.0041552996 -0.0023926827 -0.0026824481 -0.002647008 0.0012077284 0.009153827 -0.0021704254 -0.006819119 -0.007048028 0.0063644773 0.0037067041 -0.0061596124 0.0057540406 0.0012979541 0.0043383655 -0.008829112 -0.000324792 0.002472264 0.0037066853 -0.0042146244 -0.0067338166 0.006789376 0.00095780153 0.0037551243 -0.00075965817 0.001143874 0.0018768393 -0.0071133445 -0.008052963 0.001966764 -0.0010547638
movie71 0.00017110608 0.009865264 0.0020194303 -0.003129782 -0.0056978827 -0.0024097224 -0.0018751895 -0.007538143 -0.0070972927 -0.0023150477 -0.0062927483 -0.0024257763 -0.0077118333 0.0050642197 -0.0012003147 -0.0057311775 -0.0043833596 0.007667746 0.0013377675 0.006245526 0.00470004 0.003080891 -0.0053903004 -0.006850373 -0.008366186 -0.005755304 0.007327894 4.9959777e-05 -0.0022811384 -0.008555004 -0.0020471269 -0.00065985415 0.0075084222 0.003352709 -0.0037008054 0.0005605014 0.008685388 -0.0030224144 -0.004343969 0.004516894 -0.005542741 0.0025005334 -0.0032438762 1.2706373e-05 0.004226549 0.003726818 0.0051271627 -0.0040443595 -0.0036822949 -0.009564454 -0.00045521566 -0.005590241 0.0052582836 -0.003103595 0.010370947 0.0016536529 0.00072222354 -0.007324554 0.004431577 -0.007729536 0.005425662 -0.0075404504 -0.0040738694 0.0020478312
movie234 -0.0065451437 0.0019319414 0.00945006 0.011696864 6.248255e-05 -0.0036858458 0.00094462064 -0.00026121936 -0.0023868473 -0.005130384 0.0049199467 0.010665806 -0.0041983044 -0.004691027 -0.0022792614 0.0021852397 0.0034738162 -0.0065375147 -0.0058271694 0.0013956508 0.0028912248 0.004573324 -0.0026990303 -0.0016524222 0.0049122693 -0.005095617 0.004466829 -0.0028642602 0.0025165458 -0.011615046 0.0027456007 -0.0024553097 -0.005744245 0.003232408 -0.0023766311 -0.0067024794 0.0064881244 0.003601126 0.001367484 -0.01025452 -0.0050779073 0.0009905929 -0.006958168 0.003950397 0.004147479 0.0051018237 0.0021298986 -0.007671775 0.0016733292 0.0015492915 0.0084406445 -0.00028415787 -0.0066109006 0.0038282566 -0.0038032774 -0.0075839395 0.008543743 0.0017032188 0.0044527124 -0.007612654 0.0014245047 -0.0017915139 -0.0041907104 0.0033203533
movie327 0.0039086733 0.009581513 -0.0044618296 0.001041417 -0.008077856 0.0044689607 0.004778473 -0.0054560723 -0.010089227 -0.006497799 0.008937887 0.0007101256 -0.004643047 -0.0013649998 0.0045473217 -0.00097411644 -0.004131961 -0.0036809635 -0.008825665 0.00041858287 0.004615678 0.010443046 0.0010963264 0.005320221 -0.007552944 0.0036128645 -0.004538011 0.002461183 -0.00010099112 0.00095051253 0.00758756 0.008150959 0.007905514 0.0055408953 0.0045993123 -0.0011188273 -4.2566047e-05 -0.0020820575 -0.0013704067 0.0003678211 0.0034884692 -0.0059374617 0.0063578375 0.0070951977 0.009457142 0.0025149134 0.004788517 -0.0072030546 0.005884003 -0.009438443 0.0011807904 0.002793613 0.0073030833 0.005117185 0.0019661617 -0.001305329 0.00959625 -0.0065454086 -0.0009620161 0.0032685213 0.0029678743 -0.0013593981 -0.0036850332 0.008538169
movie496 -0.010755292 -0.0038719892 -0.0010532481 0.0033479566 -0.00023531257 0.0011752015 0.0069974726 -0.0060849814 -0.00861765 0.0059299134 -0.0014845697 -0.003580276 -0.00502269 -0.009584566 0.006155848 0.0017485253 0.004773893 0.008567115 0.001595107 0.006494048 -0.0037345625 0.0016044523 -0.0047845086 0.0047763516 -0.00093989086 -0.009113646 -0.007058946 0.006493309 0.008480899 0.001430687 0.0035497923 -0.0012744368 0.003918659 0.006523208 0.009253093 -0.0071895346 0.003453112 0.006916947 -0.00037276806 -0.00227406 -0.009960178 -0.002950554 0.0049001016 -0.00043124706 0.007866722 -0.0030416546 0.008272271 0.0026723405 -0.009328376 0.0022183906 0.0016676697 -0.0037220877 -0.0060548214 0.0010222816 -0.000569088 0.0016570535 0.008916596 -0.0057720146 -0.005315575 0.0056508523 -0.0074912524 0.0022295553 0.0018030922 0.00031420178
movie310 -0.007577749 -0.0025835268 0.0018732279 0.0052343663 0.0038210375 -0.0077415435 0.0027442134 0.002949866 0.0032355047 0.0007837536 -0.0013804564 0.0060120295 0.0033174832 -0.0018680223 -0.004917025 0.0061392505 -0.008097314 -0.0059207925 -0.0014501783 0.003618158 0.010933676 0.006968716 -0.004799628 0.00068311184 0.0070867594 -0.0049735093 -0.002316646 -0.0042768344 -0.0020786035 -0.0028924693 0.0036196695 0.009469034 -0.0035349927 0.004312117 -0.00021177068 0.0016790975 -0.002025317 -0.0059718005 -0.0008613576 -0.002082269 -0.008557207 -0.0047772657 -0.00058012834 0.011767591 0.0089372415 0.0029287948 0.00076920784 0.00060399633 -0.0045483075 -0.0025911883 0.008493485 -0.0072261738 0.0083444575 0.0046503316 0.0030593134 -0.0004738535 0.005849796 -0.010000704 -0.0067041167 -0.0038000022 -0.009250869 -0.0036623823 0.002950413 0.0010840624
movie357 -0.0057807066 -0.0036180937 -0.0041265977 0.006640363 -0.0044802865 -0.007938812 0.0057412465 -0.0011839924 -0.00054091256 0.007645931 0.005299143 0.0047730426 -0.011777477 0.0034907502 0.003339365 0.0020314124 -0.0012221885 -0.0029837398 -0.0105097685 -0.005155475 0.0010196989 0.0065644043 0.0037818942 0.0005862141 -0.0047733113 0.0021245931 0.00289701 0.0034573004 0.002368676 -0.00042893164 -0.004542472 0.0029186779 -0.002063922 0.0012320877 0.005854397 -0.0018835805 -0.0066859694 0.0022976475 -0.005314303 -0.000114547256 0.00013118464 0.0074939383 -0.0040027318 0.010496885 0.0024749038 0.0022630116 0.0007198111 -0.0019874233 -0.0068472098 0.006151895 0.004768294 0.0027367896 0.0072932024 -0.004207607 0.009189833 -0.00014503919 0.012857695 0.0028689725 0.0046336898 -0.0019380007 0.0069542443 -0.007890874 0.007596996 0.0025059984
movie186 -0.001023422 0.0073217065 0.0076488056 0.001577691 0.0060897497 -0.0013840676 0.0026723272 -0.00038899298 -0.009803699 0.005703495 -0.0046043103 0.008708548 -0.011113879 0.0013274078 0.0034278943 -0.0063429317 -0.009337404 0.0022026703 0.0026943372 0.0032264392 0.00041324942 0.006501031 0.005175977 -0.0010585999 -0.005411747 -0.0039446554 -0.0073730643 -0.0034324895 0.0057487283 -0.0077671716 0.004931943 -0.0002798539 -0.0022091481 0.0009694934 0.0018151844 0.005604034 -0.0042179665 -0.0007607749 0.008046992 -0.010558464 -0.0012379464 -0.001926273 0.004716203 -0.0030487282 0.002485296 0.0036902623 0.000851386 -0.007702533 -0.006208351 -0.009257412 0.0023140493 -0.009939628 -0.0003019802 -0.0043753963 0.0037310407 0.004484513 0.0036234772 -0.0036815964 -0.0012211329 -0.0015738443 -0.0069177165 0.004372546 -0.0024142957 0.00305528
movie125 -0.011395114 0.009293466 0.0021623354 0.010408521 -0.0007751215 -0.007537218 -0.002014638 -0.0018663184 -0.0018798255 0.0042776745 -0.00037887087 0.010666086 -0.007048723 -0.0017295998 0.0077622277 0.0011257584 0.0031714796 0.00714487 0.0028019613 -0.0044890204 -0.0012723046 0.0071405014 -0.0027842768 -0.006155332 0.0056211716 -0.006240767 0.003969229 -0.0040874127 0.00082632154 -0.010258228 -0.004822852 -0.0021630153 0.0020569197 0.0061793337 -0.0004806102 0.006433019 -0.0063177254 0.0064250543 -0.0059004626 -0.0012369466 0.0009284467 -0.004115311 0.0002337834 0.005134991 -0.0038161364 -0.00082536903 -0.00017072268 0.0038745939 -0.0050972034 0.0019718583 -0.0031344672 -0.0010003634 0.005246982 0.002516416 0.0011120368 0.0042037987 0.005547438 -0.0016032676 0.00785821 -0.005518734 -0.0079283975 0.0032610246 0.008231027 -0.001665644
movie678 0.00332452 0.0043120035 0.005451451 0.003910257 -0.0074862544 0.0011340489 0.0060629705 -0.0054991394 0.004805761 0.0023997973 -0.002310507 -0.0034869264 0.0016886217 -0.0004902598 0.0017966225 0.0006256873 -0.007930885 0.008640112 -0.010178036 -0.007835656 -0.0022545694 0.010458047 0.0040653707 -0.007541283 0.007197285 0.00522408 0.0011015513 -0.0046381047 0.0034106257 0.0026773857 0.0012811082 -0.0016924827 0.002852184 0.0023322895 -0.0022874633 0.0029568302 -0.0030255716 0.006134973 -0.0007686505 -0.010592734 0.0055251364 -0.0023821995 0.0010650662 0.011343487 0.00397712 0.0061648586 0.004987656 0.0022174132 -0.0077071944 -0.009609313 0.0043282276 -0.008547433 -0.006827348 -0.007423685 0.0076854103 -0.0021661716 0.009242289 -0.0025413004 0.003909597 0.0026710113 0.0025366608 0.0011714473 0.005512136 0.0030243064
movie204 -0.0060715056 -0.0038815404 0.0075600394 0.011760637 0.0055109374 0.003107504 0.007052091 -0.0054783034 -0.0078425305 -0.0069240453 0.005008936 -0.0017567816 -0.0075394465 -0.004636873 -0.006042671 -0.006647286 0.0047631147 0.0017464735 -0.008503487 0.002671417 0.0010701377 -0.0019282376 -0.005924024 -0.0068682814 -0.0035234324 -0.003373316 0.0022036366 -0.0014238078 -0.0019100835 -0.0018381701 0.009074073 -0.0038231553 -0.0053647184 0.0052256305 0.0041451966 -0.0012337086 0.0010817657 0.0059390375 -0.004202343 -0.006693879 -0.005829618 0.008171562 -0.002364711 0.00888206 0.008776026 -0.0009600563 -0.0011338323 -0.006566346 0.0040932395 -0.006050327 -0.0029981534 -0.0016150092 0.006089774 0.0007400832 -0.0037393498 -0.0034161285 0.001799871 0.0005848215 -0.0012191695 -0.0071673584 0.0068768747 -0.0080311755 0.009200594 -0.0067404434
movie96 -0.0065065427 0.003981565 0.0013688112 0.0077727363 -0.0021756468 0.0030473205 0.0050110607 0.00097483373 -0.0008037926 0.008313856 0.0011525681 -0.0025172045 -0.006166342 -0.007519724 0.0077468557 -0.0079355035 -0.008975388 0.008784493 -0.0066886726 0.0054670465 0.001327628 0.0012838657 -0.007948457 -0.009618047 -0.0026870873 0.0029404722 0.0027406935 0.0035156114 0.008188874 -0.010701795 0.0030830516 -0.004268035 0.0041288673 -0.0018803765 0.009080638 0.0071460214 0.0068342765 -0.0019371401 0.009297689 0.00067545625 0.0050047687 0.0053409217 0.0026164001 0.0018569025 0.00028190375 0.0070779133 0.0049400255 -0.0027191425 -0.0030187757 0.0007900123 0.008339543 -0.005039385 0.001412897 0.0036994952 0.0042986423 -0.003844254 0.0028433783 -0.0045303386 0.007858211 0.003036347 0.0061197747 0.0053445986 0.0028301794 0.006475243
movie191 -0.010281917 0.0013099903 -0.0010826467 -0.0014576635 -0.008884289 -0.000375748 0.0037127687 -0.0006291028 0.0027837374 0.0038391417 -0.00057137397 0.010523386 -0.0006772374 -0.007847869 0.0014843758 -0.002509957 -0.005651639 -0.0027375 -0.008224911 0.0026193936 0.0039866623 -0.0052315434 0.0041519837 0.00096915214 0.0063792625 -0.00071166974 -0.005281385 -0.004543541 0.0071491627 -0.008860184 0.0014079901 0.0015194529 0.0029152161 0.0066120815 -0.0060689417 0.0011264684 -0.00027438946 -0.007960755 0.0050763995 -0.0064226156 -0.0056920242 -0.0020297652 -0.004313833 0.010424887 0.005479387 0.00121571 0.008460184 -0.0035142244 0.005108432 0.0017726293 -8.2947205e-05 -0.009422311 0.00662855 0.0037085672 0.004655242 0.0042929025 0.011399545 -0.0057530073 0.005459952 0.0056463405 0.001748624 -0.0089768 0.007725337 -0.005361922
movie331 0.00061745493 -0.0036454585 0.008267931 0.0003300626 0.0048126252 0.004918715 -0.0031307575 -0.009117589 -0.0066995826 0.0063216863 8.446004e-05 0.009084734 -0.011472178 -0.004767178 0.004718125 0.0029847869 -0.003472023 -0.005082264 0.0027375398 0.0070371 -0.0023156938 -0.005561273 -0.006839301 0.0015119902 0.006336978 -0.004092514 -0.0021225344 -0.007473165 0.0026620736 -0.0068027955 0.0066027623 0.0012652538 -0.0007290936 -0.0038894666 -0.0056608333 -0.008702474 -0.006197393 0.001221781 0.0023131578 0.0040089777 -0.008163655 -0.0033547673 -0.0031700213 -0.0010820712 0.00632017 0.004751156 0.009033831 -0.0015448733 -0.0074055465 -0.0010355692 0.0047811293 -0.008979443 -0.0053683035 0.004664883 -0.00094967417 -0.0008664237 -0.0032181442 -0.0063947774 -0.005949708 -0.0021281238 0.005782316 -0.0075153843 0.004315121 -0.0042418377
movie303 0.002330237 0.007150616 0.0037447747 0.009707044 0.0025149228 -0.0021647047 0.0007758121 0.0055217394 0.0017823761 0.0012118065 -0.0025467745 0.010076268 -0.0040602433 0.007153106 -0.0022202448 0.0072897123 -0.009434602 -0.0042727054 -0.0109986765 0.0003770561 0.008929976 0.0062625636 0.00752741 0.00020406845 -0.004969429 0.0016250174 -0.001820295 -0.00059256016 0.00042814895 -0.0073000602 0.0048169373 -0.0042183152 -0.0036193193 0.0006500707 -0.0059308014 0.003036457 0.007989856 -0.0019752532 -0.0041915947 -0.0044398503 0.0031215253 0.007309193 0.004042141 0.010083868 -0.006324505 0.0043168925 0.0017441752 -0.0007718401 0.00050654367 -0.009689228 0.008726305 -0.0038404863 -0.006352385 -0.0069091115 -0.0013840765 0.0046926956 0.003016641 0.00086963124 0.0011571058 0.0011643923 -0.0032586749 0.0017310757 0.009374176 0.0019727873
movie70 0.0018261787 -0.0022954105 0.005762589 -0.0023402134 -0.003144207 -0.0016197066 0.0026167103 0.003491601 -0.004210191 -0.0016226156 -0.0044743638 0.0045180367 -0.0068512606 0.0014691621 -0.003573588 -0.007115524 0.002979974 0.0047970186 -0.005000786 0.00587175 -0.00090690225 0.0041648317 -0.0074369707 -0.0031039668 -0.0017076507 -0.0011562326 -0.0076940274 -0.005887123 0.008859376 0.003126761 -0.0019733743 0.008030218 -0.0025493607 0.0024403941 -0.0062760334 0.0034578263 0.0036944305 -0.006400258 0.0031507374 0.0021332814 0.0054034316 -0.005774643 0.00035081204 -0.0028173793 0.0042460356 0.0058414508 0.002435146 0.0008931915 -0.0032476117 0.00047985784 -0.006161566 -0.0065720542 -0.00624086 -0.0061855195 0.0077579496 -3.8707253e-06 0.001673363 -0.005838195 0.005276727 -0.00040098734 -0.0038927458 -0.008605673 -0.002250044 -0.0019923379
movie97 -0.009597608 -0.0049114767 0.007856765 0.00084168377 -0.007609698 0.0057855058 -0.0022329006 -0.0038063154 0.0031197532 -0.00014279077 0.008780156 0.009168828 -0.003223951 0.0019708197 -0.005954902 -0.0039865756 -0.0038896913 0.0015119768 0.0035460375 -0.0032550648 0.004686436 0.00647505 -0.005465251 -0.007182664 -0.0041130474 -0.0010161663 -0.0019053009 -0.0070245997 0.0022917283 -0.010083774 0.009469457 -0.0015213881 0.006298528 0.0071835713 0.0091181155 0.0007126161 0.0074435277 8.956404e-05 -0.003594736 0.0044311546 -0.009382479 0.0052697845 0.0020773744 0.0037175755 -0.0051798765 -0.006418492 -0.0006574605 -0.0064385594 -0.008657972 0.0038299565 0.0025381728 -0.0032248849 0.0035966428 -0.004321912 0.010378423 -0.0007829931 -0.0032987434 -0.0042881123 -0.0012981468 0.007827173 -0.005885579 0.0032834187 0.0007231443 0.005784472
movie69 -0.0058630183 0.002447496 -0.004328254 -0.0021759286 -0.008968877 -0.004511946 -0.0059313946 -0.0015470078 0.0043619266 -0.0026433158 -0.004268384 -0.0020601023 -0.009921082 -0.008873957 0.0023047514 -0.003458192 0.004440341 -0.00048587326 -0.0087508 0.0020244557 0.003688083 -0.0024243412 -0.0005475392 0.0030107044 -0.0053535094 -0.006060236 0.0031079075 -0.0072682034 -0.0014808387 -0.00073270954 0.0035431026 -0.004616694 0.005333322 -0.0038992488 -0.0054850793 0.006361485 0.0077281455 -0.0042757294 0.006661304 -0.0041017183 0.00047859244 -0.0066337716 -0.00040140783 -0.002005305 0.0043564267 -0.005201092 0.00084237714 0.006268647 -0.006377072 -0.006963804 -0.0036018435 -0.0087929405 -0.0048600873 0.0030323034 0.0007142323 0.0018119328 -0.0006053938 0.003820131 -0.0029617734 -0.0009262119 -0.0085958615 0.0007320914 -0.00019477586 0.0018150128
movie89 -0.010455433 0.00702561 0.008393516 -0.0017772866 -0.00071185053 0.0052103875 -0.0012501554 0.0063118353 -0.010103593 -0.0008163428 -0.0037449265 0.0037171543 -0.008473951 0.0017888837 -0.006075719 -0.0018542879 0.0042322725 0.0014487718 -0.008534238 -0.0038813464 -0.004796004 -0.0016038892 0.0014208982 -0.0087070195 -0.0014808655 -0.0033726878 -0.0041577243 -0.00677348 0.0038174936 -0.007180502 -0.0033188101 -0.0060512237 0.00405358 0.008871966 0.0035788433 -0.0018654747 0.0053217895 0.0017080575 -0.0034938152 -6.2802166e-05 -9.219157e-05 0.005467573 -0.0016093001 0.003975215 0.002611194 0.00026057963 0.007344469 -0.0025113553 0.001446233 -0.005418153 -0.005998408 0.0049694004 0.0024368444 -0.0026603094 0.0065464536 -0.007515017 0.006304731 0.00181867 0.0024315948 -0.005128481 -0.0070284647 0.0028734512 0.00067795534 -0.0001357736
movie298 0.002671572 -0.00015087263 3.287129e-05 0.0030744844 0.00053881016 0.0011244483 0.0038720092 -0.004457582 -0.0016240515 -0.0069385706 -0.0050026746 0.003965879 -0.0039352044 0.00096870685 0.00826801 0.0009707124 -0.008545817 -0.0018140833 -0.008205593 -0.00097364833 -0.0021831077 0.009900526 0.0022273131 0.0047084806 -0.0020751925 -0.0053472267 -0.0022527985 -0.0021468413 0.011248334 -0.0064495574 0.0023692367 0.00400022 0.005645656 0.0044608405 0.005788494 0.0016777392 -0.00038909377 -0.002719736 0.0012792897 0.0002440023 -0.006074744 -0.00012452496 -0.008862833 0.0030804817 -0.0022777566 0.0014863306 -0.00470697 -0.006180992 -0.001065114 0.0022251972 0.008663302 -0.0029784152 -0.002599241 0.0075555276 0.0076866364 0.007855845 0.0014551148 -0.0029213922 0.005482955 0.0048777605 -0.008920296 -0.0046232403 -0.005380943 -0.007251264
movie197 -0.007328231 0.009548286 0.0057491665 -0.0011970152 -0.0033353027 0.00534449 -0.0043676523 -0.0054240893 -0.0057473327 0.004697872 -0.000592035 0.0050855954 -0.010936833 0.0023122488 0.007155212 -0.006506174 0.0051981024 0.0010881306 0.0027678614 -0.003742878 0.0071033756 0.0059897047 -0.002009192 -0.008727446 -0.0039605554 0.0037512477 -0.0038820794 0.0036367828 0.00048636564 -0.00094744214 -0.003413633 -0.0009779743 -0.0026312042 0.003842983 0.0060725193 0.00040221718 -0.0073519177 -0.0053321207 0.0014018383 -0.008661363 -0.0043749837 -0.0030798416 -0.004855092 0.010392954 0.007856896 0.0036041702 -0.002520074 0.0054314304 -0.009638905 0.002206267 -0.0021691637 0.0016154484 -0.003997962 0.002362895 0.007589327 -0.0049958546 0.00081250555 -0.0008008188 -0.005073622 0.0011485586 -0.0013159647 -0.0007579157 0.007172589 -0.004711723
movie255 -0.0042999866 0.007043204 0.004658742 0.004332848 -0.0052196723 0.007095071 -0.0035323708 0.0029186427 0.0009784824 0.006170981 -0.0004911602 0.010236011 0.0005708446 0.004645629 0.007831656 -0.0002250408 -0.010075887 0.0030349828 -0.0018372209 -0.0071644434 0.010537796 -0.0002300017 0.0022785778 -0.007530074 -0.008466213 -0.0042076884 -0.0010113114 -0.0003515777 -0.004225888 0.0018721876 0.0026539809 -0.0030210023 -0.0059022 0.006347956 0.007938371 -0.00037643468 0.005563854 0.006282709 0.0049774414 0.0009717619 -0.0014529605 -0.0058819116 -0.0073604705 0.0025470334 -0.0060944012 0.0010777588 -0.00193618 0.004068201 0.0060469424 -0.002913441 0.008159094 -0.0034927377 0.0053316997 0.006446606 0.007838404 -0.0068746693 0.011461933 -0.0037698376 0.0038143366 0.0075155403 0.0029319888 -0.007269405 0.008830764 0.0022641143
movie180 -0.010709328 -0.0049254266 -0.0034008012 0.00033355688 0.0010179015 -0.00672283 0.008454583 0.0022610035 -0.0035382146 -0.0070040566 0.004438312 -0.0020927752 -0.008679581 -0.0003354066 0.0071141617 0.00666183 -0.00020859086 0.004897165 -0.008877572 -0.004615836 -0.0010250007 0.007895757 -0.0024256166 0.0024022495 0.004567286 0.004790355 -0.006284047 0.0046170913 0.00907759 -0.0017716899 0.004445244 -0.003196569 -0.003972299 0.00869621 0.0014054292 0.00010829159 0.0025688354 0.0033036442 -0.003537471 -0.0018947824 0.0047844443 -0.0033357919 -0.00088558614 0.002231421 -0.0041463934 0.008983218 0.005257089 0.006249217 0.0055569517 -0.0031589037 -0.0028088412 -0.010339588 0.002713997 0.005237594 0.008187451 0.0045919884 0.012616475 -0.00020236564 0.0026846118 -0.002561191 -0.005486671 -0.0007285563 0.007040616 -0.005697012
movie28 -0.0056518656 -0.0035521765 0.0042393426 0.0013648317 0.0015683097 -0.006530894 -0.0016470916 0.0011140386 -0.008383873 0.0030493606 -0.0028971818 9.566305e-05 0.0016802996 -0.007829411 0.0040854192 0.0038156467 -0.0017835421 -0.0044966512 0.0002484613 0.003980022 0.002912397 0.0060230526 -0.005561815 0.0015053482 -0.004019797 -0.008793953 0.0067796363 -0.00742607 0.009058833 -0.0047763716 0.009416602 0.00569887 0.004697704 0.00028039905 0.004992862 -0.0031968607 -0.0013812818 -0.0041093025 0.008198264 0.00062095403 0.0004963306 -0.0034515949 -0.007245282 0.005919803 -0.0064506033 -0.00674558 0.0072061666 -0.0048154704 0.0023810752 -0.008357282 -0.0024028406 0.003289313 -0.006901109 -0.0076963506 -0.0010894048 -0.0021037215 0.0107096415 -0.0015266952 -0.0028075634 0.002312535 0.00016389374 -0.00013608662 -0.0006549154 0.006350452
movie304 -0.0072419117 -0.0046092006 0.005919777 -0.0005879669 0.00017392988 0.0068218666 0.005692332 -0.0033937346 0.0019371948 0.003711659 0.0064007454 -0.003244058 -0.0041014547 -0.0080556 0.005341516 0.0024491502 -0.0050169807 0.00023487015 -0.0089115845 -1.7972943e-05 0.0009993826 -0.0006005819 -0.00058838143 -0.001033797 -0.0044088694 0.0034607875 -0.005984138 -0.008686972 0.0035023713 -0.0010110657 0.007597352 0.0029594656 0.002665233 -0.0015163322 0.0033743263 0.0046463953 -0.0037105768 -0.00455875 0.0030771163 0.0007744656 -0.0008125456 -0.0033648945 -0.0034546203 0.0037764697 0.0008064372 0.0017336769 0.0049342206 -0.0011591306 -0.0074492735 0.001506317 -0.0055919955 0.003087498 0.008004955 0.0017368358 0.008577107 0.0027683056 0.0023245518 -0.005059293 -0.0047689085 -0.0015672334 0.0022447787 -0.0010410456 0.008397988 0.0033521024
movie137 0.0004973857 0.0006556718 0.0020790822 0.0047534304 0.004844745 -0.003087324 0.0078111915 -0.00840471 0.0036790273 -0.0042990046 0.0044452394 0.010065611 -0.0004445904 -0.0008458734 0.0038438763 0.0002985529 -0.009055068 -0.0050570294 0.004059325 0.008258696 0.008866437 0.008114271 0.007894424 0.0043675974 -0.000482016 -0.0025886388 0.0011700067 -0.0035072833 0.00141468 -0.0045819506 0.0072211353 -0.0008536194 -0.0039550336 0.0023624024 0.0052671186 0.0027374707 0.00089877396 0.00017843125 -0.0048957122 0.001377659 -0.0009109559 0.00682838 -0.00060327305 0.00066478 0.0013470417 0.003742354 0.003321825 -0.00038049396 -0.008870358 7.478147e-05 0.004652285 -0.008858796 -0.005087961 0.008225991 -0.0054673995 0.0040431484 -0.001458913 0.005735393 -0.0056078453 0.00043043826 -0.00088643155 0.0017046394 0.0017276184 0.003727675
movie306 -0.006057907 -0.0032033278 0.0017514216 -0.003555154 0.0021712424 0.00716213 6.2406e-05 -0.00210962 -0.0075318213 0.0077828183 0.0060613193 0.0064613717 -0.0030921546 0.0066990177 0.0028822983 0.0050902357 -0.0028328442 -0.0067851976 -0.006475302 0.004445313 0.0024304187 -0.0052489894 -0.007883788 -0.008647252 -0.00081975403 -0.009762107 0.0053437958 -0.008943784 -0.0026179708 0.0038952027 -0.003057044 0.009513827 0.0065257 0.000755619 -0.004266142 -0.004816849 -0.0031511597 0.0016994209 0.006111198 0.004671928 0.0043443847 0.0051356577 0.0014383997 0.00179291 -0.0029561694 -0.0017919388 -0.0008951474 -0.0019090655 0.0046744356 0.002236622 0.0032388277 -0.0080372235 -0.006588473 -0.0031782002 0.0025580705 0.0038833832 0.008383798 -0.0029658107 0.008119641 -0.0029207007 0.0024836748 0.0031871782 0.010257607 -0.0055355597
movie175 -0.0065003824 -0.0017598872 0.0038873767 0.010108647 -0.0042876983 0.003954269 0.0008443307 -0.0068597635 0.0037306435 -0.0018769772 -0.00022834855 0.00504476 -0.011164394 -0.0041216696 0.003391192 -0.003315264 -0.007260255 -0.0066468706 0.0018081034 -0.0005453629 0.007500642 0.0063771238 0.0047783065 -0.008155537 0.0014021964 -0.0037906826 0.006273193 0.005495802 -0.003837471 -0.010123097 0.00079330575 0.0022870908 -0.0015439853 0.0047046333 -0.0017460063 -0.0053056376 -0.0069762785 -0.0077443854 -0.0005697663 -0.0078058066 0.0058330456 0.0045644296 -0.0067581823 0.0027292462 -0.0010491821 -0.004811767 0.008396036 -0.002679784 6.0441478e-05 -0.002683843 -0.005855362 -0.0003649281 -0.0024817053 0.0004875645 -0.003520149 -0.00021065652 0.0067507285 -0.0007731232 0.008138106 0.0004861453 0.004348834 -0.005031628 0.006352353 -0.0022731004
movie134 0.0038148428 -0.0038614762 0.0061051133 0.005203904 -0.0018093616 -0.0015070267 0.0005246776 0.002385554 0.0016504591 -0.00020140935 -0.0026096015 -0.0030499417 -0.002417149 -0.006820368 -0.0058813184 0.0008979598 -0.0004811437 0.0012228151 -0.0069066808 -0.0034837732 -0.0048964955 0.00021512365 0.0071928077 -0.00047404075 0.0032781726 -0.008381401 -0.00061387045 0.007007342 0.0060501094 -0.009224936 -0.0033630051 -0.0059791626 -0.0049629086 0.0021219994 -0.0011826095 -0.004747466 -0.0041933 0.0008043526 -0.0050416905 -0.009641027 -0.003992684 0.0013706936 -0.0017707436 0.0033281583 0.008970034 0.0015208686 0.01036436 -0.0020230107 -0.0002637318 -0.0028971112 0.00222558 -0.009567715 0.004134991 -0.0040660505 0.0018538766 0.0038829928 0.008272725 -0.004769566 -0.004606633 -0.0035289347 0.0019116729 -0.004540938 0.0007025141 -0.0040581133
movie14 -0.00035813084 0.0025180322 -0.005260128 0.010534698 -0.009132708 -0.00062152115 0.007234149 -0.0013941925 -0.0049097314 -0.006316973 -0.0041467543 0.010265919 -0.0065852976 0.003686123 0.006560581 -0.0037406236 -0.0076735048 -0.0064430432 0.0007410328 -0.0019734264 -0.0020497097 0.00190309 0.0020348327 0.0031774037 -0.0038745978 0.0036750862 0.0006610788 0.0026637139 0.0041303695 0.0029307057 -0.0058276984 0.0020573733 0.0021359741 0.008380241 0.0024203064 -0.004311607 0.0018497026 -0.0054772487 0.007609624 -0.009663821 -0.0076861773 0.00049530563 0.0020987992 -6.398491e-06 0.0014270822 -0.0022943325 -0.00441423 0.0032647473 -0.0009835509 0.0057721967 -0.0009906656 -0.004610275 0.0047034593 0.005312514 0.008841789 0.002581529 0.010267415 -0.005214854 -0.002852065 -0.004836389 0.0007206597 0.0014673629 0.0063192486 0.003864877
movie195 0.00037467925 0.0057447893 -0.0022733065 0.0037858996 0.006278436 -0.00449335 0.0043606847 -0.008455943 -0.007509878 0.006854499 -0.0007276345 -0.0032859086 0.0035022704 -0.0016775576 -0.0075686895 -0.006195162 -0.0010808161 -0.0040775416 -0.0006601319 -0.0051041115 0.009998303 -0.00081667135 0.007050543 -0.0027290245 0.004937401 0.004190422 0.005302105 -0.0021877554 -0.0048425496 -0.00699081 0.0069194864 0.0006205965 0.006833312 -0.0021688414 0.0071139745 0.0014106375 0.0048347805 0.0062642326 0.0059496625 -0.0020134768 -0.0011742862 -0.0005549952 -0.0020588136 0.006726079 -0.0042048884 -0.0041165897 -0.0024332993 0.0041631404 -0.007800277 0.00043908964 0.008238305 0.002489636 -0.0044290037 0.0021763109 0.0069250325 0.0012737947 0.0037013956 0.0018824651 0.0020251395 0.0014853796 -0.0035469932 -0.0039733564 0.005104405 -0.0052486616
movie750 0.00064114673 -0.0058323736 -0.0025737258 0.003010468 -0.003262523 -0.0071973284 0.0067082285 -0.00091262005 -0.00864838 -0.0046048816 0.0053624497 0.007742525 -0.0074444604 0.0017560516 -0.00018241955 0.00065328256 -0.004321666 0.00079005654 -0.00628566 -0.0017194928 0.0079745315 0.006936619 0.0018253033 0.0020311421 0.0009375383 0.0047108415 -0.0046668756 -0.0026604051 0.008033003 0.00072058797 0.0067425724 0.0038613977 -0.0033032398 -0.007041413 -0.00032823472 0.004516517 -0.004833899 0.004294922 -0.0007952404 0.0018173846 -0.007619083 -0.002652858 0.0040232516 -0.0023148502 0.002984038 0.007861441 0.0019409665 0.0006648883 -0.0029088864 -0.0071121412 -0.0032398782 -0.001280254 0.0062463507 0.0044380254 0.0076666484 -0.001747328 -0.0030230316 -0.0023340813 0.00454518 0.0071254694 -0.008479213 -0.0025634598 -0.0031107704 -0.0034134663
movie546 0.0032179086 0.0028536592 0.0018579982 0.008752556 0.00029176782 -0.0023560615 -0.0026954692 -0.0047008703 -0.0026903579 -0.0015987214 -0.0016618042 -0.0021341012 -0.00032303386 -0.0028860092 0.00036834774 0.0052020787 -0.003337431 -0.0035311477 -0.0015619604 -0.005429375 -0.0024319417 0.0028820622 -0.0008298609 0.0062517114 0.0014536431 0.0022963034 0.0054793814 -0.008884774 0.005504061 -0.008330431 0.009398327 0.0061485325 0.009306536 -0.0040282626 -0.00074818113 0.0027407838 0.000111963964 0.0053848033 0.0055119656 0.00018809707 -0.0031812598 0.002976972 -0.0014534364 0.009264514 0.00912193 -0.0058171316 -0.0034552815 0.0025265205 -0.005499592 -0.0022578186 0.0018540767 0.004779464 -0.0017224438 -0.0015056469 -0.005481094 0.0057844133 0.009218798 -0.0051862127 -0.0014232649 0.001789041 -0.0067148926 0.0043069106 0.0022737598 0.0022046326
movie216 0.0005045645 0.0081918705 0.0064036944 0.010558794 0.002455182 0.0038295332 -0.002234839 0.0009829416 -0.004068398 0.0007111171 -0.0019280884 0.0027479634 0.00013266673 -0.004218447 -0.0031704505 -0.0058929035 -0.0019022498 -0.0055489936 -0.008727175 0.003983502 -0.0022888016 0.0040483195 -0.0074310014 -0.0038570946 -0.004576601 0.0026037858 0.004717319 -0.006386745 0.0025792117 -0.009619668 0.005111351 0.00665807 0.0048270905 0.0031081268 0.0078023043 -0.00057616073 0.0034226384 0.0047180722 -0.0034857353 -0.0037743524 0.006442903 -0.002343799 -0.004848765 -0.002482429 0.0008136093 0.0010966843 0.0023173604 -0.0008925065 -0.00664827 0.0064444817 -0.003199754 -0.009708377 -0.0025116107 -0.003927082 0.00024094546 0.005107459 0.010334691 -0.005306142 0.0017453138 -0.0079292925 0.0019738595 0.005867795 0.0061133355 -0.0025418396
movie153 0.0027695624 -0.0033090564 -0.004839158 0.0021024668 0.0066849827 -0.00039731103 0.005190153 0.0019094172 -0.0066662272 0.007798635 0.0052763894 0.0030869674 -0.00963243 -0.00062351243 -0.0037947714 -0.0048685144 -0.0067709065 -0.006019614 -0.007571909 -0.005010192 0.008754229 -0.005261878 0.0044399835 -0.003516359 -0.005024892 -0.004500759 0.002889757 -0.0020513325 -0.0006774484 -0.010196526 -0.0046385634 0.0024807786 -0.0021142145 0.00054422824 0.007500102 0.004939895 -0.006251011 -0.006555242 -0.0041736583 -0.007081365 -0.00878565 -0.0027038588 -0.002520441 0.0020716342 -0.00044136788 0.0013282908 0.0034309574 -0.0020237402 -0.000152233 -0.00062664214 0.0033356468 -0.007636964 0.0029184672 -0.0029332875 -0.0053192917 0.0064275395 0.008451745 -0.0022950526 0.0038324464 -0.005431905 -0.00598236 -0.00071587425 -0.0010550361 0.0027085654
movie273 -0.0055568535 0.005577445 0.00052237086 0.007400837 -0.004256341 -0.0060072592 -0.005656762 0.0054450775 0.00019970743 -0.0047080293 0.0058527905 0.00946912 -0.01038495 0.006208263 0.0065978877 0.004430316 -0.0033258644 0.0041500507 -0.008640913 0.003753521 0.009946894 0.0069809426 -0.0053289514 0.0037093041 0.006317549 -0.006469117 -0.0033723535 7.1487952e-06 0.0033638212 -0.0059233834 0.004652608 0.0002453271 0.008915774 0.008172536 0.0012635015 1.7057542e-05 0.0028751222 -0.0046162494 0.004334573 -0.0045492672 0.004345318 -0.0052609113 0.0072923508 0.007171699 0.0041212095 0.00252503 -5.5717894e-05 0.005736719 0.001092658 -0.0044053164 -0.0054791262 -0.004546761 0.002868705 0.0066063455 -0.004832141 0.0059451903 0.00591246 -0.0018600804 0.00303608 0.0060784174 0.0050712596 -1.1983124e-05 -0.0025892535 0.003569417
movie24 -0.007757307 0.0026516048 0.007930911 0.009881374 -0.005047868 -0.008005643 0.007416879 -0.007965359 -0.007970283 -0.0041222507 -0.0007380313 -0.0015765998 -0.007246273 -0.0061243875 0.0017833507 0.0003781627 -0.0057270415 -0.0063734544 -0.0061043627 0.0029344452 -0.0010480558 -0.0050139655 -0.0011006205 -0.006239283 0.0030309476 0.0005245994 -0.0028735772 -0.00012727083 0.0055251378 -0.008146252 0.00923166 0.0027700681 0.0038218996 0.00084118044 0.0014445492 0.0031115308 -0.0058027687 0.005923976 0.0041505564 0.00361863 -0.0028919477 -0.0007155203 -0.0055258553 0.007468958 0.00814425 -0.0031707431 0.0062978654 0.007506068 -0.009203389 -0.0076470696 -0.0038504123 -0.002682573 -0.0059167785 0.0042506624 0.009939017 -0.0029354172 0.009962781 9.824816e-05 0.004704164 -0.0046118125 -0.0077938954 -0.0059180455 0.0002864828 -0.0034535415
movie135 0.0040421677 0.010359921 0.0057771183 -0.0008777545 -0.007338358 0.0069016516 -0.0036337683 0.0050983825 -0.007899125 3.0828025e-05 -0.0031944283 0.007627905 -0.0039953515 -0.0058165207 0.0020448533 -0.0040016696 -0.00880848 -0.00047387104 -0.0064712893 0.008027292 0.0050790827 -0.005188327 -0.0039667105 0.0045605665 0.001248676 -0.005897523 -0.0062404526 0.004414669 0.005557139 -0.0067731896 -0.004291621 -4.3470773e-05 0.0015002817 -0.0026257674 0.00944913 0.0020380446 0.0078381 0.0039873384 0.00594515 0.0016101053 -0.0011916689 -0.0012191492 -0.0067848368 0.0071503012 0.00414992 -0.0034896224 0.0012043276 0.002171612 -0.0011260359 0.0047784247 0.0028773933 -0.009640782 0.004983587 -0.0052079274 -0.0041377908 -0.0055279806 0.0016459662 -0.007007096 -0.0011296293 0.00091130147 -0.007236758 -0.008678706 0.008727168 0.002266372
movie427 -8.788675e-05 0.0067802486 0.0074297907 0.010876746 0.0043457937 -0.002695011 -0.0053466037 -0.005433168 0.0013411064 0.0053050187 0.0018715912 0.0020488258 0.0039743246 -0.006139037 0.007277267 -0.0019299722 0.00094933837 -0.0066127195 -0.00069570803 0.0022829913 -0.0031483057 -0.0006925928 -0.0016095875 0.0032842492 -0.006091994 -0.0039687 -0.0022184434 -0.004429522 0.0042683645 -0.0077674296 0.0044254325 -0.0059394087 -0.004452089 -0.0043180133 0.0059918584 -0.005367634 -0.0013644623 0.0008233805 0.0036212727 0.0020318795 0.0031378297 0.0055952314 0.005668803 0.010540582 0.006961809 0.007067644 3.2384265e-05 0.004142339 -0.008330821 -0.008813533 -0.0034107682 -0.006673788 -0.0017619855 -0.0036046123 0.009052156 -0.00064889377 0.0078132935 -0.008602972 0.0022274535 0.0048233634 0.0025361176 -0.008990434 0.0087565975 0.004335882
movie471 -0.0071995845 0.006397779 0.0059326487 0.006161082 -0.0074481247 0.0048921113 0.004006198 -0.0072116693 -0.0024661557 -0.0072655054 -0.0041415645 0.0064572366 0.0023212421 0.0008972367 0.00691544 0.00050513056 -0.008299893 0.0032924197 -0.0007291742 0.0057165236 0.0030696034 0.0041790144 0.0018700196 0.00030218053 -0.00010693404 -0.009115161 0.0067038583 -0.0043585887 0.0008286807 -0.007874823 0.002418671 0.0022899644 0.009925699 -0.0046350975 0.0075149895 0.0031202254 -0.005055791 0.0039495127 -0.002557507 -0.010155376 -0.0013287337 0.00663808 -0.002820409 0.007035606 -0.0053096074 0.0041247853 0.008454224 -0.006969958 8.416851e-05 0.0031226084 -0.0051696557 -0.005823857 0.0019735121 -0.006474009 -0.0035655398 -0.007289798 0.008129497 0.0041884356 0.0058906395 -0.006212528 -0.00668658 0.005728959 -0.0034900175 -0.0040445914
movie88 -0.0019796013 0.0049518347 0.009404669 0.0011710051 -0.0072298613 0.0023735866 0.008290246 0.0013485319 -0.008217224 -0.001043164 -0.0038211418 0.0061300904 -0.009608696 0.0011727336 0.0011999896 0.002073606 -0.0029068866 -0.0019389737 -0.0017316606 0.0003404175 0.005713651 0.008407802 0.004289725 0.0005189925 0.004782811 0.0023307197 -0.002942437 0.004593347 0.003505379 -0.0016033083 0.0051760683 0.0027708216 0.007519976 0.008185606 0.0020675347 0.0066167754 -0.0033105786 -0.007175066 0.0072961487 0.002748732 0.0018760944 -0.0024536692 -0.003247233 0.000782284 -0.0040063066 0.0062875752 0.0067733782 0.0032103057 -0.008872623 -0.003440564 0.004730091 0.0017086347 -0.0020222461 -0.0062593897 -0.000741559 0.006650958 0.0014160975 -0.0008013348 -0.0057346737 0.006164299 -0.0038442777 0.004059719 0.00880106 0.004837216
movie183 -0.003416605 0.00853904 -0.0053103575 7.322394e-05 0.007052672 0.0031884043 -0.006866975 0.0020940981 0.0048875413 -0.006809678 0.0031138798 -0.0012825925 0.004527865 -0.0016540578 -0.0018791199 -0.0012849001 -0.0066603986 0.0041689742 0.005030679 -0.004999438 -0.001451761 -0.004758379 -0.001815378 0.006793626 0.0020409855 -0.002717671 -0.0048931506 -0.0082737915 0.008934896 -0.011279913 0.0075116092 -0.0030056033 -0.00026853295 -0.00093168655 -0.0022556642 -0.0042117946 -0.00016280066 -9.580239e-06 0.00065128587 -0.0064719464 -0.0072178165 0.0040541617 0.0013648275 0.004758013 -0.005714595 0.006709955 0.008236633 -0.0025247072 -0.0034273718 -0.0064325123 -0.006243973 -0.00230062 -0.0066667157 0.00680171 -8.037066e-06 0.0056473454 0.010404512 -0.008994179 0.006574635 0.004224158 0.0056392075 0.00092258555 0.0051400047 0.0075925565
movie182 -0.008621804 0.00093700824 0.0071643963 0.00623256 -0.003445906 0.0007080996 0.004107565 3.2794534e-05 0.0018539326 -0.0072110114 0.00530567 0.0048736315 -0.008040568 -0.005272433 -0.0036435463 0.0011292823 -0.0094090095 0.0018811997 -0.009469886 0.0049150097 0.0032352167 0.0060804547 -0.007255493 -0.00012773994 0.006033894 -0.00942734 0.0031208151 0.00066762854 0.005167752 0.0015145297 -0.0044617797 0.005024262 0.0076823803 0.000582162 0.0013113964 -0.0024317172 0.0054641375 0.004143364 -0.004670078 -0.0042238217 -0.002097693 0.005236701 -0.008366247 0.0064136134 -0.0040230392 0.0032977394 -0.0037189296 0.00016069536 0.005033313 -0.0051129945 0.0057569877 0.005536951 -0.0067044143 -0.002667998 0.0060658315 -0.0028712843 0.008288662 -0.0011351692 -0.004196989 0.004097242 -0.005098522 -0.0046943077 0.0022331928 -0.0022684617
movie185 -0.009650698 -0.0007189831 0.009149654 0.007416698 0.0017379312 -0.0074599013 -0.00020232725 -0.004182903 -0.0077853994 0.0044868267 -0.006420103 -0.004450493 -0.008866131 -0.0057057687 -0.0026919066 0.003663218 -0.008537916 -0.0020934038 0.00028424917 -0.00675602 0.0074395426 0.007914374 -0.0022503298 -0.003107375 -0.0027357026 -0.00043557477 0.0023061796 -0.0036713001 0.0030868012 -0.004219538 0.006357986 0.0074641583 -0.004458925 -0.0040928544 0.0057397587 0.004693606 -0.00046961324 0.007210315 -0.0063416273 0.0029220765 -0.0020724966 -0.00405219 0.0036528916 -0.0017705522 0.007650927 -0.0031294602 0.008861051 -0.0019584496 5.8436776e-06 -0.008352557 -0.00084226823 0.004401437 0.0061720232 0.0018217564 -0.00094297464 0.006697346 0.0019639756 0.0034702918 -0.004131124 -0.003999479 -0.0071151447 -0.0031618273 -0.0035294634 -0.0022020156
