2600 10
user450 0.31965366 -0.22934687 -0.11492203 -0.40069315 -0.2503663 -0.574054 0.3685155 0.015591636 0.06859088 0.12565605
user416 0.36696166 -0.23336136 0.07165378 -0.29847902 -0.24325562 -0.36009395 0.52349335 -0.07140466 0.24226579 0.27569422
movie50 0.2664594 -0.21004753 -0.095433176 0.06163795 -0.2964908 -0.3825985 0.5591812 -0.07124329 0.394809 0.39805657
user655 0.47262838 -0.41432008 -0.67686135 -0.880911 -0.42292124 -0.23351479 0.16951019 0.0916111 0.064198785 -0.1641796
user151 0.19313909 -0.28263244 -0.03442476 -0.25121164 -0.40617493 -0.58484703 0.29141498 0.024449218 0.2989903 -0.0047831056
user405 0.5112974 -0.21007107 -0.060968272 -0.6682039 0.03366825 -0.49571553 0.31808648 0.16902044 0.099729635 0.13482411
user457 0.32947713 -0.32975057 -0.030843753 -0.16211832 -0.046915483 -0.4584273 0.44868094 -0.16565052 0.29183674 0.25177878
movie100 0.24202381 -0.33773556 -0.22944784 -0.06978067 -0.40279025 -0.20969589 0.5082082 -0.06745517 0.5282885 0.14324301
user796 0.28247902 -0.1396525 0.059635118 -0.34799382 -0.16120338 -0.48059762 0.5395109 -0.005366012 0.13605049 0.38660568
user716 0.089644305 -0.21978861 -0.027473895 -0.24684198 -0.4338722 -0.70030314 0.28928885 0.047193814 0.13937311 0.19509591
movie181 0.36697313 -0.23479266 -0.061571408 0.13809828 -0.30937538 -0.46555263 0.42141458 -0.077534266 0.30509323 0.56521004
movie127 0.1015583 -0.29558527 -0.20727824 -0.12356914 -0.41372702 -0.28081217 0.47520038 -0.19507149 0.4823373 0.3142788
movie174 0.28423873 -0.18997282 -0.1941767 -0.13105018 -0.1065278 -0.54530257 0.43624786 -0.0700017 0.23753233 0.3794222
user18 0.21164326 -0.43332636 -0.18139292 -0.13699305 -0.48054245 -0.48428306 0.34153402 -0.0053373566 0.27028972 -0.11812608
movie98 0.10492211 -0.20648794 -0.05981393 -0.3042012 -0.09386454 -0.3983342 0.52442867 -0.17026114 0.4867797 0.22887605
movie313 0.3701304 0.1918759 -0.35025352 -0.09885763 -0.33206216 -0.42435864 0.7326146 0.059449933 0.40944758 0.414227
movie286 0.3701907 0.036712293 -0.32066733 0.1651373 -0.47887832 -0.40594012 0.76546836 -0.04990395 0.5504036 0.015684094
user389 0.073410705 -0.20570658 -0.15666986 -0.36783487 -0.5051596 -0.634484 0.1073494 0.24190105 0.34288636 0.1406614
movie258 0.35333082 0.019206548 -0.076069824 0.14789726 -0.3505713 -0.47712314 0.57133865 -0.24881083 0.6021599 0.3500447
user642 0.7475372 -0.37090302 0.11572352 -0.24951646 -0.19987349 -0.50052524 0.23689164 0.23223631 -0.1383342 0.48630178
movie56 0.24872284 -0.2664067 -0.1482949 -0.38693845 -0.0067143384 -0.2940041 0.3488941 -0.12705678 0.64967954 0.2405865
user269 0.29231346 -0.30932873 -0.2614952 -0.31481886 -0.2373738 -0.4500365 0.10244384 -0.16518874 0.60975957 0.038569015
user417 0.5056845 -0.32073826 -0.075041436 -0.29739767 -0.040807355 -0.37015873 0.30825767 -0.031090036 0.33929065 0.30377135
movie1 0.30778846 -0.3476845 0.01084181 0.12819794 -0.46625945 -0.33677518 0.5062142 -0.021374227 0.2569628 0.43268585
user535 0.1771116 -0.32982957 -0.12967043 -0.2931389 -0.4635964 -0.5195067 0.22612336 -0.04195204 0.40342465 -0.070409514
user256 0.2749513 -0.34022602 0.18582486 -0.6012513 -0.10537532 -0.13991794 0.61116636 -0.3092156 0.15083551 0.5723536
movie173 0.4014342 -0.25864708 -0.023898851 -0.08726902 -0.04760098 -0.47125837 0.491204 -0.082947284 0.3135575 0.24759361
movie318 0.20360516 -0.2095594 -0.1256715 -0.12138578 -0.16688693 -0.49815324 0.6591574 -0.14585516 0.22661713 0.12559092
movie172 0.34340873 -0.19421709 -0.120156 -0.11498003 -0.08231382 -0.51009274 0.4808798 -0.0014957051 0.2254815 0.3983916
user805 0.672328 -0.33232343 -0.32461813 -0.103905894 0.11472394 -0.38054237 0.08938644 0.014914543 0.61826956 0.341461
user437 0.36010092 -0.30625793 -0.11428816 -0.23511963 -0.21241815 -0.5496358 0.3247669 -0.017684331 0.29808164 -0.040838245
user807 0.3693362 -0.20797202 -0.2067077 -0.14104538 -0.10207487 -0.731073 0.28037488 -0.039673466 -0.09077826 0.60694855
user330 0.2840873 -0.23412195 0.033840977 -0.20767435 -0.28309333 -0.43457934 0.56230265 0.081218906 0.10145417 0.37107044
user296 0.11432219 -0.3072138 -0.4951447 -0.00020012344 -0.36540827 -0.41494858 0.5081816 -0.31686503 0.36330855 0.15972993
user887 0.63389397 -0.32831642 -0.12910701 0.032533377 -0.40118766 -0.50553614 0.12699865 0.43418646 -0.010720514 0.7420654
user588 0.5067724 -0.13019824 0.15698704 -0.28716394 0.036591083 -0.46252334 0.5739293 0.05175215 0.21398713 0.37094775
user314 0.57220423 -0.31038985 0.18701717 -0.54201496 -0.18321785 -0.14994775 0.6706769 0.02247678 -0.056324046 0.4363679
movie302 0.44674554 0.16492559 -0.5705648 -0.042197533 -0.24242553 -0.43192852 0.7830015 -0.119058765 0.57732534 -0.005154092
user280 0.44781446 -0.30500063 0.0041640857 -0.26571804 -0.050655536 -0.30105215 0.6608077 0.11014988 0.11787592 0.2613093
user503 0.30024645 -0.2980367 -0.1992249 -0.01499637 -0.34058183 -0.4020347 0.5216571 0.19780166 0.4274019 -0.06446128
user907 0.2903411 -0.2973382 0.30885366 -0.30280223 -0.5111089 -0.15441053 0.7459336 -0.17106104 0.25073603 0.22799191
user373 0.5644111 -0.29199174 0.07607628 -0.09018752 -0.016084293 -0.596245 0.43561012 0.00031573448 0.12283618 0.17707932
user354 0.51001656 -0.48959455 -0.3962928 -0.08038673 -0.55917513 -0.47798595 0.27671131 0.13726278 0.18055244 -0.39018467
user711 0.5459885 -0.3187588 -0.029557766 -0.08072134 -0.08125445 -0.42332527 0.6237069 -0.04179809 0.25255567 -0.15089864
movie64 0.18982437 -0.27693284 -0.09234339 -0.24401501 -0.15831845 -0.41713196 0.49929866 -0.29850504 0.3504897 0.21239623
movie288 0.42950267 0.096363835 0.09213665 -0.242915 -0.3672286 -0.31172472 0.4950137 -0.00576277 0.7432388 0.34918675
movie269 0.49466425 -0.04283128 -0.2526333 0.2508546 -0.3959519 -0.35404378 0.78425306 0.04823887 0.58639145 -0.065233566
user292 0.08390738 -0.2810091 -0.3282518 -0.2047558 -0.32833263 -0.48440212 0.0734461 -0.12220799 0.60099256 0.36279765
user270 0.59346 -0.26707196 0.49403644 -0.40904343 -0.015123272 -0.16551888 0.5083736 0.19871454 0.79851633 -0.12492625
movie300 0.3024129 0.08475818 -0.002634247 0.09011027 -0.53901845 -0.54609793 0.5749942 -0.24033092 0.42586353 0.46028307
movie79 0.2240423 -0.20710659 -0.17083368 -0.3018239 -0.10606181 -0.3866455 0.5643808 -0.20087506 0.2586148 0.37545344
movie275 0.4338829 -0.37998042 0.04634213 0.22695082 -0.57336664 -0.33988756 0.59777176 -0.006757807 0.36361167 -0.0600918
user707 0.4821234 -0.27253935 -0.36160612 -0.22069639 -0.47232708 -0.25799355 0.68550897 0.4863315 0.2695113 -0.3945022
user264 0.45076415 -0.3398387 0.148413 -0.157332 -0.21396647 -0.38073584 0.061084885 0.3619802 0.895442 -0.0033185943
user13 0.36350667 -0.20764157 -0.24146342 -0.39226037 -0.34600037 -0.54739225 0.30193436 0.053002343 0.12197681 0.09741052
user43 0.35900125 -0.23367989 0.049122278 -0.08511928 -0.26424178 -0.34466353 0.6724384 -0.0028380696 0.22488508 0.28034252
user504 0.2073296 -0.13506413 0.10465299 -0.63584566 -0.05878761 -0.36824074 0.5162095 0.04071615 0.3515138 0.23799595
movie237 0.17641012 -0.32333153 0.05313359 -0.20274693 -0.60246795 -0.0958605 0.70099014 -0.1820193 0.2962721 0.38761106
movie12 0.28175548 -0.26353368 -0.23463063 -0.300334 -0.080985904 -0.32427394 0.37605068 -0.21668656 0.5231466 0.25737265
movie117 0.26959255 -0.35975692 0.08469635 -0.104117066 -0.32464415 -0.06912621 0.6386112 -0.2573312 0.3936034 0.60592633
user342 0.36438856 -0.36039874 -0.27622434 -0.20452869 -0.35147572 -0.33263758 0.11616953 0.15554243 0.6817531 0.02726079
movie483 0.018997552 -0.22604276 -0.35615778 -0.17383987 -0.3275422 -0.61059874 0.36223173 -0.13075392 0.3348102 0.08129106
user345 0.31640592 -0.3027012 -0.15003648 -0.21241933 -0.23314787 -0.2387351 0.6530327 -0.082773186 0.4102647 -0.015230215
movie7 0.34729996 -0.39954114 -0.1581019 -0.07601757 -0.3011689 -0.15664399 0.3680688 -0.06823687 0.60536903 0.32372913
user62 0.4919278 -0.465902 -0.20797299 -0.20660448 -0.032968424 -0.3451585 0.3336151 -0.2810438 0.3150579 0.14842832
user174 0.36025414 -0.3125245 0.18519692 -0.3107565 -0.21536304 -0.18166523 0.87241536 -0.042420976 0.23282786 -0.031998605
movie22 0.24334574 -0.16320325 -0.1689198 -0.23286192 -0.014413058 -0.5314761 0.5839644 -0.26790744 0.1505997 0.37422818
movie204 0.36066893 -0.27672392 -0.028279895 -0.11847832 -0.13271557 -0.47674644 0.5277219 0.012100394 0.19647492 0.21664359
movie210 0.34949508 -0.3036098 0.008857795 -0.13134827 -0.13119102 -0.5435789 0.41498035 -0.013345128 0.11013624 0.35151827
movie357 0.15344034 -0.2041082 -0.12135619 -0.22222184 -0.15529108 -0.5026424 0.44567013 -0.18657869 0.4414618 0.14893287
movie121 0.2964646 -0.2642212 0.13079067 -0.031635735 -0.35494605 -0.29475558 0.5249422 -0.17267269 0.29817086 0.6614964
movie423 0.16292144 -0.21939108 -0.13678356 -0.17412904 -0.1924197 -0.5817844 0.47277614 -0.057765156 0.15391016 0.30414528
movie191 0.21583867 -0.28424877 -0.14954439 -0.22631451 -0.16578206 -0.4812057 0.5208583 -0.17195278 0.29656217 0.04713306
movie9 0.16266094 -0.3306432 -0.21274726 -0.10869982 -0.46792188 -0.15667203 0.68366617 -0.163214 0.47008044 0.03144941
user344 0.3304927 -0.36495012 -0.3016666 -0.051107667 -0.23590517 -0.31604156 0.5954718 -0.18794893 0.35667792 -0.008141274
user7 0.17100593 -0.06735822 -0.044361103 -0.48146656 -0.22282167 -0.5800294 0.2832123 0.24289395 0.39451683 0.22194247
movie132 0.17768304 -0.23695382 -0.06215595 -0.18068713 -0.20956825 -0.5383842 0.46150252 -0.044183828 0.3161242 0.15287499
movie216 0.22954953 -0.23547533 -0.0017992985 -0.20197043 -0.17896068 -0.51225066 0.5753463 -0.045480892 0.22856835 0.11684503
movie427 -0.018586645 -0.17621882 -0.09693392 -0.26505512 -0.40368867 -0.5788778 0.43509662 -0.060713585 0.2942338 0.17540972
movie168 0.43494454 -0.29755658 -0.1464105 -0.11226203 -0.11937488 -0.49467322 0.28172675 -0.073914245 0.3408556 0.27731115
movie69 0.1896049 -0.20766018 0.009609691 -0.21177953 -0.17152376 -0.43495265 0.63853765 0.0018969526 0.24260959 0.25742558
movie197 0.1477982 -0.22988385 -0.15823661 -0.24525954 -0.3928356 -0.5513789 0.3759747 -0.08634326 0.35674113 -0.036688853
movie272 0.4537873 0.17397921 -0.35596526 -0.024579773 -0.21028586 -0.3805242 0.9586816 -0.13651718 0.46967602 0.07396929
movie151 0.3550577 -0.35685325 -0.039438847 0.03570396 -0.3086675 -0.21888888 0.38703632 -0.058841698 0.58967936 0.4117475
movie89 0.31994852 -0.30380002 -0.22204995 -0.12465304 0.025853274 -0.48231548 0.31600282 -0.1360315 0.4430403 0.29747388
user629 0.08603686 -0.1861145 -0.13803363 -0.25771746 -0.2266105 -0.3695893 0.63980347 -0.29159206 0.40745616 0.18043081
user214 0.31996953 -0.3857504 -0.37138808 -0.12080838 -0.062184725 -0.38724992 0.16297412 -0.43838924 0.8115528 0.02780462
movie603 0.0025310763 -0.22971228 -0.19422431 -0.22772415 -0.33274594 -0.5937903 0.2724264 -0.11838531 0.53019506 0.009757112
user297 0.45148402 -0.3184878 -0.04617428 0.016977815 -0.19487251 -0.34801987 0.40792885 -0.09373269 0.56430787 0.15790345
movie15 0.13451223 -0.30965686 0.11482177 -0.016021965 -0.50798416 -0.2641162 0.6835527 -0.18355449 0.28091577 0.3993128
user90 0.17893767 -0.2376471 -0.14212076 -0.3808644 -0.5655335 -0.59988874 0.30717853 0.1122091 0.17420332 -0.13422802
movie294 0.46892118 0.016420057 0.06980659 0.00846034 -0.47453615 -0.55876845 0.32971734 -0.12622917 0.37607825 0.607835
user577 0.34366712 -0.24716122 -0.043176077 -0.28493798 0.030120198 -0.33678225 0.66722476 0.04686979 0.077359654 0.5599725
user130 0.53139687 -0.17791215 -0.051908646 -0.34600896 -0.086256996 -0.32549277 0.4236181 -0.044239942 0.23184277 0.562873
user59 0.27587846 -0.27925506 -0.11923925 -0.39055556 -0.24987678 -0.3368011 0.35202542 0.035178192 0.4577853 0.07981547
movie96 0.32644007 -0.29121694 -0.27284676 -0.3554364 -0.009378955 -0.39756915 0.3693884 -0.23334628 0.258644 0.40884757
movie496 0.11392466 -0.1836415 -0.044334784 -0.19166325 -0.2696883 -0.6094639 0.49447817 -0.10033672 0.24662532 0.15381907
movie183 0.21113048 -0.1423037 -0.15716694 -0.19361551 0.033059087 -0.53559965 0.35283506 -0.061969787 0.5669357 0.30518097
user854 0.23536953 -0.3587047 -0.30375537 -0.21818765 -0.32739675 -0.25559363 0.3769821 -0.11891989 0.54742855 0.104585744
user592 0.42691663 -0.32935977 -0.36376163 -0.19956353 -0.32762274 -0.23206551 0.27540177 -0.039556656 0.5974967 0.11594751
movie222 0.28249007 -0.3171659 0.120542675 0.015673844 -0.23390007 -0.35205013 0.45512167 -0.24236985 0.43567935 0.5159481
movie276 0.2856784 -0.4832323 -0.16863045 -0.15790538 -0.582879 0.022344172 0.4733512 -0.23474787 0.5452569 0.22266455
movie143 0.26407012 -0.25359964 0.06267999 -0.2262922 -0.20144057 -0.53501064 0.5021649 0.026076851 0.0964402 0.3085629
movie257 0.4353059 -0.33539918 -0.05851449 0.13865711 -0.47711438 -0.36436746 0.28173304 -0.117898755 0.28831834 0.64478457
movie176 0.33601272 -0.2572527 -0.22850887 -0.14185874 -0.05077446 -0.42434007 0.35640088 -0.19006312 0.46266216 0.3712229
user846 0.2948417 -0.14762874 -0.039509512 -0.37758926 -0.10050546 -0.63539165 0.41961718 0.09836066 0.2161075 0.039081845
user72 0.101174764 -0.29195252 -0.19147968 -0.4207505 -0.173196 -0.40561172 0.49447802 -0.29966602 0.29400206 0.15183276
movie185 0.053780086 -0.1237535 -0.11502077 -0.43275777 -0.09569708 -0.473777 0.20223285 0.21812315 0.76428896 0.22811599
user128 0.25331593 -0.27255702 -0.072125316 -0.24809708 -0.3245325 -0.57474405 0.49216405 -0.05452462 0.025940614 0.08810211
user230 0.1092917 -0.16164665 -0.045691278 -0.15307742 -0.29409865 -0.5645417 0.6011923 -0.02111764 0.099164546 0.37409002
user798 0.66569626 -0.2604756 0.20477976 -0.109771915 -0.38645887 -0.6346213 0.25151658 0.17915452 -0.19445649 0.52923346
user532 0.27501288 -0.04021693 -0.008621471 -0.40900305 -0.12957141 -0.48238924 0.64319575 -0.08047334 0.15547104 0.3022455
movie28 0.27261817 -0.21322563 -0.0687984 -0.16059467 -0.15086618 -0.5014844 0.49524212 -0.022594776 0.21739633 0.3413717
user472 0.67084867 -0.29965043 0.15507682 -0.2513589 0.12327222 -0.3991316 0.33457905 -0.07721235 0.1751645 0.64317155
movie238 0.23853502 -0.29707956 -0.15158463 -0.1265475 -0.17711186 -0.44048414 0.42851692 -0.01929779 0.4738298 0.056550402
user551 0.34068868 -0.18439262 0.10642628 -0.46253034 -0.023212459 -0.2855086 0.5523279 -0.124674335 0.38227797 0.35253718
movie8 0.361937 -0.31476322 -0.123826854 -0.035119303 -0.28017482 -0.53778404 0.4605707 -0.04314106 0.17743236 0.07553815
user38 0.33824006 0.029816374 -0.31192714 -0.3829194 -0.12134586 -0.47066495 0.5138944 0.5952814 -0.05058019 0.9049049
user303 0.44836044 -0.28353086 -0.07547442 -0.30638778 -0.08898435 -0.33698958 0.37273028 0.0061310297 0.42594564 0.2145618
user721 0.33191496 -0.022499043 0.046795048 -0.14815459 -0.22906446 -0.70977205 0.43993732 -0.3551688 0.2842177 0.23356524
user436 0.27244914 -0.19013712 0.029696045 -0.7395941 -0.009790063 -0.19824031 0.6569132 -0.19746652 0.33762908 0.13864699
user94 0.5231042 -0.35151455 -0.0036792734 -0.3531674 -0.0824736 -0.41003734 0.24894172 -0.070277 0.3747332 0.09908122
movie285 0.2637532 -0.4466109 -0.3756561 0.1539794 -0.68655413 -0.1391997 0.61563206 0.119683474 0.4852165 -0.10890811
movie196 0.32267007 -0.28840622 -0.01583793 -0.15055786 -0.09269006 -0.48248518 0.5833106 -0.15221721 0.22675139 0.11321446
movie268 0.6019024 -0.100407556 -0.23443669 -0.0063333656 -0.23009151 -0.29414782 0.5409537 -0.14715195 0.6853782 0.044171657
user751 0.4528476 -0.16404048 0.015407991 -0.10982456 -0.091297366 -0.6884501 0.41029897 -0.02297206 0.20577563 0.13859117
movie194 0.12797774 -0.17559372 -0.010520263 -0.06369167 -0.27006653 -0.6601462 0.36465603 0.00052465516 0.44533947 0.13556851
movie97 0.17932726 -0.071585886 -0.0347553 -0.28213573 -0.15949735 -0.5471256 0.70434606 -0.0001466279 0.17446995 0.14912684
user875 0.27207327 -0.24004583 -0.4739682 -0.28466195 -0.0205847 -0.70063853 0.12405761 -0.47888976 0.5059664 -0.04241095
user747 0.16706476 -0.23440246 -0.29124454 -0.2642666 -0.33690867 -0.48253915 0.34855196 0.19581595 0.3384803 0.13343951
user312 0.029839493 -0.26216438 -0.15507977 -0.40976477 -0.6941675 -0.68352723 0.04760327 0.22965491 0.2685774 -0.036153853
user618 0.15983985 -0.22257185 -0.16843696 -0.25883943 -0.103686705 -0.4291157 0.5085956 -0.030543696 0.27020785 0.3980995
movie475 0.47431976 -0.50237745 -0.17921257 -0.0034758481 -0.3111606 0.018929116 0.3512164 -0.17767356 0.8276603 0.19320242
user474 0.09978958 -0.23353857 -0.22182049 -0.19869465 -0.37040737 -0.52864504 0.44655758 -0.05910733 0.34678316 0.006174257
user198 0.2749323 -0.31809014 -0.2414468 -0.26754552 0.027865224 -0.38593647 0.34613535 -0.17854585 0.50475436 0.26003048
movie234 0.21028869 -0.11623286 -0.120271325 -0.40706566 -0.1512981 -0.42232874 0.36924544 0.07623662 0.41113576 0.41388443
movie195 0.21177472 -0.22492388 -0.18826951 -0.3009669 -0.048095092 -0.4771524 0.3867496 -0.24797948 0.35197723 0.3614794
user523 0.7437192 -0.45728388 0.13957582 0.113370575 -0.5382981 -0.5619809 0.2517362 0.30148935 0.17660083 -0.26900584
movie135 0.17443083 -0.21130942 -0.23351471 -0.1480472 -0.2331554 -0.56848675 0.35430244 -0.054052975 0.3964305 0.13575147
user276 0.4273303 -0.17266452 -0.18803248 -0.26790807 -0.10318976 -0.34233028 0.39604262 0.15460517 0.43265313 0.34119487
movie25 0.17537142 -0.36509952 0.2536623 0.016927393 -0.6635677 -0.15107228 0.58810836 -0.025895448 0.5015205 0.31867138
user654 0.45643252 -0.3280509 -0.1413363 -0.062039774 -0.16649331 -0.3410301 0.5352579 -0.14941937 0.20175448 0.37032247
user23 0.39892656 -0.35169366 -0.15495348 0.057045236 -0.16077085 -0.5250915 0.32832202 -0.05502224 0.40618268 0.09711153
user758 0.49057797 -0.30798844 -0.38249043 -0.19026294 -0.27750632 -0.31236884 0.33635604 0.053834125 0.42305475 0.07642108
user279 0.8007051 -0.42923704 0.12143265 -0.09123606 -0.22748089 -0.6498228 -0.20046945 0.16073562 0.13440557 0.48462188
movie187 0.088174395 -0.1251682 -0.24517466 -0.24889976 -0.19016965 -0.54655397 0.38295886 -0.29262894 0.53284246 0.1611592
user835 -0.08491431 -0.048300136 -0.14334208 -0.36962765 -0.37468505 -0.54543483 0.61786896 -0.025108919 0.33820784 0.06098037
user5 0.7706678 -0.3459507 0.028050717 0.27331853 0.11519935 -0.5364432 0.10183005 0.34832418 0.52397376 0.52087754
movie153 0.39473927 -0.33617163 -0.009032534 -0.12142646 -0.14886127 -0.5270118 0.34105402 0.011789493 0.26980767 0.17304294
movie180 0.18351574 -0.28589565 -0.29368386 -0.34387192 -0.1691087 -0.51546717 0.22797734 -0.26149622 0.45328885 0.09423083
movie83 0.47519532 -0.40342313 0.0024376614 -0.09347093 -0.117923595 -0.5496956 0.4281322 -0.22957557 0.1818017 -0.04574669
user49 0.75245607 -0.36834687 -0.18802807 -0.13529636 -0.05542037 -0.40863928 -0.19158207 0.18861979 0.83764255 0.16256085
user11 0.42654788 -0.1717287 0.046834543 -0.12565885 -0.14489466 -0.5108748 0.5211644 -0.08977247 0.37354994 0.055678252
movie202 0.34750262 -0.27031174 0.06713806 -0.1369073 -0.16578452 -0.49553227 0.4980865 -0.03271308 0.20142369 0.2568911
user152 0.44723204 -0.2693106 0.30681673 -0.33926967 -0.15430509 -0.2989019 0.9373141 0.017593736 -0.105770506 0.18124463
user593 0.21186604 -0.15723155 0.14826977 -0.2512763 -0.15497248 -0.34299427 0.8179887 0.08358847 0.27540934 0.2050913
movie515 0.12393862 -0.26737544 -0.61136043 0.17683099 -0.48733917 -0.36380684 0.5650098 -0.13638306 0.36326006 0.2567271
user393 0.4947696 -0.23268999 0.00866611 -0.38906172 -0.1969544 -0.37023407 0.5452921 0.07760841 -0.08242837 0.44045302
user286 0.83380115 -0.31423512 0.21926376 -0.29864484 -0.1575014 -0.5387776 0.27403295 -0.28621215 0.15060055 -0.05046987
user782 0.47586286 0.052775115 -0.4296286 -0.47919545 -0.64220375 -0.6046927 0.16559939 -0.6495098 0.17524725 0.4217226
movie11 0.27212137 -0.3355914 -0.17783424 -0.3507155 0.0043613077 -0.23370965 0.4873038 -0.29751173 0.3948742 0.3994761
movie134 0.06126253 -0.15254314 -0.2638476 -0.20727421 -0.4703425 -0.719361 0.14214256 -0.16447884 0.45415562 0.057294905
user712 0.69527215 -0.34643564 0.12156163 -0.3893533 0.07024812 -0.49785322 0.6227178 0.27598467 -0.34965128 0.25924397
movie71 0.33977473 -0.1640798 -0.014274353 -0.112080336 -0.14372107 -0.5140505 0.6050418 0.10952505 0.032679316 0.52237284
movie179 0.3349215 -0.2828519 -0.15029363 -0.20183596 -0.18329789 -0.57123435 0.15058334 -0.15550412 0.5116684 0.061692737
user253 0.042827893 -0.16767132 -0.1715496 -0.25084326 -0.16766265 -0.5632577 0.49265024 -0.33152398 0.2593433 0.3487391
movie333 0.21953656 0.228619 0.05522836 -0.15037543 -0.45057836 -0.41716293 0.62524873 -0.1320433 0.7339311 0.43678674
movie282 0.14500463 -0.28349978 0.21779826 -0.27589777 -0.5960137 -0.10218047 0.65005183 -0.26156387 0.2884182 0.5784074
movie82 0.32546026 -0.20637241 -0.1385207 -0.19268218 -0.07163939 -0.53481525 0.53537494 -0.020477993 0.0003682389 0.49166885
movie328 0.36625424 0.12546873 -0.12970911 -0.09190758 -0.52108246 -0.5283311 0.55720687 -0.22142069 0.30167204 0.4933477
movie111 0.38361904 -0.3951471 0.22873667 -0.03761227 -0.47708252 -0.22335465 0.4984341 -0.19697252 0.3163399 0.38194647
movie95 0.39416775 -0.24771658 -0.059639722 -0.041448165 -0.22058798 -0.48566648 0.47313288 0.1341477 0.08392759 0.50345874
movie144 0.24474254 -0.22770655 -0.14549184 -0.2463396 0.0061210915 -0.4398637 0.5788538 -0.18426368 0.19296767 0.41493267
user308 0.26022747 -0.27033696 -0.17989215 -0.35821995 -0.17458138 -0.48389536 0.24671744 0.040597886 0.3966399 0.1375322
user705 0.48078308 -0.27849427 -0.09006235 -0.11371562 -0.10683619 -0.32633892 0.5993077 0.0062848446 -0.046701226 0.75175214
user507 0.40110508 0.29878658 -0.2914422 0.103103735 -0.3518815 -0.5880075 0.59279555 -0.07696866 0.34489545 0.91862017
movie124 0.2758397 -0.4993392 -0.5441963 0.1729145 -0.5614971 -0.07104052 0.63793874 -0.0013621617 0.52731115 -0.08360927
user942 -0.0050230217 0.07276175 -0.13003509 -0.06409494 -0.4003587 -0.7896601 0.56590563 -0.01366089 0.24826856 0.22731496
movie70 0.47514454 -0.32357863 0.20225917 -0.14152916 -0.23885928 -0.4876575 0.49523115 0.06008324 0.2635121 -0.07169365
user786 0.13388407 -0.23381105 -0.08351632 -0.20559716 -0.23115426 -0.46376497 0.6069178 -0.08416813 0.14886686 0.33167186
movie588 0.35774434 -0.15241134 -0.024064712 -0.17564641 -0.17664595 -0.61154294 0.41037312 0.101952344 0.066582955 0.4852202
movie655 0.28884217 -0.2261041 0.020945026 -0.307618 -0.08884886 -0.41377088 0.55594736 -0.14384986 0.34042883 0.14520861
movie182 0.15927286 -0.31884122 -0.22432627 -0.41322356 -0.0032283461 -0.31561118 0.47797245 -0.22971177 0.4628449 0.14117709
movie742 0.29881963 -0.32107377 0.08214031 -0.12740104 -0.4103897 -0.07713892 0.66628754 -0.105228744 0.30038568 0.66607636
movie186 0.31748164 -0.23914401 0.033101145 -0.17936525 -0.07799241 -0.5364374 0.37553912 -0.066862956 0.3361083 0.28100455
movie479 0.05200407 -0.20694259 -0.21553768 -0.12995866 -0.37704533 -0.555256 0.35434884 0.061600283 0.49160302 0.050249893
user321 -0.036540963 -0.32696027 -0.24741495 -0.08611761 -0.5856583 -0.71859986 0.25318885 -0.08464328 0.27557877 -0.09370118
movie480 0.010272956 -0.11639651 -0.26169464 -0.25201395 -0.36253843 -0.6830286 0.32812965 -0.01911126 0.3296133 0.10684857
movie748 0.5063311 0.076470315 0.19204488 0.16468991 -0.5161512 -0.54788613 0.4976428 -0.22487046 0.5167307 0.429979
movie125 0.3899763 -0.3288218 0.23307405 -0.14497706 -0.55262923 -0.19655958 0.612244 -0.058243938 0.14670044 0.4467875
movie175 0.3677472 -0.26534978 -0.28278783 -0.10569252 -0.13875109 -0.5799204 -0.0008453141 -0.10731706 0.7263733 0.104805
movie265 0.27531502 -0.2184467 -0.0870084 -0.18068922 -0.060850482 -0.5960788 0.4827893 -0.07073134 0.034613244 0.47398603
movie474 0.17264342 -0.24061784 -0.35281807 -0.1507809 -0.18258418 -0.6324255 0.16782896 -0.1862399 0.5212455 0.105157144
movie200 0.2017655 -0.05739234 -0.17561956 -0.45940876 -0.06307889 -0.38070267 0.39115065 0.30120602 0.59934837 0.3307315
user883 0.5912901 -0.41213214 -0.20886888 -0.22699209 -0.24817094 -0.39624476 0.2655443 -0.061274923 0.39587638 -0.23120299
movie405 0.3029598 -0.3470058 0.10319204 -0.07984094 -0.51453274 -0.19271372 0.5061157 -0.09588633 0.22988473 0.6395726
user234 0.10501003 -0.22428943 -0.13478315 -0.40270436 -0.6987535 -0.68383735 0.11879666 0.17296672 0.16954876 -0.042474292
movie315 0.47186527 0.21819453 -0.4489756 -0.020004367 -0.16561571 -0.4668636 0.9752064 0.04332904 0.38568488 0.0118978815
movie133 0.11051056 -0.1997498 -0.046522494 -0.24412818 -0.24079148 -0.63640624 0.45996365 0.03992495 0.17892237 0.17102662
movie208 0.29273212 -0.29084775 -0.068246886 -0.14431985 -0.19945918 -0.64656633 0.2440111 -0.015191269 0.27379262 0.1889939
movie137 0.38190198 -0.5145489 -0.43280023 -0.09311614 -0.36643347 -0.09280998 0.5244064 -0.08823822 0.5154436 -0.14143243
movie211 0.019863585 -0.2231106 0.07577789 -0.16567256 -0.37505683 -0.605933 0.35633254 0.06849904 0.41290015 0.18458766
movie435 0.14539936 -0.20098366 -0.14786394 -0.0350953 -0.32266492 -0.75687504 0.43457925 -0.10231171 0.19736242 -0.0025468983
movie209 0.3692146 -0.29636225 -0.20464125 -0.12573116 -0.18722881 -0.50083166 0.08891187 -0.051016234 0.63956326 0.14572136
user378 0.47103027 -0.16658385 0.030031368 -0.27429917 -0.14062038 -0.40201885 0.6585626 0.15119748 0.17547028 0.11707718
movie228 0.3554168 -0.22718392 -0.13985151 0.09413386 -0.07471167 -0.6085664 0.36470267 -0.12691975 0.29907715 0.43959466
movie14 0.25869974 -0.49431166 -0.30300185 0.07037907 -0.6767065 -0.17746666 0.5892002 -0.07318675 0.388383 -0.13873336
movie23 0.094527826 -0.25103125 -0.3808619 -0.35723883 -0.1835295 -0.43086392 0.17963399 -0.10859025 0.67805105 0.1334308
movie169 0.47740835 -0.40517828 -0.18589662 0.20847647 -0.059144393 -0.54689056 0.18499252 -0.13928846 0.5703612 0.16291301
user541 0.4617799 -0.25449196 -0.09613108 -0.11479632 -0.22892435 -0.5706439 0.5086729 0.15925424 -0.28556168 0.59398574
user295 0.5159895 -0.21559128 0.28980416 -0.3084829 -0.17142129 -0.54450107 0.49295533 0.13623673 0.13649175 0.036864065
user620 0.47754282 -0.08093049 -0.24279273 -0.1362283 -0.3528095 -0.41348568 0.40892947 0.6618377 0.00041137036 0.8957812
movie514 0.15598032 -0.18034156 -0.046133507 -0.14671394 -0.52102494 -0.6097546 0.3254206 0.06642586 0.54586285 -0.22993948
movie511 0.1520404 -0.24691616 -0.1805411 -0.076211624 -0.31245264 -0.79359716 0.2523533 -0.15824084 0.28508893 -0.038466614
user864 0.44905937 -0.23774134 -0.06254571 -0.09755459 -0.07252044 -0.43691838 0.4602402 0.09532348 0.27636132 0.3863805
user24 0.3735457 -0.41590163 0.04024371 -0.15338829 -0.25998962 -0.16417453 0.5084258 -0.3209195 0.5777736 0.11707705
user311 0.26017877 -0.105098836 -0.051810294 -0.41458482 -0.015507535 -0.5880429 0.5189561 -0.08152091 0.20393205 0.20231366
movie432 0.38289073 -0.25964993 -0.13625602 -0.0389159 -0.20945576 -0.65537685 0.2281403 0.11294163 0.25643256 0.26134568
movie298 0.36982483 -0.30644834 -0.18497078 -0.17913496 -0.4045633 -0.1426546 0.40396184 -0.23480214 0.36481556 0.672912
user435 0.4692356 -0.24107485 0.12331456 -0.3311171 -0.01931926 -0.35853967 0.33873272 -0.14275378 0.48269823 0.31379554
movie215 0.19788449 -0.17222553 0.0062015248 -0.2934884 -0.15333211 -0.40721905 0.7034623 -0.07209098 0.2486762 0.16410135
user343 0.34912935 -0.3717939 -0.16513255 -0.10996016 -0.21835038 -0.33257112 0.42703816 -0.19941022 0.4667946 0.05984419
movie301 0.5089888 -0.019198114 -0.06628125 0.13806267 -0.41211966 -0.47963694 0.6502507 -0.07104245 0.5173229 -0.02054862
movie568 0.33672893 -0.30772328 -0.025118517 -0.34994578 -0.046755675 -0.38196442 0.5683797 -0.12334479 0.08131454 0.3812295
user236 0.045775335 -0.14398701 0.049606673 -0.28885242 -0.36006793 -0.5388742 0.6182189 -0.16679336 0.18991148 0.1687277
movie654 0.09888016 -0.16231988 -0.4057577 -0.12886801 -0.40418878 -0.62648076 0.16851394 0.06417496 0.6021182 0.019291282
user406 0.17054698 -0.21271385 -0.14147219 -0.34227005 -0.3980901 -0.55044574 0.13662021 0.16404617 0.4632555 0.14448528
movie199 0.03231886 -0.14948973 -0.17678075 -0.15126388 -0.38068166 -0.72955495 0.32935312 -0.13919923 0.25963867 0.20525396
user911 0.28000593 -0.26890954 -0.13721417 -0.07216434 -0.21568146 -0.7356529 0.16327769 0.06293802 0.2723136 0.19019756
movie86 0.33441797 -0.3460217 -0.0403514 -0.091132894 -0.44021022 -0.5907969 0.4120906 -0.24137554 0.26222798 -0.26579392
movie223 0.18667755 -0.28742784 -0.11841306 -0.31066728 -0.24335623 -0.32378858 0.5061973 -0.1041076 0.47814775 0.046606053
user324 0.40110764 -0.20520611 0.070421994 -0.12321329 -0.6206482 -0.14578445 0.41803932 -0.363991 0.6149039 0.4969898
user339 0.10997191 -0.25391823 -0.15121084 -0.3252047 -0.28251696 -0.43540087 0.27919066 -0.18296248 0.5288558 0.18541934
user429 0.3667404 -0.29182175 -0.04030616 -0.20180427 -0.31640264 -0.45569658 0.34703755 -0.017872479 0.2980528 0.14658713
user1 0.32972375 -0.4564087 -0.37394348 -0.09338166 -0.24321231 -0.30158833 0.33041793 -0.028267449 0.36657718 0.2052706
user704 -0.072769634 0.09752622 -0.2281616 -0.16929287 -0.45441967 -0.8299031 0.36662498 0.039559767 0.567197 -0.08335768
movie283 0.5051159 -0.39319345 -0.008179704 0.07088398 -0.5533112 -0.3029365 0.55219656 0.046908777 0.2749892 -0.04763648
user880 0.41862667 -0.28625324 -0.12979929 -0.37190747 -0.13533254 -0.21213163 0.4471755 -0.1277113 0.3803191 0.32419887
user200 0.44071993 -0.14690025 -0.088278525 -0.111168325 -0.10654434 -0.54666793 0.47965446 0.1666118 0.057894167 0.53926915
user334 0.33042526 -0.2804718 -0.46241635 -0.2665785 -0.39753038 -0.3955708 0.26150095 -0.051832795 0.4278657 0.002466352
user159 0.46297082 -0.30912253 0.22430484 -0.2821641 -0.639221 -0.063496344 0.44471535 -0.26274362 0.30755422 0.71235716
user145 0.26989362 0.00044005425 -0.04075118 -0.4791903 -0.06363203 -0.34425673 0.49656877 -0.13787341 0.56270736 0.39399084
user496 0.487502 -0.2861765 -0.19791533 -0.3738464 0.24477464 -0.30616105 0.31538686 -0.028408939 0.57925 0.28641313
movie471 0.23026216 -0.33683652 0.1892467 -0.23854943 -0.59053904 -0.104103796 0.63091594 -0.1993754 0.28165212 0.47747245
user932 0.0017400003 -0.28419992 -0.16620363 -0.39944762 -0.61839366 -0.77787834 -0.014497391 -0.04412023 0.21955535 0.03944353
user291 0.508401 -0.3330172 -0.06718181 -0.46558228 -0.027001252 -0.13874377 0.42427436 0.15791772 0.30627578 0.48760596
movie527 0.1805229 -0.3038639 -0.20975462 -0.17050226 -0.2704756 -0.46592063 0.55223405 -0.060678653 0.21618003 0.034318764
user922 0.4814592 -0.33803388 -0.09101165 0.065813385 0.051541876 -0.43376148 0.41791958 -0.017888812 0.27880543 0.5448181
user338 0.06365728 -0.15754664 -0.20543371 -0.12125151 -0.5241461 -0.8070514 0.12711164 0.019989336 0.532821 -0.19377354
user96 0.009086184 -0.2233527 -0.32063 -0.13973977 -0.25127506 -0.55105245 0.25163186 -0.09839267 0.4767255 0.38742936
user601 0.33774358 -0.31212994 -0.10507008 0.024398891 -0.27788383 -0.5446908 0.15042886 -0.012074532 0.36482543 0.49086484
movie118 0.29811502 -0.2948422 0.08214853 -0.21403827 -0.50789416 -0.2338892 0.41721565 0.012970471 0.1445695 0.7999431
user606 0.28136787 -0.30645958 0.010386765 -0.23896739 -0.27955422 -0.31679472 0.3697865 -0.08607138 0.36284626 0.43243
movie340 0.42168626 0.115528546 -0.53061116 -0.3399377 -0.36203963 -0.32532394 0.680762 -0.12869482 0.58162284 -0.11251381
user495 0.36943057 -0.23516957 -0.084611274 -0.31891727 0.08696374 -0.5021857 0.37461463 0.08887257 0.2452812 0.39623442
movie651 0.2735906 -0.2339223 -0.26083618 -0.30243868 -0.04501157 -0.4741282 0.53141093 -0.23766118 0.23678057 0.12602529
user693 -0.082682945 -0.112907186 -0.113836646 -0.5128134 -0.23604332 -0.41135007 0.5147301 -0.14918962 0.52072346 0.16207029
user372 0.23423393 0.043576803 0.016263809 -0.8600487 0.11432604 -0.1145351 0.31057802 0.2601664 1.1603819 0.28302515
user178 0.29603663 -0.18058556 0.009813055 -0.19215144 -0.23094252 -0.43745986 0.5259797 -0.09766521 0.24639288 0.36389592
movie498 0.026739163 -0.16396032 -0.2816582 -0.24366684 -0.37056613 -0.70626926 0.3572331 0.016678529 0.14654161 0.20699902
movie419 0.26251605 -0.20720533 -0.10402624 -0.1539419 -0.17080066 -0.65233487 0.47441408 0.1054132 0.040101245 0.29390135
user239 0.21838993 -0.24631216 -0.38262022 -0.2937957 -0.31920037 -0.5793135 0.20789315 0.013871937 0.45905095 -0.17351349
user804 0.3741602 -0.1994174 -0.071942694 -0.17109509 -0.24708003 -0.5605322 0.23975842 -0.017945489 0.2785692 0.42697662
movie433 0.6008665 -0.3186178 -0.11380196 -0.21410124 0.06553246 -0.4301989 0.24722797 0.012801978 0.48882848 0.124733694
user749 0.2781115 -0.17848754 0.011984777 -0.23534776 -0.1469349 -0.4843619 0.51175535 0.114266016 0.15605642 0.42552167
movie161 0.3774731 -0.17690942 -0.069683 -0.34833595 0.049691334 -0.43022949 0.6202478 -0.043801226 0.083102845 0.44941524
movie88 0.307655 -0.2215031 0.03689065 -0.2693414 -0.08915652 -0.50403374 0.6896019 -0.00025585736 -0.025042059 0.26041755
user878 0.2735255 -0.32273495 -0.16613236 -0.10324706 -0.36570996 -0.6454406 0.4494938 -0.15493849 0.12626296 -0.14715105
movie484 -0.086720414 -0.1252502 -0.2428883 -0.15542877 -0.49821964 -0.7140759 0.29123232 -0.045321673 0.36597386 0.18186848
movie274 0.21763821 -0.39998284 0.2977743 -0.21492776 -0.6472449 -0.27820736 0.5706418 -0.14812738 0.024086306 0.41263005
movie242 0.6355163 -0.11520222 -0.29436496 0.02814027 -0.48287588 -0.37639582 0.67598283 0.009233952 0.55152065 -0.48870718
user244 0.51287 -0.35334185 0.20594203 -0.27769095 -0.0027804829 -0.31109393 0.5705823 -0.12604629 0.3419254 0.06922736
movie154 0.4769963 -0.33970028 -0.0658304 0.023682065 -0.0957983 -0.6080275 0.08833454 0.0061772554 0.50215775 0.2073092
user92 0.39516887 -0.33063537 -0.06825455 -0.31316635 -0.12854247 -0.2789523 0.37880796 -0.114594266 0.41609946 0.28713393
movie273 0.28242618 -0.409253 -0.17262937 -0.28574908 -0.3932899 0.07706627 0.42760265 -0.25392973 0.65212953 0.45918626
user764 0.3133813 -0.2272368 -0.006738896 -0.19890893 -0.21754517 -0.33338484 0.5673037 -0.0458257 0.22881101 0.48546112
movie213 0.30990967 -0.282283 -0.01109921 -0.15916291 -0.35997638 -0.65263635 0.33625582 -0.09921637 0.3844339 -0.32840157
user840 0.19359565 -0.25934625 -0.30402127 -0.28652206 -0.4206416 -0.6403229 0.19723773 0.06560556 0.290082 -0.090276524
movie193 0.0828822 -0.13095589 -0.16618946 -0.34777623 -0.22926489 -0.57607013 0.40340868 -0.083789006 0.34670055 0.16622038
user862 0.17817287 -0.19064406 -0.10711648 -0.24679497 -0.25148445 -0.4211627 0.36307597 -0.11976762 0.44579548 0.3976684
user401 0.07250107 -0.14608423 -0.032655224 -0.34784883 -0.35396934 -0.57738703 0.6101084 -0.07279164 0.13205756 0.024105346
user271 0.19553417 -0.20327097 -0.08291051 -0.19493152 -0.2748884 -0.5476781 0.48325068 -0.059200834 0.30033347 0.067173444
movie485 0.16848889 -0.1909346 0.08002185 -0.11219201 -0.32154295 -0.6253931 0.52980006 0.07217138 0.11215363 0.2171205
user387 0.39710766 -0.43192482 -0.3092504 -0.25529036 -0.12758335 -0.28489754 0.17667948 0.05141158 0.49940163 0.25889203
movie190 0.1909503 -0.41076314 -0.20751967 -0.13116421 -0.28632143 -0.52403086 0.38605624 -0.19500425 0.21738516 0.028126825
user487 0.37037125 -0.29767346 0.004920072 -0.35870087 -0.015239306 -0.23520406 0.6392643 -0.15012555 0.19643332 0.40950197
user89 0.47326744 -0.48685578 0.19752525 0.07478737 -0.382762 -0.2070944 0.4834901 -0.30443743 0.5575929 0.026935486
movie170 0.32227397 -0.3752639 -0.12607403 -0.1410507 -0.49954876 -0.6175945 0.31889617 -0.04940263 0.28160524 -0.40062445
user892 0.15716083 -0.20562959 -0.055439085 -0.2717956 -0.3035479 -0.5556342 0.4414136 0.026146354 0.16863681 0.25716883
user682 0.4459044 -0.23097259 0.056760147 -0.36604398 0.026407167 -0.33786273 0.47174293 -0.089203976 0.35000175 0.38709408
user222 0.32581788 -0.2158988 0.058129467 -0.33877063 0.001184142 -0.31434992 0.6438247 -0.16805027 0.2676751 0.36633936
movie87 0.14583407 -0.12409358 -0.07963369 -0.18078567 -0.35477132 -0.6174846 0.39599836 -0.048717763 0.25908834 0.29323924
movie660 0.40793788 -0.33837208 0.023233663 -0.10100857 -0.127149 -0.48369026 0.58006316 -0.11824285 0.18678917 -0.0065538688
movie385 0.34812203 -0.17294015 -0.0687446 -0.31492794 0.043078694 -0.38367468 0.5929212 -0.044948157 0.18868248 0.5228026
user374 0.23201269 -0.3524138 0.06921086 -0.5909192 -0.32608446 -0.103339076 0.48956105 -0.16300093 0.21542193 0.55067843
user524 0.2765941 -0.22414032 -0.15896197 -0.42102158 -0.19834815 -0.4859522 0.38324118 -0.050319098 0.35960814 -0.06301527
user184 0.2960582 -0.3472831 -0.061671138 -0.27091074 -0.585912 -0.4329195 0.39073405 0.14189625 0.3018762 -0.25323752
movie402 0.45436898 -0.10896559 0.26294032 -0.3016431 -0.002739034 -0.5214172 0.6525644 0.008809088 0.14802477 0.27947676
movie705 -0.0767901 -0.1487574 -0.28874764 -0.21760988 -0.48685142 -0.7564207 0.30329305 0.04760881 0.20024952 0.15176488
movie482 -0.033723634 -0.205615 -0.30600896 -0.27015063 -0.4294527 -0.7746278 0.1278843 -0.069293454 0.30856407 0.11837998
movie116 0.5602129 -0.5341267 -0.179519 0.27425003 -0.65958595 -0.2982884 0.427941 0.08483858 0.43243423 -0.297931
movie307 0.3485655 0.22458048 -0.31647936 -0.16708249 -0.26146036 -0.4902008 0.55457264 -0.2841844 0.69258946 0.3174504
user332 0.34128642 -0.1700809 -0.037751712 -0.36327133 -0.16284227 -0.30589497 0.47006983 -0.2582551 0.26487663 0.6209198
movie289 0.57862985 -0.13893318 0.07241612 0.10735879 -0.5433815 -0.47011313 0.44992587 -0.31698823 0.42351413 0.14908355
user648 0.32879165 -0.14935285 -0.09029765 -0.23806688 -0.1801654 -0.5103611 0.3540478 0.12096169 0.2993833 0.4159944
user848 0.19093616 -0.28066474 0.0616394 -0.16168661 -0.29426274 -0.5694742 0.38311887 0.04776301 0.29490638 0.12627672
movie582 0.35438144 -0.2792388 -0.22422978 -0.14392033 -0.37949067 -0.5874954 0.30557388 -0.045640122 0.37201884 -0.24610823
user189 0.31194434 -0.3563976 -0.33665925 0.011096969 -0.41316637 -0.5347138 0.30725962 -0.014688376 0.23873757 0.08489689
user897 0.2037617 -0.20314632 0.024367088 -0.3764775 -0.26114684 -0.40781856 0.44126937 0.045984175 0.13510177 0.5615622
user262 0.36710906 -0.21583943 0.08927566 -0.34418368 -0.23367617 -0.5801477 0.43971828 -0.024041828 0.08573427 0.13174008
movie147 0.30288035 -0.3126911 0.06235907 -0.16473913 -0.34431386 -0.12516747 0.535613 -0.21507232 0.46841466 0.5044188
movie156 0.3445598 -0.3327647 -0.17164762 -0.2282413 0.059360098 -0.39000344 0.18031469 -0.35482147 0.6943637 0.2893608
user537 0.27724913 -0.22277285 -0.22018692 -0.33732435 -0.46391642 -0.47078618 0.3133523 0.04656208 0.3613318 -0.0791256
user506 0.16578956 -0.14970092 -0.15378684 -0.2229614 -0.18549414 -0.65735567 0.39966393 -0.12447427 0.15392601 0.3467095
movie203 0.13584822 -0.26690447 -0.17236298 -0.3790365 -0.17445163 -0.43068156 0.4134794 -0.12330912 0.28376773 0.2903248
movie451 0.467748 -0.2812568 0.38486335 -0.29270318 -0.22196572 -0.5041652 0.46047413 0.063968435 0.14980237 0.13984789
movie657 0.10937399 -0.2083484 -0.27093565 -0.20029646 -0.50293875 -0.54670256 0.13197018 0.19058052 0.5849405 0.07340525
user463 0.44166902 -0.4531984 -0.47111222 0.16697551 -0.7168839 0.025878306 0.7419273 -0.048738137 0.33777964 0.10563814
movie408 0.5022247 -0.45211935 -0.25757632 0.5156071 -0.2928563 -0.32730287 0.34797877 0.11846586 0.64777493 0.265722
movie178 0.18578601 -0.2728465 -0.048202183 -0.22713396 -0.31289196 -0.5132145 0.44221386 -0.06329408 0.2820161 0.09091296
user379 0.31011558 -0.29839385 -0.13566053 -0.18568909 -0.123687945 -0.5836843 0.3355751 -0.030736076 0.25630945 0.11687344
user95 0.36661553 -0.25048524 -0.14288132 -0.101458535 -0.16212441 -0.5570317 0.49219304 0.0058748084 0.060124245 0.2883914
movie478 -0.007653275 -0.17420058 -0.090741955 -0.17757456 -0.48283565 -0.6351539 0.45870733 0.058332223 0.3202642 -0.039018497
user505 0.2524047 -0.063909344 -0.18803065 -0.25006533 -0.047607563 -0.61279607 0.6402091 -0.08869297 0.012298297 0.35946527
movie99 0.2516723 -0.26205677 -0.2850302 -0.10715225 -0.23117086 -0.627297 0.32070425 0.20349586 0.07061887 0.40856782
user274 0.17511109 -0.25035626 0.3034358 -0.01554429 -0.6823081 -0.2613458 0.59228265 -0.13655911 0.47072187 0.3038175
user119 0.42090467 -0.23315679 0.031198738 -0.22236122 -0.38394246 -0.24428831 0.6333982 -0.1507876 0.2822739 0.1864269
user894 0.55087113 -0.3971004 -0.41942233 -0.2028371 -0.56199116 -0.29490674 0.35620567 -0.2629087 0.30061385 -0.2325119
movie323 0.33555818 0.18067536 0.01224517 0.06564865 -0.53306895 -0.5329062 0.49121657 -0.007623318 0.4808203 0.7187577
user385 0.24863306 -0.3868964 -0.5986077 -0.4803699 -0.5391194 -0.4880317 -0.13031015 0.24413133 0.3846017 0.0087373955
movie523 -0.09290042 -0.07820973 -0.16500187 -0.104732096 -0.39130008 -0.7038342 0.37817279 -0.04633064 0.5467753 0.026557734
movie690 0.5486771 0.20392708 -0.21350239 0.2788354 -0.31214094 -0.5917637 0.86490124 -0.29638153 0.5061814 0.0725797
user87 0.3857496 -0.22027786 0.26094222 -0.278832 -0.10489698 -0.4895659 0.5080723 0.057198685 0.15468828 0.3800922
movie508 0.32550853 -0.4612547 -0.24863963 -0.049398556 -0.5928597 0.06379504 0.48611036 -0.052917812 0.5865465 0.35968935
movie271 0.4499607 0.16241932 -0.038809568 -0.056442264 -0.18677318 -0.53426844 0.4556072 -0.16141127 0.63850975 0.50027573
movie250 0.5610221 -0.30736345 -0.12466727 0.055034325 -0.2224955 -0.29068178 0.35749492 -0.117008016 0.3886942 0.55925345
movie735 0.12125203 -0.20504645 0.049904138 -0.3901906 -0.13280043 -0.48228154 0.6074828 -0.055229716 0.28097945 0.034844458
movie91 0.502981 -0.28098756 -0.13245778 -0.022163708 -0.07374372 -0.5998877 0.103944115 0.08648993 0.340505 0.46969828
movie393 0.32552925 -0.18322423 0.05860271 -0.27892435 -0.09259021 -0.49994487 0.6268223 0.20382822 0.014073204 0.38157883
user299 0.36801916 -0.31963378 -0.2913594 -0.16881718 -0.3665806 -0.5459309 0.32441083 -0.034068637 0.2599053 -0.14730711
user60 0.058815207 -0.18194741 -0.13777404 -0.3893974 -0.42975846 -0.6403186 0.14773715 0.15741447 0.40851825 0.10869748
movie42 0.57313424 -0.4917303 0.023126073 -0.14364947 0.026092317 -0.23633331 0.28348443 -0.12796776 0.5821403 0.17041776
user921 0.3863612 -0.10988189 0.15574121 -0.068188846 -0.27752224 -0.57136446 0.50705934 -0.037086513 0.11642715 0.52466017
user293 0.09316991 -0.18468966 -0.2498376 -0.45794603 -0.28830662 -0.39707094 0.4512103 0.057213683 0.36587042 0.12691227
movie4 0.33213627 -0.20452482 -0.044937655 -0.3675396 -0.1327501 -0.43601122 0.4816474 -0.031025134 0.27643847 0.14103647
user639 0.2533035 -0.3095567 -0.056118775 -0.22541612 -0.59432805 -0.71974564 0.3270627 -0.109733775 0.12535307 -0.38290343
user896 0.29383138 -0.2545569 -0.10513679 -0.3139187 -0.23452426 -0.42733628 0.44943753 -0.018112916 0.1952712 0.2825638
user186 0.19012766 -0.14274666 -0.12960203 -0.60322034 -0.15802187 -0.19971162 0.5751568 -0.3492547 0.23092225 0.6826823
movie150 0.52549064 -0.524866 -0.15188631 0.0393754 -0.3777824 0.030717531 0.36582538 -0.0503041 0.78253657 0.176208
user889 0.489578 -0.3914935 -0.18151203 -0.23316596 -0.160571 -0.32148498 0.270257 -0.1629122 0.41238558 0.14973202
movie443 0.23593917 -0.14156836 -0.25555965 -0.31727594 -0.11071183 -0.48263708 0.27686867 0.24666017 0.4838369 0.33698148
movie709 0.47173813 -0.39396894 0.010216863 -0.14316003 -0.29304025 -0.5332921 0.1752936 0.038883947 0.3296736 0.041588224
movie316 0.34034172 0.2289116 -0.33667928 -0.17584687 -0.22874424 -0.5653377 0.8817587 0.061926328 0.28778154 0.049228795
movie659 0.12415679 -0.22198309 0.02199791 -0.13492732 -0.3678268 -0.69918084 0.31849775 0.014763087 0.2798746 0.097388595
movie48 0.045804888 -0.31103292 -0.31876144 -0.2372914 -0.23412737 -0.49978498 0.3392029 -0.19222966 0.42359903 0.11603781
user815 0.19953893 -0.14906529 0.046117034 -0.07112069 -0.3314528 -0.6738851 0.46651465 0.16521549 0.16212028 0.25144458
user313 0.04344938 -0.1057099 -0.18659267 -0.3550924 -0.2639676 -0.6473876 0.3004135 0.09561042 0.2831034 0.33458114
movie591 0.31027693 -0.36518842 -0.008481136 -0.27816293 -0.4366734 -0.06377835 0.6357933 -0.22639437 0.2786585 0.4268443
movie66 0.3885257 -0.19239096 0.22225165 -0.3045203 -0.070522055 -0.37577185 0.76703745 -0.016341362 0.15258901 0.22273184
movie684 0.1972782 -0.17963894 -0.06922318 -0.2767476 -0.06634477 -0.46101162 0.6339147 -0.28624642 0.16834785 0.39251518
user65 0.12595248 -0.17793003 0.026486285 -0.27767873 -0.2724216 -0.5211196 0.6379773 -0.04501316 0.22502789 0.042400338
movie198 0.19918053 -0.31421873 -0.44859236 -0.19631715 -0.21400712 -0.48944137 0.3757166 -0.46967453 0.2803537 0.16358016
movie628 0.10544163 -0.36121958 0.0040660407 -0.344757 -0.46043396 0.013717464 0.62685823 -0.31072173 0.5918934 0.28043163
movie326 0.5987662 0.18082082 0.08470076 -0.15974018 -0.43712607 -0.5257375 0.4994486 -0.26734132 0.50318426 0.32119146
movie58 0.21908529 -0.26899537 -0.13003524 -0.13159835 -0.20816833 -0.4854829 0.44472405 -0.11285428 0.36767006 0.14882259
movie531 0.37811965 -0.30375978 -0.23221174 -0.11165298 -0.3522245 -0.3844333 0.47201863 0.13264118 0.35852212 -0.09531804
movie255 0.45432895 -0.36866057 -0.00439727 -0.18323064 -0.6232063 -0.080770686 0.6031672 -0.19170001 0.08573024 0.5647837
user180 0.5800534 -0.42322403 0.14896381 -0.102269426 0.23871931 -0.45136958 0.60329604 -0.5404386 0.28572726 0.006721097
user421 0.034439914 -0.10190533 -0.4502516 -0.37167838 -0.0014493008 -0.3894342 0.41623655 -0.0758017 0.6220562 0.37074947
user328 0.11460051 0.01608409 -0.22102001 -0.3427748 -0.14083868 -0.5519052 0.6302743 -0.1150047 0.27837065 0.22445664
user12 0.1920181 -0.1776802 -0.14414054 -0.23278785 -0.108751245 -0.4372961 0.79039973 -0.25270388 0.20650126 0.082989305
user16 0.08451168 -0.21292795 -0.15303305 -0.25504416 -0.14813413 -0.44107082 0.48151678 -0.004067378 0.34734952 0.39036924
user938 0.36059356 -0.25701025 0.1884495 -0.0141347805 -0.7124205 -0.12151523 0.4192695 0.08402554 0.43037027 0.7853418
user144 0.23474552 -0.29972744 -0.28665003 -0.23955375 -0.3997323 -0.33020046 0.5283921 -0.24199139 0.26261476 0.08455118
user10 0.12521958 -0.24744037 -0.17203763 -0.32702672 -0.3982952 -0.5257487 0.35998166 -0.03130201 0.35777614 -0.08445215
user409 0.16666898 -0.31071138 -0.37800062 -0.28082797 -0.6167295 -0.7175603 0.11930454 -0.029488722 0.14965217 -0.15260303
movie520 0.024605049 -0.056927327 -0.11215639 -0.26111624 -0.31253704 -0.6850737 0.5400304 0.09480738 0.1999708 0.13055211
movie750 0.33500266 0.27081975 -0.4953376 0.097371735 -0.13136978 -0.6315073 0.8946641 -0.26513705 0.4218692 0.17120251
user617 -0.0121764755 0.0989122 -0.15314904 -0.69563997 -0.54098976 -0.5256655 -0.2805843 0.9616299 1.0846496 0.3945879
user916 0.45176256 -0.44734642 -0.16368963 -0.28215462 -0.15588781 -0.25166082 0.23377027 -0.13798966 0.5557716 0.079109855
movie845 0.2764248 -0.36521086 0.21265925 -0.07957863 -0.5654785 -0.15407634 0.7331636 -0.042437993 0.17194714 0.39325222
movie367 0.5385572 -0.2602443 -0.08682969 -0.20945856 -0.044087183 -0.4357964 0.41660938 0.09928428 0.27906403 0.18745758
user85 0.23705593 -0.33151394 -0.09188153 -0.20714055 -0.427883 -0.58116 0.3252683 -0.028172495 0.24941951 -0.120176114
user122 0.36480185 -0.34735674 0.025259113 -0.31668398 -0.1755733 -0.7357681 0.21410164 -0.21297441 0.31282073 -0.3526171
movie692 0.4011953 -0.2310633 0.113451734 -0.29327172 -0.14808355 -0.41244376 0.5673017 0.08228753 0.15037693 0.2719067
movie732 0.36461228 -0.19494145 0.13365759 -0.2954374 -0.14290811 -0.47967866 0.630151 0.029299129 0.11938172 0.16403668
user823 0.2840325 -0.24983212 -0.14858721 -0.18080628 -0.05793244 -0.48699278 0.3825741 -0.16263175 0.4115898 0.21592298
movie248 0.45354134 -0.41339833 -0.059089392 -0.16197948 -0.3552207 -0.07559764 0.46695492 -0.26424176 0.50745434 0.27535635
user79 0.48881868 -0.36699644 -0.6414917 0.27838305 -0.60256094 0.021923777 0.8293059 0.0945491 0.5330214 -0.079116255
movie332 0.39301163 0.28926662 0.19260542 -0.22275451 -0.4487063 -0.5359337 0.6983313 -0.21373422 0.6028733 0.18253317
user514 0.45086998 -0.31372905 0.00679318 0.01052214 -0.10879382 -0.4820593 0.516131 -0.20235679 0.3018299 0.12562548
movie304 0.32280967 0.27019173 -0.08175918 0.24794549 -0.63568795 -0.7246411 0.64693934 -0.034016356 0.45121187 0.2510835
movie528 0.07402073 -0.2103826 -0.28076056 -0.25573778 -0.3162816 -0.63135654 0.42428675 -0.13269615 0.23511897 0.018578297
user452 0.1083819 -0.21095017 -0.293033 -0.22302431 -0.47905248 -0.5754389 0.2837025 0.013466955 0.24707453 0.22563088
user608 0.32918587 -0.2597177 -0.019708373 -0.2652557 -0.35326812 -0.5215933 0.4096158 -0.09214316 0.31055593 -0.14949942
user881 0.20954956 -0.14013527 0.000404634 -0.30094823 -0.22870074 -0.54839647 0.4162618 0.030531645 0.17160378 0.44550335
user556 -0.11980056 0.046227884 -0.1696109 -0.29685485 -0.45866632 -0.7462942 0.22845504 -0.12304167 0.7654636 -0.039611887
movie509 0.333101 -0.34472966 -0.1570381 -0.13276687 -0.3262786 -0.5209325 0.33462238 -0.048062343 0.40514442 -0.18343844
movie504 0.018554179 -0.19370933 -0.12846625 -0.313041 -0.32468483 -0.58874834 0.40267864 -0.15884766 0.43181664 -0.03548544
movie319 0.60707915 -0.089939095 -0.1514263 0.18537527 -0.61754525 -0.4691017 0.509122 0.09467701 0.48664385 -0.12496932
user249 0.49214894 -0.3154981 -0.063442394 -0.1608723 0.014034999 -0.26362437 0.37352666 -0.22455674 0.6546003 0.2183243
user318 0.23443435 -0.18986936 0.080313966 -0.175513 -0.27461305 -0.4638275 0.72587913 0.032855622 0.15591267 0.106067635
movie13 0.3995862 -0.47955683 -0.13789023 0.17927094 -0.47997853 -0.20153177 0.5342138 -0.028310012 0.44436464 0.035137214
user666 0.18570048 -0.18451194 -0.1088774 -0.295647 -0.48795673 -0.5732799 0.21047969 0.035574947 0.4506902 -0.031093586
user42 0.31622356 -0.21759422 0.118050635 -0.2578033 -0.27952012 -0.45141998 0.56816685 0.04812604 -0.020523945 0.5012949
movie246 0.50770515 -0.46391198 -0.5697999 -0.08548876 -0.3704577 -0.003777601 0.4351756 -0.27281156 0.48353934 0.2509848
movie327 0.39303255 0.20661919 -0.08251506 -0.33399573 -0.12507741 -0.45221287 0.55540305 -0.23347184 0.9953462 -0.09924781
user223 0.37551963 -0.12384975 0.12846808 -0.10613167 -0.42803946 -0.28514913 0.6887727 -0.047052618 0.14175418 0.7258356
movie136 0.14236607 -0.16553718 -0.13545194 -0.22331339 -0.37085736 -0.67569697 0.24750155 -0.0045612114 0.3013687 0.16656347
movie292 0.15613978 0.15071101 -0.23181799 -0.45174584 -0.5706763 -0.3925458 0.57018316 -0.2626351 0.5929429 0.114876874
user363 0.4367204 -0.30307052 -0.20855787 -0.1805211 -0.036440037 -0.4267968 0.19279662 -0.059307963 0.523656 0.31434193
user518 0.16429052 -0.56594956 0.17976485 -0.2851811 -0.61623037 0.29289797 0.521479 -0.14152116 0.6656235 0.6182553
user366 0.35884055 -0.040472817 0.05210569 -0.77826977 0.25514972 -0.09096824 0.17339922 0.88976985 1.3205149 0.35856247
user201 0.39700037 -0.1795866 -0.20465337 -0.46720436 -0.09967263 -0.31132823 0.33921605 -0.003626113 0.57090074 0.084585406
user756 0.50561297 -0.42462677 -0.13060226 -0.10699638 -0.046525974 -0.33996326 0.24547444 -0.3358831 0.39467466 0.4524256
movie751 0.4831509 0.1847168 -0.14113529 0.091686554 -0.26349172 -0.61187625 0.70632887 -0.24408406 0.41366285 0.29264808
movie293 0.38162145 -0.40919366 -0.20229839 -0.1882589 -0.522468 0.027112458 0.5638479 -0.08308394 0.49964154 0.17447639
user870 0.16255873 -0.24263445 -0.19922057 -0.37037063 -0.27764422 -0.5111403 0.3082591 -0.052761313 0.36654434 0.100832164
user919 0.44522405 -0.29099733 -0.12276864 -0.09594622 -0.50362295 -0.20895377 0.54433 -0.03185381 0.39125666 0.09902867
user316 0.18863367 -0.36198404 -0.26682797 -0.12365415 -0.25259915 -0.48855305 0.6866295 -0.14789931 0.13772288 -0.19731416
user533 0.27956742 -0.29278994 -0.0367957 -0.2298587 -0.37791362 -0.32674643 0.56480455 -0.07041884 0.14411716 0.31086725
movie310 0.45263422 0.21362354 -0.18506534 0.019028572 -0.42053762 -0.58327734 0.72036016 -0.26420555 0.48085928 0.13307002
user52 0.19578138 -0.4697926 0.06828111 0.056104876 -0.67021 -0.027719216 0.652694 0.07922876 0.57627827 0.07878902
user562 0.2117998 -0.120074235 -0.1718136 -0.2402069 -0.0074557355 -0.5820705 0.5551541 -0.075856194 0.2139059 0.28818175
movie476 0.17754754 -0.4213748 0.15085457 -0.35157105 -0.73057 0.045171108 0.71114224 -0.031497434 0.1010136 0.5471457
movie763 0.2946365 -0.41468105 0.17333163 -0.24022324 -0.56006914 0.015306723 0.557433 -0.23121512 0.38722128 0.5269896
user109 0.45110574 -0.27728358 0.048270695 -0.13068512 -0.06479533 -0.34918156 0.49919254 0.04516147 0.18894356 0.6476266
movie284 0.3580125 -0.34275445 0.1507942 -0.25547984 -0.48607498 -0.0999268 0.7064017 -0.10432615 0.21208923 0.30622214
user6 0.044015564 -0.23429029 -0.28749985 -0.16599952 -0.3892583 -0.610501 0.32575405 -0.045409366 0.4544429 -0.08293005
user301 0.37869388 -0.35901827 -0.06750798 -0.1832991 -0.15270233 -0.3826887 0.31142843 0.036272973 0.19685766 0.5911758
movie306 0.4893139 0.022756446 -0.23458743 0.18298796 -0.45809576 -0.5040882 0.8512728 0.07856113 0.4677363 -0.3439102
user536 0.35166278 -0.28756413 -0.16541211 0.0054894504 -0.18342741 -0.6223713 0.5033691 -0.031539205 0.060139168 0.16126353
movie739 0.3542803 -0.13404752 0.17797962 -0.34103012 -0.15197021 -0.3894557 0.79078543 -0.11611738 0.15426928 0.15860079
movie126 0.11021938 -0.48577592 0.039081525 -0.0011690712 -0.82466525 0.023751132 0.6273993 -0.13225049 0.508258 0.26317716
movie462 0.34997776 -0.42303908 -0.18805851 -0.12338766 -0.3098083 -0.5408626 0.35851747 -0.4355931 0.2890414 -0.22958483
movie93 0.46290526 -0.4533329 -0.25551653 -0.16202402 -0.48022664 0.10400361 0.40769714 0.30218464 0.793492 0.028073724
movie322 0.18724525 0.0505002 0.20494145 -0.2876975 -0.57342726 -0.5437799 0.37947905 -0.43885982 0.4188771 0.5367982
user731 0.010570755 -0.121639185 0.0009946141 -0.26800996 -0.3196197 -0.5700436 0.6342539 -0.13965428 0.2634644 0.06919898
user694 -0.05000975 -0.1659117 -0.1079564 -0.31083512 -0.3078241 -0.7114545 0.39097086 -0.060227327 0.1834348 0.23956539
movie699 0.3355793 -0.28726098 0.092332415 -0.28380427 -0.33994025 -0.44553992 0.53624666 0.07220219 0.13746701 0.084404364
movie270 0.6736441 0.047852214 -0.27755874 -0.12483504 -0.22968054 -0.575715 0.49976912 -0.5562105 0.39911163 0.0713902
movie245 0.3386406 0.120677404 -0.045389313 -0.20491262 -0.5751602 -0.3760225 0.6650388 -0.1743859 0.3379661 0.46141535
user630 0.23918729 -0.33355686 0.04575034 -0.34064052 -0.5332326 -0.051142044 0.531685 -0.14774553 0.24707592 0.7039896
movie55 0.45126435 -0.42446533 -0.3202144 -0.24185947 0.07527658 -0.30159578 0.28945386 -0.3660213 0.48088366 0.2844541
movie418 0.29434106 -0.17468815 -0.13267954 -0.30246395 -0.14419238 -0.5303143 0.41046986 0.22651134 0.09342414 0.5067746
user939 0.27426827 -0.44721332 0.20845057 -0.2830164 -0.84485644 0.028351745 0.64051825 -0.24067199 0.074848145 0.6738973
movie663 0.18569635 -0.24768002 -0.3145754 -0.15056854 -0.26857886 -0.5873568 0.48279402 -0.049905896 0.25181744 -0.08633177
movie546 0.3097471 -0.4379301 0.34136832 -0.38488576 -0.43223515 -0.048739787 0.44387713 -0.22139657 0.30840585 0.638831
user659 0.06829087 -0.13158268 -0.1014905 -0.41161597 -0.30286616 -0.6290173 0.29885194 0.042390782 0.32402405 0.17066671
user58 0.42246538 -0.4074353 -0.2394717 -0.23162566 -0.34168947 -0.44633028 0.1088472 -0.08959575 0.4507754 -0.035750575
movie164 0.43051183 -0.14113203 -0.005571343 -0.35060182 0.041729968 -0.32957336 0.4166943 0.21696007 0.5202579 0.40683472
user591 0.34512973 -0.33111498 -0.10363068 -0.0911864 -0.35231897 -0.3922323 0.57689637 0.032921188 0.37789604 -0.2155632
movie403 0.5364051 -0.2729067 0.035350967 -0.19890937 0.016915662 -0.44441774 0.45761815 -0.0017870743 0.17013071 0.39282522
user347 0.24475522 -0.28002083 0.039004203 -0.30085176 -0.2233679 -0.19632372 0.5069981 -0.2064079 0.4140695 0.53819984
user882 0.20769459 -0.30616793 -0.039419215 -0.024490695 -0.24131761 -0.54477406 0.42277932 -0.043241713 0.061810855 0.6213438
movie678 0.29842645 0.19836454 0.03902277 -0.083100066 -0.47875974 -0.46411476 0.5315566 -0.05503218 0.5183086 0.7354171
user936 0.6479595 -0.6969351 -0.65075475 -0.25176862 -0.60734534 0.2953993 0.42028734 -0.019594435 0.38804656 0.090579316
user267 0.42104352 -0.29643443 -0.19298184 -0.19045393 0.066405356 -0.46631163 0.30960003 -0.23379067 0.41926345 0.29459432
user125 0.31514797 -0.23757234 0.16654912 -0.05096036 -0.2829372 -0.6632521 0.4469317 -0.04382763 0.117454395 0.24023196
movie192 0.051106937 -0.067777306 -0.11783967 -0.45444703 -0.29939342 -0.56028986 0.1518867 0.1425431 0.6998041 0.157679
user327 0.50529593 -0.31356224 -0.27029282 -0.22534427 -0.1534186 -0.3896428 0.31088084 0.09942204 0.51727307 -0.12866294
user851 0.2796388 -0.10408842 -0.18571429 -0.36349252 -0.225769 -0.27154106 0.5967202 -0.30198324 0.3479525 0.43441445
user698 0.11697616 -0.3103785 -0.2375988 -0.1455043 -0.31739846 -0.67083704 0.25737432 -0.30416086 0.23680906 0.18238263
user561 0.24980012 -0.29021314 -0.19604133 -0.3099918 -0.23417579 -0.48789218 0.17034744 0.12103937 0.5101368 0.024139185
movie230 0.2850467 -0.17279434 0.0018231446 -0.11537166 -0.016725168 -0.55132943 0.47953627 -0.12197923 0.23735821 0.55788887
user557 0.4132849 -0.19568147 -0.7964136 -0.32321355 -0.18755575 -0.38496417 0.100768425 -0.6700303 0.56281 0.40354228
user213 0.10323805 -0.25957373 0.022016365 -0.26219326 -0.2848861 -0.39961445 0.43509403 -0.026869558 0.42557725 0.31427267
movie597 0.28036803 -0.25994223 0.008284078 -0.16114776 -0.40474558 -0.29190078 0.49031982 -0.13529047 0.06877464 0.90709686
user224 0.25070852 -0.098251335 0.25169045 -0.38257867 -0.18391995 -0.5341017 0.76111346 -0.20239931 0.08517147 0.1110526
user181 0.48467568 -0.40582162 0.22839396 -0.45946112 -0.9473669 -0.09564574 0.29305983 -0.27988404 0.18513681 0.32408407
user500 0.4909368 -0.45974022 0.16382557 -0.25491706 -0.4975192 -0.28452903 0.21797456 -0.1498295 0.47166654 -0.014464414
movie303 0.5269769 -0.006993933 -0.65604824 0.05067321 -0.4597176 -0.41819224 0.65342796 0.06604421 0.43822005 -0.13360976
movie205 0.001983644 -0.1460141 -0.15886271 -0.23749194 -0.40167698 -0.66394335 0.30917767 -0.15073214 0.44715416 0.024092916
movie428 0.3657357 -0.27577096 0.039550982 -0.03548853 -0.20014165 -0.7056282 0.20182903 0.1106889 0.4402639 -0.027177336
movie188 0.1941254 -0.29949343 -0.15988678 -0.42916656 -0.012770164 -0.39834777 0.35736743 -0.39871505 0.40907997 0.2995324
user622 0.40059862 -0.28090957 -0.087000415 -0.14384323 -0.09740247 -0.47991705 0.30919284 -0.11333722 0.3219897 0.40383425
movie239 0.30467162 -0.19537143 0.14808998 -0.14012553 -0.124685325 -0.51999235 0.5894096 -0.011026782 0.24437313 0.20764075
movie866 0.2585933 -0.32643065 0.32503158 -0.19289224 -0.61599374 -0.09757491 0.66830605 -0.02027552 0.19771457 0.6477929
user458 0.21901734 -0.35623786 -0.24515098 -0.10752373 -0.40033895 -0.31186256 0.51683986 -0.13630351 0.44475102 -0.0564553
user233 0.120821744 -0.22404513 0.019723022 -0.16260023 -0.3530527 -0.5935793 0.47529042 -0.13460799 0.3536068 -0.015384233
user886 0.48517895 -0.4336002 -0.09667544 -0.28223243 0.014515045 -0.16629426 0.516639 -0.15969506 0.2886006 0.29978582
user727 0.50970054 -0.24419175 0.017573263 -0.17634526 -0.060908265 -0.4215838 0.41641477 0.04671316 0.2367574 0.42303586
user398 -0.026036432 -0.061057128 -0.063291356 -0.22154354 -0.40406016 -0.64011085 0.5269301 0.0779715 0.23106156 0.27321526
user708 0.40265492 -0.18252009 0.21301585 -0.040043153 -0.6058958 -0.17504826 0.74144363 -0.20919698 0.29554072 0.45225
movie526 0.13991281 -0.09301501 -0.27421948 -0.22221549 -0.23650229 -0.6770732 0.53294873 -0.09362162 0.077287525 0.23575138
movie347 0.38954028 0.3175407 -0.3314024 -0.05345007 -0.25302702 -0.5494806 0.8490061 0.29760006 0.5240378 0.026311569
user733 0.33240962 -0.70618767 -0.42407832 -0.005161584 -0.81973445 0.23102319 0.5697957 -0.21733852 0.5142192 0.00386834
user158 0.34977186 -0.41601467 -0.19796318 -0.07632566 -0.24948001 -0.320887 0.39966047 -0.041953847 0.37355655 0.17671223
user123 0.16343659 -0.2415005 -0.1982316 0.027643293 -0.5475463 -0.58876616 0.47285286 -0.036368735 0.4177403 -0.21284091
movie346 0.52671283 0.17341599 -0.60550123 -0.21152669 -0.15501107 -0.35260704 0.511263 -0.07222731 0.8521396 0.09767893
user885 0.43803737 -0.31441486 0.12727004 -0.03961634 -0.20794855 -0.5084029 0.44832397 -0.019994674 0.0819809 0.42246535
movie378 0.32716897 -0.24206562 -0.11211114 -0.09613597 -0.28223792 -0.55255574 0.5133298 0.17011732 -0.060019474 0.41708943
user643 0.16681492 -0.28691173 -0.20807967 -0.29062143 -0.16010265 -0.37515327 0.35232168 0.061008606 0.4577043 0.31966177
movie317 0.30929637 -0.31135494 -0.11273457 -0.15925282 -0.13640954 -0.44979227 0.38753057 -0.17972422 0.41855437 0.09235029
movie421 0.68639666 -0.46030313 0.16127665 -0.24387813 -0.08985926 -0.3396836 0.32017428 -0.16128455 0.34099013 0.03309376
movie19 0.39132416 -0.59707457 -0.49624264 0.31573126 -0.7317101 0.002373569 0.6795095 0.070726894 0.48370865 -0.1669777
movie321 0.3302212 0.09883188 -0.098946065 0.031917565 -0.65708 -0.44532523 0.5894003 0.27125317 0.5847865 0.083167076
user539 0.38579518 -0.24157812 -0.14410639 -0.13494313 -0.42159447 -0.53580725 0.4310174 0.08497301 0.4114145 -0.360214
movie429 -0.049229477 -0.12796102 -0.3016988 -0.15466546 -0.33130285 -0.6732895 0.2661442 0.18273571 0.38718763 0.33158493
movie566 0.11032663 -0.06385682 -0.05878986 -0.47756425 -0.054240037 -0.53579515 0.63214654 -0.1064262 0.20183454 0.25352252
user833 0.30791512 -0.17786215 -0.38705936 -0.39628765 -0.2625946 -0.35260946 0.051931664 0.19723389 0.73673534 0.26122916
user567 0.042421073 -0.13902354 -0.30675554 -0.3388178 -0.40337327 -0.55431443 0.25154418 0.009244028 0.51054704 0.06718486
movie488 -0.08992361 -0.13321191 -0.32723436 -0.36684754 -0.54631895 -0.66203386 0.19952263 0.2983628 0.5051711 -0.09174799
movie129 0.21051122 -0.51011884 -0.32131097 -0.19839148 -0.38142464 0.15889697 0.44409445 -0.17467396 0.7585568 0.4173052
movie218 0.2935384 -0.09609071 0.12873949 -0.7019161 0.06907451 -0.23570505 0.510018 0.097261995 0.59466654 0.2630808
user497 0.6558569 -0.32618928 0.07796579 -0.21013959 0.11197312 -0.36512548 0.32980877 -0.09040084 0.33224443 0.454636
user263 0.094547816 -0.048057206 -0.3162208 -0.1494108 -0.2852364 -0.7382644 0.6079047 -0.035458215 0.017009297 0.16479512
movie521 -0.028369483 -0.26976496 -0.314646 -0.41048127 -0.278781 -0.43519107 0.509367 -0.20219405 0.39947408 -0.105960354
movie631 0.08122491 -0.21536802 -0.00074651936 -0.30875993 -0.3541457 -0.7219601 0.22797006 -0.07241894 0.33496088 0.0014789224
user268 0.4439403 -0.25525776 -0.21683697 -0.16663802 -0.21229754 -0.4332664 0.2823189 -0.0586258 0.37580323 0.25935116
user901 0.20388572 -0.3244879 -0.37914568 -0.4549107 -0.42098567 -0.44482407 0.46764767 0.260845 -0.42564136 0.6726247
movie559 0.5906914 -0.17917718 0.22441357 -0.51821905 0.15721151 -0.26585677 0.3488733 0.27102366 0.64866567 0.2798385
movie235 0.51278526 -0.46242678 0.12974313 0.009455378 -0.27794662 -0.15801623 0.35123265 -0.0191322 0.54116833 0.36566484
movie510 -0.2052992 -0.116923295 -0.31812826 -0.2123008 -0.28575918 -0.7573736 0.51034427 -0.23305492 0.1361279 0.2789647
user934 0.24459001 -0.22509101 -0.26211792 -0.20455046 -0.34357843 -0.639712 0.40779853 0.24577495 0.071630105 0.035426144
user484 0.34571493 -0.1407147 0.097985506 -0.075316325 -0.0795395 -0.5168021 0.60322577 0.061330073 0.154352 0.5012086
user479 0.21783264 -0.18780437 -0.28707376 -0.104243994 -0.20450334 -0.55245644 0.4210209 -0.18214466 0.30791566 0.2932124
user305 0.3656935 -0.26473716 -0.17899135 -0.11729856 -0.28682256 -0.5977673 0.3203971 -0.14324869 0.36350945 -0.099108934
user399 0.52348226 -0.22574137 -0.0021581831 -0.32448575 -0.041277353 -0.4340494 0.34087852 0.0435015 0.23689166 0.3806712
movie114 0.44792262 -0.28525114 -0.14665052 0.14553013 -0.2360235 -0.52964365 0.3658953 0.015994178 0.45438346 0.096512295
movie736 0.48651105 -0.32008544 0.041361403 -0.21978594 -0.3529779 -0.66452473 0.3348703 0.008039661 0.060888268 -0.19841431
user64 0.2994147 -0.2202501 -0.04682198 -0.14036988 -0.08179327 -0.51556355 0.42695475 0.0032843554 0.4410867 0.18829465
movie131 0.10470522 -0.17225082 -0.08694754 -0.26352966 -0.25753582 -0.722799 0.22676118 -0.08688692 0.45703802 -0.00031933712
user210 0.15977608 -0.12278169 0.028703999 -0.1893232 -0.24800608 -0.5792073 0.45143336 -0.092424795 0.3418924 0.3196889
movie382 0.49329877 -0.43370306 0.14987922 -0.042189855 -0.3571337 -0.59362406 0.16312677 -0.047736645 0.5113623 -0.32002062
user185 0.16853008 -0.2631249 -0.10271435 0.07075371 -0.70949525 -0.39449772 0.52495235 0.107411005 0.45355552 -0.014535352
user788 0.122991204 -0.090980545 -0.16989239 -0.39983228 -0.24079205 -0.4685711 0.45358077 -0.15678068 0.3562519 0.3244547
movie879 0.3770665 0.3857149 -0.022195496 -0.11502078 -0.4010667 -0.70862895 0.6768806 -0.32128245 0.43981072 0.37470263
user56 0.4256216 -0.2413991 0.121862195 -0.1765059 -0.027647333 -0.4079914 0.512373 0.008190657 0.24255669 0.47209305
movie507 0.00074299204 -0.2115039 -0.19791459 -0.3906801 -0.5353261 -0.5691231 0.26407838 0.15193273 0.39883715 -0.07713441
movie381 0.54308105 -0.41436806 0.015406967 -0.13096619 -0.28777194 -0.499557 0.35842893 0.09556169 0.28450152 -0.28622273
movie45 0.25276488 -0.4367555 -0.25359112 -0.16596194 -0.45435116 -0.38240463 0.47262183 -0.10453678 0.35829479 -0.35110912
movie919 0.6083682 -0.49867424 -0.3204997 0.09199593 -0.10756031 -0.16583137 0.066312596 -0.05193902 0.783385 0.4267053
movie31 0.20102753 -0.110011816 -0.029998554 -0.3539489 -0.07096724 -0.36961082 0.6770223 -0.19182684 0.27117372 0.42861724
movie162 0.012517281 -0.09814383 -0.012824663 -0.36845735 -0.24462707 -0.48822954 0.7909399 0.27007523 0.20434584 0.023572732
user352 0.27372336 -0.317798 -0.37982646 -0.3023431 0.21413489 -0.29524264 0.45129624 -0.33843637 0.5393227 0.3394773
movie431 0.38390207 -0.251129 -0.14967686 -0.18713528 0.11737664 -0.5413888 0.35009253 -0.24279757 0.28858802 0.4265899
user381 0.41658208 -0.27196604 -0.43264064 -0.040765367 -0.31977674 -0.5638317 0.37365213 0.1210314 0.14106296 0.058242198
user486 0.42573032 -0.544101 -0.39477605 -0.25303897 -0.8082647 0.013170305 0.4085313 -0.34739816 0.2784135 0.057070248
movie177 0.3397581 -0.24207664 -0.27162004 -0.28752255 -0.019976584 -0.4920878 0.37053847 -0.19813089 0.278663 0.27851063
movie24 0.55754536 -0.46459225 -0.0864398 -0.054188073 -0.23465157 -0.2137253 0.25302643 -0.15649922 0.338154 0.58730537
movie606 0.014063459 -0.24236713 -0.1779889 -0.4075818 -0.635116 -0.60301596 0.13762173 0.20710309 0.37888494 -0.05297189
user548 0.1536832 -0.18064834 -0.1828324 -0.34561545 -0.33740893 -0.22095223 0.40444696 -0.35817337 0.5810014 0.47311592
user679 0.3016112 -0.18904491 -0.043469522 0.015307511 -0.081682846 -0.46810466 0.5432676 0.0010856648 0.47302568 0.2710603
movie1039 0.2863698 -0.15461914 0.047071878 -0.119582295 -0.16074567 -0.71390843 0.43095493 -0.1882857 0.21363327 0.17407338
movie81 0.37035558 -0.3292832 -0.25854486 -0.12887895 -0.004473335 -0.51716167 0.23909648 -0.049803596 0.5022034 0.10260167
user555 0.43445134 -0.3729813 -0.1316259 0.18439423 -0.49527565 -0.17436545 0.5752507 -0.0056732777 0.4172798 0.2678752
movie707 0.43225682 -0.3926952 0.059119143 -0.14187554 -0.49234775 -0.53943205 0.42167106 0.095635094 0.2003506 -0.3854677
movie189 0.61443603 -0.3926384 -0.011833685 0.19310783 -0.21749558 -0.6393315 0.14977789 0.123820595 0.41338503 0.0168784
user468 0.302837 -0.40332112 -0.18959278 -0.15031114 -0.25924924 -0.28965363 0.41504717 -0.16231938 0.39564264 0.17228618
user2 0.3986527 -0.17940788 -0.41971046 0.15976144 -0.58317184 -0.14539623 0.9493023 -0.16898233 0.39670485 -0.023874432
user664 0.07915725 -0.19094475 -0.051430035 -0.23086378 -0.40673062 -0.59324104 0.35647398 -0.04860516 0.42442268 0.00015233345
user908 0.04637179 -0.14504902 -0.25697106 -0.25268236 -0.24932823 -0.51985943 0.41109124 0.068532266 0.4687089 0.16988765
user927 0.5876338 -0.2394648 -0.02602685 -0.12509006 -0.12168053 -0.52421945 0.3204354 0.16228943 -0.067338794 0.84383845
user621 0.61295396 -0.2835366 -0.012586873 -0.2031162 -0.09647733 -0.39759868 0.30875042 0.024075432 0.17413367 0.5504822
user494 0.007983897 -0.20676899 -0.0036598735 -0.11483078 -0.38592157 -0.43893042 0.56418777 -0.20806281 0.41936478 0.29426527
movie47 0.4560736 -0.32357112 -0.16260386 -0.17264627 -0.16420195 -0.57308376 0.086243644 0.13756493 0.4431511 0.06918656
movie68 0.58014417 -0.3399213 0.09312906 -0.2811626 0.28915685 -0.40844694 0.3812949 -0.16729575 0.3109816 0.4700869
movie529 0.08139784 -0.2686564 -0.41823006 -0.20800678 -0.42559457 -0.71677214 0.10972069 -0.28307372 0.41893554 -0.06261405
movie470 0.43415445 -0.3039895 -0.13673958 -0.30516452 0.09804985 -0.37434173 0.44934538 -0.18409124 0.18447062 0.48518768
user407 0.2882569 -0.20016818 -0.0069676857 -0.2369585 -0.03587469 -0.49116117 0.4155303 0.07007339 0.44061568 0.21904692
user298 0.024424953 -0.19348113 -0.08173557 -0.23648459 -0.38588724 -0.6561568 0.444341 -0.16754632 0.083047956 0.3027747
user392 0.17828259 -0.073016584 -0.37828624 -0.11862869 -0.5420655 -0.56351066 0.3032605 0.082377836 0.5037135 0.03691213
user15 0.26943746 -0.27955964 -0.23526914 -0.0017842173 -0.79949236 -0.08300096 0.81119853 -0.11258366 0.18697594 0.35495558
movie380 0.5348994 -0.21370383 0.08285443 -0.0034761748 0.08205378 -0.7088678 0.40065604 -0.25612292 0.12983908 0.37990293
user650 0.09430772 -0.13593751 -0.08090547 -0.30161804 -0.2013894 -0.6885259 0.33057678 0.0691007 0.20537598 0.35058063
movie661 0.043717146 -0.07272816 -0.21206045 -0.19923417 -0.44711378 -0.8237191 0.22844882 0.108693905 0.3563645 -0.014988929
movie77 0.16515988 -0.07624389 0.045755833 -0.46826568 -0.0046285014 -0.3476493 0.73297554 -0.06292417 0.35852504 0.23847154
user194 0.16150309 -0.25171682 -0.07572085 -0.2790805 -0.20018452 -0.51343447 0.38129333 -0.040026825 0.29609513 0.27619255
user527 0.101451814 -0.2594346 -0.25042176 -0.15632586 -0.37072355 -0.49185383 0.3258454 0.08059725 0.46096966 0.08984087
movie513 0.13555534 -0.22770108 -0.4844524 -0.16803093 -0.49564418 -0.6395156 0.13469847 0.15446347 0.51578176 -0.14216053
movie241 0.37378713 -0.20110948 -0.008143756 -0.2730039 0.026494633 -0.2890331 0.7203571 -0.026637124 0.36345518 0.18187414
movie1016 0.2710856 -0.16712326 -0.14296316 -0.18185014 -0.21828316 -0.25505897 0.635895 -0.024993984 0.17305456 0.7537177
user456 0.52529144 -0.43606007 -0.18178916 -0.25781044 -0.30078536 -0.33462045 0.21096319 -0.0028953166 0.37089583 -0.0039393455
movie447 0.32524905 -0.081274755 -0.1085011 -0.4777662 -0.061985176 -0.27958643 0.29883918 0.48167512 0.72689515 0.3738086
movie59 0.4174939 -0.5042413 -0.33113045 -0.34713167 -0.35075712 -0.38101202 0.2497749 -0.020217074 0.25734445 -0.25782347
movie517 0.21221228 -0.30168113 0.06308801 -0.081855826 -0.47092527 -0.6421213 0.07847995 0.11421962 0.6987661 -0.17367351
user489 0.40790015 0.367182 -0.11722568 -0.23200217 -0.33343914 -0.77634466 0.5380999 -0.6142606 0.56088483 0.2043571
user326 0.025385566 -0.04796241 -0.16014811 -0.32322612 -0.19523041 -0.66646266 0.38003013 0.21819621 0.32485956 0.30792964
user394 0.38380405 -0.22464572 -0.0903911 -0.23814778 0.14750864 -0.29387882 0.5049755 0.01999167 0.45652008 0.5048228
movie633 0.045654584 -0.091404155 -0.10813094 -0.2422986 -0.35200614 -0.695163 0.44430402 0.068374924 0.17460921 0.23957427
movie430 0.24756627 -0.27368736 -0.062233515 -0.15771584 -0.39700818 -0.5889057 0.033195883 0.26663557 0.6034404 0.07005764
user599 0.41716602 -0.38852736 0.6372762 -0.37191486 -0.9858443 -0.18117632 0.3458719 -0.278728 0.125312 0.54357255
movie652 0.5926416 -0.44361576 -0.27892843 -0.18892759 0.04228426 -0.48669645 0.10590599 -0.28330344 0.5168476 -0.044548344
user790 0.5222365 -0.4110662 0.21897586 -0.19265044 -0.07192087 -0.21498086 0.49090987 -0.070832066 0.30854633 0.42075905
user872 0.29264566 -0.10853978 0.15350409 -0.39901942 -0.6309679 -0.121414594 0.5658961 -0.16588657 0.27323642 0.8227911
user348 0.21788846 -0.35030478 0.26127753 -0.19843309 -0.8384222 -0.04785728 0.3149342 -0.058270056 0.41111124 0.8932272
user455 0.23351455 -0.23682523 -0.07061938 -0.14374055 -0.25449815 -0.3325584 0.6498799 -0.08039588 0.3275321 0.20103045
movie10 0.29668352 -0.46232218 -0.3530362 -0.13547763 -0.513396 -0.3063308 0.38340902 -0.124061294 0.34380504 -0.112737276
user207 0.18407626 -0.27577767 -0.048532855 -0.2505118 -0.28640866 -0.43468773 0.466966 -0.1626116 0.2190469 0.35451302
user320 0.5701697 -0.361873 0.014983801 -0.31435022 -0.013874076 -0.28044048 0.35252106 -0.087277085 0.20822847 0.59408045
movie604 -0.19775918 -0.14870045 -0.13416845 -0.41412637 -0.8532104 -0.75428784 0.10908246 0.0060948976 0.28392568 0.05777011
movie746 0.52515674 -0.25956985 0.023208033 -0.10944728 0.064134106 -0.49347356 0.37661454 -0.14353837 0.32956398 0.3990465
user83 0.34668955 -0.27384982 -0.078426085 -0.33617386 -0.25184983 -0.28333145 0.7685552 0.15429296 -0.23248841 0.518344
movie923 0.36295328 -0.26703292 -0.39703867 -0.21189027 -0.3205341 -0.60734266 0.32641962 -0.09964662 0.3294973 -0.33772412
movie501 0.34653267 -0.25520846 -0.14641266 -0.29867238 -0.1879672 -0.54550797 0.25272852 0.17805614 0.13318338 0.44170696
user891 0.03750692 -0.38304907 0.16069399 -0.353929 -0.99728876 0.1350015 0.8310754 0.02793652 0.15668584 0.50909007
movie506 0.112401344 -0.22241172 -0.010382271 -0.4925388 -0.37800705 -0.5504845 0.31271282 -0.04050566 0.33460808 -0.04055726
user14 0.32512268 -0.37917802 -0.23017488 0.13382591 -0.42514336 -0.3387559 0.45021662 0.08040402 0.52371067 -0.03275985
movie410 0.39732975 -0.3509723 -0.055676036 -0.1375889 -0.43901333 -0.11825441 0.36719075 -0.1393149 0.4607648 0.5667113
user943 0.30869928 -0.15808952 0.08801797 -0.44248155 0.039586414 -0.28027287 0.49503323 0.10688906 0.5118427 0.3868533
movie516 0.18019237 -0.2681916 -0.12538329 -0.07822618 -0.3982918 -0.6558165 0.2818951 0.081351765 0.3941102 -0.10012391
movie815 0.4441493 -0.3327296 0.43480924 -0.24571022 -0.47710323 -0.096823104 0.67724633 -0.09756366 0.2415637 0.4201634
user225 -0.35595042 0.014699758 -0.29203534 -0.47293794 -0.6138757 -0.792234 0.40092322 -0.01540634 0.15951289 0.1755857
user640 0.5936102 -0.16966008 -0.20468366 -0.06278295 0.12086416 -0.47679448 0.41516644 -0.036141925 0.43476 0.28444955
movie226 0.23313455 -0.19329739 -0.14294697 -0.34224987 0.1299123 -0.26845112 0.71010405 -0.18403125 0.317615 0.48653856
movie65 0.31494138 -0.3547083 -0.057018854 -0.24781494 -0.31185555 -0.41715217 0.44498163 0.09672208 0.17006713 0.086366534
user460 0.4106858 -0.5526738 -0.5777805 0.1526661 -0.6167674 0.04766232 0.66255414 -0.14780402 0.51525146 -0.13732465
user206 0.48314208 0.39985505 -0.5757439 -0.25217623 -0.26734027 -0.4382241 0.7303924 0.0373406 0.69215375 0.17606755
user903 0.18983038 -0.35837808 -0.1923854 -0.3957331 -0.2861373 -0.28581005 0.36414206 -0.22985795 0.4580245 0.102718115
user825 0.24228613 -0.31842744 0.14269584 -0.1456044 -0.61562127 -0.1408763 0.42203945 -0.38096404 0.34936467 0.8235249
movie969 0.20519826 -0.13848808 -0.0013706008 -0.0070114345 -0.28654823 -0.7494045 0.40364608 0.206047 0.034615774 0.49193224
movie157 0.18262194 -0.23472625 -0.06736166 -0.44913277 0.040656216 -0.33698556 0.73960334 -0.21398483 0.26215607 0.1269181
movie311 0.6475047 -0.06876893 -0.61544174 0.33329812 -0.46253514 -0.51783246 0.84329724 -0.12590788 0.2645742 -0.27109262
movie465 0.4310049 -0.1976187 -0.1393046 -0.20128216 -0.2566596 -0.7274108 0.26524103 0.2721941 -0.1804496 0.5415434
user868 0.3881607 -0.3181866 -0.28327698 0.075388156 -0.22403677 -0.3757209 0.30779034 -0.03619797 0.4978939 0.3897936
movie52 0.34283376 -0.4182037 -0.059327707 -0.1500372 -0.5198935 -0.63968873 0.10195905 -0.040185474 0.37401843 -0.2966007
user250 0.24178453 -0.2983845 -0.19036119 -0.20606121 -0.29847917 -0.3251372 0.30054924 -0.09339529 0.45955735 0.41809508
movie685 0.1512271 -0.34465557 0.095849775 -0.334238 -0.44719192 -0.035565116 0.59242404 -0.22520448 0.28857395 0.77279544
user661 0.34924057 -0.2552438 -0.11723891 0.009124559 -0.19395842 -0.59377724 0.41867638 0.05625227 0.2413385 0.22810206
user902 0.16109054 -0.0757249 -0.22843526 0.018179592 -0.22865374 -0.59873044 0.68065065 -0.20637798 0.17440417 0.3228885
movie251 0.39696434 -0.38621807 -0.56519336 0.19522846 -0.57104105 -0.17157821 0.7877019 0.041477744 0.40411997 -0.29360962
user216 0.34103718 -0.43094012 -0.1270218 -0.27075717 -0.081455305 -0.17163458 0.4225361 -0.28436866 0.48865652 0.28851143
movie324 0.5581216 -0.15868288 -0.26832873 -0.09575725 -0.3159041 -0.2568028 0.2681354 -0.23148884 0.9692423 -0.03167728
user867 0.1781378 -0.223531 -0.3815988 -0.12531579 -0.1481824 -0.586124 0.37542126 -0.34597203 0.3603031 0.21459846
movie331 0.14920294 0.31892604 -0.33664513 -0.28231907 -0.41632423 -0.6531354 0.34708807 -0.2173652 0.7166444 0.33372885
movie404 0.34377578 -0.20982057 -0.15489674 -0.29649603 -0.12117668 -0.5759566 0.28542715 0.2865973 0.051945113 0.5296011
user44 0.2707999 -0.15087417 -0.24044934 -0.018963415 -0.10140292 -0.47961637 0.4525544 -0.08736625 0.41377243 0.47765127
movie472 0.21745932 -0.3262585 0.091946214 -0.16311818 -0.4942294 -0.24229003 0.4418443 -0.16793226 0.22354147 0.73177177
user357 0.3009027 -0.5039899 0.32124323 -0.15596452 -0.8415029 -0.062232297 0.42425662 -0.085802555 0.17035538 0.6703214
user454 0.2282113 -0.023839176 -0.19124496 -0.2131596 -0.31999946 -0.65880626 0.48976362 -0.07617386 0.11377097 0.27964625
user543 0.39567956 -0.28641087 -0.25221705 -0.2541641 -0.14674121 -0.47829634 0.33793944 -0.00533261 0.29215285 0.05631645
movie291 0.18040591 -0.2729004 0.118098974 -0.2678702 -0.47162837 -0.060988426 0.56836545 -0.27706832 0.46141264 0.68516815
movie73 0.4064466 -0.13975339 0.026977818 -0.17060934 -0.0899784 -0.5149651 0.6753929 0.061706334 0.019538796 0.36188397
movie51 0.26488328 -0.16067111 0.21690246 -0.37368587 -0.18391098 -0.4594657 0.5927638 -0.107631855 0.19015817 0.30673152
user663 0.21628553 -0.15072256 -0.039647963 -0.42935434 -0.4435753 -0.24098699 0.49129978 -0.41567442 0.45533696 0.38054982
movie249 0.5779474 -0.5097344 -0.046777092 -0.19749199 -0.35375166 0.035233323 0.38263774 -0.18452908 0.5091491 0.37267286
user627 0.2473092 -0.17297566 -0.014956436 -0.27580434 -0.028516462 -0.48792464 0.53169036 -0.34502634 0.38141376 0.23414598
user613 0.065840095 -0.17788543 -0.11902095 0.056200594 -0.43725932 -0.5144564 0.51822144 -0.27402198 0.49394473 0.16811699
user861 0.70070934 -0.5330086 0.24120744 0.008868001 -0.5978198 -0.4809044 0.2542617 0.0027232277 0.41369334 -0.62248415
movie694 0.59675467 -0.55455726 0.061128043 -0.028279543 -0.20218222 -0.4508256 0.5260314 -0.08192153 0.2453328 -0.4816061
user553 -0.042980213 -0.23557772 -0.17456402 -0.2892674 -0.53509915 -0.6135623 0.2659748 0.041539814 0.29175797 0.093476266
movie596 0.39769635 -0.29007378 0.16790226 -0.07742083 -0.5998184 -0.31535074 0.4306205 0.18577214 0.1590631 0.5188227
movie762 0.45382857 -0.39747396 0.23477255 -0.20015053 -0.36374107 0.022277204 0.6045022 -0.27448502 0.5572581 0.31245294
movie219 0.35257834 -0.05553212 0.2634495 -0.7140015 0.121585794 -0.15067562 0.35914543 0.36054492 0.9822256 0.33222458
movie550 0.45579553 -0.23868395 -0.16309255 -0.4432663 0.14810872 -0.37695318 0.43839717 -0.14907923 0.1556621 0.58413124
user491 0.2843241 -0.38020927 -0.56577116 0.11222097 -0.61047196 -0.16045183 0.3573836 0.2440111 0.67503816 0.061623663
user734 0.17443396 -0.25822562 0.008988124 -0.017624987 -0.4586368 -0.53552526 0.45835072 0.08563513 0.22533254 0.24640338
user118 0.35396618 -0.30520794 -0.25235653 -0.46785328 0.008060825 -0.2552216 0.022135137 0.20780313 0.95765704 0.17321897
user360 0.19448565 -0.38002676 -0.3599685 -0.023377765 -0.40369073 -0.38178387 0.6154949 -0.20497839 0.3848788 -0.27399272
user688 0.23476914 0.71528935 0.20843472 -0.37932065 -0.67945284 -0.88916093 0.798779 -0.14056522 0.44491783 0.21203044
movie895 0.53104305 0.2522509 -0.2382592 -0.3049225 -0.21602216 -0.38120145 0.5374428 -0.12892313 0.6412745 0.50090355
movie487 0.18382697 -0.24848644 -0.16109493 -0.25122032 -0.38416883 -0.6933173 0.5041074 -0.029799653 0.0114845885 -0.16175672
movie724 0.44211444 -0.38526097 0.18663697 -0.22313853 -0.08310947 -0.41557962 0.71807176 -0.21310747 0.07276764 -0.10386936
user493 0.3752649 -0.40530962 -0.2215951 -0.12715623 -0.23713484 -0.30776313 0.24076071 -0.13107231 0.3930033 0.4848271
user653 0.17435391 -0.071371146 -0.06796576 -0.24439226 -0.15695868 -0.42810857 0.5399668 -0.256826 0.40722296 0.44842845
movie109 0.6517175 -0.4196981 -0.13447219 0.3106664 -0.2468504 -0.21089557 0.2371698 0.2460346 0.6185661 0.60188186
user913 0.27838588 -0.19661681 -0.17394435 0.027371597 -0.17714354 -0.506476 0.42902565 -0.08653773 0.5085788 0.23841128
movie217 0.5375785 -0.17740808 0.19517155 -0.54645437 0.16803862 -0.2607952 0.23389824 0.22702356 0.78745246 0.31317994
movie60 0.5542238 -0.552702 -0.116716534 -0.2688845 -0.5034657 -0.4200519 0.0810394 -0.1057077 0.3599531 -0.3224933
user668 0.563258 0.0599993 -0.41131213 0.14184833 -0.26565394 -0.4527585 0.6242822 -0.020689685 0.47142887 0.27932927
user849 0.26723546 -0.22903407 0.12491813 -0.54687405 -0.38704532 -0.48586792 0.29110846 0.34062123 0.00080042 0.4894916
movie747 0.39601234 -0.29317465 0.09297012 -0.33876586 -0.05091093 -0.2702244 0.6895096 -0.058934182 0.3079259 0.06758514
movie221 0.19181702 -0.53584594 -0.4927189 -0.1083998 -0.5759015 -0.14590032 0.41838092 -0.15416084 0.53100485 -0.14743954
user763 0.33013964 -0.49351817 -0.15503593 -0.22000624 -0.18712673 -0.43998846 0.26578832 -0.18584839 0.36379287 -0.09263247
movie184 0.5641859 -0.18195172 0.048737332 -0.30451715 0.124734536 -0.3740292 0.16623582 0.27273756 0.73989105 0.36564016
movie212 0.2500151 -0.35629117 -0.07692591 -0.26936683 -0.4257063 -0.5667067 0.27613524 -0.05445971 0.41870967 -0.34621954
user671 0.2710633 -0.30801103 -0.046695285 -0.37252808 -0.036844008 -0.19128558 0.53004473 -0.019360581 0.26079926 0.65043366
movie463 0.3181583 -0.2758141 -0.19419864 -0.19551675 -0.2795948 -0.47058403 0.5863893 0.13276137 0.23568444 -0.21657169
movie493 -0.05405809 -0.18434562 -0.23096897 -0.2998243 -0.64267087 -0.6928019 0.22195902 0.28255758 0.30537876 -0.030858096
user346 0.25426424 -0.2346539 -0.19490407 -0.34827688 0.10842999 -0.32452387 0.6110834 -0.18910633 0.23629797 0.48156062
user447 0.24382657 -0.34318858 -0.1300846 -0.1479187 -0.21106128 -0.22425108 0.4778061 -0.28306335 0.4716849 0.44628477
user221 0.46799055 -0.38322031 -0.28258577 -0.35576484 0.046525195 -0.18121682 0.33397084 -0.14994758 0.43033156 0.41938952
movie356 0.30561748 -0.23051684 0.05951365 -0.49818218 -0.082077906 -0.3736135 0.58987147 -0.06184893 0.11648093 0.28901032
user160 0.268124 -0.36525476 -0.39160883 -0.26253656 -0.40941304 -0.08285691 0.2469608 0.14637102 0.75095737 0.22153756
user697 0.53804564 -0.2332429 0.02769131 0.041637104 -0.545188 -0.19529559 0.47690538 -0.113986805 0.6203684 0.24021123
movie220 0.28724274 -0.39643154 0.40151525 -0.27502978 -0.8213058 -0.17706336 0.47496328 -0.08626846 0.093696766 0.55116236
movie252 0.32792258 -0.2380023 -0.12997654 0.081314266 -0.5240312 -0.35606772 0.45684466 0.03213024 0.15796876 0.733456
user141 0.24416134 -0.31558764 0.24254277 -0.27763358 -0.7380212 0.020707875 0.6113601 -0.13581431 0.35362625 0.6238268
user566 0.22414829 -0.38125303 -0.17584415 -0.46047366 -0.32609013 -0.48294136 0.23773068 -0.27950233 0.24881287 -0.02408793
user665 0.333273 -0.32285318 0.14599247 -0.14811473 -0.42091134 -0.22934844 0.40480462 -0.07672396 0.4360983 0.44818583
user175 0.001210117 -0.18998522 -0.014182768 -0.3344116 -0.13292415 -0.42217165 0.56811225 -0.32041773 0.3868111 0.3874187
user899 0.23158592 -0.27423796 0.17033166 -0.22366862 -0.18556054 -0.482811 0.6642029 -0.08398706 0.14061843 0.14194743
movie229 0.44401288 -0.21828021 0.044961967 -0.028219583 -0.022217587 -0.6850475 0.33243176 -0.0751072 0.1367284 0.48882368
user126 0.5949275 0.10792904 -0.9550501 -0.4383523 -0.55640316 -0.78628635 0.11579482 -0.47920677 0.020314328 0.29703578
user307 0.5516965 -0.32453415 -0.17789683 0.26404375 -0.012366946 -0.57980996 0.25864747 -0.11485286 0.4010562 0.42617747
movie455 0.45459858 -0.42442665 -0.24979077 0.12191221 -0.21437882 -0.2413664 0.2318511 -0.028410131 0.5141385 0.5965366
user806 0.3512419 -0.3355748 -0.24752815 -0.12972607 -0.007309315 -0.42937437 0.3287003 -0.24205084 0.49137828 0.226971
movie227 0.45077074 -0.27899837 -0.0917485 0.14645837 0.058295667 -0.505088 0.44463924 0.071162514 0.19632974 0.66744965
movie530 0.033357676 -0.19821973 -0.19069889 -0.12302656 -0.37634727 -0.6609064 0.43320376 -0.15874918 0.34549612 -0.043527108
movie148 -0.016478805 -0.20345871 0.09473325 -0.32332602 -0.56905407 -0.120841846 0.6035459 -0.18756227 0.32483947 0.8193326
movie214 0.3382836 -0.27422133 -0.030267308 -0.11555388 -0.039630186 -0.5690789 0.36638764 -0.14791642 0.3131344 0.25626054
movie287 0.19287577 -0.36331192 0.048864167 -0.07576389 -0.8593326 0.053460144 0.690043 0.17409664 0.6637033 -0.015816161
user99 0.40579984 -0.188078 0.010531005 -0.19911203 -0.29790387 -0.18979625 0.5761247 -0.20341247 0.39676395 0.5227176
user860 0.46353126 0.011700172 -0.090333685 -0.006098847 -0.3165911 -0.46493322 0.8363032 0.15719174 0.3452184 -0.13994502
user821 0.195991 -0.31048504 -0.10292317 -0.012531322 -0.5469577 -0.42700508 0.5200864 0.008617882 0.0691274 0.411518
movie281 0.25846997 -0.3065679 0.09833722 -0.47752094 -0.43433538 -0.044550236 0.6987877 -0.18927902 0.26585677 0.3243977
movie607 0.042461637 -0.086709425 -0.14108945 -0.21986388 -0.45480567 -0.63279927 0.3195913 0.17029642 0.46318147 0.08344066
user169 -0.020040445 0.068386175 -0.25303093 -0.15655519 -0.5240006 -0.8000722 0.2759444 -0.07941887 0.41527998 0.27425355
user838 0.41629472 -0.294378 -0.18186305 0.061670914 -0.30827278 -0.5102559 0.41339707 -0.0908648 0.21805003 0.2521762
user550 0.27614874 0.15282501 -0.011951287 0.09573774 -0.5091871 -0.6247733 0.43821582 -0.09180988 0.42992756 0.7012735
user434 0.44324267 -0.48884982 0.4411954 -0.4784214 -0.82305 0.09660926 0.2543817 0.22514492 0.28749767 0.8009469
user890 -0.03428266 -0.0041767946 -0.2583341 -0.18974583 -0.2990006 -0.5968673 0.3679243 0.16933043 0.6396197 0.21887141
movie708 0.029096946 -0.19195509 -0.07672085 -0.38866773 -0.3228403 -0.546371 0.45323482 0.0029092364 0.36389992 -0.049529422
user859 0.73411274 -0.62025994 0.3167029 -0.48736972 -0.63219905 0.19778651 0.47845423 -0.088412404 0.34516096 0.017275458
user294 0.44081157 -0.24645306 -0.091277584 -0.15400176 -0.5668332 -0.20072132 0.3442453 -0.262687 0.43431497 0.5316387
user645 0.23724487 -0.25618222 -0.27663097 -0.5468864 -0.19813508 -0.52592653 0.074055746 -0.01739394 0.5277913 -0.055073563
user204 0.27792493 -0.000720598 -0.4918616 -0.12818043 -0.4462927 -0.27860123 1.0205863 0.16035828 0.4679186 -0.44499823
user246 0.631837 -0.2514359 -0.056256592 -0.13349931 0.09476149 -0.27062497 0.3047719 0.1014972 0.64443576 0.3921521
movie259 0.5162479 0.18579683 0.1736307 0.06420733 -0.4657986 -0.79356307 0.5276431 -0.17599556 0.2012863 0.36841714
user709 0.42371574 -0.3152185 -0.09279251 -0.5212868 0.1105539 -0.18985721 0.42887548 -0.25288934 0.31907156 0.58739936
user701 0.3651702 -0.052091215 -0.42629847 0.3224735 -0.49620786 -0.30222443 0.9452469 0.032441955 0.49562392 0.018312577
movie1028 0.36262035 -0.401561 0.3769131 -0.24896674 -0.51473147 -0.088271685 0.5848708 -0.039079443 0.1910896 0.59952265
movie519 -0.031468622 -0.14048527 -0.20486358 -0.33231783 -0.44812858 -0.7632563 0.22883312 0.07723716 0.2726506 0.024470907
user719 0.03988273 -0.19426966 0.05816958 -0.27638587 -0.34002072 -0.35850754 0.72033334 -0.057541806 0.25430018 0.27035108
user717 0.37533706 -0.097117044 -0.06272849 -0.13498603 -0.7230461 -0.08134438 0.68585104 -0.13210064 0.56019837 0.3166811
user383 0.03983582 -0.14377242 -0.29669487 -0.22792642 -0.3603017 -0.5077827 0.5059482 0.04458602 0.5732491 -0.2146495
user361 0.2388441 -0.2894732 0.0213538 -0.110002294 -0.4103633 -0.539722 0.34073594 -0.029503126 0.49707973 -0.1594846
movie94 0.45106795 -0.21453626 -0.16300076 -0.2709361 0.022615176 -0.5122422 0.5208879 0.44624218 -0.08818228 0.52712166
user766 0.040832423 -0.10477744 -0.18388882 -0.31468725 -0.10306145 -0.730305 0.30868128 -0.17236172 0.37968677 0.16806962
movie740 0.29904294 -0.38630867 0.19268171 -0.11947779 -0.97627217 -0.20574111 0.564299 0.49529812 0.26119316 -0.117983684
movie647 0.22709884 -0.17929912 -0.26337337 -0.23426443 -0.45517734 -0.55957174 0.3537256 0.12290751 0.38291073 -0.11092354
user715 0.48343527 -0.3786504 0.00046862013 -0.26695198 0.06218672 -0.37194756 0.38346 -0.1697472 0.2568672 0.396001
movie486 0.10973201 -0.21071398 0.01388702 -0.2908285 -0.41641474 -0.82222325 0.23782496 0.050158978 0.094673455 0.057225157
movie1007 0.5685645 -0.42171115 -0.16309856 -0.13121796 -0.2610944 -0.17212586 0.51406 -0.0995931 0.5542413 -0.2229151
movie497 -0.0096005155 -0.12587771 -0.11247407 -0.31123218 -0.55353045 -0.76172596 0.2994439 -0.14491268 0.16752999 0.075116746
user188 0.18037845 -0.13716319 -0.006295134 -0.4653381 0.013496124 -0.4384336 0.5313648 -0.15778755 0.31327406 0.40961525
user499 0.18764165 -0.1084192 -0.43593776 -0.25012243 -0.3711667 -0.5163686 0.585566 -0.16057692 0.20304784 0.026399743
movie558 0.48849785 -0.2933362 -0.12253807 -0.32786965 -0.26948455 -0.34720212 0.06742061 0.23539746 0.7861598 -0.05410881
user810 0.45414773 0.38881573 -0.057811014 -0.17677043 -0.6503206 -0.79612327 0.37099573 -0.118522815 0.4270263 0.39821234
user623 0.09707854 -0.13726476 -0.053714264 0.078575864 -0.22079784 -0.5725172 0.5560937 -0.009634356 0.42084768 0.3663142
movie277 0.27893397 -0.35646638 -0.12956245 -0.051526647 -0.48808694 -0.16613185 0.5662193 -0.064965054 0.5601126 0.04098508
user686 -0.02487848 -0.13451365 -0.3481512 -0.31478372 -0.1412424 -0.64773417 0.36430568 -0.23625153 0.41023183 0.14378996
movie473 0.4127674 -0.40471315 -0.19263661 -0.121456936 -0.3488964 -0.31772476 0.38115573 0.035115536 0.20124613 0.28713843
user117 0.37937516 -0.21310295 -0.22149965 -0.059431627 -0.3579353 -0.27859178 0.4527932 -0.28807157 0.3977307 0.5443379
movie305 0.5004226 0.08017698 -0.3305027 -0.17494372 -0.45920023 -0.36847803 0.678582 0.35020527 0.6297329 -0.30140334
user22 0.4260637 -0.16001402 -0.12967308 -0.09123198 -0.013693877 -0.5825327 0.3101255 -0.00037381705 0.32272503 0.5002193
movie792 0.36877987 -0.2121451 -0.052677248 -0.14465912 -0.3572381 -0.57769024 0.3293966 0.14083414 0.40745896 -0.08829211
movie425 0.45910478 -0.3483225 -0.24407935 -0.3084201 -0.03530248 -0.35832655 0.40516058 -0.07792994 0.32754046 0.062219217
user634 0.26559368 -0.26835236 -0.19603425 -0.20919462 -0.50649196 0.07264112 0.71818286 -0.05261236 0.55869544 0.3966529
user82 0.18573979 -0.25640517 -0.07502888 -0.07983051 -0.39266342 -0.52365655 0.34916294 -0.19469677 0.36597425 0.26230863
movie729 0.27184945 -0.21350236 0.038160697 -0.39495596 -0.11225434 -0.4613134 0.58871704 -0.05327781 0.19752067 0.09954579
user605 0.04493274 -0.2616111 -0.069518514 -0.22644609 -0.47157693 -0.39612553 0.58693 -0.23367412 0.27335563 0.15814522
movie928 0.44322768 -0.3012052 0.18818009 -0.39913046 -0.41583157 -0.18173966 0.31298277 0.3929397 0.2318168 0.7093008
user545 0.410005 -0.27381304 -0.05630483 0.023768695 0.0040942193 -0.46517676 0.41280568 -0.015070603 0.27682474 0.6382634
movie538 0.39906466 0.14962544 -0.13493112 0.15612833 -0.46569762 -0.64716595 0.5117029 -0.14902413 0.3440293 0.58875626
movie781 0.51464736 -0.23637749 0.42832524 -0.4276761 0.070300706 -0.39374158 0.81268895 0.07653742 0.02747523 0.08100348
movie1073 0.5983509 -0.4573055 -0.16273218 -0.34288052 0.07837491 -0.28097236 0.00954304 -0.25473067 0.8199704 0.050248828
user607 -0.07583164 -0.4247707 -0.27493313 -0.10824675 -0.6350918 -0.62538207 0.1629761 -0.20479806 0.37405157 -0.043751054
user315 0.28827152 -0.3358244 -0.24148817 -0.15402488 -0.20970601 -0.2720773 0.41474822 0.07264336 0.6657804 -0.013867003
movie924 0.17564172 -0.36188424 0.018876538 -0.30024168 -0.6479932 -0.10893355 0.6737309 0.032011773 0.0066964845 0.54082954
movie32 0.23266032 -0.3700577 -0.60865784 -0.29317135 -0.113903694 -0.51392794 0.0018454312 -0.17643726 0.6962575 -0.028545516
movie33 0.47095007 -0.21519773 -0.07206435 -0.35981756 0.09213622 -0.33953604 0.5555954 -0.007986577 0.31667882 0.2346661
movie165 0.30944377 -0.45092025 -0.09804873 0.020632425 -0.65847594 -0.7008219 0.26445508 -0.21771297 0.13016564 -0.3136217
movie755 0.43598792 -0.27146637 -0.1193446 -0.057709787 -0.118313186 -0.4797962 0.45721063 0.19131684 -0.037769526 0.71149725
user624 0.5342296 -0.25986442 -0.09103981 -0.038244203 -0.4769505 -0.06430931 0.61239755 0.025715953 0.49639904 0.28414404
user478 0.33798593 -0.37507567 0.0069998857 -0.4468336 -0.15069671 -0.18776052 0.6502347 -0.22699489 0.24752787 0.10113946
user863 0.6187498 0.380934 -0.19098206 -0.21761395 -0.38832858 -0.7524403 0.5189829 -0.16567291 0.5421192 -0.02373746
movie584 0.47719046 -0.41509953 -0.09337533 -0.12850122 -0.4172014 -0.6054451 0.29863614 0.036948424 -0.006542964 -0.036489613
movie1012 0.60104567 -0.45032597 0.00760321 -0.16754878 -0.3916511 -0.044782713 0.25273618 -0.31643838 0.5037347 0.55069965
movie553 0.36503413 -0.27290025 0.2527193 -0.44299942 -0.19872552 -0.36494705 0.7803976 -0.123709306 0.033293813 0.020616293
user490 0.40901688 -0.48684257 -0.35852376 0.02899422 -0.3940173 0.08533056 0.3209958 0.13213737 0.8702494 0.36499175
user773 0.65437824 -0.41284847 -0.26141596 0.033997126 -0.06634981 -0.47954985 0.10227545 0.010301537 0.50741947 0.07990319
user477 0.740443 -0.49623692 0.79186547 -0.37197784 -0.38037294 -0.23727037 0.6376528 -0.117661655 -0.06797706 0.062283657
user615 0.14192122 -0.16929395 -0.18300632 -0.20099622 -0.38389894 -0.6573731 0.39387476 -0.02261986 0.4313938 -0.24738494
movie494 -0.10692681 -0.10638585 -0.20822038 -0.33607152 -0.4318174 -0.83000845 0.33863017 -0.031465273 0.23522204 -0.055257898
user770 0.50095195 -0.4522284 -0.27935448 0.020455908 -0.6726484 0.07295534 0.41413733 -0.05531249 0.45586258 0.57695067
movie123 0.32727742 -0.3901593 -0.11343104 -0.16902149 -0.42087176 -0.018199904 0.2898792 0.022846805 0.6777262 0.56983346
movie2 0.51340747 -0.20897812 -0.015635787 -0.37434924 0.09572594 -0.40703985 0.5089637 0.06564534 0.16624197 0.41420358
user839 0.118775 -0.46008882 -0.18451689 -0.11689159 -0.74667895 0.19292973 0.5473692 -0.16933848 0.7185182 0.41038865
user453 0.3696893 -0.34312224 -0.17159316 -0.26343003 -0.12463475 -0.19114079 0.552987 -0.23010767 0.326752 0.36921525
user738 0.3380137 -0.22862086 -0.2750207 -0.034870062 0.025427131 -0.50126785 0.40703 -0.13205062 0.36214435 0.45091003
user632 0.22131763 -0.19493105 -0.11558073 -0.2684343 -0.0007626516 -0.51179224 0.52760756 -0.11370573 0.23153877 0.3558612
user391 0.102375716 -0.26583573 -0.1264376 -0.2591583 -0.28876463 -0.44826686 0.37983546 -0.23804946 0.5276931 0.061206784
user115 0.20108029 -0.46135554 -0.27889088 -0.19257934 -0.19005112 -0.10167895 0.42118686 -0.17349695 0.58526695 0.33856657
movie518 0.1527124 -0.36479625 -0.28927788 -0.41718176 -0.16244549 -0.49597347 0.23492189 -0.38404688 0.46728316 -0.08623331
user425 0.5709358 -0.021866554 -0.19589247 -0.41742152 0.10755719 -0.29561445 0.38758266 0.022044422 0.687134 0.31948256
movie505 0.14612097 -0.22088398 -0.16977657 -0.40163615 -0.45257705 -0.57682127 0.3180563 -0.06292547 0.17206997 0.06937808
movie411 0.35135016 -0.35387164 0.14718528 -0.27936664 -0.5561719 -0.12169056 0.43400586 -0.01128655 0.25951892 0.5955319
user325 0.017879503 -0.21082452 -0.34209305 -0.20709005 -0.39813995 -0.675279 0.15399803 0.15738614 0.37524 0.18238962
movie756 0.3915269 -0.4677775 0.15593618 -0.18593504 -0.68055344 -0.13302092 0.4649617 0.1278001 -0.07948638 0.76983094
movie481 -0.038735002 -0.122941345 -0.2737954 -0.24338257 -0.36188507 -0.8820896 0.22613922 -0.1340659 0.36287263 -0.09404417
user674 0.26383263 -0.22699527 0.054695424 -0.12513703 -0.6645127 -0.07443344 0.67709917 -0.25239813 0.25873953 0.74606305
movie778 0.5449362 -0.21856 0.30220252 -0.2390525 -0.04903664 -0.6019982 0.4494319 0.0656288 0.32414323 -0.11280262
user830 0.20089555 -0.16268183 -0.14891705 -0.21606225 -0.14436707 -0.6649466 0.39865062 -0.11664036 0.09972187 0.37011418
user459 0.4250365 -0.33372942 0.20123503 -0.011194105 -0.6309719 -0.22753805 0.46404555 -0.13913333 0.2161399 0.6481213
user424 0.18444118 -0.03964161 -0.17250083 -0.009988491 -0.8796161 -0.556119 0.3317877 -0.18640307 0.31164172 0.41260228
movie682 0.6289984 0.23216468 0.122182235 -0.46272784 -0.40407452 -0.5040578 0.4538935 -0.34633636 0.4829805 0.30553725
movie155 0.55659527 -0.20620772 0.5621997 -0.4528027 -0.013156436 -0.40387398 0.6397921 0.028689742 0.27332494 0.024998361
movie343 0.40836868 0.2977399 -0.15467383 0.016819106 -0.20708007 -0.66915953 0.2793137 -0.19075905 0.8005398 0.677384
user676 0.3889492 -0.037768487 -0.4842416 0.20600581 -0.37853107 -0.49142328 0.61206645 0.06529804 0.20231257 0.47944188
user290 0.3401274 -0.17172195 -0.12853827 -0.01923767 -0.16632393 -0.5331407 0.5774869 0.090903826 0.061915908 0.454317
user254 0.3842152 -0.18715544 -0.23036791 -0.05293757 -0.10345373 -0.56719035 0.5361312 0.0017928442 0.021436375 0.46299696
user21 0.36120868 -0.04045418 -0.107298866 -0.57277906 -0.31290674 -0.15629269 0.14457458 0.41861644 0.8795779 0.44878003
movie262 0.47799632 0.13140869 -0.53386366 -0.44730294 -0.30582115 -0.26778758 0.5735911 0.30934757 0.7034855 -0.07625202
movie436 0.39205793 -0.03228227 0.12553196 -0.4573387 0.1776666 -0.41430977 0.14552885 0.40289602 0.994247 0.32688305
movie38 0.5165183 -0.26745018 0.052987922 -0.5164453 -0.05408922 -0.38025406 0.45129484 0.19573094 -0.17210859 0.6993487
movie813 0.437391 -0.57748693 -0.48955926 -0.030879695 -0.8108312 0.11223915 0.4985049 -0.010052965 0.50883394 -0.05519808
movie1014 0.6441914 -0.42879796 0.06782863 -0.24426554 -0.36994323 -0.19736639 0.34930018 -0.038635265 0.27129722 0.22785227
user150 0.3479038 -0.49257228 -0.2471131 0.14978972 -0.47828755 0.10169598 0.54462785 -0.29464924 0.7814447 0.33972642
movie92 0.26802164 -0.34563655 -0.21788628 -0.3727441 0.06455235 -0.21971844 0.34000888 -0.30068645 0.6347072 0.34469768
user390 0.30485067 -0.025677668 -0.024250984 0.28584224 -0.70995593 -0.5031339 0.6286276 -0.23575461 0.5171539 0.19688372
movie53 0.44779164 -0.22032644 -0.020006612 -0.5808176 0.21563713 -0.14377797 0.25492385 0.038845334 0.8494259 0.42061046
user759 0.3615516 -0.13734213 0.24983461 0.15385911 -0.5228481 -0.3371913 0.5106082 -0.20052172 0.4420789 0.7303859
user909 0.4907228 -0.2638785 0.15233922 0.18452457 -0.81846935 -0.89201134 0.23219751 -0.45700598 0.3566184 -0.59161484
movie693 0.21338068 -0.19249772 -0.22608818 -0.6085084 -0.04904405 -0.3093098 0.54461724 -0.21201761 0.3282013 0.19325356
movie744 0.2609907 -0.41546452 -0.12716736 0.116441846 -0.7734886 0.06746897 0.780041 -0.060138617 0.59734887 0.070932895
movie477 0.38627604 -0.52213115 0.25654072 -0.19521329 -0.60002744 -0.19080621 0.300569 -0.0630119 0.19693293 0.49017438
movie549 0.2886965 -0.23164147 -0.06401077 -0.28647965 -0.1793676 -0.44817048 0.5698715 0.033133768 0.21512008 0.09517615
user787 0.5782091 0.3737542 -0.049015682 -0.11772425 -0.4547203 -0.6801116 0.7959525 -0.1736236 0.36691734 0.07155085
movie727 0.4394994 -0.2609032 0.020163128 -0.3780175 0.12435974 -0.40093353 0.43726182 0.005150778 0.4654568 0.14165747
movie887 0.37486988 0.046388097 -0.7974226 -0.5954139 -0.46215072 -0.2111181 0.76802135 -0.34730157 0.30316958 -0.10118136
user871 0.5294982 -0.023056572 -0.43578836 -0.2681651 0.026547683 -0.43885735 0.72498494 -0.276506 0.2255918 0.08036307
movie525 0.036479183 -0.17570008 -0.42255673 -0.3165 -0.30109283 -0.53841823 0.2115936 0.037200835 0.5137596 0.2022294
movie499 0.0663372 -0.24222568 -0.048213065 -0.29599315 -0.38116658 -0.6619562 0.24232794 -0.021707699 0.3449951 0.031232195
user462 0.3279391 0.17396124 -0.09658218 -0.122047946 -0.30359185 -0.46019885 0.81818736 -0.3889838 0.43728727 0.35481027
user850 0.21123931 -0.12165632 0.0237848 0.15006821 -0.3094364 -0.6649575 0.6443765 -0.022520658 0.12302877 0.34677806
user735 0.3883177 -0.24570152 -0.2785822 0.17585777 -0.628672 -0.08963623 0.69322395 -0.003252312 0.6591776 0.10473264
