2600 64
user450 0.36591497 -0.1852336 0.08525273 0.32483333 0.116978474 -0.03314168 -0.27776408 0.21479605 -0.034606144 -0.42568454 -0.14440371 -0.038176645 -0.2502863 0.22259067 -0.12945186 0.015333986 0.2582312 0.05876926 -0.0429112 -0.14570633 0.12456022 -0.011268434 0.34418616 -0.23962174 0.050101575 0.038401306 -0.3006208 -0.18535008 -0.039845914 0.19786045 0.08393846 0.11596544 0.4673137 0.15658022 -0.27332127 0.32700843 -0.18110403 -0.10199323 -0.009834763 -0.026850017 -0.029052895 0.08951881 -0.24269094 0.015252434 0.27933636 0.2074496 -0.006448135 0.17665668 -0.30514482 0.24490508 -0.237147 -0.07079161 -0.021053242 0.33504352 -0.017768232 0.14305125 -0.23228088 0.09143215 0.1929867 0.024065422 0.46014643 -0.20152038 -0.107840516 -0.35601187
user416 0.3810637 0.24200007 0.12959118 0.14148179 -0.25281802 0.32123592 -0.20220868 0.059035175 0.041529488 -0.19283642 0.0036287324 -0.04711237 0.19834349 -0.37591255 0.10248456 0.34373477 0.33571744 0.028910171 0.07322212 -0.43526927 0.057466228 -0.12116317 0.29503018 -0.16507699 -0.074332274 0.2773318 -0.07631552 -0.06340064 0.20857613 0.1818284 0.31253108 0.0026754527 0.23491535 0.3036802 -0.08853293 0.37013528 -0.20370726 -0.031263974 -0.0033291606 0.0272865 0.17943615 0.11095812 0.023713669 0.14241411 0.18278283 -0.15721564 -0.0793731 0.06508581 -0.15315066 0.03846051 0.12802087 0.1274781 -0.2064493 0.019981286 0.15771832 -0.012783267 0.034547992 -0.2300644 -0.18509403 0.09088789 0.40923738 0.07454939 -0.18398392 0.0031885062
movie50 -0.053460915 0.37164977 -0.10712644 0.31386554 -0.15257524 -0.30883878 0.0730325 -0.23372193 -0.060425907 0.19711603 -0.058754433 -0.00851337 -0.21405594 0.033024646 -0.111705706 0.0714154 0.09493058 -0.10799995 0.2920202 0.11360391 0.07528893 0.16246912 0.35819414 0.15531625 0.3699502 0.088472374 -0.21748567 0.07138687 0.045900434 0.17106193 0.034559537 0.25004995 0.33836892 0.118677974 0.21450873 0.22762321 0.12250752 -0.2905112 0.14796722 0.17476839 -0.060097605 -0.2913485 -0.1986619 0.27971095 0.28730494 -0.018873243 -0.14657274 0.084967315 -0.09582274 0.24440709 0.06860067 0.31373602 -0.16598897 0.021139178 0.10620909 0.0012733805 0.10958507 -0.13684267 -0.10236872 0.18828729 0.17756541 0.049665697 -0.11043251 0.033352055
user655 0.36009762 -0.05018231 0.18834053 -0.21667188 0.0004030836 0.2530931 -0.088509575 0.60927546 -0.35493827 0.2049013 -0.25302985 -0.08371347 -0.06545478 -0.014126578 0.043253858 0.025427956 0.2619262 0.22191222 0.6024006 -0.04669945 -0.07807302 0.3823907 -0.1291641 0.13839081 0.21179765 0.3069566 -0.13507229 0.042534184 -0.5744325 0.12393985 -0.16668177 -0.32865486 0.16990188 -0.18830533 -0.27859667 0.14878523 0.03024941 -0.20750904 0.32767454 0.122772835 0.3521466 -0.49607512 -0.047380906 0.4390977 0.37665406 -0.34146568 0.051486727 -0.016628832 0.15857647 0.29197735 0.062264957 0.1203059 -0.17597331 0.30039096 0.19634499 0.09322379 0.14538416 0.15535882 0.14468753 0.10066954 0.33519053 0.33278593 0.088512205 -0.27561927
user405 0.36244988 0.27405483 0.51111996 0.38303924 0.03920534 -0.53039706 0.033171494 -0.23056544 -0.095094055 0.30550927 0.05130192 0.44064304 -0.2156787 0.108888164 -0.16900918 -0.034278225 0.40375927 0.21876903 -0.0041294903 -0.044941317 0.4730796 -0.042888276 0.04508 0.08940237 -0.3017071 0.30095643 0.21178482 0.106120944 -0.0598274 0.05338188 0.15571974 -0.11473403 0.07582954 -0.23002854 -0.54819345 0.26119253 -0.37974244 0.115429245 0.42359254 0.49150068 0.54301053 -0.0043637184 0.059937958 0.26628885 0.1593755 -0.10195207 0.30911088 -0.010472873 -0.30334994 -0.2940889 0.08729325 0.46449727 0.1342653 0.15023017 0.008541919 -0.15171407 0.06470629 -0.26392192 -0.11309133 -0.01584207 0.4398503 -0.042707063 0.42735755 -0.2651087
user151 0.5138628 0.11913643 0.34076107 0.43975502 -0.22855517 0.1777285 -0.23715994 -0.12794188 0.13057616 -0.45105264 -0.1846505 0.25897178 -0.13482763 0.091288894 -0.1468974 -0.09433079 0.17084876 0.39671198 0.30202267 0.21726802 -0.11608058 0.29419598 -0.2776526 -0.21182103 0.108915865 0.292634 -0.2023673 -0.28013304 -0.079804935 0.25044814 0.20199549 0.40857032 0.453596 -0.092464894 -0.036085915 -0.18025126 -0.19370636 0.277028 0.22867799 0.3287199 0.048999522 -0.04407775 -0.14604953 0.007964313 0.12211679 -0.0010501165 0.279328 0.09132991 0.11024232 -0.01960898 -0.05675697 0.04423702 -0.5714036 0.27594328 -0.1335719 0.06092281 0.07820029 0.12609456 -0.015539295 0.2625241 0.079477385 -0.3807907 -0.10209886 -0.07359072
user796 0.028690584 0.40086514 0.034804765 0.27198008 -0.27676657 0.55888134 0.034890678 0.20979224 0.12707198 0.023752687 -0.41042444 -0.1252215 -0.22446793 0.07930613 -0.18877862 0.20342544 0.187814 0.011151899 -0.112343006 -0.09102762 0.24519926 0.20346588 -0.020679237 0.47138324 -0.049421944 0.24609447 0.052410655 -0.32237095 -0.21865407 0.21945922 0.28539965 0.21218812 0.18454883 0.34100577 -0.36654952 0.2918468 0.15407866 -0.03315535 -0.12106491 0.41286615 0.045966778 0.11336286 0.007306898 0.081423126 0.3275074 0.07769483 0.2512581 0.031167466 -0.05870892 0.17519988 0.060573947 -0.0011109778 -0.082183436 0.21208982 0.1505149 -0.0928499 -0.24723192 -0.2389725 0.15224026 0.23555017 0.1221783 -0.20603165 -0.1455923 -0.23127587
movie100 0.17802258 0.12639588 -0.06773643 0.25685883 -0.0159208 -0.029906943 0.09797114 -0.22459467 -0.036490973 -0.08782263 0.36782998 0.12848122 -0.24889319 0.04137067 -0.49188942 -0.04177881 0.1805286 -0.26916108 0.19080672 -0.053021997 0.1247611 0.04977223 0.319152 0.025422981 0.0623939 0.102775 0.2071276 -0.12813328 -0.18388176 0.307563 -0.30839851 0.11537135 0.3177484 -0.015842222 0.03477998 0.22623192 0.12827317 -0.05573855 0.20251954 -0.018477898 0.00016239812 -0.22036041 0.109926745 -0.046391223 0.18984668 -0.15884052 0.02431294 -0.31597176 0.06018197 0.20647947 0.10956499 0.37240377 -0.3690422 0.032636117 0.49375138 0.033562653 -0.021025563 0.08121776 -0.20441392 0.2661492 -0.22264436 0.10347568 -0.09599321 -0.081996374
user457 0.39120132 0.36641535 0.12548164 0.27188534 0.12269193 0.20699771 0.0139352605 -0.07555274 0.10840943 -0.005443948 -0.1358312 0.3652555 -0.03561596 -0.2448686 -0.081136204 0.39414194 0.081089 0.24612252 -0.050199334 0.20570017 0.248324 0.16830726 -0.14593843 0.021669682 0.07672548 -0.07470393 -0.2783447 -0.19624315 0.024208365 0.18381992 0.26081875 0.09885118 0.33383912 -0.029258197 -0.09890053 0.23318943 -0.15548034 -0.12833244 0.016616987 0.12555815 0.23292693 0.10671501 0.18843094 0.027415615 0.12370229 0.062060714 0.13873094 0.20414278 -0.17637864 0.6377564 0.47985408 -0.014211047 0.010409116 0.122600324 0.098937936 -0.2473133 0.15563576 0.19995275 -0.047426786 0.31096327 0.08034578 -0.12645115 -0.039058086 -0.064437136
movie181 0.03712164 0.42841753 0.043875173 0.23928593 -0.12334575 -0.12110862 -0.037192937 -0.115093224 0.04349188 0.055190384 -0.081659436 -0.16799445 -0.26431456 0.102313645 -0.18727629 -0.18882139 -0.03201183 0.028228013 0.11115162 0.15549661 0.13224036 0.2095162 0.31864312 -0.0027589272 0.48558372 0.33011737 -0.19215287 0.048628256 0.1287995 0.18677124 -0.06279265 0.10704061 0.45255503 -0.13937561 0.09740495 0.45338973 0.19162688 -0.19110698 0.2679001 0.09342383 0.122665085 -0.08497405 0.0043391297 0.22851707 0.25392357 0.13680586 -0.13461775 0.20293514 -0.29127535 -0.12065796 -0.06316156 0.44030592 -0.31592372 -0.19998494 0.20910852 -0.11967988 0.2801325 -0.2257751 0.039779924 0.20187768 0.042874213 -0.17956252 -0.23891973 0.10210157
user716 0.21340913 0.16198903 0.19702831 0.41407418 -0.15925303 0.19413622 -0.17191577 -0.24737094 -0.12480392 -0.4135381 -0.29884446 0.26090857 0.041396998 -0.25464997 -0.4389753 -0.011872117 -0.047700066 0.13743317 0.21060139 -0.054460194 0.32756227 0.13890214 0.37914923 -0.32487926 -0.086351246 0.035912607 -0.24903212 -0.13027112 -0.13505311 0.21666916 -0.0040787784 0.39365456 0.38334498 0.18328403 -0.097867295 -0.0056757634 -0.034830805 -0.13560171 0.28702822 0.24912567 0.11565064 0.07693199 -0.5357921 -0.0037303008 -0.0042082835 -0.049779158 0.22867525 -0.039596625 -0.28172147 -0.00093988114 0.055340633 -0.13864604 -0.03681276 0.18702231 -0.010644836 -0.13636424 -0.088272035 0.0069205477 0.031622462 0.27264905 0.064896315 0.04579884 0.22994022 -0.1233847
movie127 0.10965372 0.23570059 0.19478455 0.47258696 0.34533402 -0.22162399 -0.04436004 -0.016244518 -0.033125687 0.20673321 -0.022357285 0.09840626 -0.12352525 -0.12936251 -0.15095797 -0.25152484 0.17736319 -0.22443596 -0.014644427 0.15456086 0.18496518 -0.34554332 0.35286146 -0.06265674 0.14500852 0.17084332 -0.078033976 -0.04650561 0.102323905 0.15056951 0.13273823 0.32940975 0.32959512 0.09225046 0.065614484 0.20466788 0.070031464 -0.30776387 0.31625623 0.261701 -0.02442501 -0.53048855 0.12631704 0.060270175 0.076847434 0.046354428 -0.17645173 0.10323442 -0.4206228 0.20157868 0.012899545 0.114365466 -0.31833187 0.39161423 0.44325736 0.044991996 -0.11843479 0.14452122 -0.06516554 0.24575233 -0.22987013 0.33426628 -0.060118556 0.1017085
movie174 0.32727247 0.18639085 -0.19146416 0.4936501 -0.31952295 0.027684366 0.12767546 -0.12149803 0.23716366 0.2739256 -0.13525431 0.18269849 -0.31676748 -0.076219976 -0.08969185 -0.22701882 -0.0057682213 0.025740463 0.15106095 0.11187072 0.29687682 0.032029506 0.35182154 0.11793087 0.050378077 0.2689032 0.049525533 0.023590066 -0.06880901 0.017654857 0.039050736 0.039108034 0.08980286 -0.17454216 -0.09420601 0.3280046 0.09400768 0.005362423 0.24736819 0.19595684 -0.20119514 -0.034962572 -0.002974483 0.11486088 0.20981474 0.11050814 0.028055657 0.11529579 -0.045990054 0.12560433 0.09269048 0.08564627 -0.17568256 0.2072791 0.061941583 -0.048229612 0.23578295 -0.16531958 -0.08737266 0.3541477 0.39362377 0.038618937 -0.2643509 0.18786217
movie313 -0.08656081 0.2749769 0.12200259 0.28952402 -0.024746818 -0.30785075 -0.16897093 0.18408336 0.20830509 -0.16498798 0.15430869 -0.17039882 0.056896515 0.03183254 0.29067233 -0.07761532 0.3792338 -0.18998489 0.119776376 -0.33230376 -0.027784728 -0.022691395 0.027371535 0.26853424 0.35702264 0.39034206 -0.10834083 0.06462537 -0.13531083 0.099146396 -0.11596136 0.4365044 -0.102297105 0.14474358 0.064456925 0.64491576 0.31848496 -0.42021307 0.07019538 0.061246663 -0.29066065 -0.16569085 0.009709625 -0.18322745 0.12862775 -0.044528447 0.17091122 -0.109052 -0.5181966 0.5841138 -0.026929205 -0.1313 -0.43857244 -0.25009012 -0.10795887 -0.4277699 0.021342104 -0.04356016 0.3280959 -0.012355295 0.29757002 0.2949369 -0.6067153 -0.23084131
user18 0.162174 0.3449488 0.06884131 0.50305116 0.028030232 0.22064593 -0.12652943 -0.123682305 0.17604893 -0.31507963 0.16288938 0.50555915 0.06262026 0.023112783 -0.18177585 -0.26499715 -0.011695937 0.052481692 0.27573013 -0.063173376 0.032005683 -0.17837101 0.03113059 -0.5204604 0.040457178 0.20705947 -0.18213461 -0.1882621 -0.038214527 0.17987987 -0.22076383 -0.06245867 0.507994 -0.056634 -0.286937 0.23385268 -0.18029115 -0.22525689 -0.042078733 0.03877947 0.16795398 -0.21631703 -0.09883488 -0.033778 0.27775156 -0.17367616 -0.0040518316 0.17750207 0.27274707 0.118371144 -0.08210482 -0.112767845 -0.44005123 0.41466275 -0.07812041 0.1442053 -0.017532686 0.30013448 -0.06550759 0.42749846 0.21836814 0.3543457 -0.004227452 -0.14204925
movie98 0.15290138 0.12896083 -0.031413745 0.14603508 -0.26779327 0.0585238 0.27677515 -0.22459888 0.06383305 0.27647203 0.061848763 0.32328618 -0.4487042 0.08818931 -0.43732136 -0.01314917 0.09287153 0.09201788 0.11035766 -0.3354571 0.24380961 0.100914404 0.13596721 0.17071334 -0.1682394 0.26963592 -0.02671387 -0.20262374 -0.12283353 0.47985467 -0.14319561 0.04205386 0.13785954 0.08952884 0.15592773 -0.034244105 0.13922408 -0.16234235 0.036944296 0.14417729 -0.32892177 -0.04004573 -0.041983318 0.061483707 -0.0608604 -0.0049838778 -0.23300484 -0.09718444 -0.23743494 0.049841058 0.25797817 0.051436234 -0.12018487 0.30024055 0.21743846 0.06915652 0.06288813 0.01876856 -0.047644813 0.4315887 0.32295412 0.079460375 -0.23149535 -0.19715257
user389 -0.11760409 0.12574013 0.29428938 0.45799887 -0.37702724 -0.11198466 0.00028562208 0.0881321 0.00945518 -0.22068872 -0.32297754 0.20940933 -0.109500505 0.23443063 -0.19938895 -0.010647813 0.5421427 0.15378916 0.38612956 -0.08348603 -0.104335204 -0.51062477 0.19145602 -0.3647319 0.29939806 0.20789377 -0.13947529 0.06583862 0.016193649 0.37101218 0.010120408 0.14006238 0.46608335 0.029959911 -0.34035167 0.100144744 -0.029656017 0.012960544 0.0125626 -0.02783363 0.13371152 -0.21973234 -0.60380435 -0.110348836 0.070714764 0.19437446 0.15653045 0.05729565 0.03718993 -0.07313958 -0.14831634 0.14910917 -0.31929365 0.40472427 -0.20407185 -0.13294275 -0.28372118 -0.22239369 0.27774408 0.33824587 0.13077532 -0.09334519 0.12295096 -0.06752489
movie258 0.3522412 0.33720297 -0.33455482 -0.0083073815 -0.046366192 -0.32845962 0.25627577 -0.21573652 0.14347562 0.13215064 0.009716153 0.07474639 0.13950376 0.32337752 -0.19885173 0.1251018 0.28641883 -0.055659518 0.4693871 -0.17466615 0.24100092 0.41702032 -0.12013478 0.07327906 0.22647975 0.2707073 -0.24957518 -0.03761662 0.2997996 -0.06601107 0.047542907 0.5300656 0.33525673 0.1912198 0.29129013 0.38456392 0.37470964 0.038694452 0.073020205 0.24294354 0.09409972 0.087316975 0.03698427 0.21588206 0.1050483 0.19381265 -0.080452904 0.04711152 -0.16004677 0.38821632 0.044845525 0.27836975 -0.5615689 -0.09289033 0.22496091 -0.09949714 -0.004802679 -0.041468084 0.2207104 -0.14687768 -0.0978153 0.27200815 -0.10838836 -0.34324136
movie286 0.46601182 -0.10626663 -0.032472864 0.31755307 -0.12897934 -0.45708197 0.49747914 0.2495308 -0.07648397 -0.11248184 0.1479064 0.2034499 0.03661089 -0.13250889 0.04513032 -0.30836335 0.62210584 -0.22885016 0.231609 -0.4592328 0.19034062 0.033953443 0.09354802 0.018450456 -0.17033017 0.1900882 -0.41039008 -0.08518466 -0.22041568 0.078867525 -0.05381845 0.64299875 0.30103058 0.23703495 0.36550894 0.41403726 0.054507237 -0.16059767 -0.21888475 -0.12804794 -0.13628149 -0.16488625 0.25969872 -0.021476474 0.342522 -0.23435658 0.23944211 -0.20098321 -0.00065710023 0.07989047 -0.15030372 0.10699729 -0.4717775 -0.17181157 0.14714316 0.13700669 0.19379863 0.23036945 -0.09361018 0.14189154 0.02069078 0.22690557 -0.18906108 -0.23487644
user642 0.22912173 0.45121825 0.17702535 0.65809 0.23122819 -0.061793115 0.30263004 0.15614182 0.31337747 -0.14974488 -0.24405867 -0.2487297 -0.01921031 0.30415937 -0.17389953 0.548434 -0.016635254 0.30868685 -0.26973864 -0.14269082 0.33689663 -0.035848398 0.43010885 0.08375335 0.01281999 -0.07004462 0.1282513 0.20646678 -0.079584345 0.32347113 -0.24937749 0.007755692 0.059855852 0.41960242 -0.4123478 0.53118044 0.05458747 -0.40487534 0.034828972 0.25003237 0.36657882 0.5233617 0.007999935 -0.017206544 -0.17158483 -0.011845521 0.121896125 0.029943615 -0.218314 0.22587451 0.23006162 0.059204683 -0.5552815 0.06490078 -0.017632226 0.3362768 -0.060294054 -0.090233214 0.29846582 -0.14809325 0.30824903 -0.024220394 0.10292624 0.2932584
movie56 0.31309053 0.178581 0.12044056 0.47837964 -0.3704029 0.027196683 0.2906504 0.087316684 0.22380565 0.23692721 0.0763682 0.34313753 -0.20395155 0.13262263 -0.2464409 -0.068500966 0.17472063 -0.023415077 0.27393058 -0.29512367 0.14703447 -0.15760435 0.4064502 -0.10608273 0.12508453 0.3347114 0.07354468 -0.061716754 -0.08844202 0.45787796 0.058316626 -0.019715574 0.035491977 -0.18772326 0.047228675 -0.12752879 -0.03163555 -0.055188674 -0.27831683 0.2046082 -0.17850333 -0.09766694 -0.07518501 -0.0003771655 0.18595207 -0.15384045 -0.17736082 0.057562057 -0.32357666 0.32224992 0.19959556 0.006721509 -0.05716863 0.28347048 0.21127443 -0.17396843 -0.09538047 -0.007913374 -0.004836672 0.27376944 -0.02977314 -0.20582551 -0.10010213 0.15214644
user269 0.52268183 0.23017795 0.1570369 0.19551282 -0.0004479673 0.6526941 -0.032346457 0.17070822 -0.07177586 0.28813636 0.20888475 0.45650223 -0.46747038 0.25445256 0.32186103 0.352718 0.266398 -0.20836455 0.026246954 -0.07176752 0.4760461 -0.009215509 0.073269986 -0.32532218 0.17349362 0.17436095 -0.21120916 -0.24288894 -0.39202455 0.3164027 -0.13254148 0.14969443 0.43590254 -0.50916505 -0.03714995 -0.076693445 -0.19503425 -0.1259054 0.119591996 -0.21930258 0.38870922 -0.19069235 -0.1808781 -0.114269085 0.023074917 0.20050977 0.18243362 -0.08556835 -0.4859755 0.14477277 -0.2879128 -0.17438394 -0.5484563 0.32364294 -0.28891563 -0.26697734 0.1041591 0.025710905 -0.12703468 0.050554983 -0.17284155 0.23740129 0.07115284 0.13095501
user417 0.22057946 0.15565377 0.32279587 0.53250724 0.08745312 0.034320742 0.52239186 0.28429562 0.023034126 0.45077473 -0.0047164178 0.14631449 0.009473424 -0.1955294 -0.05193573 0.22787313 0.47191933 0.2867229 -0.18943198 -0.3505449 -0.1731289 0.45148817 0.16643833 0.28560826 0.15125783 -0.02747166 0.011194363 0.038041193 -0.123762555 0.38162258 -0.14015639 -0.09951474 0.6555113 0.06344568 0.2760986 0.23230861 -0.30548003 -0.04996936 -0.19031286 -0.03491957 0.11366782 0.12681791 -0.15043843 -0.08893035 -0.37611052 0.15827663 0.164685 -0.14317207 -0.16233283 0.4038259 -0.094782695 0.019646179 -0.23896968 0.27247745 0.002763902 -0.17949982 0.41550815 -0.13365409 -0.09635184 0.0018524406 0.23826109 -0.077343374 -0.010606756 -0.076922216
movie318 0.22860669 -0.035587247 0.10337476 0.14015459 -0.26317048 -0.1642314 0.2965842 -0.074823044 0.06263108 0.022266854 0.17078127 0.15863533 -0.46415016 -0.119508974 -0.2157428 0.09631364 0.035689324 0.035078514 0.5399788 -0.02781034 0.28166476 -0.3862006 0.22287926 0.13365279 0.40507695 0.14270893 -0.325464 -0.15722424 -0.3369636 -0.011816714 -0.08964061 0.08173219 0.29030272 -0.14263152 -0.12095707 0.17186856 -0.05710891 -0.047564026 -0.0015442717 0.14524697 -0.03258348 0.2521205 0.16201986 0.12607057 -0.03476274 0.031977348 0.19598119 0.19531287 -0.30921647 0.040859673 0.055414133 0.007016187 -0.15748464 0.13347894 0.3953814 0.14680709 0.60313237 -0.09954885 -0.27602947 0.28779665 0.17124267 0.44154054 0.032757822 0.07626192
movie1 0.09005419 0.5971291 -0.16213024 0.097083196 -0.17494464 -0.079142965 0.20775962 -0.23420143 0.0024021373 0.06345883 0.17702535 0.013973011 -0.16009967 -0.069576226 -0.37610692 0.08625319 -0.032222196 0.14838362 0.08996881 0.14222232 0.038774822 -0.014372584 0.0007389938 -0.25288156 0.3448005 0.01902277 -0.042241767 0.08631283 -0.033298656 0.1480593 -0.18382052 0.24804658 0.2589237 0.19509877 0.08594124 0.41460332 -0.093978345 -0.25101185 -0.0161926 -0.017594216 -0.066437766 -0.24551049 -0.013837906 0.09473514 0.13681474 0.19746414 0.13495931 -0.016411474 -0.34522587 0.010892612 -0.08378014 -0.031286765 -0.68753195 0.1302833 0.30480444 0.12724634 0.18165414 0.1718364 0.2712242 0.29854032 0.065950245 0.14392927 0.0072381324 0.13916503
user535 0.4120855 0.1059589 0.22252558 -0.05798124 0.12760624 0.19429 0.43186578 -0.32342094 -0.0081844255 -0.42977306 0.000925218 0.25507173 -0.04204094 -0.26947325 -0.3119472 0.10448223 0.16525474 -0.05261237 0.47582567 -0.083097175 0.067203745 0.12699094 0.06668071 -0.25075504 0.1234291 0.22739118 -0.29038003 0.124833256 0.3203516 -0.08602548 -0.35501876 -0.07927589 0.39039034 0.012732321 0.09445539 -0.054339033 0.00773734 0.09941946 0.118395895 0.15670541 0.6099488 -0.2315499 -0.65540403 -0.07501991 0.32166326 0.118558526 -0.021059122 0.33908126 -0.13294949 0.4260477 0.08372657 -0.16053823 -0.23071457 0.35703644 0.036262177 -0.16342077 -0.30127692 -0.042084258 -0.33891857 0.06861618 0.17830661 0.26202235 -0.07125281 -0.13115299
movie173 0.14367248 0.2710102 -0.00072409125 0.58645606 -0.17092445 -0.26812062 -0.06902238 -0.18711057 0.053555507 0.13975173 -0.055828836 0.06511383 -0.3422102 0.030389706 -0.2501749 0.3405846 -0.26656523 0.17798232 0.039045744 -0.27536735 0.07864358 0.09843201 0.134245 -0.085878514 -0.15395457 0.37675777 -0.1542994 0.3146461 -0.0967764 0.033348452 0.12935983 0.1440484 0.47508386 -0.096340045 -0.07700104 0.11882637 0.104535855 -0.032260463 0.08111835 0.24836382 -0.2880063 0.053229164 -0.060900297 0.08080476 0.32514945 0.10466944 0.075458094 0.060201343 -0.19455715 0.06461299 0.15066764 0.022892633 -0.2662324 -0.040889345 0.19524375 -0.3090184 0.3339321 -0.10724111 -0.08624901 -0.006371664 0.3450529 0.020954298 -0.17624828 0.067567706
user805 0.32670033 0.15701605 0.19087987 0.2819483 -0.5127631 0.38895035 -0.4889423 -0.013268516 -0.21706216 0.20509745 -0.22615014 0.20811377 0.2558875 0.23447296 -0.35292375 -0.08504308 0.0046092723 0.10465106 0.5503659 -0.089360446 -0.1687329 0.38069308 0.07760313 -0.10947309 0.03520668 -0.5062024 0.05069019 0.29064655 -0.15494877 0.31782308 -0.038456395 0.1105152 0.22391681 -0.10501656 -0.054022644 0.1803718 -0.16043068 -0.2415505 -0.08617375 -0.12100673 0.6358679 -0.18584983 0.113129094 -0.13797684 -0.13663526 0.081374876 0.04105187 0.03788132 -0.3756746 0.808782 -0.17128949 0.2345914 -0.06310998 0.0015820604 0.20745185 -0.4059973 0.05851582 0.124493375 -0.38598552 0.12657416 0.2512523 -0.002023039 -0.18247107 0.36949852
user256 0.032858286 0.34254107 0.27816975 -0.0024525055 -0.20135535 -0.038835507 0.20601045 0.086954765 0.26149112 -0.006169767 -0.10214497 0.13095528 0.18571466 0.38672027 -0.39836526 -0.01678429 0.18209855 0.121953756 -0.1888348 -0.049644187 -0.12886219 0.56669223 -0.06888648 0.012747755 -0.08087227 0.19539997 0.39395848 -0.13861574 -0.094322294 -0.2641091 0.29693034 0.23902096 0.13286284 0.28375337 -0.278571 0.04741106 -0.13201876 -0.24950872 0.10962369 0.14212818 0.21884102 0.20211044 0.11678614 0.1821263 -0.15876012 -0.31250745 0.391859 0.007964811 -0.21844323 0.29053107 0.50830954 0.20553747 -0.33869654 0.4729321 0.40096822 0.14276136 -0.20592287 -0.5151977 -0.5311168 0.28016406 0.23087083 -0.16618198 -0.74465406 -0.11229916
movie172 0.37261283 0.28056338 0.06768214 0.27753514 -0.1738812 -0.08224314 0.2337034 -0.27607852 -0.13438104 0.13818252 -0.12485765 -0.07032327 -0.3267415 -0.11840235 -0.06903975 -0.10570051 0.061832305 0.10387469 0.17464417 0.12620278 0.006065938 -0.0790315 0.40653455 0.2897536 0.29661304 0.27728066 0.047251016 0.029187202 -0.16810222 0.36658236 -0.08056298 -0.037849646 0.23372133 -0.18046333 -0.13648298 0.33695114 0.079862356 0.07386887 0.052968897 0.12613393 -0.15465733 0.04006924 -0.1830762 0.30312598 0.045144998 0.06639388 -0.13564928 0.16355619 -0.07597172 0.014145895 0.025324201 0.3550649 -0.33205822 0.014703561 -0.2679864 -0.12938926 0.042361252 0.06508588 -0.23667593 0.23412696 0.54927224 -0.093861185 -0.4180935 0.21167469
user437 0.19663636 0.25536004 0.32422924 0.2567502 -0.21322256 0.186999 -0.142059 -0.21572271 0.5317175 0.06921928 -0.19075416 0.1264657 -0.40845066 -0.0839867 0.022632958 0.23286153 0.18707082 -0.041169506 0.51347107 -0.0788312 0.2927771 0.1301149 0.028338723 -0.33412716 -0.2508562 0.07134134 0.06555901 -0.002595027 -0.3467184 0.3623833 -0.37792522 0.27762392 0.42449868 0.16152975 -0.06137445 -0.036631383 -0.09961257 -0.21287738 0.15758054 0.20494878 0.4945633 -0.4225191 -0.23702984 -0.23711865 0.09888226 0.1366798 -0.20247704 0.2874566 -0.33768865 -0.14499488 0.35911697 -0.07777042 0.057586346 -0.059283044 -0.006850997 0.14367396 0.15814073 0.109469414 0.0014901531 -0.040667165 0.14790125 -0.058498893 -0.50423867 -0.55821747
user907 -0.069641136 -0.20003445 0.5925825 -0.0073408643 -0.25911412 0.03561303 -0.005782172 0.2197265 0.17795277 -0.29335994 0.064524226 0.05921248 -0.19670361 -0.108117625 -0.33554256 0.27023223 -0.054921493 -0.04446977 -0.15498576 -0.010732046 -0.11390169 0.42075467 0.0058008092 0.15389584 0.10336414 0.1327785 0.08859191 -0.17018507 -0.09111988 0.10383012 -0.058538742 0.12914094 0.054644346 0.6605522 0.01516559 0.7480398 0.14259073 0.28970623 -0.14789154 -0.21381503 0.014113152 0.11602384 0.35389057 0.046668135 0.15896817 -0.08826949 -0.47011438 0.27842486 -0.2320607 0.012000987 -0.09778356 0.036751986 -0.70196694 0.56482095 -0.059921738 -0.23437041 0.15273993 -0.42314932 -0.024638586 0.48731634 0.1838766 0.44496578 -0.078264564 -0.34121263
user296 0.22837314 0.16536519 -0.11591047 0.4343823 -0.0017673855 0.03334865 0.277588 0.022470616 0.22622797 -0.1750006 -0.08433379 0.59439284 -0.4879731 -0.16773681 -0.17414571 -0.04961399 -0.084079675 -0.30392247 0.15431933 0.32334593 -0.05824109 0.10000756 -0.08689663 0.15423748 0.3962973 0.48960692 -0.06662828 0.10386163 0.032754954 0.15371142 -0.33197924 0.004510705 0.37088376 0.3162842 -0.061773285 -0.050581004 -0.23603629 -0.34040624 0.40545854 -0.202921 0.13515799 0.10111151 -0.09239792 0.38319594 -0.05228694 -0.31474674 -0.29730693 -0.2188006 -0.38389048 0.10658192 -0.10339774 -0.20832376 -0.2587886 0.20159228 0.013621486 -0.42497015 -0.32338738 0.32605845 0.15235628 -0.005553695 -0.0058096154 -0.028821208 -0.34865996 -0.48456964
user503 -0.12361917 0.3318793 -0.08236733 0.5490517 0.25214425 0.40221566 0.07653255 0.20839712 -0.18253468 -0.12205597 0.14487115 0.35514963 -0.5313141 -0.27972537 -0.2884252 -0.24141806 0.17047356 0.07312083 0.47432238 -0.05002134 -0.07015768 -0.11438233 0.011975784 -0.020086817 0.1662006 -0.09760324 -0.20209861 0.2101075 0.24077423 0.0067957044 -0.055381224 0.17477839 0.62445796 0.24300084 -0.1627627 0.25964168 0.08057751 0.4543387 0.3707763 -0.077874005 0.16759436 -0.14636177 0.22163141 -0.19802289 0.28127533 -0.3149532 0.3383063 -0.06525879 -0.20961271 0.017890116 0.5149871 0.111778155 -0.3264829 0.10950463 -0.17046326 -0.3142974 -0.21251516 0.080680974 -0.12988146 0.13542067 0.30259773 -0.088244945 -0.31703934 0.21777618
user330 0.18082918 0.5029014 0.30092263 0.13819887 -0.04599816 -0.20792432 0.0713973 -0.07758389 -0.36025807 -0.2829174 0.119921006 0.23155013 0.005193711 -0.16216303 -0.15089457 0.14918454 0.29299644 0.052706365 -0.05388263 -0.3043103 0.14462146 0.0355435 -0.2831145 0.01141338 -0.018647974 -0.1970556 -0.006621588 0.12566122 0.14211418 0.24631841 -0.48954895 0.464627 0.61014295 0.17863062 -0.45021912 0.23863785 -0.063982375 -0.080020994 0.10945981 0.31089243 0.21579516 0.14426152 0.20761995 0.21505925 0.047393553 0.105673134 -0.09096113 0.26045692 -0.27743295 -0.077291824 0.023445053 -0.12710091 0.017243573 -0.08053327 0.18780343 0.08248771 0.19600004 -0.11266617 -0.22691782 0.6526386 0.346464 -0.15061192 -0.23949312 0.12349247
movie64 0.17124128 0.3088963 0.10882111 0.2725698 -0.010035318 0.10944543 0.31082302 -0.2186837 -0.16635984 0.21126808 0.08169698 0.40164903 -0.35241053 0.21796747 -0.27876216 -0.08181078 0.1693858 0.009320825 0.25747684 -0.10797238 0.11824018 -0.04700614 0.32688782 0.18707514 0.0069919615 0.091739096 0.007986612 -0.23870766 0.12988298 0.23355776 -0.10306318 0.046926938 -0.06070248 -0.16437587 0.052549157 0.2026346 0.08501622 -0.49291354 0.22945674 0.23472533 -0.08072482 0.18259473 -0.03408841 -0.1110004 0.31618494 0.19837941 -0.16328482 0.10853854 0.029579764 0.3072707 0.23822653 -0.30443767 -0.23287453 0.45072567 0.48745564 0.2366117 0.29612824 -0.007721213 -0.08240306 0.25211623 0.17742166 0.20631894 -0.24234632 0.24659105
user373 0.15694712 0.55484384 0.2552072 0.2563582 -0.10101325 0.07460658 -0.28869507 -0.36234033 -0.13652845 -0.12441442 -0.068129815 0.47375122 0.029836088 -0.06296716 -0.11879177 0.15297103 -0.2111691 0.119714975 -0.053832334 0.23118144 -0.16493112 0.11769564 0.62161267 0.095734715 0.23908874 0.15858626 -0.50481397 -0.17470369 -0.49741766 0.16651425 -0.15729664 0.03325402 0.5873256 0.15162328 -0.43672058 0.10946635 -0.25245768 -0.11856969 -0.33750185 -0.08482251 -0.08978983 0.14575955 0.1771598 -0.087764844 -0.114717595 -0.09083224 0.115714 0.40326586 -0.329823 0.21183361 0.17460896 0.08531204 0.0026942375 -0.14473349 0.010464249 -0.04426943 -0.016750643 -0.26971075 -0.17919883 0.09455917 0.39874628 0.08569664 -0.029207347 -0.14791518
user314 0.1944105 0.12196687 0.2323657 -0.09250379 -0.21090148 -0.02334276 -0.028729098 -0.20301902 0.053431075 0.03136889 -0.16119005 0.07567969 -0.22939506 -0.43573806 -0.5468397 0.22862129 0.017209534 -0.36900777 -0.3168676 -0.28834537 0.11659791 0.29992887 -0.14537668 -0.20099677 -0.13900481 -0.044537205 0.33629727 0.23101205 -0.28569064 0.24370088 -0.21386908 -0.026512416 -0.284629 0.20470555 -0.17058487 0.39547184 -0.39637083 -0.27792105 -0.101010524 0.18828113 0.2332637 0.34929445 0.24599089 -0.40227547 0.222507 -0.097157694 0.16492055 0.3990901 -0.26595724 -0.120586656 -0.09305636 0.28187916 -0.54555815 0.39839587 0.51572186 0.13349324 -0.15570727 -0.0669214 0.020103104 0.19950153 0.8388319 -0.23137335 -0.025754519 -0.10772391
user280 0.2636737 0.052930314 -0.0044635083 0.3797205 -0.42050892 -0.120714694 0.21671748 0.22061513 -0.13523678 0.11762783 -0.039123226 0.05094688 0.46980736 -0.07049821 -0.37934777 0.061651204 0.08913794 0.34484816 -0.10889239 -0.12289441 0.43208215 -0.16310425 -0.03318124 0.18864284 0.014484549 -0.051834486 -0.5267388 -0.2365334 -0.12566839 0.72220683 -0.13626486 -0.15578929 0.05205262 0.23643573 -0.53343683 0.28971258 -0.0041588196 -0.11185079 -0.22264881 0.0310067 0.2108348 -0.14729467 0.35994196 0.38728786 0.16494644 -0.040027346 0.011814701 -0.036688026 -0.3253633 0.20707503 -0.018309787 -0.32599923 -0.2324316 0.55862445 0.29224694 0.070242375 -0.13823129 -0.34544986 -0.29522902 -0.015152309 0.113594055 -0.4478778 -0.14226726 -0.4363574
user588 -0.016085757 0.36147493 -0.07493081 0.039713264 -0.06222311 -0.27438918 -0.07320385 0.2297271 -0.15440503 -0.020241596 -0.13705382 -0.14046119 -0.38690454 -0.08364927 -0.21454217 0.35681978 -0.13560198 -0.16090156 0.12431393 -0.29695088 0.011382922 0.08930777 0.43389672 -0.22393242 0.19789708 0.31200638 -0.03445101 -0.16426052 0.092887275 0.68943745 0.23944397 0.0076544248 0.0857163 0.1488175 -0.39887962 0.03774382 0.0024101427 0.059698362 -0.1664932 0.2692209 0.096998915 0.6160776 0.019217744 -0.37356168 -0.022645103 -0.23306254 0.41402513 0.15385841 -0.3821533 0.45433927 0.16138852 0.27293158 -0.6748163 0.015024503 -0.27791196 0.10292504 0.09697964 -0.030477319 0.026742134 -0.024201218 0.409211 0.17470413 -0.3230271 -0.21087147
user807 -0.11491467 0.35951447 -0.21269196 0.26795766 -0.46015418 0.08594349 0.24436377 0.08341162 -0.23146358 -0.30524924 -0.03157454 -0.21572661 -0.08962931 -0.5167706 -0.19275063 0.059496682 0.08345621 -0.11065255 -0.06498414 0.18254532 0.14839116 -0.15748887 0.208007 0.1923709 -0.18151785 0.31562462 0.11748775 -0.28677934 -0.3924762 0.1688041 -0.043438733 0.58273274 0.80737513 0.13023598 -0.3062241 0.103795536 -0.24801177 -0.16728906 -0.07580659 -0.0013312115 0.35933468 0.31145895 -0.44709396 -0.0064343917 -0.081035465 0.27919084 -0.117303096 -0.009807415 -0.23356724 0.14789188 0.33032355 0.496568 0.13923703 0.12124732 0.20636499 0.07996203 0.16545948 -0.25618637 0.3660599 0.098514386 0.34504542 0.08036151 -0.17005862 0.095263034
user887 -0.015085062 0.4712041 0.34641868 -0.14715385 -0.10237911 -0.39994574 0.2535654 0.068641715 0.012429073 -0.084279545 -0.2820225 -0.2651733 -0.10768239 -0.22472113 -0.07285245 0.5370046 -0.2954826 -0.2700463 0.6166889 0.10938116 0.1438959 0.27998084 0.32790786 0.014037256 0.20314415 -0.33289498 -0.14179942 0.16524398 0.02279584 0.5748155 -0.032885365 0.4916955 0.046360783 0.189155 -0.39268464 0.36743337 -0.6933854 0.09248324 -0.011949187 0.20873162 0.06491716 -0.21225221 0.19412066 -0.3033953 0.18546051 0.073268384 -0.032641575 -0.4681221 -0.3496369 0.26077613 0.05591991 -0.019397961 -0.15823427 0.32051957 0.16828027 0.08348783 -0.063000664 -0.56458354 0.36903626 0.32868844 0.09438003 -0.24787101 -0.0023859823 0.4099235
user354 0.6978032 0.04913382 -0.0721466 0.47384283 0.099098414 0.35775766 -0.264612 0.1466987 -0.13771704 -0.23787001 0.11880612 0.25732878 -0.26590154 -0.47985905 -0.26705685 -0.10627232 0.24675831 0.3850838 0.7286202 0.039872307 -0.084446676 -0.008507667 0.18365923 0.122714005 0.06773917 0.033616338 -0.22629426 0.24908224 -0.23381802 0.021882499 -0.44807994 -0.047084723 0.3461287 -0.12923306 -0.18499608 -0.18050675 0.014165777 0.19767806 0.1454796 -0.2633254 0.052632686 -0.06967914 0.031726316 -0.037248403 0.5836107 0.21948308 -0.11810507 0.11139707 0.10017083 0.059607368 0.29566142 0.029108157 -0.4976219 -0.10032107 -0.164327 0.1157762 -0.27750063 0.24650246 0.4486752 0.20609379 0.13218105 0.08242444 -0.08908596 -0.22427435
movie302 0.087847106 0.028733134 -0.10866301 0.41327378 -0.2402386 -0.27327374 -0.18026453 0.28485513 0.20830294 -0.13946027 0.41046318 0.59103304 0.17240767 0.1863844 -0.07735012 0.40748322 0.40402493 -0.37239406 0.487391 -0.30523548 0.13485873 -0.028068947 0.28434137 0.27074018 0.3258238 0.040387042 0.0036381986 0.11786926 0.0068197735 -0.24045376 -0.07065982 0.740983 -0.020241767 -0.27948576 0.2743533 0.3737349 -0.1258926 -0.11871588 -0.011532765 0.34283787 -0.0963703 -0.26724103 0.22528696 -0.056071505 0.4325768 -0.34837767 0.14343117 0.16631582 -0.21775736 0.15864076 0.019059086 0.32803214 -0.37934902 0.092334606 0.15646437 -0.09868159 -0.10176074 0.121114895 -0.0031241176 -0.27608627 0.084245175 0.032693997 -0.11064049 -0.2922624
user292 0.056411266 0.2971047 -0.22949621 0.51496434 0.03217204 0.24709904 0.017771319 0.22104123 -0.16845985 0.023815222 -0.2045107 0.25133684 -0.08544902 -0.20485446 -0.8094931 0.06521845 0.26416424 0.11146925 0.13684037 0.47837868 0.018736243 0.049242835 0.55155754 -0.240867 0.21822071 0.5442157 -0.014613401 0.060474873 0.13421899 0.030931113 0.21685715 -0.03045198 0.28035656 -0.0695019 0.14401384 0.17110997 -0.019052796 0.066012815 0.20740382 -0.013931319 0.30598035 -0.2328233 0.07938386 -0.26876622 -0.031906784 0.32482558 0.25737706 -0.34461012 -0.025683822 0.37806237 0.06307516 -0.26478556 -0.03449545 0.28561753 0.4008874 -0.49827346 -0.10703089 -0.06967055 0.0391316 0.2700567 -0.1263309 0.038618736 -0.25239432 -0.36594862
movie300 0.2022913 0.10895622 -0.1885108 -0.16731626 -0.12097444 0.15392818 -0.2230105 0.041844495 0.31211892 -0.18254817 0.08001365 -0.054074686 0.10891909 0.14216508 -0.5270256 -0.18479376 0.40464234 0.15934014 0.1598643 -0.23517776 0.15908061 0.1737234 0.097369164 0.03432895 0.2286228 0.19869556 -0.5145854 0.10647155 -0.4642935 -0.23949331 -0.44188055 0.7058792 0.026656345 0.2745697 0.363981 0.46406057 0.19149144 -0.329747 -0.03322829 0.3583552 -0.13511103 0.20705435 -0.16529402 -0.05125922 0.24729796 0.05472804 0.19979797 0.07790715 -0.33885795 0.05813882 0.25115737 0.24851315 -0.38922307 -0.04288779 0.17631832 -0.26908502 -0.1896543 -0.38340282 0.24442655 0.12263366 0.00042660726 0.3804506 -0.04250246 -0.08285135
movie269 0.020728622 0.028381202 0.0844534 0.6731987 -0.33685276 -0.14842059 -0.29796565 -0.19293371 -0.18257898 0.1541622 0.2585539 0.3751264 0.02972034 0.10371674 -0.1524554 0.15998624 0.30579594 -0.41740122 0.33125445 0.043635584 -0.25428075 0.23389028 0.16885747 0.33356547 -0.13531916 -0.021015543 -0.5041859 -0.2512597 0.17802219 -0.10247466 -0.23785937 0.66730964 0.09227481 0.0117901275 0.04187118 0.20312282 0.21035303 -0.40658543 -0.3093279 -0.08725026 0.1352861 -0.21598755 0.10276545 -0.066934094 0.36914787 -0.2665654 0.22974603 -0.28000903 -0.19479884 0.29813707 0.012381362 0.42947745 -0.57358223 -0.12498278 0.28955585 -0.06912767 -0.16104452 0.14486514 -0.14724198 -0.15654442 -0.072245836 0.058473986 -0.06852947 -0.08430108
user711 0.3034331 -0.28030372 0.06600241 0.48807988 0.0074565522 0.03535084 -0.3755527 0.06087878 -0.05487803 0.044918787 -0.060575925 0.115852736 0.064106025 0.20908175 -0.05839675 0.2335774 -0.09309571 0.17051002 0.4176048 0.1619825 0.19510224 0.21388271 0.12136679 -0.0020048695 0.05407445 -0.043345302 -0.35611084 -0.17400879 0.15746559 0.008467017 -0.42100617 -0.028424034 0.4615604 0.2538216 -0.121315256 0.2558293 0.010872777 -0.0063409824 -0.23695616 0.1317817 0.31674305 0.3789952 0.4297947 -0.3422478 -0.13291276 -0.25532785 -0.052862164 -0.044964004 -0.4754469 0.13815917 0.4299738 0.15790664 -0.26166916 0.2764972 -0.15381615 0.13377787 0.3341361 0.39443374 0.06114936 0.46380818 0.34980246 0.17354019 -0.4653176 -0.40143445
user270 0.12825944 0.29604396 0.55036527 0.15388411 -0.45865822 0.5056741 0.0598625 0.20435938 0.17738847 0.23509568 0.3230324 -0.05634066 -0.3669812 0.07660321 -0.11638978 -0.038385518 -0.19687003 0.24585041 0.18173502 -0.8213655 -0.15778954 0.12167962 0.21321991 0.13575785 0.15983894 0.34106112 -0.69647956 0.46508154 0.34088147 -0.19923662 0.35478976 -0.33435667 0.2670713 0.18679245 -0.23299284 -0.07250639 -0.2004901 0.008489056 0.1924205 -0.055418115 0.17810112 -0.334607 0.21632165 -0.42955574 0.32731804 -0.20923992 -0.15778817 -0.20145136 -0.6286638 0.12796476 0.37843886 0.36373085 -0.18382515 0.20974208 0.023340141 0.3920267 -0.07798155 0.0031333482 0.0954464 0.2342412 0.06307395 -0.051729724 -0.25208622 -0.32885358
user13 0.12604453 0.18657644 0.0018005987 -0.032692738 0.18332277 0.2712026 -0.41301617 0.34615538 0.50306475 0.0022202134 0.07740993 0.29390475 -0.30302137 0.053170193 -0.1096681 -0.14665811 0.4113181 0.11752568 0.4971322 -0.048387803 -0.06460432 0.18974045 0.004420742 -0.13843356 -0.0789598 0.13902053 0.13333213 -0.48924568 -0.017388199 0.13848543 -0.17429549 0.03974823 0.23194672 -0.21509947 -0.38111976 0.28460798 -0.20579293 -0.053967595 -0.06060787 -0.1345689 0.22516316 0.032856498 -0.49681798 0.007790603 0.14044964 0.2391934 0.21367347 -0.11934625 -0.0964911 0.26550025 -0.29762217 -0.03129706 -0.34773007 0.17497602 0.36267197 -0.027281607 -0.2414924 -0.39200515 0.40639138 0.23253237 0.087164365 0.22105318 -0.09120255 -0.06187063
movie288 0.23565513 0.25523612 0.091186635 -0.018259805 -0.28596142 -0.44135612 -0.4015751 -0.19129701 0.17173162 0.040091105 -0.035798673 0.10930754 0.04725363 -0.14432472 -0.4898773 0.45763445 0.3369692 -0.28343928 0.15697648 -0.4225267 0.18818505 0.45876464 0.14018165 0.33741975 0.10535503 0.4517248 -0.33534187 0.2313463 -0.2549246 0.029444443 0.12380905 0.26692167 -0.24433151 0.105967835 0.2314893 0.37448946 -0.22792478 -0.28323215 0.13788897 0.16835319 -0.21295592 -0.17001776 0.09855449 -0.14527969 0.29063278 0.31907478 0.14007801 -0.042386904 -0.10044782 0.24914347 0.31583548 0.27449697 -0.27716687 -0.054181196 -0.045337558 -0.14696522 -0.26460046 0.25996757 0.05487672 0.060246654 -0.1329639 -0.15958053 -0.23632468 -0.016599704
user43 -0.12831822 0.18616068 0.100881465 0.3344205 -0.25707877 0.09662032 -0.010166103 0.0043887245 -0.054287836 -0.1252264 0.1751068 0.28715375 -0.044072647 0.00819146 0.056145336 0.20468277 -0.028705738 0.07321862 0.026739009 0.102146015 -0.10646032 0.026568642 -0.112131655 0.18932922 0.06942103 0.19030721 -0.19952148 0.036102053 0.2248935 -0.04048281 -0.17880663 0.4797309 0.12331113 0.31215268 -0.46180058 0.18070634 -0.2561274 -0.028569188 -0.34782347 0.269722 -0.17592075 0.35653412 0.004010503 -0.26908755 0.34104866 -0.16193135 0.33181915 -0.008207339 -0.34821182 0.1605371 -0.08017941 -0.16333726 -0.53754264 0.23389043 0.29463792 -0.083439425 0.20070812 0.04226705 0.07197309 0.6384662 0.16408882 -0.10046933 -0.19407578 -0.11723096
user264 -0.053999852 0.2390468 0.07345822 0.3408838 -0.055020627 -0.0007668678 -0.25022623 -0.58223593 -0.114467464 0.2740335 0.06770529 0.36519217 -0.31625456 -0.28668264 -0.36663988 0.17441899 0.05616752 0.414261 0.31256163 -0.610844 0.0010424583 0.55069983 -0.12565434 -0.22904135 -0.30050462 0.053129923 -0.58654654 0.37759414 -0.27321655 0.47759005 -0.001786975 -0.19479443 0.2302248 -0.17965657 -0.21283638 0.1233428 0.08296043 0.3561938 0.13443644 -0.2160821 -0.005979875 0.014553123 -0.2576659 -0.082853585 0.052414972 -0.21008074 0.20816243 0.26691788 -0.17197265 0.42462817 -0.14662594 0.3059461 -0.43610173 -0.061540578 0.105451725 -0.2530818 -0.49711156 0.01568424 -0.084216624 0.46477374 -0.3249308 0.112531595 -0.096686035 -0.10221625
user504 0.2176544 0.12676588 0.083920926 -0.2691635 -0.039129272 -0.06337793 -0.23211056 0.31211475 0.30728486 -0.0432409 -0.043315664 0.48391092 0.07830041 -0.17909336 -0.41895175 0.18507385 0.12613425 0.09957278 0.028765554 -0.13558808 0.3175798 0.08791642 0.42245388 -0.064440064 -0.4086101 0.34098923 -0.24194199 0.22365943 -0.2522142 0.1627385 -0.05489068 0.09247805 0.48319772 0.2939621 -0.20479093 -0.03128956 0.332274 0.11267552 0.48975703 0.13684784 0.10015637 0.05117018 0.15282252 -0.16015999 0.013744954 0.02315408 0.24039043 -0.005886141 -0.36827964 0.57902706 -0.20565699 0.22345005 -0.22631043 0.10431523 0.046164077 0.5021083 0.436173 -0.0065733157 -0.19768849 0.30557305 0.28424373 -0.43273902 0.45477703 -0.12834053
movie79 0.11016408 0.33139548 -0.08621657 0.09024639 -0.17479146 0.19616163 0.11736137 0.31433725 -0.09817896 0.18478602 0.14657043 0.091791004 -0.3709021 -0.14187092 -0.5380305 -0.12578319 -0.026866013 0.35326543 0.3075242 0.0615591 0.089282304 0.050725974 0.13948487 0.0036474487 -0.022806246 0.26149285 0.06398502 0.15183939 -0.10945358 0.102532335 0.18189292 0.11510626 0.043325204 -0.09004206 -0.08409401 0.45321536 0.119888574 -0.20534624 -0.057025358 0.34041846 -0.11017429 -0.07970257 -0.11015895 0.2856317 0.30510134 0.04576731 -0.05464684 -0.019476986 -0.3126464 -0.037445463 0.23032999 0.032150038 -0.07730342 0.43313915 0.008263718 -0.12112514 0.06603296 -0.32948834 -0.27915457 0.24645762 0.22440726 0.15984224 -0.26357618 0.072990015
user707 0.35442114 -0.052086722 0.42317608 0.49540907 0.052706208 -0.10799729 -0.059488222 0.25800347 -0.13102089 -0.68207115 -0.23833479 0.11780026 -0.20053811 -0.15221104 0.47002062 -0.091920875 0.1832292 0.117285624 0.8420463 -0.068568446 0.35998708 0.5035727 0.41346192 -0.0010786608 0.10209549 -0.12753147 -0.35604528 0.23233941 -0.20505 -0.09355962 0.12210932 0.18355517 0.103620104 0.006954459 -0.19146459 -0.044341583 0.061705045 -0.41109067 -0.23781323 -0.51991487 0.271197 0.052291147 -0.2721293 0.047999248 0.06414431 -0.13596134 0.44695905 -0.14812724 -0.029085994 -0.09107353 0.23939246 0.16115132 -0.12434006 0.27914414 0.49555856 -0.18508679 0.12945202 0.2290381 -0.067603126 0.48422584 -0.008731083 0.32891974 0.0028847526 -0.22482625
movie117 0.13739362 0.33887315 -0.15162148 0.028101038 -0.19633059 -0.06593189 -0.11943128 -0.16657396 -0.04321894 -0.12241942 0.0808279 -0.022901667 -0.2505973 0.12769513 -0.22320981 -0.21315432 0.34841117 0.2701849 -0.24647902 0.04786722 0.15693407 0.15556084 0.13090326 -0.036934506 0.4242394 0.35716704 0.00793092 0.1202208 -0.16970779 0.19885954 -0.04442035 0.15395461 0.09432527 0.348089 0.122505054 0.2962043 0.045790665 -0.18948291 0.0064105317 -0.10844229 -0.21688256 0.12044311 -0.1296178 0.28636834 0.37834606 -0.11673484 -0.1377745 -0.20284182 -0.35246307 0.22508869 0.3337417 0.310089 -0.359029 0.51284254 0.075937696 0.13747397 -0.043246448 -0.08704803 -0.06799646 0.31900385 0.0710416 0.0345359 -0.06702022 0.3690036
movie210 -0.013687642 0.3114891 0.19112352 0.06249375 -0.21199098 -0.030174578 0.23025917 -0.3491924 0.13159454 0.12312966 0.22270042 0.20050335 -0.2300271 -0.24223241 -0.1277522 -0.009494169 -0.06983323 0.11369327 0.25060475 0.29826474 0.15996894 0.039205138 0.075861655 -0.0281146 0.06683148 0.25154272 -0.12046917 0.024311276 -0.021269929 0.01594083 -0.101311065 0.0030453636 0.3396045 -0.17261817 -0.10053769 0.44517154 -0.05768323 -0.16697711 0.13722457 0.2171979 -0.273057 -0.030421875 -0.22087754 0.18849504 0.31902412 -0.29910377 0.11664831 0.066283874 -0.20087513 0.27846614 0.03526696 0.17261724 -0.22786017 -0.011100559 -0.14108127 -0.19213067 0.064669944 -0.29179317 -0.31622687 0.17048751 0.45175332 -0.058405206 -0.27435172 0.2063053
movie237 0.21154247 -0.027032264 0.07921218 0.25002322 -0.13612032 -0.14525847 -0.030401893 -0.46757028 -0.08854766 -0.056686137 0.061194256 -0.0068145823 -0.3046186 0.1889496 -0.2553099 -0.026878936 0.28934655 0.14924343 -0.3341696 0.02628501 0.15835528 0.22309263 0.075341225 0.07717887 0.19883612 -0.09494391 -0.046855297 -0.0949224 -0.3525264 0.19773176 -0.33872214 0.28305507 -0.09577839 0.56084365 0.09236794 0.3118118 0.06875615 -0.58049923 0.2895383 -0.06612356 -0.31600088 -0.08254165 -0.16195376 0.030777358 0.4933957 0.06939834 -0.057230826 -0.08117433 -0.4421132 0.16715169 0.080502756 0.18967092 -0.45158413 0.21054381 0.14552915 6.9574504e-05 -0.2426011 0.09196935 -0.07819657 0.07854402 0.08723268 0.10164013 -0.05843666 -0.12561336
user174 0.49044177 0.33767965 0.31381178 0.37306172 -0.49523255 0.026498625 -0.42657235 0.021126991 0.3739922 0.12203119 0.18561047 -0.27703997 -0.304129 -0.052591886 0.28892913 0.40300015 0.51517135 -0.45472556 0.07019935 0.1017172 0.102374576 -0.0006392161 -0.10033367 0.08383541 0.0023741513 -0.025443792 0.0019853718 0.044477545 0.39430687 0.52034867 -0.23237711 -0.03772158 0.054338504 0.32959005 0.16537492 0.1272871 -0.11608569 0.15810923 -0.14438514 -0.1064091 0.040470235 0.31744543 0.031285055 -0.0019506579 0.061862208 -0.4170008 0.25846934 -0.057320934 -0.117101915 -0.121581346 0.11195726 -0.1788934 -0.3594865 0.39782146 0.36498436 -0.20624256 -0.35734406 0.087122805 -0.26478568 0.515494 0.53109777 0.044179853 -0.016056515 -0.39974418
user342 0.14308436 -0.1733623 0.31442982 0.19169998 -0.111796096 0.22911507 0.13576256 -0.21490005 0.013250233 -0.023980483 -0.048721146 0.043696 -0.26867586 0.05612544 -0.041407667 0.40935138 0.32626 0.26444948 0.19988012 0.44751495 -0.0366763 0.05010801 0.32443765 -0.5805235 0.08861736 0.51251894 -0.53897357 -0.0644495 -0.46682042 0.5012206 -0.031994626 -0.019772718 -0.09179957 -0.15499386 0.057807203 0.24332075 -0.18961291 -0.030043343 -0.038002227 0.28757647 0.3530906 -0.37129912 -0.08961001 -0.2436506 0.20767666 -0.32850325 0.20184502 -0.020436162 0.104807846 0.27824637 0.1262465 0.060586188 -0.33527088 -0.09146833 0.056963492 0.1541198 -0.39976165 0.5453993 -0.11214826 0.47867063 0.06542799 0.14377089 -0.30151823 0.006478039
movie7 0.40026352 0.14360142 -0.27830687 0.2854536 -0.39007267 0.00971605 0.1613664 -0.5653188 0.029535193 -0.10681061 0.14460458 0.122630246 -0.14031523 0.13270998 -0.29640695 -0.14535554 -0.067904 -0.25737184 0.18114178 -0.24037348 0.17106035 0.32537872 0.010453938 0.10544893 0.21264735 0.31369168 0.1882794 0.05572459 0.10743129 0.12704766 -0.113903806 0.07537722 0.13133034 0.11187377 -0.15154871 0.21301392 -0.1249042 0.047939844 -0.15787187 -0.20106322 0.055221852 -0.21323784 -0.13513117 -0.08386124 0.14738762 0.2592899 -0.17392464 -0.15064785 -0.32315823 0.4376558 0.2634557 0.154431 -0.37904686 0.18737757 0.3639874 -0.008976881 -0.15385395 0.12021075 -0.089309 0.18168572 -0.19850112 0.075003624 0.012506819 -0.015252864
user345 0.21974802 0.28673622 0.11189065 0.48715124 -0.11058396 0.14183667 -0.38033846 0.2401262 0.316022 -0.17686237 0.12944454 0.48296085 -0.20944342 -0.17885919 0.08528056 0.529863 0.04288108 0.04777417 0.24281289 -0.12274813 -0.23844838 0.27194607 -0.17661558 -0.05531818 0.38586038 0.2669428 -0.16495484 0.013188688 0.28732386 0.4094559 -0.19647065 0.16914669 0.098495 0.1115418 -0.049084347 -0.07037741 0.07471777 -0.0783559 0.07225472 -0.123036526 0.04933815 -0.11535008 0.12635256 0.061145674 0.3339362 -0.2475007 0.008859255 -0.0062887464 0.082988754 0.11559253 0.07326771 0.21235554 -0.12022822 0.14722688 0.4201441 0.0411238 -0.0061158314 0.0034804076 -0.40988737 0.030052487 0.54238266 0.16645727 -0.04561705 -0.24031489
movie121 -0.006320068 0.22467117 0.32262188 0.033556532 -0.13259807 -0.16733171 0.109597564 -0.16919044 0.1694322 0.030239666 0.28449017 -0.01762557 0.012502576 0.20384257 -0.30670804 -0.05465237 0.07340608 0.1537934 -0.07612458 -0.0007327907 0.28630462 0.3947496 0.25954646 -0.068777375 0.34788477 0.28678444 -0.0886701 0.13100363 0.16753305 0.35151613 0.10733672 0.25039527 0.3186801 0.20091137 -0.024365837 0.046426933 0.27337024 -0.19955651 0.27745903 0.059819087 -0.008112637 0.21485381 -0.33815098 0.21623081 0.41342312 0.037874807 0.0021164075 -0.18986076 -0.09259031 0.05607692 0.10799631 0.15940502 -0.4544644 0.11611979 0.31932768 -0.009707256 0.06747095 -0.22422601 0.2589246 0.355837 0.09759202 0.061430376 -0.22883135 0.42542544
movie22 0.3508174 0.032869425 -0.16678463 0.13651416 -0.046371173 -0.44778308 0.051661327 -0.12951724 -0.09826962 -0.105452485 0.15431212 -0.10187586 -0.22910292 0.15171732 -0.3770386 -0.028781133 0.13116118 0.23880945 0.13926595 -0.11790199 0.09830158 0.005380303 0.40893954 -0.07050219 0.115665406 0.22991775 -0.29074636 -0.07865205 -0.17362389 0.10545342 0.06445409 0.0430607 0.13390541 -0.13739468 -0.02389551 0.17262855 -0.08482543 -0.4885636 0.18453926 0.090245 -0.17109069 0.31593573 0.038450304 0.34052238 0.0717455 0.08519655 0.11411515 0.14891542 -0.3952575 -0.05342251 0.29712984 0.034164693 -0.0015136439 0.35009304 0.108657934 -0.6067073 -0.035030726 -0.07810801 -0.0068170964 0.3597205 0.48607144 -0.037069358 -0.40777656 0.19719307
movie12 0.21516772 0.30709854 0.024747144 0.36286104 -0.26142338 -0.027691528 0.029239466 -0.18897457 -0.0044088466 0.14702117 0.1732924 0.33045846 -0.33780032 0.06518283 -0.07377263 -0.045279533 0.19160904 0.11561253 0.35750306 0.008285844 0.10988421 0.15823466 0.35004365 -0.021357467 0.13557811 0.24880774 0.07742513 -0.019149356 -0.22163747 0.24146384 0.26043445 0.08349306 -0.045364782 -0.08186201 0.058425758 0.020286733 0.023667075 0.03542505 -0.075392604 0.32632357 -0.1251436 -0.1385657 0.08248148 0.2236141 -0.0013708322 -0.2223471 -0.05860832 0.24161413 -0.17333697 0.35364845 0.36077192 -0.3031332 -0.33538944 0.17462002 0.37469488 -0.028849592 -0.26379874 -0.014733145 -0.20091848 0.019270254 0.24708419 -0.007898955 0.03293481 0.0216297
movie483 0.04705317 -0.12097595 0.08318955 0.47587785 -0.09519624 0.11160285 0.33266142 0.1847699 -0.13086215 0.14428993 -0.36552507 0.18040314 -0.4592573 -0.28236523 -0.38779908 -0.1002538 0.1452895 -0.22278382 0.3929911 -0.23500465 0.31190673 -0.025939943 0.14625788 -0.056214232 0.11901513 0.13814634 -0.018378494 -0.28393474 0.1446458 0.36981666 -0.028822888 0.11876574 0.20530333 -0.28810027 0.15584631 -0.053676333 -0.106820814 -0.26999924 -0.01159029 0.101408236 0.020517906 -0.17675653 -0.3468826 0.10658391 -0.24363813 0.09713787 0.01845799 0.1831768 0.09970126 0.15115379 0.22217874 0.12242832 -0.3847172 0.32798532 0.16268477 -0.05031473 0.3327715 -0.19555436 -0.060214218 0.18436435 0.103642344 0.10588806 -0.3933349 -0.33269796
movie275 0.272952 0.19814458 0.28709844 0.34946537 0.3654366 0.020977687 0.068460725 -0.21948197 -0.16518469 0.03915426 -0.07138361 0.057383418 -0.13537426 0.07733515 -0.53523135 -0.10355912 -0.21373959 0.014221571 0.16275606 -0.40185127 0.08594575 -0.04999129 -0.0543841 -0.3112283 0.1516628 -0.14492519 -0.31594303 -0.010020799 -0.3769751 0.15638952 -0.1945342 0.2437562 0.2796519 0.2635672 0.102696165 0.19081591 0.13772054 -0.19068386 -0.060328186 0.060227145 -0.038281385 -0.25960734 -0.011270154 -0.004241491 0.4817097 -0.13529296 -0.0006590645 0.045715332 -0.1351572 -0.14591268 0.31654292 0.6637949 -0.23363185 -0.26330015 0.24254237 -0.09428643 -0.0373061 -0.5969842 -0.082867794 0.39675766 0.020297054 0.21072395 -0.10886641 -0.39273858
movie357 0.55030197 -0.11622548 0.31919152 0.2566704 -0.29348668 0.10456486 0.11812353 -0.37061343 -0.19966997 0.058859788 -0.21693376 0.4117934 -0.52021295 0.007826295 -0.06378304 0.029012937 0.12855811 -0.16727924 0.19362083 -0.2218321 0.14533134 -0.23988678 -0.018280609 -0.09366276 -0.31426597 0.193469 -0.15050344 -0.09759992 -0.18934602 0.3194398 0.21971713 0.21509445 0.035038225 0.09850302 0.087266214 0.3857274 0.040537037 -0.40770504 0.16264965 0.0663144 -0.051257513 0.07217935 0.0854622 -0.0067114327 -0.0289173 0.12755793 -0.09491289 -0.03740637 -0.15558739 0.3418143 0.06893766 -0.03905448 -0.23493324 0.087252654 -0.008919185 -0.08289908 0.21333687 -0.13396893 -0.23292716 0.26717183 0.098218486 -0.011843745 0.06077635 0.32042617
movie204 0.2572186 0.35380685 0.15264118 0.034965318 -0.31537572 -0.2988178 0.23190589 -0.2565152 0.12163772 0.34841922 -0.23481753 0.18993741 -0.2882493 -0.36298656 -0.03341472 0.105208404 -0.18382648 -0.0049943975 0.3791643 0.15396504 0.0005976837 -0.1022194 0.1644098 -0.20432357 -0.09652581 0.15110898 -0.08138681 0.06539576 -0.29519993 0.18594708 -0.26787838 -0.06091507 0.2313561 -0.007952706 -0.03827497 0.33369425 0.015187976 0.014745174 0.11615649 0.07581268 -0.15072167 0.121225566 -0.2441204 -0.04781599 0.18834634 0.0076646884 0.2761709 0.24360086 -0.34897748 0.12550084 0.11249541 0.07181025 -0.31647176 0.11521912 0.08847725 -0.13283801 0.0030084203 -0.27291644 -0.22807056 0.25280514 0.04248694 -0.06866901 -0.3168755 0.04349938
user344 0.15359487 0.021864662 -0.21858498 0.3681167 0.3145313 0.5938508 -0.117260695 -0.35356233 -0.013426839 0.18816495 -0.15421642 0.35440183 -0.07536946 0.19705914 -0.076775506 0.46391603 0.024294822 0.04043185 0.11894674 0.054178745 -0.050592672 -0.12689403 0.17779084 0.005118577 0.25882444 0.050297905 -0.1451084 0.40576705 -0.12867832 -0.033049814 0.16138113 0.25973463 0.20198162 0.19453205 -0.12226798 0.08756229 -0.28160727 0.117047355 -0.057280477 0.0038247686 -0.19719432 -0.21688727 0.042381708 0.10220822 0.6140638 -0.12704992 0.17685865 -0.33387318 -0.10626472 0.35446557 0.034065835 -0.16244557 -0.19617221 0.28041893 0.3167554 -0.02867745 0.1637379 0.09057681 -0.1121107 0.23309465 0.37670305 0.2567597 -0.41870782 -0.46805304
movie423 0.074748345 0.26373506 0.063042715 0.47001004 -0.35529026 -0.21156596 0.06106899 0.07494488 0.1950189 0.18803264 -0.14254351 0.08695723 -0.42036927 -0.016715525 -0.13593622 -0.22093414 -0.07212587 0.026073376 0.30732912 0.31129476 0.12952255 -0.28357905 0.03129361 -0.18288498 -0.05766182 0.18605076 -0.07401684 0.01253899 -0.061951056 0.2574249 0.04260156 0.092292435 0.28833398 0.20007461 -0.09552919 0.39051518 0.017989332 -0.020217463 0.35769066 -0.077656716 -0.15771069 -0.13290371 -0.011311463 0.10121394 -0.035236586 0.05951859 0.25401342 0.14376366 -0.15326034 0.19509488 0.074215606 0.15144646 -0.123613276 0.26173478 0.1591137 -0.1894838 0.20955043 -0.08072099 0.024465794 0.09361864 0.5327502 0.081090204 -0.09819901 0.21279642
movie191 0.27208263 0.07753243 0.10050033 0.553675 -0.22444128 -0.03693479 0.22130866 0.0449975 -0.08130898 0.18946673 -0.17316388 0.107496284 -0.41391987 0.16502906 -0.10526322 0.17157799 -0.06513258 0.06792605 0.3179988 -0.19689351 0.2084733 -0.3823231 -0.08443086 0.010282515 -0.0057802685 0.21632873 0.0069019133 -0.056864887 -0.3584108 -0.0026544638 0.06376593 0.1695199 0.32246885 0.12489033 0.023944937 0.05092077 0.07242108 -0.15834615 0.06869239 -0.0035861707 -0.08609359 0.00482731 -0.18373275 -0.11060833 0.043641437 0.013107612 0.15143847 -0.19310626 -0.06390331 0.21813546 0.005763201 0.18859547 -0.22588387 0.11807204 0.33145002 -0.17397399 0.47395626 -0.28161225 -0.33189726 0.13533674 0.33341396 0.40882367 0.21162462 0.009799613
movie9 0.4544802 0.20969923 0.10593367 -0.016185787 0.087888375 0.083124086 0.33111063 -0.38511136 -0.13874663 -0.38473344 0.33577496 0.22503097 -0.34289247 0.1363422 0.13406813 -0.062908396 0.1909842 -0.41403168 0.0903931 0.017834768 0.044507492 -0.14332376 0.26777926 0.059094388 0.039146263 0.17815997 0.012020724 -0.008592019 -0.30329806 0.007273597 -0.14041315 0.06477159 0.07346746 0.20085053 0.1307429 -0.033912662 0.18907845 -0.17358229 0.02310846 0.23315132 0.07678689 -0.14330593 0.031857405 0.10889896 0.13564877 0.040559668 0.17175873 -0.2900181 -0.374113 0.20465307 -0.011950577 0.1990092 -0.496312 0.1687001 0.6917294 0.2234218 -0.22450927 0.0603727 -0.24393474 0.3027105 0.15050124 0.33661738 0.17684077 -0.25856856
user62 0.36847356 0.1367449 0.0013635232 0.3359099 -0.046059903 0.120683245 0.16478465 0.06231205 0.1743943 0.061651144 -0.42055354 -0.26221794 -0.22623527 0.34722054 -0.16737518 0.24692415 0.13561097 0.11033077 0.031340722 -0.44001782 -0.072417766 -0.30350816 -0.17287888 -0.18999577 0.48088697 0.12740946 -0.022535855 0.14516361 -0.38186395 0.09795805 -0.062140282 -0.018612077 0.43758854 -0.23488873 0.14704159 -0.10896053 -0.38903 0.0030339854 0.096393354 -0.031138053 0.4744275 0.24600585 0.049048398 -0.12306607 0.15205988 -0.07915813 -0.20040779 -0.09985026 -0.28031582 0.6512638 0.23870409 0.24170353 -0.20116952 -0.056849282 -0.24192184 -0.2255944 0.14707603 -0.25434527 -0.20298465 0.42272317 0.28908712 -0.11599065 -0.024421945 -0.14333414
movie132 0.29997492 -0.045878477 0.0023139364 0.23809831 -0.24317552 -0.14879973 -0.027653866 0.108826324 -0.010608273 0.05168905 -0.12918787 0.13902369 -0.44770005 -0.05174526 -0.29961294 0.2222751 0.020520872 -0.17640501 0.46927002 0.053131174 0.12978761 -0.1670338 -0.14832054 -0.07190034 0.080030024 0.41932097 -0.045244053 0.013662377 0.028699934 0.18955243 -0.24287778 0.066417664 0.29449752 0.06234689 -0.16793703 -0.12973526 0.0975539 -0.13622002 0.047602117 0.27200803 -0.061398845 -0.004673642 -0.2684351 0.079531215 -0.1490681 0.14203213 0.23045228 -0.061225865 -0.058909267 0.2523147 0.25702524 0.25762665 -0.19015741 0.1545935 0.066495955 0.00838952 0.17727461 0.06788059 -0.03043269 0.4737195 0.4560304 -0.066959865 -0.09231514 0.30467764
user7 0.2010872 0.17858532 0.11753281 0.3515418 -0.1315412 0.15626962 0.43418092 -0.3092747 0.109645635 -0.4697605 0.20999902 0.1250221 -0.0629578 0.0892154 -0.3829224 0.43994445 0.33985078 0.24904157 0.27526376 -0.25506622 -0.079257384 -0.1016869 0.049173232 0.19261865 -0.24323337 0.13814889 -0.12298294 0.09402164 -0.29551166 0.106207035 -0.06534852 0.14279544 0.47848684 -0.23590897 -0.35350668 0.111060575 0.005248101 -0.14691848 0.35203305 0.07796508 0.20011084 -0.07312081 -0.1046225 -0.04073028 0.016648753 0.21113813 0.36734837 0.022434589 -0.25503442 0.24837923 0.0814382 0.28196135 0.16257977 0.5499852 -0.18501545 0.14458653 0.0730503 0.20915094 0.03770798 -0.16339369 0.35759443 -0.024830732 0.23940194 0.010247277
movie427 0.4855498 0.026189422 0.18873428 0.3072792 0.10033547 -0.18148464 0.3059376 -0.19811374 -0.25834915 -0.026382772 -0.06570242 0.19622082 -0.74964786 -0.086737156 -0.3186684 0.20213187 0.07754173 0.16203313 0.21087363 -0.05813532 0.23962994 -0.09541668 0.1643368 0.055697095 -0.08450117 0.11621143 -0.23254505 -0.21743397 -0.2274107 -0.0009878085 -0.11895696 0.25068226 -0.026637293 0.17268834 -0.32406405 0.21842705 0.14639167 -0.06195451 0.45046353 0.09683099 -0.030194443 -0.123991415 0.071656175 0.03796618 -0.0631189 -0.050339337 -0.16598071 -0.27368727 -0.16718683 -0.03390706 -0.12700991 0.076711856 -0.24750163 0.3895098 -0.0033159927 -0.3023109 0.24338359 -0.106162444 -0.034438036 0.046754908 0.24035017 0.19846231 -0.36402437 0.31744033
movie69 0.284761 0.3936459 0.15549672 -0.113388695 -0.32493532 0.0021098764 0.25767753 -0.22031236 -0.13097681 0.15288033 -0.24926598 0.14617515 -0.48701966 -0.3317955 -0.123563126 -0.040381026 0.17910604 0.045537606 0.18984091 0.03299411 0.23743485 -0.46593693 -0.115338586 0.15580723 -0.08075849 0.12285136 -0.11688357 -0.07233732 -0.2635063 0.23923357 -0.1677371 0.019632103 0.18774733 0.08949577 -0.11937145 0.16093303 0.33433223 -0.2883525 0.038783453 0.06943871 -0.13173518 0.26600754 0.33280244 -0.20903094 0.32038197 0.397092 0.118539095 -0.103105195 -0.20129259 0.25462267 0.097664796 0.17835769 -0.10993452 0.13305658 0.2862848 -0.29753408 0.035510257 -0.039848603 -0.022013843 0.54867876 0.32226765 0.014658903 -0.06654363 0.034929894
movie216 0.1819862 0.2096801 0.24544416 0.204013 -0.28554162 -0.029249445 0.1471467 -0.20239657 -0.1421817 0.186727 -0.24401559 0.07416216 -0.47142503 -0.0136792315 -0.060163412 0.023851218 0.03156145 0.13041788 0.124735706 -0.07576411 0.06431896 -0.037632555 0.12942232 -0.02353352 -0.093398154 -0.008056216 -0.37079075 -0.21312492 -0.097729675 0.043567948 -0.103140146 -0.045074828 0.1467843 0.0889246 0.07877746 0.2955871 0.11186885 -0.1857946 -0.02738634 0.07898748 -0.2530225 0.16605495 -0.068762325 0.028547047 0.28381246 -0.2617418 0.24567977 -0.03526156 -0.2924916 0.32171842 0.3215506 -0.30924624 -0.21611975 0.11766168 0.23692054 -0.0065663387 0.028023964 0.006849342 -0.010149236 0.4867549 0.18595877 -0.023343174 -0.25533596 0.09932642
movie15 0.19539504 0.17653726 0.5821518 0.39290005 -0.14024013 -0.21165553 0.08467799 -0.23206674 0.10484541 -0.011207997 0.22406653 0.0501673 -0.20721883 0.015201882 -0.02297502 -0.01625665 0.42517668 0.09459741 -0.06989164 0.068624444 -0.09134277 0.26242036 -0.06807714 0.23595141 0.52130276 -0.10910955 -0.18590377 -0.0655343 0.011211163 0.044505917 -0.07486661 -0.094969966 0.18625425 0.24034828 0.29321685 0.36751357 0.31059968 -0.33359784 0.45849496 0.05568207 -0.023096247 -0.1234867 0.01929021 -0.033978056 0.11232908 0.29430625 0.20898196 -0.27850792 -0.08536577 0.1308642 -0.28239766 0.24495684 -0.45129892 0.06840827 0.4447947 0.12243532 0.1752238 -0.47313324 -0.10330149 0.46295437 0.031015392 0.10962579 -0.2303475 0.19514005
movie151 0.53329504 0.28015786 0.03174404 0.36447698 -0.26602936 -0.085530505 -0.050675523 -0.06142356 -0.013879222 0.19368489 -0.039591335 -0.08715828 -0.14311148 0.05849475 -0.3013136 0.34274322 -0.1774115 -0.23937601 0.10968669 -0.16806374 0.15570833 0.054106716 0.07100048 -0.39996806 0.3421806 0.13046531 0.027763035 0.2795855 -0.17361073 0.27317858 -0.19519623 0.29020342 0.30175853 -0.06834972 0.06586353 0.15190086 -0.12842603 -0.17193492 0.018599778 -0.22487484 -0.074910626 -0.21011598 0.13696325 -0.2198647 0.43972993 0.3845317 -0.008083816 -0.10025028 -0.21759164 0.20299579 -0.029823065 0.25352514 -0.13671501 0.30840844 0.10465663 -0.060328938 0.3573218 -0.20348908 -0.055848215 0.0419354 -0.09932731 -0.26025534 -0.28282404 -0.0107317185
user629 0.19132303 0.23867008 0.24243805 0.16874892 -0.021611381 -0.01748573 -0.27147555 -0.15069342 0.50018203 -0.11108533 0.017667877 0.036293093 -0.11729221 -0.26068345 -0.026080081 -0.2696903 0.2080257 -0.19478907 0.35752788 -0.0007933553 -0.15845923 -0.13865615 0.2789698 0.12944956 -0.16921712 0.47971663 -0.18395685 -0.17125906 -0.12788993 0.33625978 -0.23741974 0.05213145 -0.022358185 0.2362894 -0.009358551 0.30150875 -0.18082835 -0.026403775 0.18510452 0.236182 0.24368277 0.20846213 0.03302698 0.15186694 0.24639727 0.15801877 -0.19694959 0.0591751 0.111852236 0.51384306 0.04895993 0.37733433 0.16557829 0.556663 0.008704065 -0.356069 0.013767445 -0.03818114 -0.4913575 0.6450658 -0.009270144 -0.1141686 -0.12196592 -0.25320232
movie168 0.17597665 0.10708573 -0.025630794 0.3168033 -0.14956869 -0.0944913 -0.03787371 -0.053870752 -0.13667513 0.20335081 -0.052749477 0.15025432 -0.50047714 -0.13790871 -0.34713456 0.16447423 -0.06759376 0.026846252 0.28826284 -0.037922997 0.017589372 -0.22547302 0.45331532 -0.017848982 0.035393305 0.29176605 0.07049565 0.37521085 -0.049416672 0.12302461 0.0058078715 0.030903155 0.3619875 -0.10146835 0.017329143 0.1381271 0.16205738 -0.113069534 -0.08209372 0.050195727 0.05695721 0.17409877 -0.110363685 0.094289966 0.111042775 0.12748629 0.10179382 -0.06871333 -0.0140697025 0.56213534 0.111928254 0.021794857 -0.42698276 -0.10143592 -0.09250229 -0.15452617 0.18656588 -0.2745132 0.18617995 0.1959299 0.1878505 -0.4225083 0.046609726 -0.06443463
movie272 0.12199638 -0.18089527 -0.03554367 0.365256 -0.11363818 -0.30250672 -0.31828734 -0.06763736 -0.16994376 -0.016095348 0.19644298 0.10991668 0.088871785 0.34280276 0.045429274 -0.0065807784 0.49312457 -0.5195138 0.3680653 -0.26922202 0.42843616 0.24158335 0.12672451 0.22023278 0.42451975 0.3867458 -0.01102102 0.27090406 -0.23775373 0.084768385 -0.2520194 0.29588598 -0.23866567 0.38482958 -0.04320875 0.3934863 0.25281712 -0.033234093 -0.2618344 -0.05970558 -0.26424855 0.2055459 0.0273171 0.105791226 0.32283962 -0.26714313 0.4185654 0.020929217 -0.30877012 0.41818962 -0.26342723 -0.08095301 -0.37760794 0.18067384 0.06955632 -0.10133805 -0.027264088 0.049185954 0.07251448 -0.25388467 0.5039285 0.24619037 -0.3437096 -0.46402535
user90 0.28731963 -0.2637297 0.34108984 0.4077377 -0.0993365 0.1835567 -0.05243302 0.054472744 -0.15975128 -0.5206853 -0.22107951 0.06680082 -0.27933446 0.1263566 -0.46508735 -0.0760869 0.14645945 0.010759859 0.3430952 0.06869914 0.07115724 0.008997077 -0.107533686 0.067050524 0.12639578 0.36975405 -0.35388696 0.02129862 -0.15389274 0.17528978 0.11705278 0.17786886 0.4192829 -0.15268312 -0.17518431 0.12608992 0.10087985 -0.016101388 0.1403486 -0.08225435 0.10953665 0.0597247 -0.11707966 -0.11221964 0.2733483 -0.15858902 0.17841996 0.033575915 -0.18802784 -0.2551768 0.08645542 -0.25299227 -0.346632 0.07501887 -0.24272099 0.040450975 -0.11054471 0.17050868 -0.2673175 0.25035545 0.26673836 0.16519248 0.084745035 -0.39700407
movie89 0.49028453 0.07126351 0.008862484 0.38950363 -0.20337439 -0.021899391 0.30474898 -0.3644681 0.16691622 0.04381164 0.026169343 -0.056397125 -0.20603076 0.14415234 -0.4288112 0.215462 0.033949126 -0.015532671 0.17511918 0.1329083 -0.087213434 -0.03399959 0.22316751 0.02059775 0.11637728 0.32677355 0.17581333 -0.11004724 -0.23784697 0.16976526 0.20159249 0.14327331 0.5863153 -0.4293737 0.08412071 0.0036769358 -0.04165923 0.040519252 -0.28416908 0.0025307876 0.033119995 0.09950452 0.21833107 0.35908777 -0.15226443 -0.32742608 -0.11755054 0.2758879 -0.1362698 0.41920182 0.1589314 -0.05485229 -0.28107396 0.2843769 -0.2385431 0.0150460545 -0.16478816 -0.04722373 -0.024761537 0.16961424 0.26484156 -0.12844059 -0.4702468 -0.0072117234
movie197 0.5620374 1.5960068e-05 0.53317344 0.57070804 -0.36805815 0.13071048 -0.0057161963 -0.3440993 -0.10452141 0.32357243 -0.3518149 0.1136074 -0.41225055 -0.48926336 -0.23571278 -0.05396074 0.29583395 -0.23544241 0.26980647 0.20682019 0.108707786 -0.048658416 0.20307705 -0.19549887 0.0008323458 -0.06521121 -0.23106477 -0.27267942 -0.063782014 -0.15305763 -0.09687327 0.27930987 0.20297587 0.10962308 -0.00014280294 0.022489492 0.28542012 0.029058212 0.118443444 0.07256594 0.2785122 -0.35718855 0.098041944 0.03140706 -0.019640334 -0.3182184 0.27419916 -0.10480304 0.1682626 0.4023607 0.21226528 -0.065469235 -0.030376876 0.04552234 0.25849012 -0.18201755 -0.1446273 -0.1995733 0.15980577 0.15878375 0.21584424 -0.058641702 -0.112405054 0.18271643
user214 0.15148465 -0.3098222 -0.017563038 0.46733648 -0.31283027 0.22616385 0.16954255 0.06555178 -0.031268083 0.13082708 0.07539367 0.8567045 -0.24631025 0.2252703 -0.19549625 0.1589234 0.041249383 0.12557054 0.17808029 -0.1886804 -0.07006947 0.076097585 -0.08858086 -0.26547515 0.23755215 0.68096834 -0.33351025 0.095876694 -0.44812205 -0.030618565 -0.15045556 0.14230318 -0.045732014 -0.23006439 -0.1589052 -0.040923685 -0.3988649 -0.12133803 0.251927 -0.0018634428 0.1437875 0.34719917 0.05376936 -0.4302555 0.34001514 0.174092 -0.4543991 -0.3861265 -0.16817765 0.3004048 -0.12187407 -0.06654051 -0.16637018 0.07969243 0.1703759 -0.19787575 -0.1340515 0.18501224 0.041987848 0.40604302 0.14518057 0.0026628184 -0.369378 0.2274209
movie603 0.42547837 0.2924467 0.39722392 0.4483974 -0.05196063 -0.020318331 0.068140864 0.042623203 -0.2800859 0.3958702 0.1877255 0.21419466 -0.4488234 -0.23395637 -0.47529274 0.32137778 0.07476188 -0.12540263 0.4007806 -0.21196137 0.40041208 0.11916296 0.21727192 -0.09836299 -0.17534919 0.0703152 -0.5006523 0.19585864 -0.17163934 -0.09282086 0.23962703 0.34994578 0.22885466 -0.18063201 -0.351495 -0.014963242 0.029336898 -0.069872454 0.16440722 0.07979631 -0.22186387 -0.15161963 -0.235476 0.10031816 -0.06807606 0.073226534 -0.15324645 0.21685772 -0.04465182 -0.00060668465 -0.07367569 -0.23336872 -0.07503457 0.012235206 0.09300505 -0.14878717 -0.14837773 0.0010651012 -0.039304636 0.22570568 -0.056870855 0.09577321 -0.30928507 -0.29292294
movie294 0.1302369 0.3840072 -0.14070755 0.30517364 -0.20275687 -0.11775532 0.0042101853 0.24012549 0.024083927 0.17819376 0.09832469 -0.056754585 0.2614598 -0.06958745 -0.36786255 0.16838898 0.17071423 0.1992738 0.05280674 -0.14050673 0.28649786 0.29703784 0.10605978 0.07595456 0.13043699 0.3237456 -0.3791383 -0.0024635976 -0.15722118 0.31810617 -0.3454826 0.4348271 -0.19180614 0.23235868 0.45733225 0.6241808 -0.30004603 -0.43241113 0.06520056 -0.095726036 -0.2095421 -0.0062816087 -0.19248691 -0.21720704 0.21588574 -0.011193492 0.08847256 0.013288683 -0.41589445 -0.03255907 0.07931844 -0.0035800843 -0.39258483 0.1451922 -0.048532777 0.11309261 0.050892763 -0.19421107 0.20058066 0.1776962 -0.1839066 0.120372936 -0.25049397 0.40546405
user577 0.37476775 0.5511449 -0.1196149 0.38252744 0.12964788 -0.18264487 0.039264135 0.1743007 0.4975797 -0.08479826 0.070234194 -0.17561243 -0.05884695 -0.077048644 -0.3569248 0.16555464 0.14408636 0.1038907 0.19095708 0.05911209 0.074824825 0.094479024 0.24070711 0.10945089 -0.23253709 -0.19696486 -0.037897706 0.33688185 -0.043921813 0.3139396 0.25247774 0.3404099 -0.012368316 -0.16949008 -0.28334108 0.36221302 0.0151666505 0.17094249 0.18915601 0.04194904 0.35281038 0.5100084 0.14103006 -0.18492435 0.32811388 -0.116727255 0.1621205 0.10547418 -0.3880706 0.04510255 0.15445545 -0.05371393 -0.07280053 0.32130668 0.46796286 0.3061287 0.4033643 -0.187821 -0.29037207 0.2160918 0.49993032 -0.277356 -0.16144878 0.199118
user592 0.05531829 0.030199196 0.105044626 0.19827561 0.014997531 0.13383277 0.09133156 0.042047378 -0.12723768 -0.2698863 -0.118517466 0.333196 -0.27422613 -0.27220365 -0.16155049 0.36006868 0.42693436 0.3003426 0.31762737 -0.09768512 -0.4674305 0.01445477 -0.16629282 -0.25974256 0.24586928 0.42640722 0.077187926 0.04371168 -0.081907414 0.15698633 -0.37657395 -0.01075383 -0.20807798 -0.076389894 -0.009821161 0.38631248 -0.20598292 0.07225465 0.26408902 0.06241983 0.17089203 -0.2516295 0.09854283 -0.04302954 0.34153146 -0.23893267 0.030676842 -0.2192844 -0.1439166 0.13946176 -0.12148289 -0.030480893 -0.20725307 -0.06164503 0.5484165 -0.5196533 0.18789005 0.021957627 0.1453576 0.19946577 0.2187337 0.27996498 -0.27492708 0.014275369
user72 0.38090643 0.5101871 0.30027777 0.30631155 -0.13756254 0.22337537 0.29710165 0.008142899 0.43979025 0.058754303 -0.17122452 0.6216543 -0.30357862 -0.0368891 -0.14846992 -0.064406596 0.13599378 -0.29706717 -0.1466723 0.17762047 -0.2510138 -0.01693768 0.09519775 -0.13021488 0.61056644 0.25803095 -0.2189557 -0.025447812 -0.24378286 -0.34662965 0.40430212 0.17393208 0.09966992 0.06614664 -0.40839216 0.065930076 0.24791329 -0.038589474 0.011159893 -0.12717868 0.44880718 -0.1141529 -0.028962035 0.08949223 0.18658616 -0.07348083 0.19234279 -0.024127182 -0.13854825 0.31396052 -0.14993644 0.03766378 -0.15606584 0.434773 0.14916787 -0.087736174 0.005380134 -0.0807097 -0.37126258 0.18089388 0.31036267 0.3283958 0.13920154 0.014633262
user59 0.4529572 0.5692862 0.56240195 0.16303828 -0.036972918 -0.044932872 0.093201585 0.03566636 0.06107445 -0.16600297 -0.0854883 0.039868742 -0.2834373 -0.06903631 -0.22923796 0.20465352 0.19039972 0.08286421 -0.02937508 -0.12956175 -0.054686587 0.18105264 -0.27791214 -0.07125819 0.18396787 0.09885957 -0.14211638 -0.09451115 -0.13385239 0.007235041 0.020377008 -0.11947729 0.2973113 -0.07201552 -0.1433378 -0.05916028 -0.10158408 0.30463496 0.20947821 -0.050447408 0.24355318 -0.18376501 -0.11622589 0.11208144 0.1508629 -0.067225955 0.036818307 0.027981695 -0.32036713 0.4074527 -0.19901656 0.05197677 -0.005883985 0.21080703 0.03520758 0.027651377 -0.033292722 0.21778321 -0.2143475 0.3065045 0.16897036 0.10652521 -0.21544431 -0.30335513
movie96 0.27759928 0.4058254 -0.005624567 0.27346405 -0.16055723 0.08684073 0.16114128 -0.040702075 0.43683302 0.18283172 -0.5006162 0.24818827 -0.022159234 0.12979586 -0.23564501 0.12362751 -0.1427091 -0.13171391 0.09513934 0.11787695 0.20702419 0.07155955 0.16334854 -0.004990256 0.33325255 0.23128234 0.027997231 0.2914513 -0.1723793 0.007543534 0.07871069 -0.13206694 0.2179466 -0.22067581 -0.10841641 0.23710974 0.10677944 -0.10642974 0.013317707 0.17182903 -0.32495478 0.16326715 0.08398435 0.48312822 0.12114149 -0.009911845 -0.088928685 0.21036153 -0.34946355 0.11167938 0.23704769 -0.03028436 -0.22723551 0.4469721 0.06607188 -0.0584592 -0.3238725 -0.17587355 -0.038091715 0.0980607 0.30485442 0.1833139 -0.22514702 0.1232191
movie183 0.33580554 0.2543435 -0.10593915 0.28927448 -0.17854613 0.22347829 -0.106555946 -0.24977967 -0.08210225 0.27453768 0.29144394 0.09575108 -0.41525167 0.27193156 -0.44262466 -0.064855106 0.15900104 -0.056920145 0.29481587 -0.117974795 0.02111406 0.144496 0.20446578 -0.07982377 -0.18861474 0.18987061 -0.038100116 0.4164035 0.03397737 0.34557825 0.462931 0.08648326 0.176081 -0.21213044 -0.03338225 0.3240368 0.20108102 0.13876484 0.065240175 0.026074648 -0.11416683 -0.20582946 -0.107497 0.23655233 -0.024069201 -0.1606388 -0.09418654 0.067631766 -0.28241807 0.24450572 0.07850597 -0.13053901 -0.08576247 0.4080039 0.065435514 0.019710809 0.12167042 -0.29215857 -0.025630904 0.23734945 0.33129385 0.03959745 -0.22005135 0.15214837
user130 0.014010671 0.14360149 0.40563336 0.0010015493 -0.2851496 -0.18772604 0.26094228 0.037133448 -0.08233263 0.0834811 -0.11262344 0.124041125 0.5390123 -0.37682626 -0.107043654 0.1496434 0.38608357 0.13610046 -0.05029575 -0.47379497 -0.09363976 0.5162063 0.20433794 0.045741014 -0.22565262 0.198743 -0.107163966 -0.031498965 -0.059816156 0.42333242 -0.024414126 0.2647618 0.04704467 0.13542847 -0.37835392 0.09893729 -0.23583382 -0.35176212 0.1346253 -0.0068690814 -0.2180671 -0.029153027 0.3736558 -0.12344159 0.01813433 -0.13592044 0.026338046 -0.049629986 -0.2792536 0.29416373 -0.025129015 0.06176303 -0.23708524 0.10874448 0.4091478 -0.29420665 -0.06682225 -0.27604178 0.078850806 -0.055366807 0.64773625 -0.15423152 0.09815443 0.20056175
user297 0.13932566 -0.16488403 -0.06724032 0.2931637 -0.1755578 0.2692689 0.028288541 -0.034415618 0.04725138 -0.084550984 -0.026518725 0.43220887 -0.23267776 -0.046905905 -0.1417727 -0.115379244 0.19425812 0.05387696 0.1866127 -0.19417883 0.3513703 0.10791418 0.30241507 -0.08698255 0.027161792 0.08045837 -0.38698807 0.4038091 -0.0015134515 0.48253304 -0.11585389 0.1847346 0.19203788 0.31267282 0.07526561 0.1486177 -0.268769 0.022523459 -0.17619376 0.31987324 0.14052403 0.10911376 0.2657905 0.30005288 0.2476201 -0.11825476 -0.07894679 -0.20847431 -0.25436974 0.4868897 0.071642004 -0.09859233 -0.28001663 -0.38372016 -0.17961358 -0.08909894 -0.10603189 0.06321614 -0.21760173 0.44620597 -0.17536172 -0.14948998 -0.16978395 -0.18111674
movie143 0.25483465 0.07782929 0.29326242 0.5666089 -0.3526516 -0.0087375 -0.0868667 -0.19446051 0.07377906 0.07958208 -0.1763432 0.094449446 -0.34195566 -0.21816723 -0.25154176 0.2525936 -0.21942386 0.29453033 0.087995276 -0.051280558 0.5035241 0.30050644 0.0552701 0.0043281754 -0.12757514 -0.08730772 0.18511663 -0.14323936 -0.017954804 0.05521462 -0.36634415 0.06594623 0.07337394 0.071729206 0.049409054 0.28255478 0.098952904 -0.24948107 0.22761516 0.47356898 -0.09836434 -0.13663079 0.061635014 0.20361961 0.18720655 0.08054334 0.03763946 -0.018855482 -0.057828892 0.24635553 -0.13914126 0.1121872 -0.118935086 0.2010242 -0.23317555 0.1486054 0.3035386 0.049813513 -0.016101329 0.37560102 0.41876876 0.07683423 -0.2555512 0.054866455
movie257 0.0013572372 0.22850463 -0.028449107 0.073410794 -0.018471133 -0.04216554 -0.021240892 -0.35928428 0.079688594 0.34017664 -0.23827855 0.035612755 -0.008588631 -0.17861973 -0.24780513 -0.07046493 0.017798876 0.19175968 0.025928821 0.1605699 0.33566746 0.12170064 0.3016087 0.017221648 0.49845132 0.14720044 0.087075606 0.21272989 -0.016496599 0.15441841 -0.5039314 0.4693088 0.62168866 0.16898257 0.13834211 0.29567227 0.12144074 -0.3971852 0.3317411 0.059799172 0.031138897 -0.035797108 0.03972083 0.10097825 0.2529737 -0.23774332 -0.22415267 -0.3114459 -0.42652747 -0.0103581445 -0.067280374 0.28714502 -0.6103915 -0.2940203 0.21267816 0.03496984 0.028467309 0.0060710944 0.25451916 0.09005615 0.06604154 -0.19116116 0.30424568 0.30974105
user128 0.051561985 0.21748811 0.42619553 0.7453055 0.08419989 0.1584321 -0.13162965 0.19265473 0.13967916 -0.2293854 -0.003399126 -0.1506002 0.17061563 -0.40489683 -0.30831596 0.25499508 -0.13084899 -0.03268322 0.05979551 -0.061799623 -0.016331587 0.3425888 0.0029796662 -0.28618097 0.043857094 -0.09077742 -0.47456953 -0.09856114 -0.34760645 0.21950828 -0.18450126 0.42562115 -0.10450897 -0.038045887 -0.0031076171 0.27259812 0.1614191 0.07496352 0.18250008 0.43137142 0.09932181 0.19010128 -0.36789706 0.18080583 0.07877907 0.2068273 0.09195433 -0.08142385 -0.16486003 0.23555237 0.8333131 -0.2325036 -0.18102515 0.086760186 -0.07116948 0.0009451763 0.281086 -0.09700157 0.07801167 0.29044965 0.23328303 0.027366241 -0.09643615 -0.5154914
movie496 0.057733983 0.07702593 0.33369797 0.3083245 -0.28041732 0.26812887 0.16042817 -0.092948176 -0.30281743 0.03425117 0.16046807 0.33135185 -0.2049761 -0.20140757 -0.19571081 0.36831 0.09023486 -0.11804205 0.2974533 -0.035409454 0.32768717 -0.29232016 0.303669 0.020726236 0.12279052 0.16711424 -0.39382523 0.013377636 -0.27912375 0.03806199 -0.31620592 -0.039080106 0.15229319 0.045662932 -0.32783976 0.10086326 0.12617463 -0.25881898 -0.09246634 0.2678904 -0.044530593 -0.09421616 -0.050506216 0.23149998 -0.08139025 0.30798677 0.27804726 0.30802035 0.09698864 0.0631925 0.16449483 -0.20874974 -0.19409807 0.31890637 0.170299 0.022437617 0.17098434 -0.13558444 -0.088585034 0.2859064 0.26665834 0.0894269 -0.612691 0.27512467
movie276 0.41336182 0.3050129 -0.059325125 0.35463732 -0.22744209 -0.28319818 -0.13631593 -0.00030750266 0.21771684 0.13137583 0.043958277 0.07942785 -0.31164443 0.0074374834 -0.054285213 0.05465133 0.40518805 -0.32273838 -0.16201663 -0.10364828 0.2750086 -0.25436032 0.2722293 0.15218697 0.50913763 0.089974225 0.22849889 -0.10318569 -0.2887747 -0.059878528 -0.26025277 -0.12682223 0.16740331 0.07058976 0.18082255 0.32929847 -0.18074757 -0.33943382 0.12514739 -0.16106625 0.18915924 -0.44413087 0.29917213 -0.132866 0.023080623 0.11897259 -0.21273275 -0.1799625 -0.18079877 0.23631595 0.03726188 -0.015600053 -0.44254246 0.24602385 0.40111938 0.17313114 -0.28827804 0.10736129 -0.35846293 0.44044545 -0.31712142 -0.17200367 0.07290451 -0.42195794
user532 0.2497388 0.48924717 0.078895986 -0.18002811 -0.20675512 0.109019816 -0.23805423 0.2027281 -0.13055405 -0.14777079 -0.015100983 0.16754626 0.060354248 -0.47140345 -0.12702586 0.4588929 0.4907322 0.118070595 -0.04413765 -0.26467788 0.045852043 -0.28438827 0.002302338 -0.17236744 -0.23033252 0.3736635 -0.36746508 -0.31582633 0.31817925 -0.026820613 0.21474068 0.032592256 0.22475092 0.1454285 -0.1569459 0.13444832 -0.2519285 -0.22220956 -0.17754549 0.122429505 0.3939723 0.010891995 -0.018473405 0.42897406 -0.034986064 -0.035781674 -0.013909152 -0.039828166 -0.6357713 0.13560145 0.08597192 0.12274198 -0.24077097 0.051007967 0.15101163 0.23258829 0.14970876 -0.44884723 -0.06676497 -0.03387364 0.2892746 0.22894768 -0.21250156 -0.19820543
movie185 0.29124898 0.108127005 0.28934562 0.26556167 -0.27929607 0.19497894 0.13220815 -0.00886972 -0.011250517 0.08839707 -0.12540644 0.32633236 -0.499199 0.037638325 -0.4835577 0.10148548 0.12309774 -0.112675264 0.4586081 -0.42445168 0.11579443 0.14533098 0.23343943 0.080198295 -0.39522952 0.21358447 -0.0021194904 0.06758604 -0.0695106 0.24392347 0.20608309 0.1386106 0.18011072 -0.22468762 -0.21925479 0.030646276 0.16139509 0.039839372 0.25443417 0.008315783 -0.057860058 -0.3491733 -0.076750755 -0.1460431 -0.33951622 -0.19513983 0.062261563 0.101750165 -0.45436266 0.16723174 0.0785805 0.023315929 -0.087483846 -0.083727054 0.11061764 -0.02646053 -0.054593224 0.14030479 0.08784378 0.4345881 -0.118508175 -0.12611161 -0.1595434 0.2332104
user854 0.23821606 0.05681877 0.05161402 0.16444853 -0.2600081 0.41652766 -0.13485989 0.09859076 0.29962185 -0.20956399 -0.15784396 0.48351753 -0.33705252 -0.028000174 -0.20932022 0.4242072 0.23852558 0.30410787 0.30395392 0.058343384 0.17509767 0.3242249 0.031729784 0.05022512 0.32869482 0.34068617 0.13543187 -0.0050630122 -0.06618732 0.49057972 0.011531697 0.10644916 0.14177026 0.118084565 -0.07089406 -0.16029759 0.009481277 -0.29968098 0.1849594 -0.24357139 0.0801887 -0.24328831 0.026556958 -0.015619202 -0.03364652 -0.045085274 -0.15615542 -0.31243023 0.10546286 0.26825535 0.1464945 -0.050451517 -0.19582488 -0.107326694 0.20569277 -0.54979455 -0.14792196 0.15433164 -0.18710141 0.33738598 0.14162932 -0.017773092 0.062259004 -0.11403519
movie222 0.21461943 0.28753617 0.012994955 0.06790276 -0.33580482 0.11680638 -0.029180767 -0.27815485 0.14418674 -0.065464824 0.090293795 0.092998676 -0.29408184 0.011188187 -0.09970634 -0.13593842 -0.045033585 -0.052016124 -0.23669823 0.055034403 0.27648836 0.43188083 -0.06402964 -0.0049264226 0.272466 0.33504498 -0.4168371 0.062134195 0.072639264 0.29898688 0.2707294 0.06845531 0.47118962 -0.017518332 0.1827557 0.2747359 -0.027801609 0.026161583 0.38310474 0.13190082 -0.37089428 0.10018822 -0.04637507 0.31971663 0.34478995 0.21042708 0.11608501 -0.09946829 -0.21381703 0.115194276 0.35692057 0.3763823 -0.42148218 0.10938354 0.37033787 -0.16846213 0.19194765 -0.06746204 0.33139625 0.19124146 -0.29133415 -0.13391711 -0.16797237 0.026619606
user798 -0.08494709 0.36682165 0.16557954 0.555892 -0.15321125 0.26597625 0.20420548 0.13233525 0.3128702 -0.2852385 -0.13379586 -0.047497656 -0.24778128 0.053641688 0.072627075 -0.028624376 -0.22821938 0.13558301 0.28357363 0.1234059 0.25573024 0.0577534 0.15647492 0.5728682 0.2048728 -0.18779737 0.28424713 0.12209322 -0.04823169 0.24487326 0.050290372 0.18634081 0.11982663 0.26134244 -0.3552131 0.37266105 -0.6705667 -0.36847144 -0.019510256 -0.010082307 0.075136885 0.64221054 -0.66981757 -0.14203137 0.035263725 0.14342712 0.27333862 0.37937075 -0.2392088 0.1293202 0.2513496 0.3858925 -0.6336344 -0.13672732 0.21358137 0.33566433 -0.14468272 -0.31181294 0.09887408 -0.1480118 0.15232114 -0.4273711 -0.0664899 -0.11325755
user747 -0.06926772 0.10878098 -0.012380656 0.30896428 0.182151 -0.019293752 -0.08358049 0.046518587 -0.030276177 -0.26170862 -0.04048136 0.5877926 -0.47040507 0.09905043 -0.07491591 0.12101534 0.15881461 0.12046753 0.34713936 -0.10223978 -0.015870582 -0.22907896 0.21217662 -0.09688594 0.31037965 0.014612432 -0.06520653 -0.10323065 -0.17082147 0.21447279 -0.24832913 0.26911697 0.11187741 -0.16918455 -0.38101965 0.3100971 -0.24295796 0.08717821 0.33524942 0.008187496 0.0012199101 -0.29255575 -0.13303907 -0.035390045 -0.12477303 0.2538648 0.35089457 -0.5132092 -0.13673666 0.18200928 0.094795845 -0.040994212 -0.06763861 0.41729468 -0.07976591 0.008549934 -0.329878 -0.06342188 0.021789987 0.13997445 0.28459787 0.14229116 -0.16828 -0.2844218
movie8 0.2923053 0.06400613 -0.06667272 0.41519526 -0.21484151 0.30721268 0.2459967 0.023539362 0.0568216 0.1091075 -0.22019584 0.14972246 -0.1522325 0.1914231 -0.47125012 0.30621383 -0.04238586 0.20726699 0.44489574 0.034051392 0.13763003 -0.35193115 -0.22489955 0.108880125 -0.022938397 0.18360391 -0.07009295 0.28831246 -0.07358248 0.019765092 -0.20549881 -0.06031837 0.39301544 0.15219168 -0.13363077 0.44695094 0.15558207 -0.18892017 -0.27089947 0.17014842 -0.1167719 -0.12631573 -0.07568162 0.0949744 0.24467121 0.07037114 -0.13844478 -0.21722528 -0.09968106 0.09881327 0.048062284 -0.21757989 -0.2199025 -0.19773634 0.2942227 0.050839517 0.25049436 -0.15363123 -0.12524858 0.36346358 0.41964012 0.10576136 0.140214 0.1497636
user551 0.23031804 -0.23366813 0.023220789 0.09555171 0.12364903 -0.15165965 0.0072979988 0.049455933 0.22685844 0.3347532 -0.08829731 -0.07861505 -0.06084473 -0.21735619 -0.3208321 0.08975816 0.2735674 0.12864019 -0.24150202 -0.49989828 -0.05009889 0.36114073 -0.07020232 -0.163261 -0.023613365 0.40271166 -0.043446213 -0.30515128 -0.19976825 0.005605868 0.30041292 0.26388028 0.24634808 0.24216308 -0.08575057 0.24062413 -0.13341652 0.11329694 -0.0016353833 0.10158272 0.35688332 0.3216172 0.04466497 -0.102723174 -0.0358298 -0.013894136 0.11431563 -0.45025373 -0.5345385 0.57391006 -0.21982452 0.005300046 -0.32542217 0.20508122 0.12163102 0.14113532 0.081661925 -0.15579242 -0.088324845 0.20017445 0.34191376 -0.25063756 -0.10464989 -0.21620148
movie28 0.17900664 0.24279438 0.10918063 0.23152798 -0.502694 -0.19018081 0.23584838 -0.2851625 0.091343164 0.058938302 -0.14845166 0.022019472 -0.50149256 -0.22531296 0.09348621 -0.0036929068 -0.1986805 0.11143413 0.34011003 0.055756386 0.23563164 -0.28950632 0.263286 0.014601076 -0.0137141645 0.079837814 -0.01563776 0.24519354 -0.15324765 0.14421538 0.28439042 0.09873113 -0.019735321 0.070671976 0.17614794 0.20188452 -0.04700432 -0.19977368 0.23772466 0.17202781 0.14342807 0.14916149 0.10972499 -0.025638513 0.10939198 0.09344135 0.41590846 -0.020586593 -0.215272 0.23124199 0.19056489 0.043134537 -0.18156812 0.14559266 0.33022675 0.005506 -0.014539687 -0.15928099 0.2351434 0.2867676 0.3956609 0.050974883 0.020938573 -0.021352427
user230 0.12728074 0.3898985 -0.27826655 0.28717527 -0.29543674 -0.09082864 0.24552466 0.21534391 -0.20015834 -0.50256324 0.07936625 0.36109072 -0.34053355 0.028313028 -0.40580466 0.25073174 0.041967288 -0.106695175 -0.18698087 0.029097047 -0.028047275 0.36386624 -0.18287158 0.01164199 -0.2237142 0.11012804 -0.09090378 -0.12385688 0.20950693 0.38068524 -0.15626472 0.22002624 0.14765258 0.5094201 0.023966733 0.528661 -0.21106888 -0.38952547 0.20584342 0.19203116 -0.0055242963 -0.10728503 -0.34370765 0.070800215 0.07583554 -0.15945987 0.15083507 0.27765128 -0.1429393 0.28799546 0.20380199 0.023765765 0.01076258 0.5297218 -0.4635145 0.09023312 0.33470222 -0.07981865 0.08381686 0.35963902 0.3827014 0.002225595 0.1119868 0.194896
movie176 0.15287177 0.488874 0.014302956 0.48312503 0.08994098 0.043306127 0.18430862 0.11334395 0.071587905 0.36393124 0.12368821 -0.0769729 -0.32203686 0.11311878 -0.37281838 -0.011219375 0.056092508 0.033666596 0.533703 0.06611401 -0.12213787 0.17992504 0.08271148 -0.0427614 0.13323589 0.1382883 -0.023333952 0.3220316 0.13577847 0.24580519 0.23985289 0.2852012 0.43785518 -0.28630593 0.1311 0.3848137 0.054007553 0.19336767 -0.18177469 0.31759232 -0.36253646 0.030538471 0.13486868 0.09425662 0.07671436 -0.0033474301 -0.17292446 0.0043151435 -0.30434695 0.32246512 0.11282747 -0.091722675 -0.056899462 0.3625781 0.040593248 0.053230964 -0.13142401 -0.11909656 -0.1870985 0.28125957 0.21811296 0.24857594 0.014624961 0.22599408
movie234 0.1859598 0.09120747 0.102339804 0.280136 -0.07633734 0.033981085 0.008619408 -0.019949887 0.10918291 0.23845494 -0.008966799 0.28779146 -0.09826559 -0.09744671 -0.60740966 -0.075199336 -0.19117445 0.031585366 0.3684754 -0.13917403 -0.056677658 0.04803146 0.06573519 -0.070523314 -0.07957229 0.16957805 0.228312 -0.02867596 0.022093892 0.34707296 0.22472377 0.034749117 -0.13038795 -0.31898245 -0.033923756 0.25655988 0.17833638 -0.23304783 0.09873748 0.22687104 0.1711553 -0.38360864 -0.09296647 0.20393835 -0.15298869 0.16585822 0.37108284 0.0953795 -0.4718682 0.31178042 0.08283739 0.08436162 -0.060377177 0.24571884 0.2750859 -0.12818624 0.14504291 -0.14935192 -0.0010397874 0.27570176 0.2180483 0.21283664 -0.2219246 -0.090837345
user721 0.5449388 0.14980705 -0.10226471 0.27872822 -0.49749222 -0.15225773 0.026498593 0.019813603 0.2408776 -0.13144448 -0.348996 0.19778432 -0.026578873 -0.00811812 0.24268322 -0.022251338 -0.1073081 -0.17958201 -0.06717007 0.23192851 -0.5480078 0.06280171 0.19859043 0.32054946 -0.5770732 0.21804225 -0.74743336 -0.24274537 0.11073147 0.11063536 0.30092508 0.37498775 0.23109843 0.09883647 0.2254964 0.57637286 -0.31785753 -0.043468878 0.5812652 -0.11460023 0.18926689 0.13880146 0.08806328 -0.13379526 0.3448784 0.21450947 0.23312071 0.28588003 -0.35509315 0.34080866 0.14453703 -0.14563926 -0.15765326 0.10624274 0.23938692 -0.16860004 -0.13530095 -0.24471708 0.13398117 0.116969265 0.024445996 0.20840245 0.06726368 0.16875742
movie238 0.44223166 0.22103238 0.19171275 0.49894434 -0.33172327 -0.11111641 -0.29301128 -0.03679509 -0.076776735 0.16124317 0.25780952 0.37206042 -0.44006285 0.13919361 -0.17268181 0.28369457 0.04161431 0.17623915 0.29769197 -0.038939983 0.08960119 -0.27640706 0.26195627 -0.071419634 -0.24795811 0.29230696 0.3051972 -0.058779866 -0.12904356 0.305774 -0.1784764 0.08649349 0.19401 -0.038302436 -0.0673818 -0.18123774 0.08191856 0.095805965 -0.020253813 -0.038388222 -0.08045052 -0.12920602 -0.13692373 0.070676565 0.07095711 -0.18352188 -0.18178253 0.107388385 -0.19917186 0.07865727 0.10281239 -0.04458972 -0.20770541 -0.060823932 0.19925132 -0.05964973 0.008648674 -0.12373638 -0.08391369 0.5661181 0.08290365 -0.017757691 -0.13094994 0.036111202
user846 -0.07660193 0.25489205 0.48867735 0.63822716 0.0655004 0.051536437 -0.032191552 0.0032760482 0.15061007 -0.10653154 -0.13970003 0.19811879 -0.21305463 -0.0085187415 -0.5441314 0.07016082 0.14818943 0.18607888 0.1802541 -0.033176932 0.088268556 0.09085847 0.18704192 -0.016275022 -0.03406846 -0.1438067 -0.110102884 -0.2133484 -0.15037817 0.02579093 0.2031386 0.10191814 0.34884614 -0.026497157 -0.26239565 0.26954442 0.05147146 -0.10671779 -0.143057 0.13318072 0.39943555 -0.029681113 -0.21008384 -0.16507356 0.20867719 0.01847165 0.16597615 -0.063105695 -0.3472294 0.26096946 -0.20649709 0.091673404 0.03300582 0.21577898 -0.17716035 0.15993884 -0.3004995 0.1538219 0.13338442 -0.08486445 0.34871754 -0.12000777 -0.07107848 -0.27130687
user436 0.12988321 0.5547028 0.8228371 -0.18051182 -0.23281655 -0.050305992 -0.25960624 0.44929537 0.26735625 0.54704404 -0.2286949 0.356473 0.3794147 0.14013708 -0.030430887 0.17992751 0.033909377 -0.37887162 -0.14062671 -0.21724977 -0.22550036 -0.31914097 0.26997867 -0.29234725 0.086778514 -0.059467565 0.13872226 -0.16454321 -0.28379276 0.08702024 -0.009739632 0.14899461 0.16521987 0.015569848 -0.17377605 0.6238582 -0.21288554 0.17559695 0.29824322 0.014870868 -0.0213739 0.31729388 -0.57476896 0.18145357 -0.059274215 0.064005114 -0.14500558 0.06091965 -0.45685232 0.2684395 0.11972411 0.41768274 -0.2806921 0.018918531 0.06788901 -0.07833614 0.16096132 0.5450871 -0.19972761 0.35688347 0.294993 0.15775052 -0.18057281 -0.5155262
user751 -0.024505032 0.049958084 -0.11226375 0.23154558 -0.56335205 0.27964213 0.0506535 -0.11265 0.12626709 -0.11165994 -0.254116 0.14431345 -0.39155978 -0.33716974 -0.23882735 0.33734462 0.025380267 0.16731732 0.29614896 -0.2145699 -0.15087429 0.10033975 0.6075172 -0.029307835 0.01007884 -0.31536555 -0.15347978 -0.33364603 0.29992244 0.57417285 0.021137679 0.13283493 0.41449115 -0.1989351 0.13213581 -0.00046136446 -0.19523178 -0.43163523 -0.09711134 0.4628665 0.14033349 0.3141544 -0.113069296 0.020412996 0.3318001 -0.31134415 0.18922137 -0.21374477 -0.21253806 0.38614985 0.24593112 0.11222395 -0.4148928 0.03950368 -0.33347285 0.17882341 -0.2621655 -0.068184644 0.25789097 -0.13146482 0.13484792 0.0145120965 0.03119467 -0.39118642
movie268 0.1401762 0.1182446 0.07462264 0.41108856 -0.19308712 0.015217255 -0.24788226 0.041421972 -0.12762113 0.054572698 0.24106166 0.043412678 -0.4165749 -0.33188662 0.14463198 -0.29847315 0.14369364 -0.6736377 0.33129513 -0.3221795 -0.08381006 0.14994739 0.033400156 0.34982187 0.04203838 0.23194347 -0.401857 0.3209944 -0.3202532 0.17581241 -0.4423008 0.08075061 0.0023611865 0.38216174 0.45063546 0.8082659 -0.41353595 0.28650454 -0.1312353 0.10935727 0.041933123 -0.056318805 0.08668695 -0.13358222 0.09633397 -0.040179808 -0.055232506 -0.21944691 -0.1084361 0.20644858 0.30413604 0.29947186 -0.38342062 0.2626948 0.34292743 -0.21416034 -0.4700045 0.13156623 0.016620027 -0.26279873 0.04163033 -0.1589294 -0.025018468 -0.088466056
user472 -0.29215482 0.4576685 0.15083034 0.035972334 -0.19891731 -0.022444451 0.055208977 0.09243949 0.16723011 0.19736116 0.035849623 0.028191209 -0.1656709 -0.065266296 -0.19282457 0.4279061 0.09858122 0.003318896 -0.107538074 -0.19315428 0.2449834 0.10954301 0.07799739 0.014142108 -0.22719598 -0.1964817 -0.08747247 -0.27772644 0.06985373 0.31628957 -0.022679506 0.032777123 0.5909978 0.16145365 -0.24328367 0.36864436 -0.4436865 -0.23332456 -0.17609802 0.14078966 0.19538409 0.3169454 0.42722818 -0.10184562 0.06891934 0.02440976 0.20162451 0.20967948 -0.09936964 0.5092777 0.08141472 0.6738368 0.09921059 0.10605031 0.5679761 0.14153224 0.0037919262 0.16753273 0.2564622 0.16989487 0.52028435 -0.054627657 -0.3312841 0.25552985
user38 0.24056134 0.51651 -0.095171176 0.13973123 -0.5624012 -0.30866453 0.56964236 0.0064235693 0.18702863 -0.23007077 0.16184618 -0.2744598 0.48351848 -0.2613464 -0.13635844 0.06344364 0.19091153 -0.00638221 -0.14192145 -0.20405725 0.16764422 -0.09665481 0.20292787 0.014615834 -0.32824826 -0.3170311 0.07080709 0.13877305 0.009611087 0.16675854 -0.3103578 0.012174416 0.013833252 -0.08371927 -0.6021874 0.54424226 -0.10194827 -0.35092697 -0.02312564 0.12791343 0.26601312 -0.30004668 -0.20126162 -0.098333105 -0.07861405 0.10979861 0.6023096 -0.003928632 -0.6853037 0.35105282 0.27206248 -0.12736508 -0.06196347 -0.12316113 0.24972007 -0.5098054 0.12802881 -0.13303934 0.50363076 0.5811644 0.5354093 -0.25481328 0.05715818 -0.033649098
movie195 0.20451 0.19844986 -0.090041794 0.24646978 -0.14261986 -0.10593 0.14553078 -0.25994593 0.23719542 0.3860409 -0.1022411 0.1350648 -0.08527051 0.16882165 -0.46231058 0.21332762 0.005834707 -0.060294572 0.12843291 0.16279465 0.19067481 0.02431071 0.19502282 -0.009197408 0.16463453 0.596224 0.1593904 0.12988923 -0.069363765 -0.19652507 0.31769004 -0.06142457 0.2964368 -0.2537204 -0.256574 0.13815227 -0.021887204 0.044199664 0.0001934073 0.11133971 -0.20440337 0.03699224 0.017229479 0.13948913 0.25379264 0.027007248 0.031070026 0.13427663 -0.25045058 0.23366779 0.105286896 0.20700163 -0.050715156 0.44887018 0.09641464 -0.14555427 -0.118133426 -0.2524964 -0.114619635 0.3969354 0.27921474 0.17362396 -0.045818474 0.16442792
user474 0.10332738 0.16475202 0.18143067 0.30392537 0.0023100947 0.15662019 -0.21725121 -0.12764314 0.17132798 -0.30067933 0.069686465 0.432852 -0.068111315 -0.10455869 -0.18998377 0.10012734 0.19098811 0.01738513 0.29117647 -0.049818907 0.25939137 -0.038031694 0.04160947 -0.19179666 0.10276446 0.2274624 -0.10739178 -0.12497289 -0.100677595 -0.1400157 0.15592502 0.23511167 0.29560235 -0.03620717 -0.050533686 0.19129983 0.0031978507 -0.0036082477 0.2744609 -0.04306608 0.48505205 -0.07985185 -0.2127369 -9.538729e-05 0.15216741 0.115061685 -0.14721742 0.006320889 -0.07110074 0.107514255 -0.10106754 0.05010958 -0.14705728 0.3904098 -0.1510244 -0.041076045 0.15486568 -0.26445502 -0.18511042 0.3041916 0.25946823 -0.017340684 0.08690108 -0.44267583
user94 0.39396408 0.29074576 0.38034776 0.13979487 0.06418392 0.31025702 0.07808831 0.08964114 0.09112617 -0.16185306 -0.19162033 0.05404723 -0.097598374 0.12040287 -0.17531095 0.14238964 0.19149114 0.26045257 0.2805563 -0.08543199 0.07934084 0.111630894 0.10064007 -0.33216992 0.12987645 0.13001812 -0.08216779 0.0683319 0.007026465 0.20563105 -0.18492004 0.0048681223 0.28425685 -0.17582609 -0.16958563 0.3914156 0.09246611 0.042830613 0.025628494 -0.04281931 0.53453296 0.21336342 0.07220116 -0.19823897 -0.16981165 0.10011989 -0.0205357 -0.13943511 -0.25396395 0.34829706 0.027446818 0.09157785 -0.12741312 0.26564866 0.20406447 -0.05210361 0.2926661 -0.015346089 0.14841613 -0.067163475 0.13402262 -0.025954051 0.11442355 -0.25569925
movie196 0.18184571 0.07588448 0.12747985 0.3757832 -0.27115092 0.060310766 0.03181246 -0.30056384 -0.06285237 0.2414504 -0.07413196 0.15330032 -0.31438118 -0.1595962 0.1776924 0.19565928 -0.20483825 0.11852754 0.3674907 -0.023879716 0.29339975 -0.06922135 0.09477531 0.13591184 -0.015962908 0.14146464 -0.070487484 -0.2700236 -0.460825 0.13220489 0.02634765 -0.1754857 0.27593896 0.10887637 0.24604265 0.09954465 0.09167981 0.046657044 0.31534868 0.08670153 -0.088358685 0.31098095 -0.055171907 -0.0921995 0.21270083 -0.13770884 0.23542914 -0.0036922302 -0.32128334 0.31648788 0.13823009 -0.19731349 -0.25907603 0.17452455 0.35287192 -0.24059057 0.2937831 -0.22541142 -0.09525356 0.181467 0.35567102 0.024073113 -0.095018834 0.14058529
user654 -0.16175957 0.09481568 -0.29730007 0.19425434 -0.5327946 0.040700298 -0.2363089 0.049284216 0.1529905 -0.0747302 0.058761798 0.13583508 -0.20374632 -0.0031359547 0.10996295 0.2040617 -0.104050055 0.17404549 0.17890401 0.043360285 0.018211853 -0.14837265 0.23843607 0.06013543 -0.063674755 -0.17364867 -0.1860876 0.36686352 -0.15719353 0.020980554 0.27192265 0.37447718 0.16992024 0.39556438 -0.21483436 0.28467065 -0.42147943 -0.31028032 0.076114714 0.6611961 0.1474447 0.17966367 0.06386931 0.0801176 0.34868526 -0.24629195 -0.15409054 0.05046431 -0.3079983 0.28327617 0.53555244 -0.03979277 -0.389871 0.061989654 0.17502198 -0.46193704 0.187496 -0.034888297 -0.08703549 0.30784708 0.18822071 -0.15206045 -0.16670555 -0.2583888
user198 0.29666215 0.30125508 0.22288923 0.07676791 -0.13960525 0.2461668 0.22563763 -0.30305424 -0.11383509 0.19146973 -0.31807166 0.46376365 -0.16232318 0.012728761 -0.26571214 0.28431624 0.8048797 0.03829222 0.2669864 -0.03273721 -0.053643074 -0.078342594 0.053338088 -0.35715255 -0.10012522 0.029882247 0.08700818 0.10203631 -0.18954898 0.42411658 0.33398527 0.046711814 0.31357983 -0.11428488 -0.19564714 0.1745539 -0.012409118 -0.1604889 -0.07703453 -0.34070614 0.36335063 0.26991305 0.16779968 0.3617936 0.29838607 -0.23086597 -0.28257945 -0.18338726 -0.2800372 0.39037502 0.2502017 0.15081352 -0.03627462 0.13756394 -0.22432323 -0.13764596 0.4713322 0.17186153 0.28682974 0.06751535 0.112786375 -0.20390905 -0.29115888 0.067511424
movie285 0.1076338 -0.17305973 0.14158134 0.6331154 0.2850743 -0.13605158 0.25501776 -0.11043207 -0.2936251 -0.11836218 0.037688904 0.6392267 0.07233784 0.09839193 0.13941078 0.24761699 0.19483167 0.012095324 0.29659167 0.041647945 -0.037759785 -0.39564988 -0.060774222 0.15390438 0.24147688 0.0021707725 -0.01970218 -0.13559468 -0.2749993 -0.16461518 -0.20590083 0.33148038 0.12816109 0.19512963 -0.14403534 0.082301274 -0.0016321214 0.16128889 0.098553434 -0.4658349 -0.01147945 -0.4754285 -0.11469131 -0.12745737 0.19301313 -0.10468878 -0.12955017 -0.18036446 -0.34649682 0.3270553 0.07964456 0.42578334 -0.4970931 0.12230658 0.6244029 -0.051553495 -0.30986577 -0.15522088 -0.08958508 0.48664713 -0.19659755 -0.25811055 0.19075736 -0.43924737
movie194 0.19261383 -0.0525408 0.18509883 0.06935993 -0.24451767 -0.116490625 0.18396729 -0.22605444 0.035316758 0.1969837 -0.075336464 0.14259477 -0.4095686 -0.20695323 -0.23373169 0.3729044 0.08505333 0.068810165 0.44755295 0.22549306 -0.114113726 -0.13818751 0.47689366 0.12050971 -0.31418285 -0.014531737 -0.14355221 0.112563625 0.24652065 0.10145529 0.08942719 0.009905885 0.3897604 -0.2189009 0.15894221 0.38169882 0.10931341 -0.21334557 0.15162219 -0.03329074 -0.0066487957 -0.07297806 -0.4558269 -0.09079597 0.27323034 -0.09698267 0.06112234 0.48332337 -0.08624067 0.34977174 0.19772023 -0.14664982 -0.09755751 0.24063206 0.27433082 0.0199813 -0.09628944 -0.40618846 -0.07700754 0.4323692 -0.13037322 0.11836914 -0.13586019 -0.11382214
movie187 0.23299855 0.22857463 0.4786382 0.41403204 0.13001081 -0.108345635 -0.19398785 0.099525526 -0.048765887 0.43443787 -0.014898718 0.24195364 -0.14729996 -0.14089604 -0.15628177 -0.14968796 0.21787296 -0.4432605 0.36527732 -0.124712594 0.080314144 -0.38382515 0.12652826 -0.27897462 0.16145171 0.51447904 0.12401351 -0.2154758 0.061079554 0.1756754 0.09720572 0.09016823 0.20119748 -0.20789286 -0.3044389 0.3933209 -0.15020585 -0.16395274 0.19537628 0.17878212 -0.11040028 0.026886718 -0.010542235 0.27688122 -0.12231591 -0.22090875 -0.16389652 0.1862571 -0.039604265 0.2577809 0.114980176 0.22772431 0.07463271 0.383743 0.055235263 -0.00060582126 -0.07289051 0.005082902 0.06325536 0.4493784 -0.12254792 0.14281861 -0.2272455 0.20442508
user875 0.13317238 0.38588303 0.044923164 0.48174474 -0.40700057 -0.044958815 0.020184292 0.0915304 -0.07402982 -0.058117274 -0.06129328 0.78441083 -0.14017074 0.5500703 -0.22527418 0.11627127 0.30466533 0.010918947 0.40195543 -0.3017496 0.3304574 0.22930412 0.2582712 -0.35379633 0.35120645 0.19753136 -0.28569183 0.36812484 -0.14704393 -0.16763759 -0.023620034 0.0031380097 0.17879172 -0.38305792 0.18467167 -0.0010087303 -0.1111493 -0.07518434 0.73242456 0.27703595 0.15615715 0.256082 0.27095878 -0.19941562 -0.016322978 -0.21304576 -0.36027 0.26783162 0.3402784 0.3026245 0.19927552 -0.3041637 -0.043586917 0.2720545 -0.062253825 -0.20780523 -0.14833026 -0.0021540122 0.34677935 0.2651833 0.45847562 0.10595603 0.010477622 -0.01676657
